3.544117510318756104e-02,-2.770606055855751038e-02,-5.140190199017524719e-02,-2.921415027230978012e-03,2.213133871555328369e-02,3.597979620099067688e-02,-2.183074876666069031e-02,1.020396649837493896e-01,3.122236952185630798e-02,4.950464889407157898e-02,-4.890235140919685364e-02,3.977247048169374466e-03,-2.963040396571159363e-02,-7.591897994279861450e-02,-3.393636271357536316e-02,-8.629487827420234680e-03,9.411625564098358154e-03,2.398328296840190887e-02,3.209129720926284790e-02,1.653156429529190063e-01,-3.058528713881969452e-02,5.043116956949234009e-02,1.674993149936199188e-02,-2.759258635342121124e-02,-2.180688641965389252e-02,-6.223657354712486267e-02,3.481184691190719604e-02,-7.037133723497390747e-02,-5.903448909521102905e-02,-1.203010454773902893e-01,-5.666175857186317444e-02,1.911363191902637482e-02,7.235947996377944946e-02,-1.068595424294471741e-02,-1.211000084877014160e-01,3.688949393108487129e-03,5.388495977967977524e-03,-3.745385259389877319e-02,-9.409742429852485657e-03,-2.376376837491989136e-02,6.872240453958511353e-02,-4.369365423917770386e-02,7.570968009531497955e-03,-5.684500560164451599e-02,-1.198260486125946045e-02,6.040830537676811218e-02,1.359528489410877228e-02,2.347973175346851349e-02,-3.791497647762298584e-02,1.419792417436838150e-02
