-4.263698309659957886e-02,1.358819752931594849e-02,2.728558704257011414e-02,1.161326281726360321e-02,-2.154164761304855347e-02,3.252105787396430969e-02,3.924648836255073547e-02,-8.348628133535385132e-02,-2.554836682975292206e-02,5.049129948019981384e-02,9.123644791543483734e-03,4.848875105381011963e-03,-1.837824285030364990e-02,-1.110106799751520157e-02,5.514843016862869263e-02,-5.694272741675376892e-02,-1.370582543313503265e-02,4.352768138051033020e-02,-1.134103834629058838e-01,1.434421632438898087e-02,-3.218541096430271864e-04,7.605855911970138550e-02,-1.064496785402297974e-01,-4.208574444055557251e-02,6.707920879125595093e-02,4.262612760066986084e-02,3.344113379716873169e-02,-4.590762406587600708e-02,6.911364197731018066e-02,1.160531789064407349e-01,-3.963700681924819946e-02,1.468228735029697418e-02,6.690414249897003174e-02,-8.184739388525485992e-03,7.301940768957138062e-02,3.639471530914306641e-02,2.606955356895923615e-02,-2.009906992316246033e-02,7.944010198116302490e-03,3.541471064090728760e-02,-1.830519875511527061e-03,-4.636738821864128113e-02,-6.445852667093276978e-02,-2.402757667005062103e-02,-2.235974743962287903e-02,6.141404062509536743e-02,-5.606824159622192383e-02,-2.703775092959403992e-02,1.715592108666896820e-02,4.075933992862701416e-02
