2.121627703309059143e-02,3.465827554464340210e-02,-6.635166704654693604e-02,-1.585574261844158173e-02,-1.748511008918285370e-02,-2.082325145602226257e-02,-6.726420484483242035e-03,-1.518637593835592270e-02,1.223398447036743164e-01,6.923815608024597168e-02,-7.371298968791961670e-02,-4.886398091912269592e-02,-5.155979469418525696e-02,-4.412414506077766418e-02,4.744258522987365723e-02,-6.469329353421926498e-03,5.208439193665981293e-03,-1.605402491986751556e-02,3.933193907141685486e-02,-7.760585751384496689e-03,-6.649194657802581787e-02,3.961707279086112976e-02,8.897589519619941711e-03,2.901987731456756592e-02,4.077868536114692688e-02,8.658096194267272949e-02,3.770885290578007698e-03,-2.827080897986888885e-02,6.136520579457283020e-02,-5.837985500693321228e-02,-4.064108803868293762e-02,1.683461479842662811e-03,3.233747929334640503e-02,8.272292092442512512e-03,-8.646920323371887207e-02,6.113042123615741730e-03,-4.116034600883722305e-03,3.047247650101780891e-03,2.843032963573932648e-02,-6.441227346658706665e-02,-3.276175633072853088e-02,-2.844826504588127136e-02,3.638462349772453308e-02,-2.258824417367577553e-03,-5.067817866802215576e-03,4.026618599891662598e-02,3.598038479685783386e-02,-2.032858505845069885e-02,-4.553385451436042786e-02,2.068822830915451050e-02
