-1.465793326497077942e-02,1.564504951238632202e-02,-3.500800207257270813e-02,-3.730481490492820740e-02,3.170582698658108711e-03,4.190436378121376038e-02,-9.892628528177738190e-03,-5.870155245065689087e-02,5.420427024364471436e-02,7.404696941375732422e-02,-6.634973734617233276e-02,-7.910531014204025269e-02,-3.983812034130096436e-02,-9.642254561185836792e-02,9.840928018093109131e-03,-8.958132937550544739e-03,8.791039884090423584e-02,-1.006306149065494537e-03,9.052988141775131226e-03,-9.581160545349121094e-02,-5.932013690471649170e-02,3.221912682056427002e-02,-2.273397333920001984e-02,3.944049403071403503e-02,1.536292769014835358e-02,4.271861910820007324e-02,-1.151037402451038361e-02,-6.179922446608543396e-02,4.871935397386550903e-02,-4.863511770963668823e-02,-3.869817405939102173e-02,-1.205761916935443878e-02,3.234056383371353149e-02,-8.555696345865726471e-03,-5.474269017577171326e-02,-2.941766567528247833e-02,-2.967421896755695343e-02,-7.390274107456207275e-02,1.050806045532226562e-02,-6.485854741185903549e-03,-3.147526085376739502e-02,-5.402133241295814514e-02,3.861384466290473938e-02,-1.192216202616691589e-02,-2.321222610771656036e-02,7.089439779520034790e-02,5.731099843978881836e-02,3.816367359831929207e-03,-1.158327683806419373e-01,5.406529828906059265e-02
