-4.250528812408447266e-01,-1.138270616531372070e+00,3.856651484966278076e-02,1.976816505193710327e-01,-1.753179311752319336e+00,7.208736538887023926e-01,1.070334911346435547e-01,5.988105535507202148e-01,-1.144296407699584961e+00,-1.707634925842285156e+00,1.496754527091979980e+00,3.680452406406402588e-01,7.754254937171936035e-01,-9.243983030319213867e-01,1.100575089454650879e+00,-1.025213241577148438e+00,-3.208885490894317627e-01,-1.229252852499485016e-02,3.124128282070159912e-01,9.648087620735168457e-01,5.407139062881469727e-01,6.560804247856140137e-01,-1.359166264533996582e+00,7.567889690399169922e-01,-5.187620595097541809e-02,-9.347482919692993164e-01,1.184423923492431641e+00,1.084868550300598145e+00,-7.106564640998840332e-01,2.261675149202346802e-02,-4.974829778075218201e-02,-1.095389604568481445e+00,-1.400338951498270035e-02,-1.007416367530822754e+00,3.074149191379547119e-01,1.100161910057067871e+00,-3.689011633396148682e-01,1.478709697723388672e+00,-8.123035430908203125e-01,2.369625568389892578e+00,-8.469616174697875977e-01,2.190527617931365967e-01,5.770199894905090332e-01,1.517940878868103027e+00,-4.275328814983367920e-01,-4.588003456592559814e-01,-1.627242118120193481e-01,9.829055517911911011e-02,8.980062603950500488e-02,-1.712318897247314453e+00,6.458863615989685059e-01,7.958658933639526367e-01,-2.056538164615631104e-01,9.183186888694763184e-01,1.698173403739929199e+00,-1.298970103263854980e+00,-4.303218722343444824e-01,-2.290709018707275391e-01
1.605479598045349121e+00,9.213659763336181641e-01,5.109988451004028320e-01,-4.349723160266876221e-01,8.256983757019042969e-01,-2.514582872390747070e-01,4.271325767040252686e-01,-6.953555345535278320e-01,-8.419325947761535645e-01,-3.966698944568634033e-01,1.912180900573730469e+00,-1.951886177062988281e+00,9.071817994117736816e-01,-6.256511807441711426e-01,-1.361966967582702637e+00,-7.643225193023681641e-01,-9.477612972259521484e-01,2.082730770111083984e+00,-1.309879302978515625e+00,1.161948442459106445e+00,5.408828258514404297e-01,-2.114935070276260376e-01,-4.597063362598419189e-01,-3.631516695022583008e-01,6.724916100502014160e-01,-3.533936142921447754e-01,1.559906363487243652e+00,-5.557239651679992676e-01,3.350273668766021729e-01,-8.178828358650207520e-01,1.024809479713439941e+00,5.117623805999755859e-01,8.628002405166625977e-01,4.013567268848419189e-01,1.687123656272888184e+00,-5.087228417396545410e-01,-1.711900234222412109e+00,5.753461122512817383e-01,-3.601173460483551025e-01,-1.378822624683380127e-01,3.261092305183410645e-01,3.720726072788238525e-01,-7.031679749488830566e-01,1.593191921710968018e-01,6.011928990483283997e-02,1.053300261497497559e+00,3.963640425354242325e-03,4.565291106700897217e-01,-1.231659173965454102e+00,-3.656218349933624268e-01,9.843279719352722168e-01,-4.691451191902160645e-01,-1.201705694198608398e+00,-6.142883300781250000e-01,4.198226630687713623e-01,1.255500912666320801e+00,8.655784726142883301e-01,1.515053749084472656e+00
-1.169484853744506836e+00,-1.428958177566528320e+00,2.690570950508117676e-01,-9.998094439506530762e-01,-6.131382584571838379e-01,-1.563152551651000977e+00,8.744940161705017090e-02,1.167399764060974121e+00,-1.337028622627258301e+00,2.507263123989105225e-01,-4.607666134834289551e-01,-4.431691169738769531e-01,9.534357786178588867e-01,1.805146932601928711e-01,-1.536802768707275391e+00,-3.152805328369140625e+00,-1.229096889495849609e+00,-9.316399097442626953e-01,3.621374368667602539e-01,-2.673443853855133057e-01,-2.473507642745971680e+00,-6.132356524467468262e-01,1.288415431976318359e+00,1.291849315166473389e-01,4.649800062179565430e-01,1.363517880439758301e+00,-4.582814872264862061e-01,-8.184913545846939087e-03,6.578118801116943359e-01,-2.057109117507934570e+00,1.304687857627868652e+00,-5.829435586929321289e-01,3.663371205329895020e-01,-7.824283838272094727e-01,-7.952169775962829590e-01,-2.939329862594604492e+00,-1.606835126876831055e+00,6.848711967468261719e-01,1.482836484909057617e+00,8.121197223663330078e-01,7.340507507324218750e-01,-1.223122119903564453e+00,1.922217309474945068e-01,-1.840083487331867218e-02,2.011474132537841797e+00,9.487646073102951050e-02,-1.202543020248413086e+00,1.338801085948944092e-01,-6.932411789894104004e-01,-2.670829594135284424e-01,1.312164664268493652e+00,-1.047553867101669312e-01,3.064622879028320312e-01,-7.729991525411605835e-02,1.992716640233993530e-01,-8.336197584867477417e-02,-5.404263138771057129e-01,7.308157086372375488e-01
-8.707030862569808960e-02,6.818813085556030273e-01,-4.993773102760314941e-01,-7.027656435966491699e-01,8.891925215721130371e-01,1.407695293426513672e+00,-5.158491134643554688e-01,-6.586199402809143066e-01,4.221507012844085693e-01,-7.522336840629577637e-01,4.640449881553649902e-01,5.478445291519165039e-01,-5.051753520965576172e-01,2.275362461805343628e-01,9.788802862167358398e-01,1.391604781150817871e+00,-3.468811213970184326e-01,-1.274081587791442871e+00,2.997813224792480469e-01,1.564756751060485840e+00,-5.575022101402282715e-01,-1.881492137908935547e+00,3.311246335506439209e-01,-4.962960779666900635e-01,1.313706398010253906e+00,-1.534186840057373047e+00,-2.729987859725952148e+00,-2.069416522979736328e+00,-3.416674435138702393e-01,-3.707455992698669434e-01,3.071805536746978760e-01,9.525150060653686523e-01,2.745009064674377441e-01,-3.561047464609146118e-02,-6.652706861495971680e-01,1.022905945777893066e+00,-6.516360044479370117e-01,3.980876803398132324e-01,8.016247302293777466e-02,2.407044887542724609e+00,1.640860199928283691e+00,1.085037350654602051e+00,-1.902009546756744385e-01,-1.650586247444152832e+00,-6.449853777885437012e-01,9.660234451293945312e-01,1.476716995239257812e+00,3.421679139137268066e-02,-5.485504865646362305e-01,-6.411415934562683105e-01,-4.146631360054016113e-01,-1.750652939081192017e-01,3.667965829372406006e-01,-1.520892620086669922e+00,-1.422660708427429199e+00,-4.472427666187286377e-01,-1.253086805343627930e+00,1.221792697906494141e+00
-5.838953852653503418e-01,2.234471440315246582e-01,9.783143997192382812e-01,1.814706474542617798e-01,-7.577791810035705566e-01,-1.740239858627319336e-01,-9.785262942314147949e-01,1.986735701560974121e+00,-2.224687576293945312e+00,5.003575086593627930e-01,-1.591136813163757324e+00,-5.072453990578651428e-02,5.068076848983764648e-01,2.844766899943351746e-02,-4.593736827373504639e-01,-8.015941977500915527e-01,1.597431778907775879e+00,3.164967596530914307e-01,5.137261748313903809e-01,8.647901415824890137e-01,5.441294908523559570e-01,2.675618827342987061e-01,1.813893914222717285e-01,-3.183863759040832520e-01,-2.095520257949829102e+00,-4.699683189392089844e-01,-2.218502759933471680e+00,7.206883430480957031e-01,-6.643140912055969238e-01,9.974154233932495117e-01,-2.033542633056640625e+00,-5.357901453971862793e-01,-1.531929969787597656e+00,1.908142328262329102e+00,1.650987744331359863e+00,-1.477808207273483276e-01,-5.936955213546752930e-01,7.885618805885314941e-01,1.092312693595886230e+00,6.875889897346496582e-01,-3.413400352001190186e-01,1.909532546997070312e+00,7.493627071380615234e-01,-2.499231815338134766e+00,-1.948255114257335663e-02,2.039971649646759033e-01,-9.386457204818725586e-01,1.396320581436157227e+00,-5.715042948722839355e-01,7.155027389526367188e-01,1.030245497822761536e-01,-6.528702378273010254e-01,9.234189987182617188e-01,-2.021887106820940971e-03,-9.020529985427856445e-01,1.675531148910522461e+00,2.311422824859619141e+00,-5.570316910743713379e-01
-4.845580160617828369e-01,3.848880529403686523e-01,-2.563135027885437012e-01,8.585555553436279297e-01,-7.660705596208572388e-03,-1.228437185287475586e+00,-1.623865127563476562e+00,-4.565832912921905518e-01,1.370706796646118164e+00,-6.012974306941032410e-02,-8.885122537612915039e-01,-8.989147543907165527e-01,-2.659207582473754883e-01,-1.833132028579711914e+00,6.626391410827636719e-02,7.673140764236450195e-01,-2.663920521736145020e-01,4.141497611999511719e-01,-6.575900912284851074e-01,-1.533394008874893188e-01,-5.127558708190917969e-01,3.050501346588134766e-01,7.991822063922882080e-02,6.882506012916564941e-01,1.252330541610717773e+00,-8.354893326759338379e-02,8.323015570640563965e-01,3.422292768955230713e-01,-9.158605933189392090e-01,9.540396928787231445e-01,1.055299341678619385e-01,3.976477682590484619e-01,-5.322778820991516113e-01,1.596686691045761108e-01,4.797850921750068665e-02,-4.916523396968841553e-01,-8.930612802505493164e-01,-1.887959837913513184e+00,-7.648323178291320801e-01,-7.852798104286193848e-01,-1.774227619171142578e+00,1.033732414245605469e+00,3.585887253284454346e-01,-4.492338001728057861e-01,-5.544931888580322266e-01,-1.020702645182609558e-01,6.458412408828735352e-01,4.808658361434936523e-01,2.600848972797393799e-01,-6.822180151939392090e-01,-1.362234950065612793e+00,-6.816837787628173828e-01,-1.104537606239318848e+00,-1.099872589111328125e+00,-1.109786152839660645e+00,1.064915537834167480e+00,1.432796239852905273e+00,2.493962049484252930e-01
-3.546931445598602295e-01,7.643269002437591553e-02,4.373832046985626221e-01,4.910275638103485107e-01,-3.627922832965850830e-01,5.779194459319114685e-02,4.390587806701660156e-01,-9.230710864067077637e-01,1.677024483680725098e+00,-4.252916276454925537e-01,8.927141427993774414e-01,1.536414325237274170e-01,8.544325232505798340e-01,-7.832062840461730957e-01,7.865137457847595215e-01,4.520225822925567627e-01,1.490158677101135254e+00,-2.246267646551132202e-01,-1.051259994506835938e+00,-2.099592208862304688e+00,2.994933426380157471e-01,7.120558619499206543e-02,3.243918418884277344e+00,1.034080028533935547e+00,-4.585082083940505981e-02,-1.283388733863830566e+00,1.259961962699890137e+00,-8.116717338562011719e-01,-3.698344826698303223e-01,1.311163902282714844e+00,-1.392226934432983398e+00,2.825946509838104248e-01,4.151717126369476318e-01,-1.252970457077026367e+00,-5.201701521873474121e-01,-1.663316488265991211e+00,5.510662794113159180e-01,-1.050449132919311523e+00,-1.179442763328552246e+00,-3.237769007682800293e-01,1.026169538497924805e+00,1.387332558631896973e+00,-8.887347579002380371e-01,-1.132712960243225098e+00,4.941937923431396484e-01,1.274203300476074219e+00,-4.803807735443115234e-01,1.302109837532043457e+00,1.021663308143615723e+00,5.474354624748229980e-01,-1.533540487289428711e+00,5.737375617027282715e-01,1.722225099802017212e-01,2.069790214300155640e-01,-3.090130388736724854e-01,1.745999932289123535e+00,-2.093238532543182373e-01,-9.059764146804809570e-01
-1.312720179557800293e+00,-2.862396240234375000e-01,1.970518231391906738e+00,3.653418719768524170e-01,1.017842769622802734e+00,4.791895747184753418e-01,7.422333359718322754e-01,5.188376456499099731e-02,1.183799743652343750e+00,-1.349190235137939453e+00,2.472843825817108154e-01,-8.141745924949645996e-01,-4.841970801353454590e-01,1.027841329574584961e+00,-1.138932108879089355e+00,-4.716208279132843018e-01,1.114852070808410645e+00,-1.533666610717773438e+00,-7.746510952711105347e-02,1.265172511339187622e-01,-1.399162769317626953e+00,4.297710955142974854e-01,3.013782501220703125e-01,1.832438707351684570e+00,5.779533386230468750e-01,-6.648004800081253052e-02,1.101290225982666016e+00,1.725927829742431641e+00,3.740521669387817383e-01,8.286982178688049316e-01,-1.509286284446716309e+00,-1.355749368667602539e+00,9.033668041229248047e-01,9.883604645729064941e-01,6.982197761535644531e-01,3.504273653030395508e+00,-1.786812394857406616e-01,-2.125051259994506836e+00,-2.065317392349243164e+00,8.901444673538208008e-01,-1.295920252799987793e+00,4.519457817077636719e-01,-9.871616959571838379e-01,-4.949331879615783691e-01,7.050313949584960938e-01,-1.015914320945739746e+00,3.257834911346435547e-01,7.020938992500305176e-01,-6.332354545593261719e-01,2.221966743469238281e+00,3.433042466640472412e-01,-5.697724968194961548e-02,-4.916242361068725586e-01,5.619672536849975586e-01,-4.954309761524200439e-01,1.306316971778869629e+00,-1.184409022331237793e+00,2.784247510135173798e-02
-4.457789659500122070e-01,1.055536985397338867e+00,-2.006807327270507812e+00,-6.005058884620666504e-01,-1.249294519424438477e+00,-1.095265848562121391e-03,-4.478047490119934082e-01,3.597123324871063232e-01,3.266775608062744141e-01,2.608852684497833252e-01,2.653533220291137695e-01,-3.015738964080810547e+00,-1.453779101371765137e+00,-5.836099982261657715e-01,6.693821549415588379e-01,-7.409299015998840332e-01,-7.499973773956298828e-01,-8.110241889953613281e-01,5.475097894668579102e-01,-7.810550928115844727e-01,-1.095429420471191406e+00,-5.708363652229309082e-01,-1.650526165962219238e+00,9.378753900527954102e-01,2.494817823171615601e-01,-9.117920994758605957e-01,5.739699602127075195e-01,3.218583166599273682e-01,7.857036590576171875e-01,1.209582924842834473e+00,2.402281761169433594e+00,-3.542673587799072266e-01,-2.814866006374359131e-01,-3.151237219572067261e-02,-4.757037460803985596e-01,4.214419424533843994e-01,-1.484075933694839478e-01,-1.405409932136535645e+00,6.832154989242553711e-01,4.066284596920013428e-01,8.827102184295654297e-02,-1.172257900238037109e+00,-1.377906680107116699e+00,3.203719258308410645e-01,9.474103450775146484e-01,1.115562081336975098e+00,-8.416185379028320312e-01,2.289198338985443115e-01,7.429564595222473145e-01,-1.833335012197494507e-01,1.025767445564270020e+00,-4.705977737903594971e-01,-1.019743680953979492e+00,-6.958750486373901367e-01,6.749858260154724121e-01,2.374351620674133301e-01,1.308135509490966797e+00,8.035524487495422363e-01
-1.039705514907836914e+00,8.765238523483276367e-01,-1.914699316024780273e+00,7.762084603309631348e-01,1.661717176437377930e+00,-8.019338250160217285e-01,8.722421526908874512e-01,-7.726608514785766602e-01,-3.822568058967590332e-01,1.019139528274536133e+00,-8.453409671783447266e-01,-9.169466495513916016e-01,1.538901448249816895e+00,1.087701439857482910e+00,1.143291115760803223e+00,2.441747903823852539e+00,-1.083580031991004944e-01,5.016849637031555176e-01,7.215408235788345337e-02,-1.344898045063018799e-01,7.322855591773986816e-01,2.007206827402114868e-01,-9.615954756736755371e-01,-7.973591089248657227e-01,8.939371109008789062e-01,2.718400716781616211e+00,-1.439645588397979736e-01,6.477820277214050293e-01,-6.008610725402832031e-01,-1.194967627525329590e+00,4.346915781497955322e-01,-3.061763346195220947e-01,-2.926507219672203064e-02,1.533024549484252930e+00,8.755834102630615234e-01,-1.775535792112350464e-01,1.090478181838989258e+00,6.310942769050598145e-01,3.875130116939544678e-01,-1.385329961776733398e+00,-2.473870277404785156e+00,8.516390919685363770e-01,1.078273057937622070e+00,1.994689226150512695e+00,1.219806373119354248e-01,1.439011931419372559e+00,1.099461078643798828e+00,1.570184528827667236e-01,2.923273146152496338e-01,9.438567757606506348e-01,-1.196095824241638184e+00,8.079255223274230957e-01,8.805906176567077637e-01,-1.027647852897644043e+00,1.177633523941040039e+00,-2.125832736492156982e-01,3.241050481796264648e+00,1.181318759918212891e+00
1.094710350036621094e+00,-2.802974879741668701e-01,4.119521081447601318e-01,-4.878829717636108398e-01,2.052356481552124023e+00,7.805735468864440918e-01,-2.019091367721557617e+00,-1.594004273414611816e+00,8.329011201858520508e-01,7.309643179178237915e-02,-2.226294279098510742e+00,-1.155207395553588867e+00,-2.278504371643066406e+00,-7.569878548383712769e-02,-2.213881164789199829e-01,-2.088669091463088989e-01,-9.392827153205871582e-01,3.848120570182800293e-01,-4.294176772236824036e-02,7.529169917106628418e-01,1.343271851539611816e+00,5.025658607482910156e-01,1.400882124900817871e+00,1.432855844497680664e+00,8.971471190452575684e-01,3.660887181758880615e-01,-5.402075052261352539e-01,5.347914695739746094e-01,1.381377577781677246e+00,6.550633907318115234e-01,7.649618387222290039e-01,7.501608133316040039e-01,-4.771508392877876759e-04,1.260682195425033569e-01,-7.654487490653991699e-01,8.143214583396911621e-01,6.302087306976318359e-01,-1.328391730785369873e-01,-2.353351563215255737e-01,4.353304952383041382e-02,-5.716192722320556641e-01,-1.285457968711853027e+00,9.586151838302612305e-01,3.845887184143066406e-01,-5.007290840148925781e-01,7.443520426750183105e-01,2.167879343032836914e-01,4.099001586437225342e-01,-1.684678554534912109e+00,2.516361176967620850e-01,-7.079271674156188965e-01,-1.456695437431335449e+00,-2.055552005767822266e+00,-4.894073121249675751e-03,1.698491573333740234e+00,-5.014622807502746582e-01,8.080656528472900391e-01,-2.124268054962158203e+00
6.479400396347045898e-01,6.378133296966552734e-01,5.114724040031433105e-01,3.101730942726135254e-01,-9.684379696846008301e-01,7.445416599512100220e-02,1.551815629005432129e+00,-7.588243484497070312e-01,1.556449055671691895e+00,9.439508616924285889e-02,7.193396687507629395e-01,9.086529165506362915e-02,-3.130202293395996094e-01,-5.950745344161987305e-01,-3.214548826217651367e-01,1.103180274367332458e-01,3.175711631774902344e-01,-1.595152765512466431e-01,-1.405536055564880371e+00,1.048247694969177246e+00,-4.215697646141052246e-01,-4.308909475803375244e-01,-1.803477644920349121e+00,-4.380002915859222412e-01,1.530426621437072754e+00,-1.714516431093215942e-01,1.678177356719970703e+00,-5.799731612205505371e-01,-7.072032094001770020e-01,-5.689040292054414749e-03,7.382849231362342834e-03,1.205830931663513184e+00,1.051629066467285156e+00,1.975819468498229980e+00,-1.023267865180969238e+00,-1.220126271247863770e+00,-9.901087284088134766e-01,-7.783119678497314453e-01,-9.639131426811218262e-01,-1.563813209533691406e+00,-6.208266019821166992e-01,-7.303795814514160156e-01,-5.330368280410766602e-01,6.922162175178527832e-01,6.422567367553710938e-02,2.398665808141231537e-02,7.054619789123535156e-01,-6.373130679130554199e-01,-3.780794441699981689e-01,-3.367671370506286621e-01,-8.936209976673126221e-02,7.771383523941040039e-01,-1.711717724800109863e+00,-1.441285133361816406e+00,3.873179256916046143e-01,-1.147675514221191406e+00,-1.697920262813568115e-01,2.876775741577148438e+00
-2.705104649066925049e-02,-2.925790846347808838e-01,-5.184837058186531067e-02,6.281238198280334473e-01,-3.734820187091827393e-01,1.301203846931457520e+00,4.469025731086730957e-01,9.344247579574584961e-01,2.199958562850952148e+00,1.288214445114135742e+00,1.779358536005020142e-01,2.137408971786499023e+00,5.503951907157897949e-01,-2.366817235946655273e+00,-7.903947830200195312e-01,9.992960691452026367e-01,1.003275752067565918e+00,-1.116777539253234863e+00,7.904029488563537598e-01,1.116414144635200500e-01,2.097145557403564453e+00,1.375783830881118774e-01,-4.861192107200622559e-01,-1.902812272310256958e-01,-3.315839469432830811e-01,2.017662048339843750e+00,2.563396096229553223e-01,1.149207800626754761e-01,9.909061342477798462e-02,-3.089052438735961914e-01,2.064662218093872070e+00,-2.372964859008789062e+00,-1.984720110893249512e+00,1.351393014192581177e-01,-1.703675389289855957e+00,1.102791205048561096e-01,2.089169025421142578e+00,7.199491262435913086e-01,1.586174011230468750e+00,2.505713403224945068e-01,-8.725072741508483887e-01,-9.221366643905639648e-01,3.445503711700439453e-01,-1.105739116668701172e+00,-6.519127488136291504e-01,-1.667292833328247070e+00,-4.159019887447357178e-01,8.726654648780822754e-01,7.111009955406188965e-01,-5.191798210144042969e-01,-9.471946358680725098e-01,1.169034957885742188e+00,-9.640952348709106445e-01,-4.286543698981404305e-04,2.365194559097290039e-01,-4.605893492698669434e-01,1.762444525957107544e-01,1.035786941647529602e-01
-1.329530477523803711e+00,-1.186954021453857422e+00,-5.505130812525749207e-02,7.369406819343566895e-01,1.348540902137756348e+00,-9.029217958450317383e-01,-1.079375028610229492e+00,-6.532218456268310547e-01,-3.083276152610778809e-01,-7.311199307441711426e-01,-2.410017490386962891e+00,-1.201908662915229797e-01,4.313403069972991943e-01,-5.610918402671813965e-01,1.654863715171813965e+00,7.585107684135437012e-01,8.927748203277587891e-01,-4.305037856101989746e-01,-6.740784049034118652e-01,-6.133558601140975952e-02,1.294655919075012207e+00,-9.941199421882629395e-01,1.721072435379028320e+00,3.010047078132629395e-01,4.935743510723114014e-01,1.068807125091552734e+00,1.510312914848327637e+00,9.387034922838211060e-02,1.667629182338714600e-01,3.393609821796417236e-01,-5.691176056861877441e-01,1.927838802337646484e+00,-2.624565958976745605e-01,-2.287096530199050903e-01,-5.796894431114196777e-01,3.112268149852752686e-01,7.401203364133834839e-02,1.327159285545349121e+00,-2.720404863357543945e-01,4.177038967609405518e-01,-3.118536770343780518e-01,4.591191411018371582e-01,3.257843852043151855e-02,-4.892215728759765625e-01,1.818448305130004883e+00,2.972045168280601501e-02,-1.921485662460327148e+00,-1.347140192985534668e+00,2.758155763149261475e-01,-5.233498215675354004e-01,-5.823255181312561035e-01,1.912111788988113403e-01,9.904339313507080078e-01,-3.518319725990295410e-01,-4.751969575881958008e-01,-1.237869620323181152e+00,1.785038858652114868e-01,1.145208120346069336e+00
-4.210965931415557861e-01,2.424269020557403564e-01,-8.137601017951965332e-01,-1.611626297235488892e-01,8.818895220756530762e-01,1.190220117568969727e+00,2.395884841680526733e-01,-1.644947290420532227e+00,2.200211763381958008e+00,7.405832409858703613e-01,-5.286547541618347168e-01,8.271711468696594238e-01,-1.468641757965087891e+00,-1.150409102439880371e+00,-3.721204400062561035e-01,3.935003578662872314e-01,9.414141774177551270e-01,1.233039379119873047e+00,4.493415057659149170e-01,4.559413790702819824e-01,-1.588607192039489746e+00,-5.934014916419982910e-01,1.901349872350692749e-01,1.708185553550720215e+00,-2.043447017669677734e+00,-5.487664341926574707e-01,-5.209906101226806641e-01,2.166383713483810425e-02,2.444632500410079956e-01,-9.747990965843200684e-01,1.083754062652587891e+00,1.896823406219482422e+00,-5.360576510429382324e-01,-3.304826319217681885e-01,6.023032069206237793e-01,2.517597675323486328e-01,6.361941695213317871e-01,-2.846668362617492676e-01,-7.645016312599182129e-01,-7.379690557718276978e-02,6.384662985801696777e-01,-4.132726192474365234e-01,5.468193888664245605e-01,6.638695299625396729e-02,-3.337890505790710449e-01,-4.785497784614562988e-01,-3.942994773387908936e-01,1.412806034088134766e+00,-7.910120487213134766e-01,-1.140160202980041504e+00,-1.505244821310043335e-01,4.230102598667144775e-01,3.648968636989593506e-01,-1.151660922914743423e-02,-5.046694874763488770e-01,3.327729701995849609e-01,-9.522582888603210449e-01,1.307803630828857422e+00
-8.188458085060119629e-01,2.894732236862182617e+00,-7.723739743232727051e-01,-2.264847755432128906e+00,1.149934768676757812e+00,6.848696470260620117e-01,-3.733766674995422363e-01,4.900104403495788574e-01,1.086275100708007812e+00,-3.267019093036651611e-01,-1.154913067817687988e+00,5.360206961631774902e-01,1.875979900360107422e+00,-1.296974658966064453e+00,3.958645164966583252e-01,-4.183414876461029053e-01,-1.592453241348266602e+00,1.428982913494110107e-01,-1.449606865644454956e-01,1.185581237077713013e-01,-5.102711319923400879e-01,-3.529466986656188965e-01,1.052673935890197754e+00,-1.427927613258361816e-02,1.345880746841430664e+00,-3.198004364967346191e-01,-1.611379504203796387e+00,8.128495216369628906e-01,1.297965764999389648e+00,7.952720522880554199e-01,-4.502800405025482178e-01,3.168688714504241943e-01,-2.635774016380310059e-02,1.223721861839294434e+00,5.192546844482421875e-01,1.082539036870002747e-01,9.558869004249572754e-01,-1.052537798881530762e+00,6.142125129699707031e-01,2.856239676475524902e-01,-9.192923456430435181e-02,9.667444825172424316e-01,8.461685180664062500e-01,-1.274543642997741699e+00,3.315220177173614502e-01,1.397038102149963379e+00,-5.545608401298522949e-01,6.738219261169433594e-01,-1.999225974082946777e+00,-1.486542582511901855e+00,-1.424791693687438965e+00,-1.370983123779296875e+00,-1.284274101257324219e+00,-5.631238222122192383e-01,4.653932154178619385e-02,5.419235825538635254e-01,-3.386253416538238525e-01,5.861195325851440430e-01
1.474460363388061523e-01,-7.548185586929321289e-01,-1.083061933517456055e+00,-5.397927165031433105e-01,2.662030756473541260e-01,-1.106785058975219727e+00,-2.737924754619598389e-01,2.327352911233901978e-01,8.334281444549560547e-01,-1.023206830024719238e+00,4.725302159786224365e-01,2.598530352115631104e-01,8.230521082878112793e-01,1.841363072395324707e+00,-1.417718976736068726e-01,-1.039602875709533691e+00,-9.376220107078552246e-01,1.181444004178047180e-01,-3.495703339576721191e-01,-5.159695819020271301e-02,2.477100305259227753e-02,-1.137224733829498291e-01,-1.041156649589538574e+00,-1.141459107398986816e+00,-1.482911348342895508e+00,1.148207783699035645e+00,8.348730206489562988e-01,8.532934188842773438e-01,3.162700831890106201e-01,-6.552786827087402344e-01,6.054381132125854492e-01,1.583917617797851562e+00,7.868357896804809570e-01,-1.139819979667663574e+00,1.020618796348571777e+00,9.980766177177429199e-01,5.087704062461853027e-01,7.250394225120544434e-01,6.808515787124633789e-01,-3.674746155738830566e-01,1.045028328895568848e+00,8.104655742645263672e-01,-3.667867183685302734e-02,1.227874398231506348e+00,-7.048546075820922852e-01,-1.544558048248291016e+00,1.523024082183837891e+00,1.912647962570190430e+00,1.746084392070770264e-01,-1.519781351089477539e+00,5.635406374931335449e-01,4.601246416568756104e-01,-1.580732226371765137e+00,-1.044682383537292480e+00,-5.141725540161132812e-01,-2.328856140375137329e-01,-5.047392845153808594e-01,-2.814011871814727783e-01
-1.304806590080261230e+00,1.626706719398498535e+00,-1.933229416608810425e-01,4.929521679878234863e-01,1.017433404922485352e+00,1.572933793067932129e+00,-5.106137990951538086e-01,-1.187335848808288574e+00,2.496867775917053223e-01,8.167228698730468750e-01,6.484083533287048340e-01,4.120840430259704590e-01,8.453053832054138184e-01,8.561923503875732422e-01,7.800159454345703125e-01,1.168505311012268066e+00,2.196008682250976562e+00,2.644694149494171143e-01,-2.452018558979034424e-01,1.774717867374420166e-01,-2.384354352951049805e+00,-2.133426904678344727e+00,7.686153650283813477e-01,1.846396028995513916e-01,6.874361038208007812e-01,1.627417087554931641e+00,-9.156964421272277832e-01,-1.305950403213500977e+00,1.453813433647155762e+00,-1.259179711341857910e+00,-9.013156890869140625e-01,8.959217369556427002e-02,-4.890391603112220764e-02,1.872254848480224609e+00,2.011776208877563477e+00,-3.946860432624816895e-01,-2.174926251173019409e-01,6.971960663795471191e-01,-1.579480528831481934e+00,-2.007520347833633423e-01,-6.809961795806884766e-02,2.163448780775070190e-01,7.599037885665893555e-01,5.025613307952880859e-01,6.039626598358154297e-01,1.158707618713378906e+00,2.731235027313232422e-01,8.935386538505554199e-01,-4.209604561328887939e-01,9.733768701553344727e-01,5.581514239311218262e-01,8.314233422279357910e-01,5.578307509422302246e-01,6.709256172180175781e-01,2.488079518079757690e-01,5.207595825195312500e-01,-7.859156131744384766e-01,5.032415390014648438e-01
1.750100255012512207e+00,7.317826151847839355e-02,-2.206993818283081055e+00,-2.282669693231582642e-01,6.116876602172851562e-01,8.315042257308959961e-01,-5.325341820716857910e-01,-1.201008200645446777e+00,-7.626085877418518066e-01,-6.243171095848083496e-01,1.430051088333129883e+00,1.482831597328186035e+00,6.007207632064819336e-01,-7.045940756797790527e-01,-2.248746454715728760e-01,-9.713086485862731934e-01,-4.762301146984100342e-01,4.118238985538482666e-01,1.505961060523986816e+00,-3.290084898471832275e-01,-7.304420471191406250e-01,1.513262391090393066e+00,-1.800352148711681366e-02,-7.507728040218353271e-02,5.604568719863891602e-01,7.167054414749145508e-01,5.474937558174133301e-01,-5.953766703605651855e-01,9.495373070240020752e-02,5.064605474472045898e-01,-4.055114388465881348e-01,-5.534303784370422363e-01,-1.665934205055236816e+00,2.286333404481410980e-02,-3.398334383964538574e-01,1.173073172569274902e+00,-5.214576125144958496e-01,6.114751100540161133e-01,-4.931994080543518066e-01,1.134875416755676270e+00,-1.036349892616271973e+00,5.392553806304931641e-01,-1.191090792417526245e-01,-8.318040966987609863e-01,2.328737825155258179e-01,6.964508891105651855e-01,-3.247406706213951111e-02,-6.487764120101928711e-01,-5.513402819633483887e-01,-1.071895122528076172e+00,-1.286557912826538086e+00,9.238997697830200195e-01,4.071204066276550293e-01,-1.086458444595336914e+00,1.755541414022445679e-01,4.998731613159179688e-01,5.489567294716835022e-02,-6.176424771547317505e-02
-1.018158078193664551e+00,1.481841564178466797e+00,2.539907097816467285e-01,9.161357283592224121e-01,-3.372207283973693848e-01,1.335813403129577637e+00,4.289747178554534912e-01,-9.669066406786441803e-03,4.717029035091400146e-01,-4.498833119869232178e-01,-8.077076673507690430e-01,-1.176497936248779297e-01,1.615190692245960236e-02,1.283395737409591675e-01,-1.944528073072433472e-01,2.471374273300170898e+00,-9.227164089679718018e-02,4.791354835033416748e-01,3.571450337767601013e-02,7.326681017875671387e-01,-3.727042376995086670e-01,-2.670207917690277100e-01,-1.296393036842346191e+00,4.713689088821411133e-01,-2.017729997634887695e+00,1.262572169303894043e+00,-6.691755652427673340e-01,1.709502220153808594e+00,1.484837889671325684e+00,1.979768425226211548e-01,3.442805111408233643e-01,1.122340261936187744e-01,-2.103454321622848511e-01,4.911526665091514587e-02,1.944428123533725739e-02,-8.501288294792175293e-01,-2.176664173603057861e-01,-2.737798392772674561e-01,-1.847040653228759766e-01,2.171643495559692383e+00,-5.115288496017456055e-02,2.143794894218444824e-01,-1.878903746604919434e+00,-2.181632757186889648e+00,5.089679360389709473e-01,4.251399338245391846e-01,1.907423436641693115e-01,-2.833057343959808350e-01,-4.718236625194549561e-02,5.733638405799865723e-01,1.243644356727600098e+00,2.499117612838745117e+00,-7.053706645965576172e-01,-9.925793409347534180e-01,9.374954700469970703e-01,-2.948570549488067627e-01,1.392204314470291138e-01,5.898872613906860352e-01
4.769591391086578369e-01,-1.226296797394752502e-01,2.734322547912597656e-01,8.769572377204895020e-01,1.064983367919921875e+00,-7.487843632698059082e-01,8.038775920867919922e-01,-4.813049137592315674e-01,5.831375718116760254e-02,-3.729744628071784973e-02,-2.510983645915985107e-01,-6.806630492210388184e-01,-1.600533962249755859e+00,-3.768462538719177246e-01,3.331800401210784912e-01,-1.337166726589202881e-01,-6.924893856048583984e-01,-7.195337861776351929e-02,1.857262730598449707e+00,1.954634487628936768e-01,1.220437586307525635e-01,2.071998596191406250e+00,1.068252444267272949e+00,-7.551220655441284180e-01,-9.193035960197448730e-01,1.520715236663818359e+00,9.216127991676330566e-01,-4.471772015094757080e-01,-6.828116178512573242e-01,2.385195195674896240e-01,6.181439757347106934e-01,-3.760511875152587891e-01,-2.243208587169647217e-01,3.464197814464569092e-01,9.038592875003814697e-02,-1.415410637855529785e+00,1.035515666007995605e+00,5.813472270965576172e-01,-9.979122281074523926e-01,-2.320563942193984985e-01,-5.151479244232177734e-01,-1.297114014625549316e+00,-1.375458538532257080e-01,1.922328233718872070e+00,3.710877001285552979e-01,-7.496472001075744629e-01,8.320237994194030762e-01,1.014358878135681152e+00,1.572812557220458984e+00,-6.563177704811096191e-01,4.184186458587646484e-02,6.283051371574401855e-01,-8.209998011589050293e-01,-1.894642561674118042e-01,-8.082683384418487549e-02,-1.396432161331176758e+00,-1.810635566711425781e+00,-8.942217230796813965e-01
7.903221994638442993e-02,4.690684974193572998e-01,4.075515568256378174e-01,1.805728316307067871e+00,-6.064076423645019531e-01,2.609175920486450195e+00,-7.856138348579406738e-01,5.963612794876098633e-01,2.331504106521606445e+00,3.553297221660614014e-01,1.388901710510253906e+00,-9.501359462738037109e-01,-5.885644257068634033e-02,-9.758523106575012207e-01,7.667976617813110352e-01,-6.949161291122436523e-01,-7.311053872108459473e-01,-5.274794101715087891e-01,5.145128965377807617e-01,2.191032618284225464e-01,4.627824723720550537e-01,6.184531450271606445e-01,5.569557547569274902e-01,-2.463919162750244141e+00,-4.010309278964996338e-01,2.629998028278350830e-01,1.083166480064392090e+00,-7.668060064315795898e-02,2.707965672016143799e-01,-2.623161971569061279e-01,-1.537294149398803711e+00,-5.877463221549987793e-01,-1.860837340354919434e-01,1.649782955646514893e-01,-5.068247318267822266e-01,-7.403848767280578613e-01,9.981200695037841797e-01,-2.211355924606323242e+00,9.305199491791427135e-04,-2.925443947315216064e-01,-4.858137071132659912e-01,-1.115631103515625000e+00,2.118176966905593872e-01,-3.226309120655059814e-01,-1.022129654884338379e+00,6.931211352348327637e-01,-1.659956574440002441e+00,1.506086945533752441e+00,-1.414947032928466797e+00,1.827390193939208984e+00,8.105553388595581055e-01,-1.356601834297180176e+00,8.939803242683410645e-01,-4.456838071346282959e-01,1.287283182144165039e+00,1.442226886749267578e+00,-2.389943152666091919e-01,8.032601475715637207e-01
-2.513590157032012939e-01,1.121184945106506348e+00,1.437280476093292236e-01,-1.948537379503250122e-01,-1.631414532661437988e+00,4.851206541061401367e-01,1.175131872296333313e-01,4.281944036483764648e-01,2.416267544031143188e-01,1.137595057487487793e+00,-3.572798669338226318e-01,1.701824188232421875e+00,-4.211709201335906982e-01,1.660989038646221161e-02,-1.320551156997680664e+00,-6.055223941802978516e-01,-1.141757369041442871e+00,-3.908289372920989990e-01,-9.942838549613952637e-01,3.133442997932434082e-01,6.387369632720947266e-01,-1.451645612716674805e+00,-1.296917796134948730e+00,8.919312804937362671e-02,-1.353749871253967285e+00,-7.686939835548400879e-02,2.475417256355285645e-01,9.832547307014465332e-01,-2.484127879142761230e-01,-1.817496538162231445e+00,-8.823015689849853516e-01,-2.570005953311920166e-01,-8.594360351562500000e-01,1.566711068153381348e+00,-8.767954111099243164e-01,7.038041949272155762e-01,1.266261469572782516e-02,7.427551746368408203e-01,2.949927449226379395e-01,-2.087548971176147461e-01,-1.731416583061218262e-01,1.109339952468872070e+00,-6.032516360282897949e-01,4.529715180397033691e-01,7.445788979530334473e-01,5.230916738510131836e-01,-1.554635524749755859e+00,-9.834321737289428711e-01,-1.831495046615600586e+00,3.338962793350219727e-01,-4.482456445693969727e-01,-1.386807799339294434e+00,-3.651938736438751221e-01,4.003231227397918701e-01,-1.084082126617431641e+00,-5.242072343826293945e-01,-5.077846050262451172e-01,3.629522025585174561e-02
8.750146031379699707e-01,-1.584126472473144531e+00,-3.965056240558624268e-01,4.342451095581054688e-01,-1.450407147407531738e+00,2.079173773527145386e-01,-2.157939672470092773e+00,-8.108047842979431152e-01,-2.737611055374145508e+00,1.140187978744506836e+00,-1.727016091346740723e+00,-6.130587458610534668e-01,6.964925527572631836e-01,1.227159738540649414e+00,-1.110644221305847168e+00,-1.283918857574462891e+00,-1.126543045043945312e+00,6.010380387306213379e-01,-1.214067697525024414e+00,3.803389072418212891e-01,-1.647076308727264404e-01,-1.627098202705383301e+00,1.107932850718498230e-01,-2.131391316652297974e-01,9.385689347982406616e-02,5.756203532218933105e-01,1.588875353336334229e-01,4.831004142761230469e-01,8.419103026390075684e-01,1.111795544624328613e+00,-2.300294399261474609e+00,-1.193044662475585938e+00,-1.717210114002227783e-01,1.304426312446594238e+00,7.193778455257415771e-02,-2.187925390899181366e-02,-8.590885996818542480e-01,6.126553416252136230e-01,3.399401605129241943e-01,-8.169075250625610352e-01,-6.765307784080505371e-01,-1.639212489128112793e+00,1.006247162818908691e+00,7.699536085128784180e-01,-2.708269953727722168e-01,-1.571142554283142090e+00,1.204885244369506836e+00,1.301908135414123535e+00,-6.152805089950561523e-01,1.993845105171203613e+00,2.423864156007766724e-01,-1.708587169647216797e+00,-1.173636198043823242e+00,2.909830398857593536e-02,-1.476523876190185547e+00,-2.787066400051116943e-01,-2.848258912563323975e-01,3.552985489368438721e-01
-6.524775624275207520e-01,-9.248163104057312012e-01,2.352825641632080078e+00,-7.707422971725463867e-01,-7.935120910406112671e-02,5.115082953125238419e-03,-1.426671028137207031e+00,2.024251669645309448e-01,-1.391722261905670166e-01,-8.389810323715209961e-01,-7.912112474441528320e-01,-2.469142228364944458e-01,1.404516249895095825e-01,4.737688601016998291e-02,3.229828178882598877e-01,-1.712325096130371094e+00,1.336127161979675293e+00,3.723503649234771729e-02,1.426528096199035645e+00,-1.464648246765136719e+00,-5.086840987205505371e-01,1.346441388130187988e+00,-5.755358338356018066e-01,-1.149278640747070312e+00,-1.817827224731445312e+00,-5.910509079694747925e-02,4.104318842291831970e-02,-6.209250688552856445e-01,-2.353222131729125977e+00,-3.056260049343109131e-01,-1.251642942428588867e+00,-8.482478260993957520e-01,3.156771659851074219e-01,8.601176142692565918e-01,-1.202566266059875488e+00,1.973312050104141235e-01,1.125084638595581055e+00,3.564021289348602295e-01,-2.241184264421463013e-01,-1.021855592727661133e+00,-2.334543615579605103e-01,6.182065606117248535e-01,-2.063107728958129883e+00,-1.247126579284667969e+00,-1.395518541336059570e+00,-7.517456412315368652e-01,-3.064524233341217041e-01,-1.771610736846923828e+00,-7.145479321479797363e-01,1.402660906314849854e-01,-3.213946223258972168e-01,-9.458433091640472412e-02,-2.299013286828994751e-01,1.999109029769897461e+00,-1.535643458366394043e+00,2.873317599296569824e-01,1.153888106346130371e-01,-3.496742546558380127e-01
-1.429108262062072754e+00,5.383018255233764648e-01,-8.400763273239135742e-01,-2.704169034957885742e+00,1.040004253387451172e+00,1.010933369398117065e-01,1.386660218238830566e+00,-3.418242931365966797e-01,8.072717785835266113e-01,4.294219017028808594e-01,-2.434759438037872314e-01,-1.591382145881652832e+00,-1.971053361892700195e+00,4.084561765193939209e-01,2.321522831916809082e-01,-5.179916024208068848e-01,5.407366156578063965e-01,5.060043334960937500e-01,-2.344908565282821655e-01,5.070871114730834961e-01,9.300745725631713867e-01,1.154591798782348633e+00,-1.557630486786365509e-02,1.593072175979614258e+00,-3.159607350826263428e-01,1.990190148353576660e-01,-6.142405867576599121e-01,-9.535024166107177734e-01,-6.294376850128173828e-01,-1.286602735519409180e+00,8.287633061408996582e-01,-1.226587966084480286e-01,-6.633436083793640137e-01,-4.811893031001091003e-02,-1.006367921829223633e+00,5.659363791346549988e-02,4.456497132778167725e-01,4.163802564144134521e-01,-1.790419697761535645e+00,2.333055809140205383e-02,1.009549200534820557e-01,2.066561460494995117e+00,1.072691202163696289e+00,1.659891247749328613e+00,-6.098757386207580566e-01,-1.049738526344299316e+00,-5.204901099205017090e-01,1.175464034080505371e+00,-3.895471096038818359e-01,-7.362646460533142090e-01,-1.505489587783813477e+00,-6.493566632270812988e-01,-6.778873801231384277e-01,-1.738343834877014160e+00,-4.498287141323089600e-01,-1.642728328704833984e+00,4.281945228576660156e-01,-7.233080863952636719e-01
-1.363100290298461914e+00,1.114625692367553711e+00,1.411487817764282227e+00,-5.163219571113586426e-01,4.742965102195739746e-01,-3.558291494846343994e-01,-4.675042629241943359e-01,1.107606172561645508e+00,-1.615243911743164062e+00,-8.151382952928543091e-02,-6.377278566360473633e-01,7.688266038894653320e-01,-5.988928675651550293e-01,-1.790200769901275635e-01,2.088718891143798828e+00,-1.440435796976089478e-01,-2.907559275627136230e-01,3.286735117435455322e-01,-6.444340348243713379e-01,-1.034535646438598633e+00,-9.373323619365692139e-02,-5.136640071868896484e-01,8.897697329521179199e-01,1.008682489395141602e+00,7.450937032699584961e-01,5.877646803855895996e-01,-7.229697108268737793e-01,2.243936538696289062e+00,8.699174523353576660e-01,-8.267199993133544922e-01,3.879542052745819092e-01,6.457223892211914062e-01,-1.823068857192993164e-01,5.544306039810180664e-01,-1.162288546562194824e+00,5.752532482147216797e-01,1.571747899055480957e+00,1.798820614814758301e+00,1.321845769882202148e+00,-8.656601309776306152e-01,2.328131198883056641e+00,3.597998917102813721e-01,1.614958643913269043e+00,-7.278302311897277832e-01,-1.406537771224975586e+00,-5.451042652130126953e-01,3.077621459960937500e-01,-5.259873867034912109e-01,8.337275981903076172e-01,-1.143694877624511719e+00,-1.474976062774658203e+00,1.649627447128295898e+00,8.153756260871887207e-01,2.968133389949798584e-01,-6.020063757896423340e-01,1.102668046951293945e+00,6.141527295112609863e-01,-6.835585087537765503e-02
9.792118519544601440e-02,-5.814209580421447754e-01,9.686944484710693359e-01,-1.145034655928611755e-01,6.651664376258850098e-01,7.451994419097900391e-01,3.095819056034088135e-01,-5.461743474006652832e-01,2.447575926780700684e-01,-8.672747015953063965e-01,1.966517269611358643e-01,-6.215211749076843262e-01,-1.505453586578369141e+00,-2.594966441392898560e-02,1.485525488853454590e+00,-4.906944930553436279e-01,2.747839391231536865e-01,-3.852350711822509766e-01,1.250817894935607910e+00,-1.262788325548171997e-01,9.288656115531921387e-01,-5.033415555953979492e-01,2.700524926185607910e-01,2.465401291847229004e-01,1.238842844963073730e+00,-6.630195379257202148e-01,1.642368912696838379e+00,6.686286330223083496e-01,-1.126484513282775879e+00,3.482560217380523682e-01,-5.779492203146219254e-03,1.048481985926628113e-01,1.087724089622497559e+00,-2.118005990982055664e+00,-1.794225454330444336e+00,-2.802585840225219727e+00,-9.429648518562316895e-02,9.428395628929138184e-01,-8.029610514640808105e-01,3.415263891220092773e-01,5.218313336372375488e-01,1.274869322776794434e+00,2.365717738866806030e-01,1.636831760406494141e+00,4.311608374118804932e-01,7.601135969161987305e-01,2.568917274475097656e-01,-1.709221959114074707e+00,-1.635998606681823730e+00,8.076879382133483887e-01,2.568069100379943848e-01,1.903903365135192871e+00,4.835749790072441101e-02,-4.421861097216606140e-02,-1.138162612915039062e+00,4.371583461761474609e-02,-5.316190794110298157e-02,3.726065903902053833e-02
-1.330573081970214844e+00,-1.429455041885375977e+00,-4.682045578956604004e-01,-5.143405199050903320e-01,4.119818210601806641e-01,-8.867067694664001465e-01,-9.028776288032531738e-01,3.861484527587890625e-01,9.540551900863647461e-01,-1.126070499420166016e+00,-2.088438749313354492e+00,-2.500968277454376221e-01,1.091349005699157715e+00,5.444418787956237793e-01,-1.014482975006103516e+00,3.091373443603515625e-01,6.026312708854675293e-01,-1.471558451652526855e+00,-1.012125015258789062e+00,1.541464567184448242e+00,-1.532606601715087891e+00,-7.794777750968933105e-01,-8.379540592432022095e-02,1.029667735099792480e+00,-1.628319621086120605e+00,1.545179843902587891e+00,-1.931460142135620117e+00,-9.235040545463562012e-01,-2.056346178054809570e+00,8.689161539077758789e-01,-1.078996181488037109e+00,1.136407971382141113e+00,3.614046573638916016e-01,4.425314366817474365e-01,-3.403213620185852051e-01,-1.290285348892211914e+00,-8.903521895408630371e-01,8.530569821596145630e-02,-2.633337974548339844e-01,-6.654825806617736816e-01,-8.185334801673889160e-01,2.053772211074829102e-01,1.386150121688842773e+00,1.259468317031860352e+00,2.930546402931213379e-01,-3.325362503528594971e-02,-4.195778965950012207e-01,-1.368338227272033691e+00,4.098570719361305237e-02,2.141183763742446899e-01,6.532281041145324707e-01,-2.615840435028076172e-01,-6.853116750717163086e-01,-5.689542889595031738e-01,-1.982886552810668945e+00,1.827422022819519043e+00,8.909835219383239746e-01,-1.500531196594238281e+00
8.202180266380310059e-02,-4.930370450019836426e-01,2.569803893566131592e-01,-1.738880395889282227e+00,9.050424396991729736e-02,-5.592519417405128479e-02,-3.363603949546813965e-01,-2.035240411758422852e+00,-9.648456573486328125e-01,-4.356637001037597656e-01,4.041647017002105713e-01,-2.026273012161254883e+00,1.127111166715621948e-01,4.905722104012966156e-03,-4.488885998725891113e-01,-1.023848295211791992e+00,-8.297047615051269531e-01,-1.142836451530456543e+00,2.021275758743286133e+00,-1.801005899906158447e-01,-5.492230057716369629e-01,-1.236530661582946777e+00,-1.474210739135742188e+00,-4.811783730983734131e-01,-1.686267182230949402e-02,-1.352951765060424805e+00,4.575364589691162109e-01,-1.110145330429077148e+00,7.453785538673400879e-01,5.490723252296447754e-01,-1.121811985969543457e+00,1.174953818321228027e+00,5.824497938156127930e-01,1.950298905372619629e+00,3.647369146347045898e-01,-2.501132488250732422e-01,5.013661980628967285e-01,-3.160138726234436035e-01,-1.981314271688461304e-01,-3.992422521114349365e-01,9.886292815208435059e-01,9.331498742103576660e-01,-1.355877876281738281e+00,-5.952215194702148438e-01,-3.496381342411041260e-01,1.094770073890686035e+00,-1.171659469604492188e+00,6.278885006904602051e-01,7.010369896888732910e-01,-5.933735370635986328e-01,-1.228667140007019043e+00,6.509569883346557617e-01,1.332995295524597168e+00,-1.703691482543945312e+00,-4.997291862964630127e-01,3.916541934013366699e-01,-6.525098681449890137e-01,-5.147131532430648804e-02
5.596710443496704102e-01,8.638339042663574219e-01,2.579182572662830353e-02,-2.436506375670433044e-02,1.653949171304702759e-01,1.635303050279617310e-01,1.112532168626785278e-01,6.927191019058227539e-01,1.593567371368408203e+00,-1.257324337959289551e+00,-2.989600300788879395e-01,-1.381174683570861816e+00,-7.910915017127990723e-01,1.092174172401428223e+00,3.556144833564758301e-01,-6.051937341690063477e-01,1.014923378825187683e-01,-4.553063511848449707e-01,-3.094964921474456787e-01,8.992093205451965332e-01,-1.016486763954162598e+00,-1.265616059303283691e+00,-5.612397789955139160e-01,-6.155589818954467773e-01,-8.381263613700866699e-01,-1.909087657928466797e+00,9.809801578521728516e-01,-1.614400148391723633e+00,-3.189646899700164795e-01,-6.898401975631713867e-01,-1.270204544067382812e+00,-2.070886373519897461e+00,-5.150485634803771973e-01,-2.035929560661315918e-01,1.641030192375183105e+00,1.009877562522888184e+00,-2.573597431182861328e-01,-2.417308092117309570e+00,1.022365570068359375e+00,9.998485445976257324e-01,1.489994525909423828e-01,-3.172886967658996582e-01,-3.110364675521850586e-01,9.295018911361694336e-01,9.018244147300720215e-01,-9.880329966545104980e-01,-2.606252431869506836e-01,2.389184951782226562e+00,-6.823359429836273193e-02,9.896565973758697510e-02,-1.638812422752380371e+00,-1.333811640739440918e+00,-1.628589510917663574e+00,1.612603783607482910e+00,2.810423374176025391e-01,3.469729721546173096e-01,-6.614541411399841309e-01,-1.723343372344970703e+00
-2.048915863037109375e+00,-6.043569371104240417e-02,-1.229042768478393555e+00,5.513560026884078979e-02,-6.391890048980712891e-01,-9.066816568374633789e-01,1.284737586975097656e+00,-7.132455110549926758e-01,-8.169235587120056152e-01,-9.167558550834655762e-01,-8.510299324989318848e-01,-1.146489381790161133e+00,-2.571725985035300255e-03,8.328410983085632324e-01,-9.463307857513427734e-01,-1.563778042793273926e+00,-1.807365059852600098e+00,8.098654747009277344e-01,-2.161817073822021484e+00,-3.527095317840576172e-01,1.701626181602478027e+00,1.871521592140197754e+00,-3.563571870326995850e-01,5.017381906509399414e-01,1.076843619346618652e+00,-1.188342422246932983e-01,-7.181219756603240967e-02,1.282672882080078125e-01,2.134042263031005859e+00,-1.032023668289184570e+00,-4.053428173065185547e-01,1.394026875495910645e+00,2.141614913940429688e+00,5.817394852638244629e-01,7.744249105453491211e-01,-1.424703001976013184e+00,-1.862840056419372559e-01,-5.769290328025817871e-01,-1.528356909751892090e+00,1.789750605821609497e-01,-7.494014501571655273e-02,2.485360145568847656e+00,-3.819976150989532471e-01,-2.913578748703002930e-01,7.278625965118408203e-01,1.675354003906250000e+00,6.592360734939575195e-01,-1.428265094757080078e+00,1.334471553564071655e-01,8.031868189573287964e-02,6.816472411155700684e-01,-1.465813755989074707e+00,1.396340489387512207e+00,3.449051082134246826e-02,-2.941153571009635925e-02,1.990016102790832520e+00,1.546392321586608887e+00,-3.314641416072845459e-01
-4.694886505603790283e-01,-1.002816438674926758e+00,-8.550410270690917969e-01,1.905657291412353516e+00,-5.139441490173339844e-01,-2.050361633300781250e-01,-5.542533993721008301e-01,8.039754033088684082e-01,1.263226628303527832e+00,-7.715970277786254883e-01,5.115255117416381836e-01,-2.745671987533569336e+00,-3.986748158931732178e-01,-1.479231834411621094e+00,-9.905404448509216309e-01,-3.314490616321563721e-01,-9.142288565635681152e-01,-1.138911604881286621e+00,-5.006655454635620117e-01,-2.187522947788238525e-01,-6.626270413398742676e-01,-9.939604997634887695e-01,6.493456959724426270e-01,-2.056167572736740112e-01,-1.536537885665893555e+00,-3.974699974060058594e-01,-8.228172361850738525e-02,8.658221364021301270e-01,1.273191213607788086e+00,-1.215856671333312988e+00,-2.241522818803787231e-01,1.716120541095733643e-01,-2.686608433723449707e-01,-2.696536183357238770e-01,-1.938377022743225098e-01,-1.629057899117469788e-02,4.383348524570465088e-01,-2.556881606578826904e-01,3.975484669208526611e-01,1.335276663303375244e-01,-5.333226919174194336e-01,-1.503820061683654785e+00,-4.306511580944061279e-01,-1.023777008056640625e+00,2.090225368738174438e-01,1.261429488658905029e-01,1.311284601688385010e-01,-1.283486336469650269e-01,9.924404025077819824e-01,1.421719193458557129e+00,7.372015714645385742e-01,9.718686342239379883e-01,2.209783196449279785e-01,1.151758790016174316e+00,9.357858300209045410e-01,-2.774060666561126709e-01,-9.449231028556823730e-01,-6.113657951354980469e-01
-6.346222162246704102e-01,1.235290408134460449e+00,1.930030465126037598e+00,-2.233383417129516602e+00,-6.325826048851013184e-01,-4.760109186172485352e-01,-1.154169887304306030e-01,1.025928258895874023e-01,9.012467265129089355e-01,4.079947471618652344e-01,4.644019603729248047e-01,-1.210054755210876465e-01,-9.131015092134475708e-02,6.568145006895065308e-02,1.872481554746627808e-01,8.946152329444885254e-01,-2.417310886085033417e-02,-6.373690366744995117e-01,-2.424004793167114258e+00,1.544071555137634277e+00,-1.872245430946350098e+00,6.347515583038330078e-01,4.602251648902893066e-01,-6.630930304527282715e-01,2.088256478309631348e-01,-7.670004367828369141e-01,-1.075496792793273926e+00,6.849018931388854980e-01,-4.272670447826385498e-01,-4.167237877845764160e-01,-6.491936445236206055e-01,-1.243302319198846817e-02,-7.807260155677795410e-01,-1.462471842765808105e+00,-3.941133320331573486e-01,7.129569053649902344e-01,-4.619356095790863037e-01,-7.547448873519897461e-01,-3.396930694580078125e+00,2.277088016271591187e-01,1.047239065170288086e+00,-8.974986076354980469e-01,-2.197196185588836670e-01,2.209931910037994385e-01,-1.441743850708007812e+00,2.192464828491210938e+00,-1.013376832008361816e+00,5.094344168901443481e-02,8.369511961936950684e-01,1.014210820198059082e+00,1.072505831718444824e+00,8.372243046760559082e-01,2.941269576549530029e-01,-3.616554141044616699e-01,-1.055139303207397461e+00,1.179369762539863586e-01,-1.570211350917816162e-01,-2.054809808731079102e+00
2.862777709960937500e-01,-5.613507032394409180e-01,-1.094129323959350586e+00,2.593796551227569580e-01,2.146118134260177612e-01,-5.828756093978881836e-01,-1.090709447860717773e+00,-9.187539815902709961e-01,-1.033736109733581543e+00,8.264443278312683105e-01,-4.530652239918708801e-02,-1.033146977424621582e+00,-8.205764926970005035e-03,4.121587052941322327e-02,9.094439446926116943e-02,1.571889042854309082e+00,-2.141971111297607422e+00,1.903400123119354248e-01,-4.868853390216827393e-01,2.984765470027923584e-01,5.312593579292297363e-01,9.900299906730651855e-01,-7.108381986618041992e-01,-1.227809906005859375e+00,8.878793120384216309e-01,-3.406652510166168213e-01,-4.332350790500640869e-01,3.090657889842987061e-01,-1.849590897560119629e+00,-2.522143125534057617e-01,-2.469354629516601562e+00,7.019159197807312012e-01,4.247010648250579834e-01,8.425262570381164551e-01,1.531611919403076172e+00,-1.212821602821350098e-01,1.379256367683410645e+00,-6.058607101440429688e-01,1.731845140457153320e+00,-2.180272787809371948e-01,-1.949428468942642212e-01,-8.085427880287170410e-01,-1.079172372817993164e+00,-7.088549137115478516e-01,1.578986525535583496e+00,-3.157431185245513916e-01,-1.973014473915100098e+00,1.459856510162353516e+00,9.415920376777648926e-01,6.860722899436950684e-01,-1.954039216041564941e+00,1.755559742450714111e-01,-2.424618721008300781e+00,-1.249564886093139648e+00,9.335928410291671753e-02,-3.347273766994476318e-01,-1.270489692687988281e+00,3.423423767089843750e-01
7.325466722249984741e-02,3.141361474990844727e-01,2.275912463665008545e-01,2.944665849208831787e-01,1.030411362648010254e+00,-1.897637248039245605e+00,7.197532057762145996e-02,-1.096484541893005371e+00,-3.946325480937957764e-01,5.306673049926757812e-01,-1.731920957565307617e+00,-7.094640135765075684e-01,-1.192542552947998047e+00,-5.732048749923706055e-01,-1.398185253143310547e+00,6.464598178863525391e-01,-2.735278844833374023e+00,1.143896698951721191e+00,1.634142875671386719e+00,-1.689789056777954102e+00,-1.203818798065185547e+00,9.795204997062683105e-01,1.346487283706665039e+00,-1.948243528604507446e-01,-1.107942938804626465e+00,1.273762345314025879e+00,-1.855012215673923492e-02,1.700160145759582520e+00,7.019920349121093750e-01,1.944938659667968750e+00,4.800713062286376953e-01,-6.361843943595886230e-01,-4.915790259838104248e-01,2.397576332092285156e+00,4.145964086055755615e-01,-2.784785032272338867e-01,-2.063164561986923218e-01,9.551316499710083008e-01,2.159411668777465820e+00,-9.514790773391723633e-01,-9.746171236038208008e-01,1.971110224723815918e+00,-1.345499634742736816e+00,-5.981943011283874512e-01,-4.380744397640228271e-01,7.108851671218872070e-01,-1.346132159233093262e-01,-1.017686724662780762e+00,-1.450634241104125977e+00,1.155845448374748230e-01,-7.061187922954559326e-02,3.940921723842620850e-01,-1.447747796773910522e-01,-2.698836028575897217e-01,2.320137977600097656e+00,2.087571322917938232e-01,-6.698347628116607666e-02,-2.461617708206176758e+00
-1.751961708068847656e+00,-1.406337380409240723e+00,2.434428483247756958e-01,1.152395486831665039e+00,-2.433768749237060547e+00,4.711906313896179199e-01,-1.511704444885253906e+00,-1.115588068962097168e+00,1.173703551292419434e+00,9.935777634382247925e-02,-8.271802067756652832e-01,-2.724341750144958496e-01,1.301831364631652832e+00,-6.746256947517395020e-01,9.788312911987304688e-01,1.333307743072509766e+00,-2.229059487581253052e-02,-7.855965495109558105e-01,-4.521983209997415543e-03,-1.137742161750793457e+00,8.171067237854003906e-01,-2.069082260131835938e-01,3.490426540374755859e-01,3.691751062870025635e-01,-1.668825626373291016e+00,-1.437985181808471680e+00,1.126863360404968262e+00,-9.552980065345764160e-01,8.232091069221496582e-01,1.163481831550598145e+00,-8.099758028984069824e-01,1.198175668716430664e+00,-5.500454306602478027e-01,-3.132264018058776855e-01,-1.581729650497436523e+00,-1.796053528785705566e+00,2.831319719552993774e-02,-1.534141302108764648e+00,-1.556748449802398682e-01,-7.542098164558410645e-01,5.041133761405944824e-01,9.210808873176574707e-01,6.008123159408569336e-01,8.848165869712829590e-01,4.037856124341487885e-03,4.218525886535644531e-01,-2.101098299026489258e+00,-2.177398949861526489e-01,-2.961010336875915527e-01,-5.191478729248046875e-01,4.800887107849121094e-01,-1.109457135200500488e+00,8.083024621009826660e-01,-7.262437939643859863e-01,6.169105172157287598e-01,7.037549614906311035e-01,-6.493721604347229004e-01,-1.169759631156921387e+00
6.866234540939331055e-01,-7.271648645401000977e-01,1.690922081470489502e-01,9.505480527877807617e-02,-2.362217754125595093e-01,1.721639990806579590e+00,4.954769313335418701e-01,-8.399367928504943848e-01,4.700098186731338501e-02,1.274053603410720825e-01,-4.469261765480041504e-01,9.287222623825073242e-01,1.898076385259628296e-01,-1.246325612068176270e+00,-1.705498248338699341e-01,2.373930215835571289e+00,-3.284896612167358398e-01,1.308426737785339355e+00,1.698334664106369019e-01,1.146917104721069336e+00,-9.988818317651748657e-02,1.522195786237716675e-01,-2.501412034034729004e-01,-3.576863408088684082e-01,-2.543964087963104248e-01,2.137082815170288086e+00,6.908246278762817383e-01,-7.231701612472534180e-01,9.806724190711975098e-01,-4.221487045288085938e-01,-4.511663615703582764e-01,-5.088885426521301270e-01,1.479470849037170410e+00,1.644622445106506348e+00,4.440718889236450195e-01,-9.377892613410949707e-01,5.658531785011291504e-01,-1.122057676315307617e+00,1.069315969944000244e-01,2.458471298217773438e+00,8.911028504371643066e-01,1.505303531885147095e-01,-2.596470117568969727e-01,3.703123331069946289e-01,1.039927840232849121e+00,-5.007259845733642578e-01,-6.420318484306335449e-01,-4.552365541458129883e-01,4.126906692981719971e-01,-1.286086201667785645e+00,6.803946495056152344e-01,-1.620446562767028809e+00,-6.466739773750305176e-01,5.299264192581176758e-01,-1.094257354736328125e+00,-1.304497122764587402e+00,2.007544934749603271e-01,1.613008528947830200e-01
-9.087184071540832520e-01,-3.360730707645416260e-01,-2.941972911357879639e-01,-7.606784105300903320e-01,-4.999548792839050293e-01,-4.053010344505310059e-01,-5.816952586174011230e-01,-5.773909687995910645e-01,3.272193372249603271e-01,-5.193776488304138184e-01,-8.402922749519348145e-02,-1.583115458488464355e+00,-3.512296080589294434e-01,1.329632997512817383e+00,1.571067929267883301e+00,-6.711322665214538574e-01,1.729282498359680176e+00,-2.016161203384399414e+00,4.613852202892303467e-01,-2.709646701812744141e+00,-7.727060317993164062e-01,3.025626540184020996e-01,-2.091805458068847656e+00,-9.970386326313018799e-02,-1.224327087402343750e+00,6.345185637474060059e-01,2.810369729995727539e-01,-3.929065167903900146e-01,4.524489641189575195e-01,7.933495938777923584e-02,4.806001484394073486e-01,3.714432418346405029e-01,3.820406794548034668e-01,2.954598963260650635e-01,4.253057837486267090e-01,5.591887831687927246e-01,2.043357491493225098e-01,1.352119445800781250e+00,-2.540249526500701904e-01,-1.032263875007629395e+00,4.211404323577880859e-01,1.044988751411437988e+00,-3.856914937496185303e-01,-9.001838043332099915e-03,7.753543853759765625e-01,-1.240823492407798767e-01,9.004298448562622070e-01,-4.364518448710441589e-02,-4.106362462043762207e-01,9.513515830039978027e-01,-6.926107406616210938e-01,-1.176597401499748230e-01,4.638344645500183105e-01,1.300132572650909424e-01,-2.713674068450927734e+00,-3.957811295986175537e-01,-9.988436698913574219e-01,4.750239253044128418e-01
8.131851553916931152e-01,-4.284424185752868652e-01,-2.944018542766571045e-01,-4.294794797897338867e-01,-2.977292537689208984e-01,-5.152275562286376953e-01,6.677600145339965820e-01,3.070422112941741943e-01,4.857385754585266113e-01,-1.024452924728393555e+00,9.107999801635742188e-01,1.742945075035095215e+00,1.167590618133544922e+00,-5.924409627914428711e-01,3.602846264839172363e-01,1.500430405139923096e-01,1.385334610939025879e+00,-1.079911440610885620e-01,-2.050690174102783203e+00,-7.184892296791076660e-01,-6.056588888168334961e-01,-1.262592434883117676e+00,-1.166610866785049438e-01,-1.467630267143249512e+00,-3.553923964500427246e-01,6.013287305831909180e-01,-5.251716971397399902e-01,8.435395359992980957e-01,-1.843904018402099609e+00,1.179217934608459473e+00,-1.905343532562255859e+00,1.422694683074951172e+00,-1.628164529800415039e+00,2.058910131454467773e+00,5.464006066322326660e-01,9.040815830230712891e-01,-1.989961385726928711e+00,-7.146139740943908691e-01,4.023673012852668762e-02,7.403588891029357910e-01,-2.409709095954895020e-01,-1.786125823855400085e-02,-6.819467544555664062e-01,4.164442121982574463e-01,1.519176959991455078e+00,-6.586689949035644531e-01,-5.634537339210510254e-01,9.576179385185241699e-01,-2.045834213495254517e-01,1.987750083208084106e-02,-8.205020427703857422e-01,-4.928243458271026611e-01,-1.513936743140220642e-02,-3.431733548641204834e-01,5.238344073295593262e-01,2.124063014984130859e+00,7.516709715127944946e-02,1.001545265316963196e-01
-3.215251564979553223e-01,-1.114226784557104111e-02,5.401665344834327698e-02,-1.475026905536651611e-01,6.519758701324462891e-01,-1.096074208617210388e-01,1.012413024902343750e+00,-6.184058189392089844e-01,3.368448019027709961e-01,7.799133062362670898e-01,-6.279337406158447266e-01,-1.733627617359161377e-01,9.499619603157043457e-01,6.825661659240722656e-01,-1.012474894523620605e-01,-1.608500182628631592e-01,1.000087499618530273e+00,1.507205605506896973e+00,1.121733903884887695e+00,1.231597661972045898e+00,-1.400917023420333862e-01,-3.898422420024871826e-02,-1.531169533729553223e+00,-3.743755221366882324e-01,-8.897286057472229004e-01,4.425399601459503174e-01,-8.216406106948852539e-01,-3.843174576759338379e-01,3.721287548542022705e-01,-4.765795469284057617e-01,5.975862145423889160e-01,7.960150241851806641e-01,1.249345183372497559e+00,2.889674305915832520e-01,-1.428142070770263672e+00,4.762042686343193054e-02,7.680062055587768555e-01,1.965094823390245438e-03,9.122656583786010742e-01,-5.374072790145874023e-01,-1.380623459815979004e+00,-5.757468342781066895e-01,1.229076027870178223e+00,8.551780581474304199e-01,-1.006030321121215820e+00,1.014526844024658203e+00,-3.461317420005798340e-01,8.153575062751770020e-01,-7.801508307456970215e-01,4.136236310005187988e-01,-1.900656521320343018e-01,-7.158319354057312012e-01,9.865736961364746094e-01,-1.151608824729919434e+00,-5.767422169446945190e-02,5.962395668029785156e-01,6.558851003646850586e-01,3.078121542930603027e-01
1.424616426229476929e-01,-1.918248534202575684e-01,-1.838140487670898438e-01,1.067108154296875000e+00,-1.653284281492233276e-01,1.843537241220474243e-01,9.012590050697326660e-01,-1.485845297574996948e-01,-1.379346251487731934e-01,-8.782994747161865234e-01,2.174634933471679688e+00,7.655701637268066406e-01,5.633150935173034668e-01,-1.584530770778656006e-01,1.333242654800415039e-01,1.246114894747734070e-01,-1.529505610466003418e+00,-6.767694354057312012e-01,4.530431628227233887e-01,-1.018156290054321289e+00,-1.210151538252830505e-01,-6.021897792816162109e-01,-3.801336884498596191e-01,-1.551262617111206055e+00,-5.168894529342651367e-01,3.738695144653320312e+00,8.050439953804016113e-01,-1.352940082550048828e+00,2.430205494165420532e-01,2.714828968048095703e+00,-2.264837920665740967e-01,4.122812151908874512e-01,4.060469269752502441e-01,-5.402269363403320312e-01,-1.776405334472656250e+00,3.546830415725708008e-01,-7.787763476371765137e-01,1.087278604507446289e+00,-1.130642294883728027e+00,-2.134329974651336670e-01,2.947452783584594727e+00,-1.675334692001342773e+00,7.136965990066528320e-01,7.619613409042358398e-01,-1.855166405439376831e-01,-2.140056848526000977e+00,1.301156044006347656e+00,-3.747640848159790039e-01,-1.823222637176513672e+00,1.084303975105285645e+00,-2.085368931293487549e-01,1.424482941627502441e+00,-4.733356535434722900e-01,-7.653211355209350586e-01,-6.667845845222473145e-01,-9.347935914993286133e-01,-2.663317918777465820e-01,-1.679944276809692383e+00
1.591720104217529297e+00,-5.565688014030456543e-01,-1.009731888771057129e+00,1.957082509994506836e+00,-9.121751040220260620e-02,6.793489456176757812e-01,1.937002658843994141e+00,4.484289586544036865e-01,1.966348409652709961e+00,2.465070962905883789e+00,4.493676126003265381e-01,9.722129106521606445e-01,-2.314608395099639893e-01,-7.462162375450134277e-01,4.042659103870391846e-01,7.052806019783020020e-01,1.145304888486862183e-01,-8.313284069299697876e-02,-1.317529559135437012e+00,7.096809744834899902e-01,1.003810644149780273e+00,-7.148715853691101074e-01,-2.028922885656356812e-01,1.063717603683471680e+00,1.304104804992675781e+00,-1.453644156455993652e+00,-1.602561235427856445e+00,3.673095703125000000e-01,-9.878498911857604980e-01,1.533193588256835938e+00,-3.989354968070983887e-01,-1.446038007736206055e+00,3.266884684562683105e-01,3.607190847396850586e-01,4.727094173431396484e-01,8.755219578742980957e-01,1.231932878494262695e+00,-1.352908611297607422e-01,-5.402958989143371582e-01,1.244923472404479980e-01,-2.031879663467407227e+00,-4.577257931232452393e-01,1.532763838768005371e-01,-6.746052503585815430e-01,-2.331709414720535278e-01,3.590847849845886230e-01,1.500029921531677246e+00,-2.127641677856445312e+00,1.623032689094543457e+00,-5.698956251144409180e-01,-1.371710538864135742e+00,-1.562079668045043945e+00,5.115078091621398926e-01,-4.729444980621337891e-01,-5.186370015144348145e-01,1.784409135580062866e-01,5.078759789466857910e-01,-2.687652707099914551e-01
1.940088868141174316e+00,-6.595903038978576660e-01,7.664586901664733887e-01,1.025591731071472168e+00,-1.063960790634155273e+00,-1.259731411933898926e+00,-4.277301132678985596e-01,7.597118020057678223e-01,-7.701075077056884766e-01,-1.334739565849304199e+00,6.805531978607177734e-01,-5.213849619030952454e-02,7.498788237571716309e-01,-1.483971953392028809e+00,-9.371930360794067383e-01,1.005734682083129883e+00,1.162879347801208496e+00,-1.094143629074096680e+00,-1.454277992248535156e+00,-3.227864503860473633e-01,1.271048069000244141e+00,-3.412864208221435547e-01,4.811694324016571045e-01,-6.180722117424011230e-01,1.516199946403503418e+00,-5.165635347366333008e-01,6.450939178466796875e-01,2.777823805809020996e-01,2.015837430953979492e+00,1.274803757667541504e+00,-5.094309896230697632e-02,2.732740044593811035e-01,4.009672403335571289e-01,4.468989372253417969e-01,-1.693239331245422363e+00,-2.485657185316085815e-01,1.997819066047668457e+00,-1.025253772735595703e+00,-6.390365213155746460e-02,-1.116648197174072266e+00,-6.566253304481506348e-01,-1.010637640953063965e+00,-9.005339741706848145e-01,1.246758341789245605e+00,-3.599677607417106628e-02,-1.021508336067199707e+00,1.061646461486816406e+00,8.755867928266525269e-02,2.686986207962036133e+00,-3.453234136104583740e-01,6.608515977859497070e-01,-2.567633688449859619e-01,8.974463343620300293e-01,-3.176431357860565186e-01,1.803907305002212524e-01,1.761080861091613770e+00,-6.813837885856628418e-01,-5.514813661575317383e-01
-1.120205879211425781e+00,1.428824663162231445e+00,-2.738860547542572021e-01,-2.327145576477050781e+00,-1.016454100608825684e+00,1.595796346664428711e+00,2.511829376220703125e+00,-2.091340303421020508e+00,-1.115352392196655273e+00,3.768818974494934082e-01,-1.199385821819305420e-01,-4.746147394180297852e-01,3.211922347545623779e-01,6.766456365585327148e-02,6.967260241508483887e-01,8.148804306983947754e-02,-8.981404304504394531e-01,-1.926663070917129517e-01,3.163135647773742676e-01,-2.264421433210372925e-02,8.139012455940246582e-01,-1.442113369703292847e-01,9.408437609672546387e-01,1.703058481216430664e+00,-4.817931056022644043e-01,4.740187525749206543e-02,3.984446823596954346e-01,9.997004270553588867e-01,-2.138614356517791748e-01,-6.365216970443725586e-01,-4.978165924549102783e-01,1.408523440361022949e+00,1.025060534477233887e+00,-1.285483717918395996e+00,3.719381093978881836e-01,3.114725053310394287e-01,-1.293803215026855469e+00,-4.081307649612426758e-01,1.213853120803833008e+00,-6.625145673751831055e-01,-1.524673342704772949e+00,-1.243355154991149902e+00,3.052650094032287598e-01,2.733550965785980225e-01,-3.677594363689422607e-01,-1.397469758987426758e+00,2.613126337528228760e-01,4.617264866828918457e-01,-1.014605641365051270e+00,-7.041090726852416992e-02,-1.278344392776489258e-01,1.061342239379882812e+00,-8.197577595710754395e-01,2.304348796606063843e-01,1.545768976211547852e+00,2.646071910858154297e+00,-1.400241255760192871e+00,-5.402405261993408203e-01
-1.048356413841247559e+00,-1.156741380691528320e+00,1.235451340675354004e+00,-1.417626023292541504e+00,-9.292125701904296875e-01,1.557923704385757446e-01,5.927774310111999512e-01,9.366036057472229004e-01,1.302459090948104858e-01,4.381753206253051758e-01,8.674792200326919556e-02,-2.056834697723388672e+00,9.725084304809570312e-01,5.591145157814025879e-01,1.685692667961120605e+00,-4.569490849971771240e-01,3.997109830379486084e-01,1.370668560266494751e-01,1.285306215286254883e-01,-2.103273630142211914e+00,-6.559200286865234375e-01,-7.937805652618408203e-01,1.242317676544189453e+00,6.667134761810302734e-01,-1.851390451192855835e-01,7.398529350757598877e-02,-6.550037860870361328e-02,-3.916637599468231201e-01,-2.026567935943603516e+00,-2.367133833467960358e-02,-2.009752094745635986e-01,-4.375683069229125977e-01,6.151252388954162598e-01,1.446791291236877441e+00,-4.204212427139282227e-01,4.592273533344268799e-01,-1.154785633087158203e+00,-1.170107960700988770e+00,-6.050510406494140625e-01,5.445708632469177246e-01,-2.779190801084041595e-02,6.923543661832809448e-02,-3.770127594470977783e-01,7.425333261489868164e-01,1.333710193634033203e+00,-3.919759392738342285e-01,-1.489145308732986450e-01,7.462574839591979980e-01,7.918966561555862427e-02,-3.283214569091796875e-02,1.603953838348388672e-01,4.445984959602355957e-01,-5.399738997220993042e-02,1.921280771493911743e-01,-3.284937143325805664e-01,-4.740240573883056641e-01,-2.487173318862915039e+00,-4.804626703262329102e-01
-1.201754212379455566e+00,-3.569122254848480225e-01,-4.451039731502532959e-01,5.669622421264648438e-01,1.991261392831802368e-01,7.212023735046386719e-01,1.374572753906250000e+00,1.013983786106109619e-02,1.286651968955993652e+00,-4.622631669044494629e-01,-1.619595170021057129e+00,-5.662743449211120605e-01,3.510455787181854248e-01,6.882826685905456543e-01,-2.849088311195373535e-01,4.534421563148498535e-01,-6.233628392219543457e-01,1.664898037910461426e+00,8.518103361129760742e-01,-2.403864860534667969e-01,-3.846973180770874023e-01,-2.560494542121887207e-01,3.055652976036071777e-01,5.401633977890014648e-01,5.060034990310668945e-01,-1.089856028556823730e+00,2.072158098220825195e+00,6.030473113059997559e-01,-4.166031181812286377e-01,-1.968607604503631592e-01,-4.714350998401641846e-01,1.387007474899291992e+00,-1.297358155250549316e+00,4.803183078765869141e-01,4.715760648250579834e-01,8.477432131767272949e-01,-3.917440772056579590e-02,9.615119695663452148e-01,3.011138141155242920e-01,1.391196131706237793e+00,1.172918438911437988e+00,-8.790463209152221680e-01,1.185241699218750000e+00,1.341618657112121582e+00,1.722789645195007324e+00,3.774117827415466309e-01,-1.557137846946716309e+00,3.125047087669372559e-01,-1.656681597232818604e-01,1.347806304693222046e-01,-2.525382339954376221e-01,1.114401936531066895e+00,1.013073325157165527e+00,1.111184209585189819e-01,-8.379746079444885254e-01,-4.530411958694458008e-01,-3.210817873477935791e-01,-1.951220035552978516e+00
7.364351153373718262e-01,-6.767176389694213867e-01,-1.198485136032104492e+00,6.574662923812866211e-01,6.793851256370544434e-01,-8.990725278854370117e-01,1.248744010925292969e+00,-3.590840697288513184e-01,1.251442432403564453e+00,-3.814072310924530029e-01,-9.691442847251892090e-01,3.990515172481536865e-01,6.295039653778076172e-01,-7.166140079498291016e-01,-6.912987232208251953e-01,3.940637707710266113e-01,1.001676917076110840e+00,-6.931493282318115234e-01,2.009858131408691406e+00,-1.698261243291199207e-03,-3.449539095163345337e-02,-6.588564515113830566e-01,-2.204285711050033569e-01,-5.163084864616394043e-01,-8.211560249328613281e-01,-1.191750645637512207e+00,-4.455797970294952393e-01,-6.838228702545166016e-01,1.771998405456542969e+00,2.343866378068923950e-01,7.330573350191116333e-02,-1.229920268058776855e+00,8.215267658233642578e-01,1.486635088920593262e+00,-2.440453290939331055e+00,1.246025800704956055e+00,-1.888372600078582764e-01,-3.094217479228973389e-01,1.350773692131042480e+00,1.070033833384513855e-01,-3.238963484764099121e-01,6.233650445938110352e-01,5.385895371437072754e-01,-1.338047266006469727e+00,1.987455248832702637e+00,9.919422268867492676e-01,-1.114634871482849121e+00,2.300875425338745117e+00,7.059602141380310059e-01,1.150695443153381348e+00,-1.101987719535827637e+00,1.564926505088806152e+00,-1.701673030853271484e+00,8.923939466476440430e-01,4.783613383769989014e-01,1.098537519574165344e-01,-1.578609704971313477e+00,4.010365605354309082e-01
1.013862609863281250e+00,-2.515444755554199219e-01,1.695947907865047455e-02,3.055317103862762451e-01,1.813644021749496460e-01,-1.369691729545593262e+00,-2.938785254955291748e-01,-4.541883766651153564e-01,9.151748418807983398e-01,-7.520214915275573730e-01,-2.243157625198364258e-01,-1.161488175392150879e+00,5.876205563545227051e-01,3.836784958839416504e-01,1.805706620216369629e+00,-5.820795297622680664e-01,-3.410744667053222656e-01,-1.347889453172683716e-01,-5.814204216003417969e-01,-2.822346091270446777e-01,-1.297873854637145996e+00,2.440050393342971802e-01,6.173098087310791016e-01,-2.528876066207885742e-01,-1.117037758231163025e-01,1.573011398315429688e+00,1.139939665794372559e+00,-1.182329177856445312e+00,4.370606243610382080e-01,2.622636556625366211e-01,4.391467571258544922e-01,-7.710328102111816406e-01,-1.560491204261779785e+00,-1.768320083618164062e+00,6.462161540985107422e-01,-7.586315274238586426e-02,-2.432304024696350098e-01,-2.880099773406982422e+00,-1.231199502944946289e+00,-6.618126630783081055e-01,-8.759942054748535156e-01,1.660333991050720215e+00,-9.022004604339599609e-01,-4.550078511238098145e-01,-1.007212638854980469e+00,-6.294335126876831055e-01,-3.201291859149932861e-01,-2.857418358325958252e-01,-1.724864244461059570e-01,3.538921177387237549e-01,1.292144179344177246e+00,1.458435058593750000e+00,9.482144713401794434e-01,-5.228033661842346191e-01,8.941259235143661499e-02,1.707852959632873535e+00,3.970742523670196533e-01,6.739457845687866211e-01
-2.826968729496002197e-01,5.015894174575805664e-01,-1.952535510063171387e+00,1.980175495147705078e+00,7.645455598831176758e-01,1.626476287841796875e+00,1.543399214744567871e+00,-1.211243867874145508e+00,-1.104739546775817871e+00,-1.366786479949951172e+00,5.425238236784934998e-02,-9.470300078392028809e-01,2.293838262557983398e-01,-3.867577388882637024e-02,-2.162503719329833984e+00,8.192254900932312012e-01,-1.207787513732910156e+00,-3.653726577758789062e-01,4.911714494228363037e-01,1.335767954587936401e-01,-5.191544294357299805e-01,1.340644508600234985e-01,-6.661962866783142090e-01,-4.612261056900024414e-01,-5.256003141403198242e-01,2.800485193729400635e-01,8.133625984191894531e-01,4.857783615589141846e-01,1.952148415148258209e-02,1.287481933832168579e-01,-9.600901007652282715e-01,-2.699649035930633545e-01,9.336517453193664551e-01,-6.164081096649169922e-01,-1.423690915107727051e-01,-1.188133358955383301e+00,-1.388273358345031738e+00,-2.398967295885086060e-01,1.489225745201110840e+00,1.674508810043334961e+00,-8.205105662345886230e-01,-1.116993904113769531e+00,2.891047596931457520e-01,-4.045639932155609131e-01,-8.315303325653076172e-01,2.400917053222656250e+00,-1.821817457675933838e-01,2.020371109247207642e-01,-4.576652050018310547e-01,4.656138122081756592e-01,1.764573335647583008e+00,-1.811381936073303223e+00,8.815313577651977539e-01,3.777511417865753174e-01,5.723885893821716309e-01,8.173598051071166992e-01,2.998836338520050049e-01,2.262061119079589844e+00
