3.062300682067871094e-01,6.567841172218322754e-01,-1.664496421813964844e+00,4.693855643272399902e-01,3.529100716114044189e-01,1.064920902252197266e+00,-6.861720681190490723e-01,8.551467657089233398e-01,2.277714967727661133e+00,-7.267907857894897461e-01,8.152021169662475586e-01,-1.367092728614807129e+00,-4.881714284420013428e-02,-6.669402718544006348e-01,-1.520254492759704590e+00,-8.546890020370483398e-01,5.436994433403015137e-01,-3.870293498039245605e-01,-1.832089066505432129e+00,-7.324543595314025879e-01,1.696908026933670044e-01,-8.717764616012573242e-01,8.337622284889221191e-01,1.710636854171752930e+00,3.371972739696502686e-01,-5.614696145057678223e-01,-7.091857790946960449e-01,-1.351633369922637939e-01,-6.415131092071533203e-01,1.602893322706222534e-01,2.645189523696899414e+00,-5.081236958503723145e-01,4.292348027229309082e-01,-5.888379812240600586e-01,-1.142962723970413208e-01,5.232281684875488281e-01,2.398400545120239258e+00,-6.782179325819015503e-02,1.738260984420776367e+00,-1.444271802902221680e-01,-1.626094579696655273e+00,2.099063873291015625e+00,1.102406501770019531e+00,-7.226262092590332031e-01,1.313583612442016602e+00,4.775169789791107178e-01,2.103241920471191406e+00,3.369562923908233643e-01,5.835104584693908691e-01,1.387824773788452148e+00,-4.139802753925323486e-01,-9.533748775720596313e-02,-1.339924454689025879e+00,1.068800911307334900e-01,4.767469167709350586e-01,-1.337399482727050781e+00,1.769684106111526489e-01,-1.348486393690109253e-01
5.534423589706420898e-01,-3.212240636348724365e-01,-3.456295700743794441e-03,7.688536047935485840e-01,-1.174135446548461914e+00,3.172331722453236580e-03,1.337202489376068115e-01,2.404102563858032227e+00,-8.394959568977355957e-01,1.374740839004516602e+00,1.723596572875976562e+00,1.472167611122131348e+00,-2.144883871078491211e+00,-3.990776538848876953e-01,1.026423215866088867e+00,-9.990180730819702148e-01,-1.126594185829162598e+00,-1.401235342025756836e+00,-1.064516544342041016e+00,-5.176427364349365234e-01,9.473285079002380371e-01,-1.289291828870773315e-01,-3.686611950397491455e-01,-6.673913598060607910e-01,-1.240307569503784180e+00,1.261329501867294312e-01,-8.093919157981872559e-01,2.178864739835262299e-02,1.894434332847595215e+00,1.165067553520202637e+00,-1.877934783697128296e-01,1.031842112541198730e+00,1.274005174636840820e+00,2.548794448375701904e-01,-4.211757481098175049e-01,3.907581865787506104e-01,1.803472638130187988e+00,-3.640562295913696289e-01,2.147470414638519287e-01,-6.641321182250976562e-01,6.366234272718429565e-02,-7.856208086013793945e-01,3.755056858062744141e-01,1.233346700668334961e+00,9.130062460899353027e-01,4.308504462242126465e-01,-1.205071330070495605e+00,3.385189473628997803e-01,9.823300838470458984e-01,-1.112287878990173340e+00,-1.215337157249450684e+00,1.519683837890625000e+00,-3.273589611053466797e-01,6.909689307212829590e-01,-2.933718264102935791e-01,-2.034198284149169922e+00,-2.472970008850097656e+00,1.621579051017761230e+00
-4.118183255195617676e-02,2.851230204105377197e-01,-7.486166954040527344e-01,-1.089154332876205444e-01,-1.059759616851806641e+00,-6.581082940101623535e-01,-5.309184193611145020e-01,-1.225016236305236816e+00,-3.175840377807617188e-01,8.258383274078369141e-01,2.128832340240478516e-01,8.016006946563720703e-01,3.477139770984649658e-01,-1.558280587196350098e+00,7.853885889053344727e-01,-2.182702533900737762e-02,1.760265827178955078e+00,-5.907790660858154297e-01,-4.026877880096435547e-01,7.649803757667541504e-01,-5.015030503273010254e-01,-2.458496540784835815e-01,1.086141228675842285e+00,3.338521122932434082e-01,3.775379061698913574e-01,-2.987074255943298340e-01,1.193151116371154785e+00,9.373254776000976562e-01,-1.477432966232299805e+00,8.979881405830383301e-01,-1.309070944786071777e+00,-1.379839330911636353e-01,-1.536450147628784180e+00,-2.050071477890014648e+00,-1.162920236587524414e+00,-1.090691685676574707e-01,4.622612297534942627e-01,-2.197984933853149414e+00,5.756894946098327637e-01,-8.246680498123168945e-01,-1.828755855560302734e+00,1.466310858726501465e+00,1.137056350708007812e+00,1.267524957656860352e+00,-1.048528432846069336e+00,1.174244523048400879e+00,1.440212130546569824e+00,1.266936421394348145e+00,-3.168273866176605225e-01,-6.125383377075195312e-01,1.291658282279968262e+00,7.387502789497375488e-01,-1.192447423934936523e+00,1.025374889373779297e+00,4.256380796432495117e-01,3.753431141376495361e-01,-3.334547877311706543e-01,1.496262669563293457e+00
1.171799376606941223e-01,1.546865701675415039e-01,3.519989848136901855e-01,2.099751830101013184e-01,-7.432950735092163086e-01,6.655497550964355469e-01,-6.942446231842041016e-01,6.288367509841918945e-01,9.411092400550842285e-01,1.504174828529357910e+00,4.704007133841514587e-02,-7.089156508445739746e-01,1.428214550018310547e+00,4.132229387760162354e-01,-1.355782151222229004e+00,-1.706100255250930786e-01,-9.792966246604919434e-01,-4.571737647056579590e-01,1.867526531219482422e+00,-1.086060404777526855e+00,6.723754853010177612e-02,-5.941131114959716797e-01,-2.162001840770244598e-02,2.549181878566741943e-01,1.329046249389648438e+00,5.557667091488838196e-02,2.103456109762191772e-02,8.791660517454147339e-02,8.522551506757736206e-02,9.702783226966857910e-01,1.676788210868835449e+00,-1.391690492630004883e+00,1.637771725654602051e+00,9.943324327468872070e-02,1.525606632232666016e+00,-1.413904666900634766e+00,-1.107174232602119446e-01,1.090724706649780273e+00,3.068632781505584717e-01,1.111864522099494934e-01,-2.001674473285675049e-01,7.374386191368103027e-01,8.919474482536315918e-01,1.268431693315505981e-01,-8.675319701433181763e-02,-1.711476594209671021e-01,-1.525841355323791504e-01,4.877973794937133789e-01,-2.203103780746459961e+00,6.122918128967285156e-01,5.606155991554260254e-01,1.701365947723388672e+00,4.412620961666107178e-01,7.878512740135192871e-01,1.389029502868652344e+00,-4.853336513042449951e-01,7.247729301452636719e-01,7.882735133171081543e-01
9.449004530906677246e-01,5.263053774833679199e-01,-2.338280677795410156e+00,-1.710117459297180176e-01,1.775776594877243042e-01,-2.569590210914611816e-01,-8.569982051849365234e-01,-3.912836313247680664e-01,-9.067634940147399902e-01,-1.005875021219253540e-01,-4.603714346885681152e-01,-8.040990829467773438e-01,-1.209126710891723633e+00,-4.874088242650032043e-02,-3.741237521171569824e-01,1.319165706634521484e+00,1.846582412719726562e+00,4.518061876296997070e-01,2.513859987258911133e+00,8.140077590942382812e-01,-3.247587010264396667e-02,4.578820466995239258e-01,-2.138922929763793945e+00,-6.443457007408142090e-01,1.035481572151184082e+00,-1.049625799059867859e-01,-7.352289557456970215e-01,-7.168380618095397949e-01,1.170992970466613770e+00,-9.715476632118225098e-01,-1.485178470611572266e-01,2.232846021652221680e+00,4.160140454769134521e-01,6.834033131599426270e-01,-3.314047753810882568e-01,-9.324484467506408691e-01,-6.039323210716247559e-01,-1.133554458618164062e+00,-1.289030909538269043e+00,-2.666292786598205566e-01,1.662803053855895996e+00,9.370095133781433105e-01,-1.796351075172424316e+00,-3.555687069892883301e-01,1.728007793426513672e-01,1.356733322143554688e+00,-1.368532538414001465e+00,-1.460536837577819824e+00,-4.904324114322662354e-01,-6.575757265090942383e-01,5.502381324768066406e-01,4.455334842205047607e-01,-3.007281422615051270e-01,-4.283863902091979980e-01,-1.262155771255493164e-01,5.441067814826965332e-01,-6.249290108680725098e-01,-2.062759160995483398e+00
-1.287298053503036499e-01,-6.341060996055603027e-01,4.362811148166656494e-01,-1.220648527145385742e+00,-1.897457242012023926e-01,-1.252716064453125000e+00,3.347788155078887939e-01,1.788341403007507324e+00,-5.800418853759765625e-01,2.999259531497955322e-01,-9.455046653747558594e-01,-2.623034715652465820e-01,6.989440917968750000e-01,1.099886536598205566e+00,-4.983327686786651611e-01,9.590767323970794678e-02,-5.305975079536437988e-01,8.947991728782653809e-01,1.612337589263916016e+00,-5.328902602195739746e-01,1.648648381233215332e+00,5.138184428215026855e-01,8.110998272895812988e-01,-1.519138455390930176e+00,1.252299785614013672e+00,5.898098275065422058e-02,-7.354421019554138184e-01,5.644617676734924316e-01,-1.025328993797302246e+00,4.648732244968414307e-01,-1.559586286544799805e+00,-4.399057626724243164e-01,-6.035502552986145020e-01,2.858365535736083984e+00,9.083486199378967285e-01,1.741336435079574585e-01,5.413535237312316895e-01,-2.203329503536224365e-01,1.724903106689453125e+00,8.930955529212951660e-01,1.122451782226562500e+00,-1.848997831344604492e+00,1.275266170501708984e+00,1.566528081893920898e+00,-3.223980367183685303e-01,1.243542313575744629e+00,2.086688280105590820e-01,-2.643765807151794434e-01,-1.982719182968139648e+00,1.472867131233215332e+00,8.492457270622253418e-01,-1.628877639770507812e+00,1.693486452102661133e+00,-2.892923355102539062e+00,-3.415238559246063232e-01,-1.943784713745117188e+00,4.980874359607696533e-01,-1.057955622673034668e-01
9.983941912651062012e-01,2.892912924289703369e-01,-8.652405738830566406e-01,1.984431445598602295e-01,1.309766650199890137e+00,1.732344269752502441e+00,2.217186689376831055e-01,-1.111132621765136719e+00,1.608418107032775879e+00,2.799647569656372070e+00,-1.669823974370956421e-01,7.774144411087036133e-01,-5.690915882587432861e-02,-5.345434546470642090e-01,9.884272217750549316e-01,1.950617313385009766e+00,-8.836254477500915527e-02,3.559278547763824463e-01,-1.833276391029357910e+00,1.347591876983642578e+00,-2.116412669420242310e-01,6.163757443428039551e-01,3.590738028287887573e-02,-3.717519044876098633e-01,1.387659430503845215e+00,-2.511250972747802734e+00,-5.081685185432434082e-01,7.464743256568908691e-01,-4.590813517570495605e-01,1.655968189239501953e+00,-8.036878705024719238e-01,-1.862993240356445312e+00,9.341976046562194824e-01,6.001666784286499023e-01,-4.520553052425384521e-01,9.131777286529541016e-01,-6.484441757202148438e-01,1.043025970458984375e+00,1.197276949882507324e+00,-1.394577860832214355e+00,1.141551375389099121e+00,-9.459983706474304199e-01,4.949232339859008789e-01,-1.194457888603210449e+00,7.691467404365539551e-01,-8.112634420394897461e-01,-1.082240581512451172e+00,9.608020186424255371e-01,9.782379865646362305e-01,5.467605590820312500e-01,-3.545257151126861572e-01,4.569245036691427231e-03,4.921409785747528076e-01,-8.801316022872924805e-01,-1.423687338829040527e+00,1.029122233390808105e+00,-1.219539165496826172e+00,2.058668881654739380e-01
-4.438723921775817871e-01,-5.398436188697814941e-01,-1.265390038490295410e+00,-1.379980683326721191e+00,-4.336687922477722168e-01,3.291888535022735596e-01,1.117245387285947800e-02,-4.902062118053436279e-01,3.030939400196075439e-01,-1.576661825180053711e+00,1.695601582527160645e+00,1.443725943565368652e+00,-1.724170595407485962e-01,1.405880928039550781e+00,1.512703418731689453e+00,6.839045882225036621e-01,1.573555767536163330e-01,-1.479594707489013672e+00,-1.127430915832519531e+00,-1.022462606430053711e+00,-1.144677639007568359e+00,8.801712393760681152e-01,1.025802850723266602e+00,-2.965879142284393311e-01,8.335049748420715332e-01,5.763411894440650940e-02,1.431643366813659668e+00,-1.032146573066711426e+00,2.759224653244018555e+00,-1.843806982040405273e+00,-2.301912784576416016e+00,8.357239961624145508e-01,-9.978672266006469727e-01,-2.132374525070190430e+00,-4.354683682322502136e-02,-1.259255528450012207e+00,1.202120900154113770e+00,1.867791116237640381e-01,-1.237087473273277283e-01,1.988279461860656738e+00,-1.027443766593933105e+00,6.503423452377319336e-01,-1.979128569364547729e-01,1.141886353492736816e+00,9.431796073913574219e-01,-3.635483607649803162e-02,-7.496398687362670898e-02,-1.894211411476135254e+00,4.088544249534606934e-01,-1.073550224304199219e+00,-7.342322468757629395e-01,-8.800891637802124023e-01,6.105068325996398926e-02,-9.485016763210296631e-02,1.881244480609893799e-01,-3.675231337547302246e-01,-5.552243590354919434e-01,-2.704030573368072510e-01
-4.639070928096771240e-01,7.627096176147460938e-01,6.835190653800964355e-01,1.687613278627395630e-01,-1.351710796356201172e+00,-1.921332836151123047e+00,1.370020985603332520e+00,1.355535387992858887e+00,-1.104859471321105957e+00,-5.505926012992858887e-01,-4.440395832061767578e-01,1.367998600006103516e+00,-5.800565239042043686e-03,2.717969119548797607e-01,-1.482600808143615723e+00,-1.086699128150939941e+00,6.204171180725097656e-01,8.462529182434082031e-01,7.876710295677185059e-01,-1.509494304656982422e+00,1.857021570205688477e+00,3.738548457622528076e-01,2.210315227508544922e+00,5.155788064002990723e-01,3.345225751399993896e-01,7.998997569084167480e-01,-7.562304288148880005e-02,-6.470800042152404785e-01,1.324886560440063477e+00,2.697297632694244385e-01,3.590296506881713867e-01,-5.288095474243164062e-01,1.871196925640106201e-01,-3.963752090930938721e-01,2.017560482025146484e+00,-1.436779022216796875e+00,1.643688082695007324e-01,4.270603954792022705e-01,-3.470268249511718750e-01,1.273384243249893188e-01,9.458932280540466309e-01,9.785079956054687500e-01,1.554080963134765625e+00,-9.363265633583068848e-01,-1.469648003578186035e+00,-1.879829019308090210e-01,-9.084123373031616211e-01,-3.780523687601089478e-02,1.700737953186035156e+00,5.595861077308654785e-01,1.104263424873352051e+00,-6.680219173431396484e-01,-1.092422127723693848e+00,-6.636568903923034668e-01,-1.158453598618507385e-01,5.626109838485717773e-01,-1.224448442459106445e+00,2.476165741682052612e-01
6.902973651885986328e-01,7.146263867616653442e-02,-2.653122246265411377e-01,-1.359255909919738770e+00,-1.863069891929626465e+00,-4.778975546360015869e-01,1.357203960418701172e+00,7.991901040077209473e-01,-9.614510536193847656e-01,1.216695547103881836e+00,-7.568165659904479980e-01,6.655208766460418701e-02,2.676900029182434082e-01,-9.522362798452377319e-02,8.667421527206897736e-03,-8.906418085098266602e-01,5.326755046844482422e-01,9.509893059730529785e-01,5.294355154037475586e-01,1.212111353874206543e+00,1.162953495979309082e+00,1.159606814384460449e+00,-1.100989103317260742e+00,5.246683955192565918e-01,-1.756379365921020508e+00,-8.701763153076171875e-01,2.590452507138252258e-02,-5.528636574745178223e-01,1.194104909896850586e+00,-1.034352064132690430e+00,-9.032890796661376953e-01,8.736939430236816406e-01,-6.909691542387008667e-02,-2.049671649932861328e+00,-5.360584259033203125e-01,-4.235850274562835693e-02,-9.384138882160186768e-02,-6.124250292778015137e-01,-4.702542424201965332e-01,-1.486915349960327148e+00,1.382273554801940918e+00,1.996924161911010742e+00,-1.381874442100524902e+00,5.942694544792175293e-01,6.069537997245788574e-01,1.894959568977355957e+00,6.144938990473747253e-02,9.323350787162780762e-01,-2.293149948120117188e+00,1.263225078582763672e+00,8.191058039665222168e-01,1.857575178146362305e+00,2.171102166175842285e-01,-4.384590089321136475e-01,-4.181900024414062500e-01,-5.926278233528137207e-02,7.762935757637023926e-01,-1.062431454658508301e+00
-5.740268155932426453e-03,-6.741385459899902344e-01,1.088143825531005859e+00,7.873967885971069336e-01,1.646369881927967072e-02,-4.822258278727531433e-02,-6.778797507286071777e-01,-4.249344170093536377e-01,6.116902828216552734e-01,-1.249156713485717773e+00,-2.889167666435241699e-01,3.666004538536071777e-01,1.395110011100769043e+00,5.968483090400695801e-01,-1.055381149053573608e-01,-1.808099746704101562e+00,-1.377778887748718262e+00,-3.597240746021270752e-01,-2.835591137409210205e-01,-7.476542592048645020e-01,2.924235351383686066e-02,1.108642935752868652e+00,-1.422562241554260254e+00,9.713423997163772583e-02,-1.694144725799560547e+00,-5.821764096617698669e-02,7.097209095954895020e-01,-1.399570226669311523e+00,-1.051999688148498535e+00,-1.388825774192810059e+00,1.077668786048889160e+00,1.915224492549896240e-01,8.301863074302673340e-01,7.144411206245422363e-01,1.285379052162170410e+00,-4.337764978408813477e-01,-1.558154940605163574e+00,-2.423451691865921021e-01,1.824635386466979980e+00,-2.818384468555450439e-01,-4.059280455112457275e-01,2.385855279862880707e-02,-3.814651966094970703e-01,2.040330171585083008e+00,5.565389990806579590e-01,-2.056256681680679321e-01,6.427963376045227051e-01,6.099483370780944824e-01,-1.622045278549194336e+00,-5.310115814208984375e-01,-2.294313609600067139e-01,1.792398840188980103e-01,2.250369638204574585e-01,1.053907036781311035e+00,5.732638239860534668e-01,8.888412714004516602e-01,1.180480957031250000e+00,-1.426181674003601074e+00
-6.582056283950805664e-01,-4.724426269531250000e-01,1.379729390144348145e+00,-3.584370315074920654e-01,5.042848587036132812e-01,1.837587356567382812e+00,2.851941585540771484e-01,1.363087177276611328e+00,-1.819516777992248535e+00,1.578930318355560303e-01,2.050315856933593750e+00,2.255161106586456299e-02,1.369410455226898193e-01,7.206249982118606567e-02,-7.310492545366287231e-02,1.625233143568038940e-01,-3.071957528591156006e-01,-2.116479724645614624e-01,-4.141199588775634766e-01,-5.176148414611816406e-01,-5.584028959274291992e-01,1.127041816711425781e+00,-6.279053688049316406e-01,-1.580598950386047363e-01,-5.310814976692199707e-01,1.517159819602966309e+00,1.193008273839950562e-01,4.280087649822235107e-01,-6.952728629112243652e-01,1.279092550277709961e+00,-4.783930182456970215e-01,-2.878566384315490723e-01,-1.205198287963867188e+00,4.520671442151069641e-02,9.422903060913085938e-01,2.146113157272338867e+00,7.658560872077941895e-01,2.153451204299926758e+00,-1.019781112670898438e+00,-1.732702851295471191e+00,-7.268093228340148926e-01,1.206075549125671387e+00,-1.141920328140258789e+00,3.230467736721038818e-01,5.908830761909484863e-01,2.713475823402404785e-01,-1.210259795188903809e-01,8.020875453948974609e-01,3.655937314033508301e-01,1.025784134864807129e+00,3.648777604103088379e-01,-4.264949560165405273e-01,1.446070790290832520e+00,2.007848322391510010e-01,1.887338280677795410e+00,5.398285388946533203e-01,-9.771789908409118652e-01,1.154899522662162781e-01
8.571766614913940430e-01,-3.360386937856674194e-02,-6.717808842658996582e-01,5.217044353485107422e-01,2.048192918300628662e-01,-1.113342046737670898e+00,-1.307364106178283691e+00,1.671925067901611328e+00,8.500921726226806641e-01,8.320049047470092773e-01,-2.222416456788778305e-03,7.375342845916748047e-01,1.606773972511291504e+00,1.714236974716186523e+00,-6.218339800834655762e-01,-1.004290938377380371e+00,-1.154423594474792480e+00,5.410148501396179199e-01,2.674022316932678223e-01,-6.399390697479248047e-01,6.473251581192016602e-01,2.402488887310028076e-01,-2.205296158790588379e-01,5.272017717361450195e-01,4.605406224727630615e-01,1.850840449333190918e+00,-5.904226303100585938e-01,2.774817049503326416e-01,-4.174666404724121094e-01,-3.009919524192810059e-01,5.321497470140457153e-02,9.616907835006713867e-01,6.562399268150329590e-01,-1.751054376363754272e-01,2.094835937023162842e-01,-1.814206957817077637e+00,1.904950737953186035e+00,1.366559386253356934e+00,1.336366534233093262e+00,2.237887859344482422e+00,-3.793272972106933594e-01,2.293687462806701660e-01,-3.652136027812957764e-01,9.310461580753326416e-02,-8.831889927387237549e-02,1.913905978202819824e+00,5.803365707397460938e-01,8.429087996482849121e-01,1.602733969688415527e+00,2.095788955688476562e+00,-1.221966743469238281e+00,5.191144943237304688e-01,-1.511476516723632812e+00,8.757902681827545166e-02,-6.679137945175170898e-01,-1.567001342773437500e+00,-2.540116608142852783e-01,7.122015208005905151e-02
-6.713446974754333496e-01,-3.881987333297729492e-01,-3.448986709117889404e-01,-3.240425884723663330e-01,-4.181074202060699463e-01,-6.314314901828765869e-02,-1.273384928703308105e+00,1.035123467445373535e+00,4.163479506969451904e-01,8.032590150833129883e-01,-2.484278529882431030e-01,1.308673977851867676e+00,1.017473578453063965e+00,-1.195888996124267578e+00,1.292909860610961914e+00,7.472969591617584229e-02,-1.043324470520019531e+00,5.071746706962585449e-01,6.461613774299621582e-01,1.095765471458435059e+00,3.717475235462188721e-01,-1.120791554450988770e+00,-1.888630092144012451e-01,-2.911473512649536133e-01,-1.894166469573974609e+00,1.239043235778808594e+00,-1.187124609947204590e+00,2.139832079410552979e-01,2.578678727149963379e-01,3.481430411338806152e-01,1.324616312980651855e+00,6.611823439598083496e-01,-1.872625589370727539e+00,-3.840138614177703857e-01,-1.037458062171936035e+00,-7.705627381801605225e-02,-9.948449730873107910e-01,-4.436028301715850830e-01,1.346653252840042114e-01,8.852725625038146973e-01,7.590146660804748535e-01,1.296560168266296387e+00,-7.584054470062255859e-01,-9.471985697746276855e-02,1.497325897216796875e-01,3.353569507598876953e-01,5.125827193260192871e-01,7.508685588836669922e-01,1.694944798946380615e-01,-6.752780079841613770e-01,-6.340945363044738770e-01,1.480270326137542725e-01,2.157942533493041992e+00,-1.343872547149658203e+00,-3.487162888050079346e-01,-3.500032722949981689e-01,5.484704971313476562e-01,5.796461701393127441e-01
4.024353623390197754e-01,-1.530160427093505859e+00,-9.566106200218200684e-01,-6.839199066162109375e-01,-2.544459328055381775e-02,-3.624261021614074707e-01,1.229680061340332031e+00,2.030573785305023193e-01,-1.229790210723876953e+00,9.446926116943359375e-01,1.450108885765075684e+00,1.187144637107849121e+00,-1.168587580323219299e-01,-2.096794128417968750e+00,-1.316093951463699341e-01,1.605233788490295410e+00,7.612080574035644531e-01,7.838371396064758301e-01,-1.164462447166442871e+00,2.644694447517395020e-01,-7.543569803237915039e-02,-1.498301982879638672e+00,4.605088233947753906e-01,-1.486130595207214355e+00,-9.295086860656738281e-01,9.631527662277221680e-01,-1.349897146224975586e+00,5.829970836639404297e-01,-2.612152993679046631e-01,-1.129165768623352051e+00,-4.645564556121826172e-01,-4.940938353538513184e-01,-8.155458606779575348e-03,-8.920638561248779297e-01,1.718890666961669922e-01,-1.356880187988281250e+00,-2.910878062248229980e-01,-3.960926234722137451e-01,3.270288109779357910e-01,7.466861605644226074e-01,-2.440737187862396240e-01,-5.339443683624267578e-01,6.891193389892578125e-01,-1.709811449050903320e+00,-1.368529558181762695e+00,-1.533823609352111816e+00,1.363799422979354858e-01,-1.407275944948196411e-01,-1.905949592590332031e+00,1.660973191261291504e+00,7.270609140396118164e-01,1.203848242759704590e+00,2.937884628772735596e-01,5.130404829978942871e-01,-9.713380932807922363e-01,5.609738230705261230e-01,-3.860321342945098877e-01,-4.146819412708282471e-01
1.594913244247436523e+00,-1.409174799919128418e+00,-1.042497873306274414e+00,3.615208566188812256e-01,-1.019652009010314941e+00,8.131132125854492188e-01,2.111906290054321289e+00,-1.835011601448059082e+00,2.536324262619018555e-01,-1.126905798912048340e+00,-6.389719247817993164e-01,-4.246195852756500244e-01,-1.083134338259696960e-01,6.264504790306091309e-01,-2.978457212448120117e-01,6.955026984214782715e-01,3.899314105510711670e-01,7.335419207811355591e-02,1.093322515487670898e+00,-2.721880972385406494e-01,-7.458565384149551392e-02,5.061178803443908691e-01,8.302243351936340332e-01,-9.480676054954528809e-01,1.666965484619140625e+00,1.498105406761169434e+00,6.172754764556884766e-01,3.012247085571289062e-01,-1.194958567619323730e+00,1.313693404197692871e+00,1.705977618694305420e-01,1.201810464262962341e-01,5.764968991279602051e-01,1.668631911277770996e+00,-4.381714165210723877e-01,-7.165539860725402832e-01,5.432639271020889282e-02,-8.242095708847045898e-01,-1.414063692092895508e+00,-6.423453241586685181e-02,-1.457697272300720215e+00,-5.497061014175415039e-01,-9.472675323486328125e-01,-8.419580459594726562e-01,5.310212373733520508e-01,8.334687948226928711e-01,-8.175267279148101807e-02,3.175744712352752686e-01,2.816122472286224365e-01,-7.246364355087280273e-01,-4.657262265682220459e-01,-3.381768465042114258e-01,1.137491941452026367e+00,1.961812138557434082e+00,-3.298796415328979492e-01,-2.391450107097625732e-01,1.120132803916931152e-01,-1.151841878890991211e+00
1.800500392913818359e+00,1.803030729293823242e+00,-6.764591336250305176e-01,-2.799237072467803955e-01,1.001353502273559570e+00,-5.744155049324035645e-01,-1.016774892807006836e+00,-9.106329083442687988e-01,-1.122591614723205566e+00,2.011887550354003906e+00,-1.025668829679489136e-01,-2.006214618682861328e+00,2.183436974883079529e-02,-9.657382965087890625e-01,-6.480104923248291016e-01,1.204800724983215332e+00,-1.407803058624267578e+00,7.730586826801300049e-02,7.768436074256896973e-01,-5.385587215423583984e-01,-9.853662848472595215e-01,-2.174974203109741211e+00,-4.456802010536193848e-01,6.320781111717224121e-01,1.077110409736633301e+00,-1.203892707824707031e+00,-1.924318671226501465e-01,-1.797815918922424316e+00,-4.872002899646759033e-01,3.813978517428040504e-03,-2.163591794669628143e-02,-7.624608874320983887e-01,-1.374525785446166992e+00,1.185185670852661133e+00,5.759295225143432617e-01,9.416752457618713379e-01,-1.254100203514099121e+00,-4.945341348648071289e-01,1.900921940803527832e+00,3.160067200660705566e-01,1.205023050308227539e+00,-4.884720742702484131e-01,6.478865146636962891e-01,-1.055243253707885742e+00,-4.034892916679382324e-01,-8.755707144737243652e-01,-1.047133326530456543e+00,-6.948827505111694336e-01,-6.528635621070861816e-01,5.644466876983642578e-01,-9.884606599807739258e-01,-1.221362113952636719e+00,-7.485240101814270020e-01,-8.940005898475646973e-01,1.995084993541240692e-02,-6.078612804412841797e-01,9.921183586120605469e-01,1.064232945442199707e+00
7.415700554847717285e-01,-5.822730064392089844e-02,-3.129609346389770508e+00,1.704453706741333008e+00,9.792309999465942383e-01,-6.105325222015380859e-01,3.015790581703186035e-01,-8.249153494834899902e-01,2.264934539794921875e+00,1.332337617874145508e+00,-1.392176628112792969e+00,-5.414592623710632324e-01,1.098419427871704102e+00,-9.970142841339111328e-01,-1.859937906265258789e+00,3.076936006546020508e-01,2.034723758697509766e+00,-9.149639010429382324e-01,-7.735177874565124512e-02,-8.595693856477737427e-02,-2.290634870529174805e+00,1.278955221176147461e+00,-1.030489325523376465e+00,-7.813152670860290527e-01,8.663821220397949219e-01,7.917425036430358887e-01,1.063152909278869629e+00,-9.135523438453674316e-01,1.370838191360235214e-02,7.574656009674072266e-01,-8.094415068626403809e-01,7.248119115829467773e-01,2.158089429140090942e-01,-8.475202918052673340e-01,2.935842573642730713e-01,-9.831718802452087402e-01,-4.201207756996154785e-01,4.904995858669281006e-01,2.833617031574249268e-01,4.594157636165618896e-01,1.066425561904907227e+00,-6.783802509307861328e-01,1.852575063705444336e+00,-1.894968271255493164e+00,-4.230513572692871094e-01,1.848364114761352539e+00,5.455725193023681641e-01,7.687830328941345215e-01,-9.786158800125122070e-02,2.170973539352416992e+00,-2.398590594530105591e-01,-7.025586813688278198e-02,-1.134629845619201660e+00,2.251343011856079102e+00,-6.876351237297058105e-01,-2.278738766908645630e-01,-1.078849911689758301e+00,-2.014663219451904297e-01
-9.577586650848388672e-01,-7.954000681638717651e-02,9.619741439819335938e-01,-1.184644222259521484e+00,3.397260904312133789e-01,-1.790167391300201416e-01,3.656637668609619141e-01,-9.022484719753265381e-02,-7.725685834884643555e-01,-3.754896819591522217e-01,-9.123726487159729004e-01,2.736152410507202148e+00,-9.750600904226303101e-02,1.806970715522766113e+00,6.178336739540100098e-01,5.112816691398620605e-01,-7.242391705513000488e-01,-9.976691752672195435e-02,-3.583511412143707275e-01,1.348848938941955566e-01,-1.331490397453308105e+00,5.579324960708618164e-01,8.664650917053222656e-01,8.224694728851318359e-01,4.643859267234802246e-01,-6.609730720520019531e-01,-8.194471001625061035e-01,-7.054985761642456055e-01,-1.817868709564208984e+00,9.316278696060180664e-01,-7.570527791976928711e-01,9.519600272178649902e-01,1.332772493362426758e+00,3.992248773574829102e-01,-1.171685382723808289e-01,-1.404119729995727539e-01,7.478851079940795898e-01,1.400228857994079590e+00,-7.284876108169555664e-01,-4.427458345890045166e-01,1.355357766151428223e-01,-3.223405182361602783e-01,-6.229166388511657715e-01,-4.525849968194961548e-02,-2.884330749511718750e-01,5.098215341567993164e-01,-6.797565519809722900e-02,-7.560626864433288574e-01,1.122871041297912598e+00,-1.553959727287292480e+00,2.810133248567581177e-02,-6.034904718399047852e-01,-6.945364475250244141e-01,-6.397317051887512207e-01,9.234738349914550781e-01,1.171383738517761230e+00,-2.101288557052612305e+00,-1.149721026420593262e+00
3.462139368057250977e-01,-1.461909770965576172e+00,-3.192746266722679138e-02,-8.767839670181274414e-01,7.879756093025207520e-01,4.570746421813964844e-01,2.728728771209716797e+00,1.571983247995376587e-01,-3.556025624275207520e-01,1.139537930488586426e+00,-6.064522862434387207e-01,-4.062237739562988281e-01,1.804304271936416626e-01,-1.693583250045776367e+00,7.074704766273498535e-01,-1.728012442588806152e+00,-6.640643477439880371e-01,8.334246277809143066e-02,-1.755837678909301758e+00,-1.132646441459655762e+00,-1.328170418739318848e+00,1.618891239166259766e+00,-2.085006475448608398e+00,7.464122772216796875e-02,-1.558330059051513672e+00,-9.169636368751525879e-01,8.093115687370300293e-01,5.914434194564819336e-01,7.048174738883972168e-01,1.080182552337646484e+00,1.465473175048828125e+00,8.054203987121582031e-01,1.060980319976806641e+00,-6.146718859672546387e-01,-1.032799839973449707e+00,1.765810608863830566e+00,1.055750131607055664e+00,-4.666732251644134521e-01,6.476392745971679688e-01,-1.088244676589965820e+00,-4.702907204627990723e-01,-1.235516190528869629e+00,-1.881661891937255859e+00,-1.115914225578308105e+00,-1.929142475128173828e+00,-7.127370834350585938e-01,7.883365154266357422e-01,1.391499042510986328e+00,1.667467504739761353e-01,-1.632308512926101685e-01,3.087059594690799713e-02,-5.565299391746520996e-01,4.707119166851043701e-01,3.473995625972747803e-01,-2.314266920089721680e+00,-1.248379707336425781e+00,5.341638326644897461e-01,-1.518788576126098633e+00
2.574534893035888672e+00,1.118358373641967773e+00,1.056029796600341797e-01,5.544047951698303223e-01,-5.671381354331970215e-01,2.424725890159606934e-01,-3.538559377193450928e-01,-3.985956907272338867e-01,-1.307807326316833496e+00,8.475104719400405884e-02,-6.155551075935363770e-01,1.167360544204711914e+00,-9.048947133123874664e-03,1.362802624702453613e+00,-5.342475771903991699e-01,9.555096030235290527e-01,-8.150292932987213135e-02,-5.706685781478881836e-01,-5.565189123153686523e-01,7.044977545738220215e-01,1.852905273437500000e+00,-1.967223733663558960e-01,-3.721421957015991211e-01,1.417259573936462402e-01,-2.496265888214111328e+00,9.150648713111877441e-01,1.790577620267868042e-01,1.024539232254028320e+00,1.108847498893737793e+00,-2.297894716262817383e+00,3.292276263236999512e-01,7.331816554069519043e-01,1.542251944541931152e+00,1.376816391944885254e+00,6.019389033317565918e-01,7.173277735710144043e-01,-4.407575130462646484e-01,-1.178927063941955566e+00,-1.325493156909942627e-01,1.287210226058959961e+00,-6.914626061916351318e-02,-4.380874633789062500e-01,2.707615494728088379e-02,-2.283635377883911133e+00,2.522715628147125244e-01,5.453270077705383301e-01,9.330247044563293457e-01,-1.432332515716552734e+00,2.118719577789306641e+00,8.397819995880126953e-01,1.361360192298889160e+00,2.761083602905273438e+00,-4.445533454418182373e-01,-6.978688240051269531e-01,8.325636386871337891e-01,-1.157946467399597168e+00,3.404940664768218994e-01,-2.699853181838989258e-01
5.522430539131164551e-01,1.284438729286193848e+00,8.907636404037475586e-01,-1.964719176292419434e+00,1.151327133178710938e+00,-9.031386971473693848e-01,-4.942708313465118408e-01,-4.403024613857269287e-01,1.430127978324890137e+00,9.207435250282287598e-01,-4.840404689311981201e-01,-2.963144481182098389e-01,-1.432029485702514648e+00,1.683396548032760620e-01,-2.760150432586669922e-01,-1.226355284452438354e-01,-3.989735245704650879e-02,-1.091311499476432800e-02,-7.880027294158935547e-01,1.235137104988098145e+00,-5.574816465377807617e-01,1.695982813835144043e+00,1.041838645935058594e+00,-6.108365058898925781e-01,2.438920140266418457e-01,-1.699730873107910156e+00,7.421191930770874023e-01,4.267291724681854248e-01,-5.280869603157043457e-01,2.780044078826904297e-01,6.036179661750793457e-01,8.939203619956970215e-01,-7.738133072853088379e-01,9.334172010421752930e-01,1.576694488525390625e+00,7.988777160644531250e-01,-6.996214985847473145e-01,1.476903319358825684e+00,-1.163527136668562889e-03,-9.867857694625854492e-01,-1.851811110973358154e-01,-1.228642106056213379e+00,-5.866442918777465820e-01,-7.374621629714965820e-01,1.390273869037628174e-01,-4.761319160461425781e-01,-7.402812838554382324e-01,-7.014313936233520508e-01,-5.407223105430603027e-02,-1.010636925697326660e+00,-6.901851892471313477e-01,7.080340385437011719e-01,1.178826838731765747e-01,1.479592204093933105e+00,5.520467758178710938e-01,-7.551378607749938965e-01,1.530973434448242188e+00,8.559712767601013184e-01
8.971582055091857910e-01,8.969217538833618164e-02,1.247071027755737305e+00,6.872341036796569824e-01,1.304082155227661133e+00,-9.809453487396240234e-01,-5.238104462623596191e-01,-1.165286421775817871e+00,-1.941791921854019165e-01,-2.150423526763916016e-01,4.251620545983314514e-02,1.433105826377868652e+00,-1.338097214698791504e+00,1.246694996953010559e-01,8.640939593315124512e-01,8.397080749273300171e-02,-7.272109985351562500e-01,-7.614812254905700684e-01,-2.099631786346435547e+00,7.211938500404357910e-02,4.152967631816864014e-01,-1.192819952964782715e+00,-2.439857870340347290e-01,-5.769513249397277832e-01,6.453959345817565918e-01,1.682746052742004395e+00,-2.631016075611114502e-01,-1.687541365623474121e+00,-1.192356586456298828e+00,-2.621572613716125488e-01,8.974276185035705566e-01,5.647010207176208496e-01,-6.107234954833984375e-01,-2.099777460098266602e-01,-2.903944730758666992e+00,1.825188159942626953e+00,-3.179026246070861816e-01,3.513664901256561279e-01,-1.071584671735763550e-01,-1.132218122482299805e+00,1.427340358495712280e-01,-2.693702280521392822e-01,8.403657674789428711e-01,1.946462392807006836e+00,1.210083961486816406e+00,1.019556879997253418e+00,1.145402193069458008e+00,-6.155019998550415039e-01,1.247889995574951172e+00,-1.741672158241271973e+00,5.755667388439178467e-02,1.800820350646972656e+00,7.955478429794311523e-01,-1.929367542266845703e+00,-3.876508772373199463e-01,-1.566371202468872070e+00,-2.357089519500732422e+00,3.315191268920898438e-01
2.841064929962158203e+00,-5.922906398773193359e-01,-2.196777820587158203e+00,2.160413742065429688e+00,1.348119616508483887e+00,1.378400344401597977e-02,-4.165987074375152588e-01,2.763856887817382812e+00,7.990966439247131348e-01,-1.245464682579040527e+00,-1.220627784729003906e+00,1.040744185447692871e+00,1.916237950325012207e+00,3.891469836235046387e-01,1.031962156295776367e+00,-7.163803577423095703e-01,-1.388334035873413086e+00,1.616767168045043945e+00,5.590727329254150391e-01,-6.605734825134277344e-01,6.688000261783599854e-02,2.595097422599792480e-01,4.381096363067626953e-01,-9.615778326988220215e-01,-1.919588923454284668e+00,-3.994815051555633545e-01,-4.170252978801727295e-01,5.397659167647361755e-02,5.771547555923461914e-01,8.350270986557006836e-02,-9.690823033452033997e-03,-1.551851153373718262e+00,1.199855566024780273e+00,-1.067297816276550293e+00,2.425774574279785156e+00,1.283384203910827637e+00,-1.264479637145996094e+00,-1.706653714179992676e+00,-3.610634505748748779e-01,-4.250466823577880859e-01,-1.025461435317993164e+00,3.148297965526580811e-01,-4.762660562992095947e-01,4.357116222381591797e-01,6.538560390472412109e-01,3.500662744045257568e-01,9.594969451427459717e-02,-2.436782568693161011e-01,1.362195253372192383e+00,-1.235976099967956543e+00,2.627724885940551758e+00,-9.823531508445739746e-01,1.040121793746948242e+00,-1.606602191925048828e+00,-3.090247511863708496e-01,-1.518632531166076660e+00,-1.094470381736755371e+00,-6.379929929971694946e-02
5.136018991470336914e-01,-3.358822166919708252e-01,-2.039191484451293945e+00,6.640256047248840332e-01,3.772515952587127686e-01,-1.125382661819458008e+00,9.007237553596496582e-01,-1.585178375244140625e+00,-6.929635405540466309e-01,1.343271851539611816e+00,-1.095203042030334473e+00,-2.219397276639938354e-01,1.330501735210418701e-01,-1.349256634712219238e+00,-1.436656415462493896e-01,-4.998413324356079102e-01,-2.014230966567993164e+00,4.410085678100585938e-01,-1.184468746185302734e+00,-1.750978827476501465e-01,-2.833347916603088379e-01,-5.430050492286682129e-01,4.687837883830070496e-02,5.052760243415832520e-01,-8.744297027587890625e-01,5.923889875411987305e-01,-4.818593859672546387e-01,8.158897608518600464e-02,-9.201704263687133789e-01,3.821833431720733643e-01,1.464173078536987305e+00,-5.307344198226928711e-01,1.071461364626884460e-01,-5.153515934944152832e-02,-4.423840045928955078e-01,-7.892463207244873047e-01,-4.621874094009399414e-01,2.731451578438282013e-02,1.176650524139404297e+00,-2.033396720886230469e+00,-9.952604025602340698e-02,-1.376168489456176758e+00,-5.826663970947265625e-01,-5.255465954542160034e-02,-4.318529069423675537e-01,1.916847705841064453e+00,-6.110903248190879822e-02,-1.606043338775634766e+00,7.722221016883850098e-01,2.860980927944183350e-01,6.617408990859985352e-01,-2.085425853729248047e-01,1.902736872434616089e-01,-5.863484740257263184e-02,1.860609769821166992e+00,1.605346322059631348e+00,-1.327231168746948242e+00,8.661245107650756836e-01
7.393261194229125977e-01,1.884662270545959473e+00,-3.788716197013854980e-01,-1.025240182876586914e+00,-1.366079092025756836e+00,-1.244620800018310547e+00,-9.751773476600646973e-01,2.544755116105079651e-02,5.863356590270996094e-01,7.385084033012390137e-01,-2.663393020629882812e-01,-2.883587479591369629e-01,-3.171319663524627686e-01,2.935382723808288574e-01,-4.972481727600097656e-01,-2.801197469234466553e-01,1.324354767799377441e+00,-7.602676749229431152e-01,1.318921327590942383e+00,-2.111124753952026367e+00,-7.680122274905443192e-03,3.226856231689453125e+00,-1.262545436620712280e-01,-1.595309190452098846e-02,1.283596634864807129e+00,1.689642667770385742e-01,3.991022109985351562e-01,-1.024037718772888184e+00,-1.697457432746887207e+00,-8.332957029342651367e-01,3.859489038586616516e-02,-5.928413867950439453e-01,8.842303156852722168e-01,4.955742955207824707e-01,4.942031502723693848e-01,-2.218372821807861328e+00,1.015988886356353760e-01,-1.256977438926696777e+00,-2.105390548706054688e+00,-1.025196909904479980e+00,-5.836825370788574219e-01,8.756313920021057129e-01,-1.299605965614318848e+00,3.500706553459167480e-01,7.993549704551696777e-01,3.639114797115325928e-01,1.083374738693237305e+00,-7.390850186347961426e-01,-2.613171041011810303e-01,5.884731411933898926e-01,1.609261155128479004e+00,9.260479211807250977e-01,-6.389109492301940918e-01,1.193149462342262268e-01,5.603422522544860840e-01,-6.169563904404640198e-02,-1.305046677589416504e+00,-4.686223268508911133e-01
-6.112207770347595215e-01,1.865215003490447998e-01,2.702571451663970947e-01,5.633085966110229492e-02,-9.358119368553161621e-01,1.158942937850952148e+00,-1.809817105531692505e-01,9.986864328384399414e-01,-1.227909803390502930e+00,1.492263525724411011e-01,-8.732035756111145020e-01,-1.196435928344726562e+00,4.557479321956634521e-01,-3.184805810451507568e-01,1.924891769886016846e-01,-3.472929075360298157e-02,2.942604124546051025e-01,-9.651669301092624664e-03,8.473714590072631836e-01,4.156614840030670166e-01,6.863734722137451172e-01,-5.842024683952331543e-01,1.708883941173553467e-01,1.301039457321166992e-01,-1.567349910736083984e+00,-1.069609671831130981e-01,7.295762896537780762e-01,-1.586945056915283203e+00,-2.036618709564208984e+00,4.053227901458740234e-01,2.111827850341796875e+00,-1.152398347854614258e+00,1.938018083572387695e+00,-6.956732273101806641e-01,-1.532163023948669434e+00,1.237022995948791504e+00,1.566540241241455078e+00,7.568424344062805176e-01,1.157195806503295898e+00,1.925541460514068604e-01,-3.755206987261772156e-02,-5.504216253757476807e-02,-3.842836618423461914e-01,-1.058182358741760254e+00,-5.308872461318969727e-01,-1.305898427963256836e+00,-1.046984314918518066e+00,-1.010861515998840332e+00,-5.389450788497924805e-01,-4.491084516048431396e-01,-1.695368647575378418e+00,-1.319071769714355469e+00,4.714444279670715332e-01,-1.762676596641540527e+00,6.854882240295410156e-01,3.469413816928863525e-01,-4.763896390795707703e-02,1.809260606765747070e+00
-1.648598164319992065e-01,8.618746995925903320e-01,-1.490859150886535645e+00,-5.194630026817321777e-01,7.552740573883056641e-01,1.022406458854675293e+00,4.641123488545417786e-02,1.191105246543884277e+00,7.478069067001342773e-01,-4.668269157409667969e-01,9.976848959922790527e-01,7.744187712669372559e-01,-1.379281044006347656e+00,-4.677221775054931641e-01,-1.552508473396301270e+00,6.765467524528503418e-01,-1.370105028152465820e+00,-1.060992002487182617e+00,5.294176936149597168e-01,3.609165921807289124e-02,-5.091440081596374512e-01,-9.103516936302185059e-01,-1.948914304375648499e-02,-8.078870773315429688e-01,5.594160556793212891e-01,7.909216284751892090e-01,-1.772670000791549683e-01,-9.184315800666809082e-01,-1.318489074707031250e+00,-4.090690910816192627e-01,-6.600532531738281250e-01,-1.256490051746368408e-01,4.398305714130401611e-01,4.666472598910331726e-02,-1.824766278266906738e+00,2.171546459197998047e+00,9.762874245643615723e-02,2.766295671463012695e-01,-4.433774054050445557e-01,1.478974699974060059e+00,-2.154433488845825195e+00,1.548558950424194336e+00,-7.837148308753967285e-01,3.218223571777343750e+00,2.074225097894668579e-01,-6.371650695800781250e-01,-1.104671001434326172e+00,-1.615030407905578613e+00,-4.275499284267425537e-01,-2.161964029073715210e-01,-5.158816576004028320e-01,2.444968372583389282e-01,-6.649296283721923828e-01,-1.010077953338623047e+00,2.860057055950164795e-01,1.336989641189575195e+00,6.646772623062133789e-01,-4.838493838906288147e-02
1.856181740760803223e+00,-1.005030035972595215e+00,2.364987611770629883e+00,-6.912720203399658203e-01,-1.045413851737976074e+00,-2.428051471710205078e+00,7.273603081703186035e-01,6.463166475296020508e-01,1.105760335922241211e+00,1.179932951927185059e+00,3.522776812314987183e-02,-9.089900851249694824e-01,-9.416971355676651001e-02,5.731195807456970215e-01,3.870502114295959473e-01,9.743006825447082520e-01,7.806766033172607422e-01,-1.236480951309204102e+00,-1.370109438896179199e+00,2.376711219549179077e-01,1.429843425750732422e+00,-6.364455819129943848e-01,1.974488608539104462e-02,-6.436465382575988770e-01,6.666488647460937500e-01,5.344691872596740723e-01,1.238781929016113281e+00,-7.223682403564453125e-01,1.074458837509155273e+00,-9.413852095603942871e-01,-2.674879133701324463e-01,2.593438923358917236e-01,-5.374576449394226074e-01,7.835564017295837402e-01,-1.430567264556884766e+00,-7.157542109489440918e-01,6.313065886497497559e-01,1.533359438180923462e-01,1.320114731788635254e-01,-1.048768162727355957e-01,8.088742494583129883e-01,1.859519243240356445e+00,-3.576634228229522705e-01,-2.304603338241577148e+00,4.963258206844329834e-01,-1.171764954924583435e-01,1.790875077247619629e+00,8.673865199089050293e-01,-1.878788828849792480e+00,-1.694575667381286621e+00,-3.647203743457794189e-01,7.908747792243957520e-01,1.616723060607910156e+00,-4.593110978603363037e-01,1.157478451728820801e+00,-5.169906020164489746e-01,6.108028888702392578e-01,-1.584434211254119873e-01
2.944898307323455811e-01,5.786019563674926758e-01,6.673491746187210083e-02,1.247902393341064453e+00,-1.987218141555786133e+00,2.444207668304443359e+00,7.006739974021911621e-01,-1.140157341957092285e+00,5.556847453117370605e-01,1.317355513572692871e+00,-2.897169291973114014e-01,-7.496470808982849121e-01,-8.731954097747802734e-01,-2.057293415069580078e+00,9.751540422439575195e-01,-4.830242693424224854e-01,-4.533558785915374756e-01,5.831152200698852539e-01,-1.361677646636962891e+00,-2.383431494235992432e-01,4.942559599876403809e-01,-1.648421287536621094e-01,1.100173234939575195e+00,6.171770095825195312e-01,1.487532377243041992e+00,1.608669519424438477e+00,-3.551136851310729980e-01,-1.138131856918334961e+00,4.231551587581634521e-01,-1.253239274024963379e+00,-3.633458018302917480e-01,8.704198598861694336e-01,-3.426927030086517334e-01,2.061180830001831055e+00,-1.441387414932250977e+00,2.768479287624359131e-01,1.990163087844848633e+00,2.989709675312042236e-01,4.807707965373992920e-01,-1.133601665496826172e+00,-8.092156648635864258e-01,-1.881299376487731934e+00,-1.453100204467773438e+00,9.187899231910705566e-01,2.284807682037353516e+00,-1.180972456932067871e+00,7.028555870056152344e-02,-2.621210515499114990e-01,1.042007565498352051e+00,-1.069108992815017700e-01,-1.380793899297714233e-01,-5.269004106521606445e-01,-9.279861450195312500e-01,-3.072111904621124268e-01,-1.833659857511520386e-01,9.859427809715270996e-01,-1.238550305366516113e+00,-4.330647736787796021e-02
-1.130875349044799805e-01,1.861454129219055176e+00,-2.386868596076965332e-01,-1.930814534425735474e-01,-1.088341355323791504e+00,1.711326956748962402e+00,1.421493291854858398e+00,-7.765921354293823242e-01,4.005353450775146484e-01,-2.181928634643554688e+00,3.523005843162536621e-01,-1.428968906402587891e-01,1.073082327842712402e+00,1.456318378448486328e+00,2.868525311350822449e-02,5.834707617759704590e-01,-8.673549890518188477e-01,1.569445013999938965e+00,-1.526525735855102539e+00,1.086272835731506348e+00,4.321953654289245605e-01,-5.779334306716918945e-01,-1.833177924156188965e+00,4.558922946453094482e-01,-3.441573062445968390e-04,1.787090897560119629e-01,1.072010397911071777e+00,1.011132955551147461e+00,-9.006031155586242676e-01,-7.389124035835266113e-01,1.783617496490478516e+00,3.740430474281311035e-01,-5.012960433959960938e-01,-1.449265837669372559e+00,-7.798308134078979492e-01,-1.209117174148559570e+00,1.734325647354125977e+00,3.957440555095672607e-01,3.436397612094879150e-01,9.231105446815490723e-01,-9.283084869384765625e-01,4.375096857547760010e-01,7.552938163280487061e-02,-7.951757907867431641e-01,1.530938982963562012e+00,-1.272467732429504395e+00,1.303983092308044434e+00,8.635781705379486084e-02,2.957109510898590088e-01,-1.958213329315185547e+00,-1.265329599380493164e+00,1.743025183677673340e+00,1.515063524246215820e+00,2.829179167747497559e-01,9.683479070663452148e-01,-6.356146931648254395e-01,4.277275502681732178e-01,1.703444957733154297e+00
-1.744782924652099609e+00,-2.764289081096649170e-01,-2.025428861379623413e-01,1.149298667907714844e+00,2.682653903961181641e+00,-7.009167671203613281e-01,1.000413775444030762e+00,3.298607170581817627e-01,3.476076126098632812e-01,-2.343118339776992798e-01,-8.151677846908569336e-01,-2.671762108802795410e-01,2.352377027273178101e-02,6.897510290145874023e-01,-2.179910182952880859e+00,1.583094298839569092e-01,2.199335098266601562e-01,2.266559123992919922e+00,6.570381522178649902e-01,1.137590885162353516e+00,1.214083552360534668e+00,-1.127019047737121582e+00,-1.078779935836791992e+00,-1.105907797813415527e+00,4.117452502250671387e-01,7.423968911170959473e-01,-2.712253332138061523e-01,8.411833643913269043e-01,8.494357466697692871e-01,2.884014248847961426e-01,-6.746562123298645020e-01,3.697496652603149414e-01,-6.705343127250671387e-01,-2.486271560192108154e-01,-1.296675562858581543e+00,1.565667033195495605e+00,-6.730858087539672852e-01,6.936646103858947754e-01,1.250955700874328613e+00,1.013985037803649902e+00,1.122868895530700684e+00,-1.098446398973464966e-01,-3.755651414394378662e-01,-7.239925265312194824e-01,1.097083926200866699e+00,5.182572603225708008e-01,6.121202707290649414e-01,8.304123580455780029e-02,2.126411676406860352e+00,1.571750760078430176e+00,1.403903961181640625e-01,8.302203416824340820e-01,-4.479487538337707520e-01,2.030832529067993164e+00,1.194177865982055664e+00,1.256325244903564453e+00,-5.999767780303955078e-01,-9.209156632423400879e-01
8.480563759803771973e-01,1.124047279357910156e+00,-1.403276562690734863e+00,-3.801665008068084717e-01,-3.137837052345275879e-01,3.417143225669860840e-02,6.606516242027282715e-01,-1.362004756927490234e+00,-6.775416731834411621e-01,-4.367389678955078125e-01,2.566334962844848633e+00,8.270718455314636230e-01,1.972577095031738281e+00,5.639932304620742798e-02,-1.406416147947311401e-01,-1.110016822814941406e+00,1.636224150657653809e+00,-3.969285488128662109e-01,5.533390641212463379e-01,1.548473477363586426e+00,2.063308954238891602e+00,-6.839556992053985596e-02,-5.830624699592590332e-01,7.214806675910949707e-01,9.117327928543090820e-01,-1.552121639251708984e+00,-5.322651267051696777e-01,-5.611125230789184570e-01,5.481874942779541016e-01,4.739474058151245117e-01,-1.497176408767700195e+00,1.929034292697906494e-01,1.967839598655700684e+00,-1.487201750278472900e-01,4.312630593776702881e-01,-1.134638428688049316e+00,-3.499569892883300781e-01,1.400279283523559570e+00,-4.242956638336181641e-01,-7.782489657402038574e-01,-7.240106463432312012e-01,5.053408443927764893e-02,-6.041108071804046631e-02,-1.155874252319335938e+00,2.299411892890930176e-01,-1.334790825843811035e+00,-1.271973829716444016e-02,1.136157512664794922e+00,2.992232739925384521e-01,8.016260266304016113e-01,4.220986962318420410e-01,-4.048674106597900391e-01,6.505558490753173828e-01,1.167504191398620605e+00,1.491788923740386963e-01,8.560198545455932617e-01,6.129579544067382812e-01,-6.344292163848876953e-01
1.405728459358215332e-01,-7.392660975456237793e-01,1.392316579818725586e+00,-1.304900407791137695e+00,-1.170802637934684753e-01,-2.871457487344741821e-03,1.457827568054199219e+00,3.148097693920135498e-01,-7.759814262390136719e-01,-5.693098306655883789e-01,-3.868675231933593750e-01,1.303335577249526978e-01,8.338826894760131836e-01,4.292250275611877441e-01,1.756679713726043701e-01,2.462579727172851562e+00,6.090876460075378418e-01,1.340442180633544922e+00,1.121504306793212891e+00,4.979409575462341309e-01,-8.039063215255737305e-01,8.203455209732055664e-01,1.621220946311950684e+00,2.498149424791336060e-01,6.478324532508850098e-01,1.418609976768493652e+00,1.020359396934509277e+00,1.880847662687301636e-01,-1.613967537879943848e+00,3.456389307975769043e-01,3.423255980014801025e-01,5.731191039085388184e-01,-3.217486664652824402e-04,7.473635077476501465e-01,-5.540422201156616211e-01,-1.806174993515014648e+00,-8.750308752059936523e-01,1.538383066654205322e-01,8.053038120269775391e-01,1.973349303007125854e-01,7.788671255111694336e-01,-1.931819558143615723e+00,1.099902749061584473e+00,1.315720558166503906e+00,-5.568488836288452148e-01,3.069700896739959717e-01,5.942038297653198242e-01,1.425568342208862305e+00,-2.449426174163818359e+00,-1.064464807510375977e+00,-1.194471493363380432e-01,1.736546754837036133e+00,6.659658998250961304e-02,4.164536595344543457e-01,1.248968243598937988e+00,-8.680335879325866699e-01,-1.910731792449951172e+00,-7.570033073425292969e-01
1.652816653251647949e+00,1.964918971061706543e+00,1.256109476089477539e-01,-5.664796233177185059e-01,2.941808663308620453e-02,2.203527390956878662e-01,9.613028168678283691e-01,3.340407907962799072e-01,-1.209822148084640503e-01,1.551384210586547852e+00,-8.767306208610534668e-01,-9.611149430274963379e-01,-9.397634267807006836e-01,5.230970978736877441e-01,1.696370601654052734e+00,-2.711789906024932861e-01,1.183288842439651489e-01,4.204776883125305176e-02,1.151007413864135742e+00,-1.337368726730346680e+00,-4.121702015399932861e-01,1.196597337722778320e+00,3.895308673381805420e-01,-1.047967314720153809e+00,6.233878731727600098e-01,-3.310337662696838379e-01,-8.986538052558898926e-01,1.699722766876220703e+00,1.487531661987304688e+00,-1.482872962951660156e+00,2.613053321838378906e-01,1.092375040054321289e+00,1.288325548171997070e+00,1.799723625183105469e+00,1.025990486145019531e+00,1.166753470897674561e-01,7.206567525863647461e-01,-1.373222827911376953e+00,-7.730834484100341797e-01,9.829490780830383301e-01,1.853015303611755371e+00,1.321454167366027832e+00,-3.673163652420043945e-01,4.968393594026565552e-02,1.360809087753295898e+00,3.011679053306579590e-01,-1.298631072044372559e+00,1.179745867848396301e-01,-6.656751036643981934e-01,-1.997819542884826660e-01,-2.244490832090377808e-01,-1.607647165656089783e-02,9.591376185417175293e-01,1.304566025733947754e+00,1.338107585906982422e+00,-6.277003884315490723e-01,-1.637590765953063965e+00,5.015144944190979004e-01
-9.077780246734619141e-01,1.247575163841247559e+00,-7.672753334045410156e-01,-2.076929807662963867e-01,-1.199153304100036621e+00,-1.062791466712951660e+00,-1.813659548759460449e+00,1.678390651941299438e-01,7.000792622566223145e-01,-4.362472593784332275e-01,-1.925280451774597168e+00,-3.249921202659606934e-01,-2.552886724472045898e+00,1.350834608078002930e+00,8.909819722175598145e-01,-2.509196519851684570e+00,-1.426285505294799805e+00,1.116022348403930664e+00,7.512565255165100098e-01,-1.178716540336608887e+00,2.536321580410003662e-01,-8.041889071464538574e-01,-2.403267025947570801e-01,1.267098307609558105e+00,-9.718111753463745117e-01,-1.615309357643127441e+00,-4.579022526741027832e-01,7.238774895668029785e-01,-6.277218461036682129e-01,7.461659908294677734e-01,-1.879294514656066895e-01,7.404813915491104126e-02,-1.606689214706420898e+00,-1.514810204505920410e+00,-1.354243040084838867e+00,-1.722580008208751678e-02,-5.170165300369262695e-01,-4.352942705154418945e-01,2.020480871200561523e+00,1.433870792388916016e+00,1.925702095031738281e+00,-1.998462438583374023e+00,-7.755962610244750977e-01,-1.347377061843872070e+00,-1.762002557516098022e-01,-3.236626088619232178e-01,-2.010540850460529327e-02,-3.909210562705993652e-01,2.165370702743530273e+00,3.209357857704162598e-01,-9.091850370168685913e-02,3.223144114017486572e-01,-4.339343905448913574e-01,-8.746895790100097656e-01,6.219406127929687500e-01,1.434726476669311523e+00,5.147312879562377930e-01,-9.497534036636352539e-01
-8.684421330690383911e-02,-7.620162516832351685e-02,-2.285257339477539062e+00,4.160111248493194580e-01,7.625671029090881348e-01,1.647135019302368164e-01,-5.410724282264709473e-01,1.734066456556320190e-01,1.405122399330139160e+00,-1.259644627571105957e+00,-7.547478675842285156e-01,7.822363972663879395e-01,-7.485385239124298096e-02,6.893034577369689941e-01,-9.719474315643310547e-01,1.083112359046936035e+00,-1.175380587577819824e+00,1.800281703472137451e-01,6.845003962516784668e-01,1.233032345771789551e+00,-8.966404199600219727e-02,-1.383934378623962402e+00,1.987719535827636719e-02,-2.928071498870849609e+00,7.395271062850952148e-01,-1.135708570480346680e+00,-1.194897174835205078e+00,-4.806002974510192871e-01,1.296255886554718018e-01,-4.825640320777893066e-01,-6.813838481903076172e-01,9.314627051353454590e-01,-2.442398518323898315e-01,-5.017951130867004395e-01,-3.861462473869323730e-01,8.288218975067138672e-01,-1.438660383224487305e+00,-6.790374517440795898e-01,1.429741084575653076e-01,-1.141515851020812988e+00,-1.342838168144226074e+00,1.082996845245361328e+00,-9.864162206649780273e-01,-7.160277366638183594e-01,-2.219787687063217163e-01,-1.244301870465278625e-01,6.680838018655776978e-02,-1.653170734643936157e-01,-3.301126183941960335e-03,-9.860188961029052734e-01,1.209388136863708496e+00,-6.034966707229614258e-01,2.444586515426635742e+00,-5.191757227294147015e-04,-6.796100139617919922e-01,-1.653094589710235596e-01,5.087334513664245605e-01,-7.414218187332153320e-01
-9.451627135276794434e-01,-1.966123431921005249e-01,1.719545386731624603e-02,6.956070065498352051e-01,3.742960095405578613e-01,1.150500655174255371e+00,1.031408548355102539e+00,9.705969691276550293e-01,4.527852237224578857e-01,4.234026670455932617e-01,1.165939331054687500e+00,-2.596128582954406738e-01,1.242640614509582520e+00,-7.099086642265319824e-01,4.380572438240051270e-01,-1.615413427352905273e-01,2.280153989791870117e+00,-5.019222497940063477e-01,-5.013737082481384277e-01,-8.369748592376708984e-01,1.207645773887634277e+00,6.135129928588867188e-01,-3.242146670818328857e-01,6.007439494132995605e-01,-1.180342197418212891e+00,-4.789766389876604080e-03,-5.294989347457885742e-01,-1.227865338325500488e+00,1.199727416038513184e+00,2.040029287338256836e+00,1.440649628639221191e-01,-1.649360537528991699e+00,-3.070427477359771729e-01,-2.178822010755538940e-01,-9.187825322151184082e-01,6.632632613182067871e-01,1.302742809057235718e-01,-1.953224837779998779e-01,2.924055457115173340e-01,2.102595269680023193e-01,-8.359654545783996582e-01,5.592527389526367188e-01,-8.829519748687744141e-01,-1.184713602066040039e+00,-1.846352934837341309e+00,-1.152425289154052734e+00,1.355144977569580078e+00,-8.136350512504577637e-01,-4.446274638175964355e-01,-1.399793177843093872e-01,-1.025244951248168945e+00,1.140559911727905273e+00,-4.092156589031219482e-01,-1.880468964576721191e+00,-6.625213623046875000e-01,2.634821891784667969e+00,1.148413419723510742e+00,9.424170851707458496e-01
8.597849607467651367e-01,1.246313691139221191e+00,1.427982211112976074e+00,-6.593746542930603027e-01,-2.874410748481750488e-01,-9.213791489601135254e-01,-9.196995496749877930e-01,3.917227387428283691e-01,4.812864363193511963e-01,8.517898619174957275e-02,-7.062219977378845215e-01,-1.418212771415710449e+00,5.553970932960510254e-01,2.677090764045715332e-01,6.386435627937316895e-01,-6.290611624717712402e-01,-2.468148708343505859e+00,1.000424742698669434e+00,-1.063065648078918457e+00,-1.982829451560974121e+00,7.829008698463439941e-01,1.131916880607604980e+00,-8.610679507255554199e-01,-8.308463692665100098e-01,7.640981078147888184e-01,5.735825896263122559e-01,2.545292675495147705e-01,1.558370828628540039e+00,4.135217368602752686e-01,-1.334535181522369385e-01,5.494039654731750488e-01,-6.578893661499023438e-01,9.176366925239562988e-01,2.913902401924133301e-01,3.843662440776824951e-01,9.283773303031921387e-01,-7.154885530471801758e-01,-5.103461742401123047e-01,-8.776571750640869141e-01,1.210160136222839355e+00,-3.224863529205322266e+00,-5.362782627344131470e-02,5.928863286972045898e-01,-5.008962154388427734e-01,1.255954742431640625e+00,-1.333270192146301270e+00,-1.840021610260009766e+00,-1.539396524429321289e+00,-1.167130351066589355e+00,-1.725342154502868652e+00,-4.095180034637451172e-01,1.317931532859802246e+00,-9.023097753524780273e-01,-5.244612097740173340e-01,-7.917603254318237305e-01,1.087640881538391113e+00,-1.758744359016418457e+00,-1.993481159210205078e+00
7.969498634338378906e-01,-1.411292552947998047e-01,4.859030544757843018e-01,2.217643260955810547e+00,4.228059649467468262e-01,-1.807567000389099121e+00,2.060181379318237305e+00,-5.240196585655212402e-01,-2.297595590353012085e-01,-1.219580411911010742e+00,-1.361866354942321777e+00,6.883477568626403809e-01,-2.881924211978912354e-01,5.928915739059448242e-01,1.846403121948242188e+00,-2.811171412467956543e-01,1.675416469573974609e+00,-6.402421593666076660e-01,1.578647047281265259e-01,7.640947699546813965e-01,-3.871963620185852051e-01,-3.636932373046875000e-02,1.732412338256835938e+00,-1.273821741342544556e-01,-1.335486412048339844e+00,-1.108349323272705078e+00,4.693070948123931885e-01,1.046522140502929688e+00,-7.925915718078613281e-01,-5.724184513092041016e-01,-5.853513479232788086e-01,-8.778336048126220703e-01,-1.760979294776916504e+00,9.732176661491394043e-01,-8.664056658744812012e-02,7.137430310249328613e-01,-4.409790933132171631e-01,8.346790671348571777e-01,-6.746186614036560059e-01,5.957661271095275879e-01,-6.596171259880065918e-01,4.450017213821411133e-02,1.582494854927062988e+00,1.333140254020690918e+00,7.364771962165832520e-01,-1.128070592880249023e+00,1.556613564491271973e+00,6.132956147193908691e-01,5.279958844184875488e-01,9.702645242214202881e-03,1.446035861968994141e+00,-2.948815524578094482e-01,8.053670525550842285e-01,1.322011351585388184e+00,9.742134809494018555e-01,1.929396629333496094e+00,1.338957190513610840e+00,1.703270435333251953e+00
9.178103804588317871e-01,1.987882494926452637e+00,3.139688968658447266e-01,-1.400821089744567871e+00,-1.447724461555480957e+00,1.609580665826797485e-01,1.798542588949203491e-01,1.670281440019607544e-01,6.857309341430664062e-01,3.829090893268585205e-01,7.636986374855041504e-01,7.895511388778686523e-01,-3.412052392959594727e-01,-7.383281588554382324e-01,1.304054260253906250e+00,2.105153948068618774e-01,-3.112275600433349609e-01,5.945389270782470703e-01,-1.830695569515228271e-01,-1.686267733573913574e+00,4.658590257167816162e-01,6.107240915298461914e-01,-2.256969958543777466e-01,-1.418647766113281250e+00,-1.906511336565017700e-01,-1.327443420886993408e-01,1.040488481521606445e+00,1.353844165802001953e+00,-5.683512091636657715e-01,6.896541118621826172e-01,-9.929761290550231934e-01,1.708884954452514648e+00,-1.104135751724243164e+00,1.328314900398254395e+00,-8.870480060577392578e-01,-1.981471180915832520e+00,-1.066715717315673828e+00,3.721002340316772461e-01,-3.098640441894531250e-01,1.904000043869018555e+00,6.308590173721313477e-01,2.149094581604003906e+00,-9.858866333961486816e-01,8.494610190391540527e-01,-5.400342345237731934e-01,-9.002184867858886719e-01,-6.050160527229309082e-01,3.013015091419219971e-01,-1.998483896255493164e+00,1.072957634925842285e+00,5.867177248001098633e-01,-8.848596811294555664e-01,-1.920116901397705078e+00,5.175666213035583496e-01,1.753018021583557129e+00,1.352410674095153809e+00,2.535355091094970703e-01,1.062343120574951172e+00
7.312577962875366211e-02,4.134550392627716064e-01,6.726382970809936523e-01,-4.668081998825073242e-01,1.248525142669677734e+00,1.246053576469421387e-01,1.653032422065734863e+00,4.298150837421417236e-01,1.221826374530792236e-01,2.396807909011840820e+00,-3.824015259742736816e-01,-1.574492156505584717e-01,-7.474072575569152832e-01,1.150416016578674316e+00,4.931994378566741943e-01,6.671314835548400879e-01,-1.128151297569274902e+00,1.072850942611694336e+00,-2.212015151977539062e+00,9.046505093574523926e-01,8.939062952995300293e-01,1.144867777824401855e+00,-4.171088635921478271e-01,-2.609728336334228516e+00,1.859856992959976196e-01,1.757614254951477051e+00,-2.171735286712646484e+00,-1.388684988021850586e+00,1.062560081481933594e+00,-4.042409658432006836e-01,-3.357822895050048828e-01,-1.755464076995849609e+00,1.345664381980895996e+00,-9.044095873832702637e-01,2.914183735847473145e-01,2.483458518981933594e+00,-1.593433916568756104e-01,1.523790508508682251e-01,-5.968747138977050781e-01,7.576315104961395264e-02,2.512009143829345703e-01,-2.016099244356155396e-01,-1.612179994583129883e+00,7.664256542921066284e-02,-3.501618206501007080e-01,2.147782221436500549e-02,3.259560763835906982e-01,5.025660619139671326e-02,-5.880368128418922424e-02,6.225415468215942383e-01,1.883633613586425781e+00,-1.453926801681518555e+00,3.822442293167114258e-01,1.614557385444641113e+00,-6.327738761901855469e-01,1.762358903884887695e+00,-9.289633035659790039e-01,-7.761623263359069824e-01
1.591900229454040527e+00,3.475128412246704102e-01,-8.445928692817687988e-01,2.619625926017761230e-01,8.104119896888732910e-01,-5.861966609954833984e-01,-9.015046954154968262e-01,-6.967754568904638290e-03,-2.461809813976287842e-01,4.086845815181732178e-01,2.152626752853393555e+00,-1.199569106101989746e+00,1.336383104324340820e+00,1.250972628593444824e+00,8.079759478569030762e-01,1.223233819007873535e+00,-4.213381111621856689e-01,-1.250339597463607788e-01,9.415174126625061035e-01,-1.043348684906959534e-01,-5.440108776092529297e-01,-1.426614642143249512e+00,1.647456884384155273e+00,4.493333399295806885e-01,7.374051809310913086e-01,-1.301478385925292969e+00,-4.888459146022796631e-01,3.020754575729370117e+00,6.826753020286560059e-01,5.050951242446899414e-01,-1.480716586112976074e+00,-8.134470582008361816e-01,1.210903525352478027e+00,3.006454467773437500e+00,-7.916424274444580078e-01,-3.346590995788574219e-01,-1.717883199453353882e-01,1.434383820742368698e-02,1.833746582269668579e-01,-1.279582828283309937e-01,9.315986037254333496e-01,1.129684209823608398e+00,7.604029178619384766e-01,-8.872094154357910156e-01,1.094136118888854980e+00,2.925208806991577148e-01,4.123294353485107422e-01,-9.602549672126770020e-02,1.470176428556442261e-01,-8.047856092453002930e-01,-1.669253110885620117e+00,2.723599672317504883e-01,-4.884093701839447021e-01,1.355963110923767090e+00,-1.606488466262817383e+00,6.237989291548728943e-02,-1.400333940982818604e-01,1.084654569625854492e+00
5.937994122505187988e-01,6.112055182456970215e-01,6.573494076728820801e-01,-1.039864942431449890e-01,-1.643097043037414551e+00,4.205979704856872559e-01,1.217691659927368164e+00,-2.043169975280761719e+00,-6.287091374397277832e-01,-6.027647256851196289e-01,-1.171170234680175781e+00,-2.466433644294738770e-01,-5.534926056861877441e-01,4.353684186935424805e-01,1.590025424957275391e-02,-1.956311345100402832e+00,1.387252688407897949e+00,-1.580642819404602051e+00,2.025818824768066406e+00,6.314471960067749023e-01,1.662711620330810547e+00,1.716685414314270020e+00,6.555790305137634277e-01,3.485983610153198242e-01,-6.839696168899536133e-01,-1.194893643260002136e-01,-1.365115046501159668e+00,4.109941124916076660e-01,-3.174205124378204346e-01,3.984685838222503662e-01,-4.685702025890350342e-01,1.063708543777465820e+00,8.878523707389831543e-01,-2.385295331478118896e-01,-8.415252566337585449e-01,9.202882051467895508e-01,2.258652448654174805e-01,2.901265323162078857e-01,-2.269449830055236816e-02,9.332004785537719727e-01,-2.980299592018127441e-01,-1.742845773696899414e+00,-6.373706459999084473e-01,1.760634422302246094e+00,2.912285178899765015e-02,-7.140266895294189453e-01,7.045872807502746582e-01,1.466818749904632568e-01,5.705804228782653809e-01,1.075682714581489563e-01,-1.135305404663085938e+00,-1.114931702613830566e+00,2.688273906707763672e+00,-1.763705611228942871e-01,-2.271414041519165039e+00,-7.507947683334350586e-01,2.132747769355773926e-01,-9.309917688369750977e-01
-1.035707354545593262e+00,-1.888245940208435059e-01,1.039111614227294922e+00,-7.048369050025939941e-01,-8.873744010925292969e-01,-8.125591874122619629e-01,-5.104459524154663086e-01,-7.449358105659484863e-01,1.153307318687438965e+00,-1.013861894607543945e+00,1.216204017400741577e-01,1.277359962463378906e+00,-4.476599097251892090e-01,-5.609322339296340942e-02,5.696893483400344849e-02,-9.274789690971374512e-01,2.157867252826690674e-01,-1.777979582548141479e-01,-3.752250373363494873e-01,1.898531079292297363e+00,-1.910335570573806763e-01,-8.684708476066589355e-01,-7.755994796752929688e-01,-1.347705006599426270e+00,4.794505536556243896e-01,-2.817347049713134766e-01,7.505479454994201660e-01,-2.830341339111328125e+00,-1.263974905014038086e-01,7.894349098205566406e-01,2.939244508743286133e-01,1.129961013793945312e+00,7.350219488143920898e-01,7.273441553115844727e-01,-5.902823209762573242e-01,2.222545862197875977e+00,-4.538816511631011963e-01,-1.458995461463928223e+00,3.948219716548919678e-01,2.301459312438964844e+00,2.662033773958683014e-02,-1.155507922172546387e+00,-1.026647448539733887e+00,-1.390388846397399902e+00,-1.124970674514770508e+00,8.918073773384094238e-01,3.191175162792205811e-01,-2.693551778793334961e-01,4.652113020420074463e-01,-1.423659175634384155e-01,-1.855722814798355103e-01,8.214043378829956055e-01,6.663997769355773926e-01,-6.715087890625000000e-01,6.019185781478881836e-01,1.742925167083740234e+00,1.502240896224975586e-01,-9.981831312179565430e-01
-3.700301647186279297e-01,-1.491194963455200195e+00,1.308200836181640625e+00,7.072465419769287109e-01,8.620159626007080078e-01,2.341226339340209961e-01,-5.626887679100036621e-01,1.159193873405456543e+00,1.529072761535644531e+00,-8.675052523612976074e-01,-6.431507468223571777e-01,-2.386147975921630859e-01,7.176535129547119141e-01,7.124348878860473633e-01,-3.953639268875122070e-01,9.809275865554809570e-01,-3.014328181743621826e-01,4.734030961990356445e-01,-8.886838555335998535e-01,1.619964599609375000e+00,-9.144214391708374023e-01,-1.299520850181579590e+00,9.965496063232421875e-01,-5.898821353912353516e-01,-1.908755064010620117e+00,1.641988754272460938e+00,2.232037067413330078e+00,1.275081515312194824e+00,-1.030680537223815918e+00,5.380733683705329895e-02,5.712981224060058594e-01,1.539005279541015625e+00,-3.506531938910484314e-02,1.876843333244323730e+00,1.844691991806030273e+00,-5.112849473953247070e-01,1.618104338645935059e+00,-2.338722944259643555e-01,-3.825834095478057861e-01,4.454011023044586182e-01,-8.578645586967468262e-01,-3.904503583908081055e-01,-8.772714734077453613e-01,-1.658770143985748291e-01,8.797067403793334961e-02,1.048701405525207520e-01,1.013444900512695312e+00,1.041037201881408691e+00,5.934339165687561035e-01,-1.069848775863647461e+00,1.242237210273742676e+00,1.175846338272094727e+00,-4.026300013065338135e-01,-1.330738782882690430e+00,1.945715069770812988e+00,5.162332057952880859e-01,3.599317371845245361e-01,-3.310613036155700684e-01
-2.335690021514892578e+00,-3.463487625122070312e-01,2.470991909503936768e-01,-9.192267805337905884e-02,-5.565309524536132812e-01,-3.070369064807891846e-01,2.175309807062149048e-01,-1.472637206315994263e-01,-1.813347488641738892e-01,-9.286366701126098633e-01,7.541357874870300293e-01,1.222390055656433105e+00,2.029470801353454590e-01,6.874613463878631592e-02,2.093190699815750122e-01,3.609437867999076843e-02,7.504724860191345215e-01,-4.497580826282501221e-01,-1.030667662620544434e+00,6.414939165115356445e-01,4.996073842048645020e-01,1.280663162469863892e-01,1.053953394293785095e-01,1.073469281196594238e+00,-1.204212307929992676e+00,-1.506175875663757324e+00,8.723220229148864746e-02,-1.163096666336059570e+00,-1.549198031425476074e-01,4.077711328864097595e-02,1.463281035423278809e+00,-1.332972168922424316e+00,7.967253923416137695e-01,5.050858855247497559e-01,-6.433517932891845703e-01,-4.991653263568878174e-01,-9.942618012428283691e-02,6.808196306228637695e-01,-4.028162956237792969e-01,1.424497812986373901e-01,-2.798455059528350830e-01,9.663058519363403320e-01,7.826651930809020996e-01,-8.716442584991455078e-01,2.683502137660980225e-01,-3.002251982688903809e-01,1.259106278419494629e+00,-2.602270841598510742e-01,9.492732584476470947e-02,-7.593747377395629883e-01,1.323005110025405884e-01,-1.163279771804809570e+00,-1.524991542100906372e-01,-2.042673587799072266e+00,-4.004337638616561890e-02,8.632623553276062012e-01,-2.975869774818420410e-01,-1.256805539131164551e+00
9.917959570884704590e-01,-5.492194294929504395e-01,-7.256767153739929199e-01,-1.690470457077026367e+00,4.419185519218444824e-01,-6.961039304733276367e-01,-3.091403841972351074e-01,-1.563354253768920898e+00,-1.071111321449279785e+00,1.118452191352844238e+00,-2.675390541553497314e-01,5.190292000770568848e-01,-4.030600562691688538e-02,5.188892483711242676e-01,-7.978075742721557617e-01,7.254820466041564941e-01,-1.198779106140136719e+00,-9.867741465568542480e-01,-1.557151556015014648e+00,-5.829006433486938477e-01,8.287048339843750000e-01,4.539394080638885498e-01,9.232307970523834229e-02,-8.981140851974487305e-01,1.834269762039184570e+00,1.829186320304870605e+00,-3.762546926736831665e-02,6.837542653083801270e-01,-1.014379933476448059e-01,-1.341852068901062012e+00,-1.459399104118347168e+00,-1.430072188377380371e-01,-5.085056424140930176e-01,-5.101625919342041016e-01,-6.947536468505859375e-01,-1.330624341964721680e+00,1.457148939371109009e-01,2.351184368133544922e+00,-2.065416097640991211e+00,1.289929986000061035e+00,5.751542448997497559e-01,1.247311830520629883e+00,1.587585061788558960e-01,1.277046799659729004e+00,-1.451424658298492432e-01,-5.367508530616760254e-01,6.462503806687891483e-04,3.481945693492889404e-01,8.899627923965454102e-01,-3.694092035293579102e-01,-4.676936864852905273e-01,-1.725568026304244995e-01,5.972646921873092651e-02,2.685091085731983185e-02,-6.680108904838562012e-01,-1.252382844686508179e-01,1.513132572174072266e+00,1.833219647407531738e+00
-6.544471383094787598e-01,-7.285647988319396973e-01,2.541225671768188477e+00,2.197362184524536133e+00,6.735240817070007324e-01,-3.718675673007965088e-02,3.244694173336029053e-01,1.141212359070777893e-01,1.095538616180419922e+00,7.999237179756164551e-01,2.820152044296264648e-01,-1.226247921586036682e-01,-7.234113812446594238e-01,3.601588010787963867e-01,8.560097813606262207e-01,-2.343607991933822632e-01,1.346927404403686523e+00,-8.553809523582458496e-01,-1.098035693168640137e+00,-6.015510559082031250e-01,8.596643209457397461e-01,1.900471091270446777e+00,-9.995324015617370605e-01,7.844021916389465332e-01,9.029877185821533203e-01,-3.121212482452392578e+00,-5.534304380416870117e-01,-2.886891365051269531e-01,-7.708578705787658691e-01,1.684705257415771484e+00,-2.796149492263793945e+00,2.383151292800903320e+00,1.148643493652343750e+00,6.705784201622009277e-01,1.222007155418395996e+00,-3.599070906639099121e-01,-3.020023584365844727e+00,-2.254996001720428467e-01,-1.865614801645278931e-01,-1.192324280738830566e+00,-1.325570642948150635e-01,1.379334330558776855e-01,1.061045765876770020e+00,-4.323455989360809326e-01,1.848181366920471191e+00,1.965874075889587402e+00,-1.237353801727294922e+00,5.848006010055541992e-01,-1.783665776252746582e+00,1.314526200294494629e+00,9.130217134952545166e-03,5.367274880409240723e-01,-2.963159084320068359e+00,1.865208745002746582e-01,-4.129070043563842773e-01,-1.401765823364257812e+00,8.730165362358093262e-01,-5.605611801147460938e-01
-1.424468159675598145e+00,7.438450455665588379e-01,1.562120467424392700e-01,-7.834554910659790039e-01,-1.578932046890258789e+00,-8.969267010688781738e-01,-6.750149726867675781e-01,-5.586310625076293945e-01,-2.354888617992401123e-01,1.077265381813049316e+00,-2.835874855518341064e-01,1.083932161331176758e+00,1.471514105796813965e+00,-3.843137323856353760e-01,7.851742506027221680e-01,4.941971898078918457e-01,4.917640984058380127e-01,1.515793919563293457e+00,-9.532951712608337402e-01,8.824185729026794434e-01,-1.199801564216613770e+00,7.591185569763183594e-01,-3.043531179428100586e-01,-1.890862226486206055e+00,-3.394613265991210938e-01,-2.757191061973571777e-01,-4.049846827983856201e-01,-5.303370356559753418e-01,-7.651654630899429321e-02,-1.512235760688781738e+00,-1.452687978744506836e+00,-8.969121575355529785e-01,5.778192877769470215e-01,-8.211632966995239258e-01,5.038965344429016113e-01,1.358026623725891113e+00,6.014574170112609863e-01,6.979953497648239136e-02,-8.643715381622314453e-01,-3.576321303844451904e-01,3.917232900857925415e-02,-1.637810111045837402e+00,2.800642140209674835e-02,5.143406987190246582e-01,7.800365090370178223e-01,1.897541522979736328e+00,-6.043155789375305176e-01,-3.421322107315063477e-01,4.428946077823638916e-01,1.559271931648254395e+00,1.081832051277160645e+00,1.004776954650878906e+00,6.639556586742401123e-02,-4.309079349040985107e-01,6.102278828620910645e-01,1.331332087516784668e+00,-2.290583252906799316e-01,7.282019257545471191e-01
