-1.109701871871948242e+00,6.616646647453308105e-01,1.292157620191574097e-01,-1.105370759963989258e+00,-5.900583267211914062e-01,-5.331088304519653320e-01,-4.973399937152862549e-01,3.183104276657104492e+00,4.101748168468475342e-01,-6.945003867149353027e-01,1.750375516712665558e-02,5.196712613105773926e-01,-3.711203634738922119e-01,1.336766719818115234e+00,-8.960779309272766113e-01,3.132385313510894775e-01,3.841848969459533691e-01,8.124900460243225098e-01,2.377031892538070679e-01,-9.607461690902709961e-01,1.213828563690185547e+00,-2.133163511753082275e-01,-1.270974516868591309e+00,1.846122860908508301e+00,-1.902169436216354370e-01,-8.781602978706359863e-01,-2.340449094772338867e-01,1.316922187805175781e+00,1.087694644927978516e+00,1.866075992584228516e-01,-2.162264585494995117e+00,3.449520170688629150e-01,-2.645182907581329346e-01,-3.340897709131240845e-02,1.368644595146179199e+00,8.439832925796508789e-01,2.189313888549804688e+00,-8.246795088052749634e-02,-1.077253460884094238e+00,-7.276430726051330566e-01,2.478246837854385376e-01,1.692225456237792969e+00,-9.921187162399291992e-01,-5.959641933441162109e-01,-1.585485637187957764e-01,-1.559062480926513672e+00,1.468339920043945312e+00,-9.836295992136001587e-02,5.579414367675781250e-01,1.471081852912902832e+00,1.810075640678405762e-01,-1.262897610664367676e+00,-4.563846588134765625e-01,-8.734786510467529297e-01,3.253185451030731201e-01,3.479220271110534668e-01,3.334081172943115234e-01,-3.098212778568267822e-01
3.609021306037902832e-01,1.184797883033752441e+00,6.603682041168212891e-01,4.750874936580657959e-01,1.712691068649291992e+00,-1.751309156417846680e+00,8.111305236816406250e-01,-2.872661650180816650e-01,-4.698038697242736816e-01,-6.784778833389282227e-01,1.011973500251770020e+00,-1.340346634387969971e-01,9.409831166267395020e-01,-6.726475805044174194e-02,1.062521576881408691e+00,2.566897273063659668e-01,1.758837223052978516e+00,-1.965409755706787109e+00,5.519618988037109375e-01,5.101193785667419434e-01,-2.095772512257099152e-02,7.045505642890930176e-01,3.849478363990783691e-01,-2.181435823440551758e+00,-7.154334187507629395e-01,2.756413221359252930e-01,-7.396476864814758301e-01,1.091433763504028320e+00,-4.679372161626815796e-02,-1.245348334312438965e+00,-1.475220322608947754e+00,8.296891450881958008e-01,-2.388648688793182373e-01,1.819933652877807617e+00,8.318431377410888672e-01,-4.928815960884094238e-01,-5.866423249244689941e-01,3.425249159336090088e-01,-6.466014385223388672e-01,8.966860175132751465e-01,6.470468044281005859e-01,-4.350819289684295654e-01,-1.195988297462463379e+00,-8.024740964174270630e-02,-4.696474969387054443e-01,-4.819213151931762695e-01,-4.663585498929023743e-02,1.457733988761901855e+00,2.155844926834106445e+00,-4.564727544784545898e-01,-1.983516216278076172e+00,1.013216257095336914e+00,6.188153624534606934e-01,2.391783714294433594e+00,5.589887499809265137e-01,-1.663046777248382568e-01,-6.731536984443664551e-02,2.508477866649627686e-01
-6.935604810714721680e-01,-8.647742867469787598e-01,-1.254568696022033691e+00,1.959080100059509277e-01,6.724969744682312012e-01,3.323738574981689453e-01,5.465002655982971191e-01,1.073883295059204102e+00,8.613048195838928223e-01,-2.397693693637847900e-01,9.315395355224609375e-02,-8.217650651931762695e-01,-7.895293831825256348e-01,4.670481979846954346e-01,1.561369538307189941e+00,1.310158848762512207e+00,-1.240586519241333008e+00,3.962866365909576416e-01,9.983047246932983398e-01,-7.539083957672119141e-01,7.124702930450439453e-01,1.621164202690124512e+00,1.716336369514465332e+00,2.031093984842300415e-01,7.998836040496826172e-01,-6.259028315544128418e-01,-1.676188111305236816e+00,-2.223018169403076172e+00,7.317832112312316895e-01,-9.589962959289550781e-01,9.824390709400177002e-02,1.514871835708618164e+00,-3.942362964153289795e-01,-6.020051240921020508e-01,1.034873485565185547e+00,-6.749916672706604004e-01,3.682411611080169678e-01,1.476134657859802246e+00,1.822503060102462769e-01,9.162060618400573730e-01,-1.884274333715438843e-01,7.030268311500549316e-01,2.730007171630859375e-01,3.889989554882049561e-01,2.635192573070526123e-01,4.403217434883117676e-01,2.104331701993942261e-01,2.553871273994445801e-01,5.256230831146240234e-01,2.319188594818115234e+00,3.960485458374023438e-01,7.537397742271423340e-01,-1.501001000404357910e+00,-6.403353810310363770e-01,-7.217176556587219238e-01,-6.924205226823687553e-04,-1.398620963096618652e+00,-1.953242719173431396e-01
1.970480203628540039e+00,-4.529983699321746826e-01,-1.059748649597167969e+00,-7.913542389869689941e-01,8.883237093687057495e-02,1.069058418273925781e+00,-1.973147988319396973e-01,6.556226611137390137e-01,-5.520657300949096680e-01,-1.208053827285766602e+00,1.388309717178344727e+00,8.160247206687927246e-01,-1.300577521324157715e+00,3.666907250881195068e-01,-1.014982089400291443e-01,-5.490379333496093750e-01,9.946229308843612671e-02,4.222701787948608398e-01,1.919790267944335938e+00,-1.225233793258666992e+00,-1.299949645996093750e+00,6.178418993949890137e-01,-1.256002485752105713e-01,-5.057119131088256836e-01,-1.912483096122741699e+00,-1.354861736297607422e+00,-6.770956516265869141e-01,1.076903343200683594e+00,1.245143055915832520e+00,-3.801105916500091553e-01,1.251503825187683105e-01,-3.714904934167861938e-02,1.283016428351402283e-02,-6.071013808250427246e-01,-4.621206223964691162e-01,-1.967351317405700684e+00,2.859161794185638428e-01,7.176998853683471680e-01,-1.071960091590881348e+00,-1.080834120512008667e-01,1.829470694065093994e-02,1.307166814804077148e+00,1.783467888832092285e+00,-7.439912557601928711e-01,2.884110435843467712e-02,-1.052643179893493652e+00,-9.048283100128173828e-01,-5.649421811103820801e-01,-2.407716214656829834e-01,1.628437787294387817e-01,-1.066034674644470215e+00,1.306122899055480957e+00,-1.233841419219970703e+00,4.393968582153320312e-01,2.215220481157302856e-01,5.707066655158996582e-01,-3.966546058654785156e-01,-4.594929143786430359e-02
-8.430003523826599121e-01,-5.818543434143066406e-01,-1.464805245399475098e+00,-1.339517354965209961e+00,6.532157063484191895e-01,7.418721318244934082e-01,1.721838355064392090e+00,-9.744059443473815918e-01,1.880644083023071289e+00,-3.527680933475494385e-01,-7.400360703468322754e-01,9.322993755340576172e-01,-5.493640303611755371e-01,-7.284888029098510742e-01,-4.798375070095062256e-01,8.176737427711486816e-01,9.893480539321899414e-01,5.473939180374145508e-01,3.772998154163360596e-01,-1.210986137390136719e+00,-5.363095998764038086e-01,3.501093387603759766e-01,4.790956676006317139e-01,5.183522105216979980e-01,-2.717450559139251709e-01,5.852082371711730957e-01,-1.209560155868530273e+00,2.269657328724861145e-03,-1.678377628326416016e+00,3.542351722717285156e-01,-9.877673983573913574e-01,1.887817382812500000e+00,-6.769787669181823730e-01,-2.456004619598388672e-01,-1.834959864616394043e+00,2.449321269989013672e+00,7.686416506767272949e-01,6.458942294120788574e-01,4.693674445152282715e-01,-8.135688304901123047e-01,-1.963683813810348511e-01,-4.052728116512298584e-01,1.179246157407760620e-01,4.985691905021667480e-01,2.199560165405273438e+00,-1.192043900489807129e+00,-2.435297220945358276e-01,-2.812905073165893555e+00,-7.337822318077087402e-01,7.713717818260192871e-01,3.653554916381835938e-01,8.436263799667358398e-01,3.933750092983245850e-01,-1.479132652282714844e+00,1.090055942535400391e+00,-8.373742699623107910e-01,-8.774514198303222656e-01,5.428416132926940918e-01
1.259230494499206543e+00,3.576647341251373291e-01,-2.585617303848266602e-01,-1.961576044559478760e-01,-3.548085317015647888e-02,2.201462745666503906e+00,1.459349840879440308e-01,1.244092881679534912e-01,-1.238872289657592773e+00,6.673716306686401367e-01,4.688864350318908691e-01,-8.997163772583007812e-01,-3.102579116821289062e-01,1.159656763076782227e+00,-8.325434923171997070e-01,1.150125503540039062e+00,1.211418509483337402e+00,-5.076713562011718750e-01,5.304440855979919434e-01,1.530542671680450439e-01,1.127593398094177246e+00,-4.439405500888824463e-01,2.436361551284790039e+00,7.751174569129943848e-01,3.414307236671447754e-01,-1.720345735549926758e+00,-1.161761999130249023e+00,6.307346224784851074e-01,1.083507776260375977e+00,2.286040633916854858e-01,-9.079695343971252441e-01,-1.965888500213623047e+00,7.482548803091049194e-02,-2.640607655048370361e-01,-8.603045344352722168e-01,6.064208149909973145e-01,9.312353730201721191e-01,3.042998015880584717e-01,1.062448978424072266e+00,9.876196831464767456e-02,-5.976296663284301758e-01,2.955046176910400391e+00,3.857680559158325195e-01,9.086460471153259277e-01,-8.064975738525390625e-01,1.470336794853210449e+00,7.577897310256958008e-01,1.161413043737411499e-01,-1.724659323692321777e+00,-1.902341097593307495e-01,2.522774040699005127e-01,-1.171251893043518066e+00,3.941682279109954834e-01,-3.415531814098358154e-01,-4.815626442432403564e-01,3.055846691131591797e+00,1.031094670295715332e+00,-3.801382780075073242e-01
-1.523932814598083496e-01,4.646343588829040527e-01,3.158351778984069824e-01,-1.843480229377746582e+00,1.267322659492492676e+00,1.228173896670341492e-01,-6.794523000717163086e-01,1.016367793083190918e+00,1.711929202079772949e+00,-2.046029120683670044e-01,7.607774138450622559e-01,5.238451361656188965e-01,2.445060461759567261e-01,-1.001398563385009766e+00,4.510320350527763367e-02,-3.813126385211944580e-01,-5.468733310699462891e-01,1.139842793345451355e-01,1.240877509117126465e+00,-1.563935637474060059e+00,-2.398670762777328491e-01,4.436276480555534363e-02,-8.704657554626464844e-01,3.163837790489196777e-01,5.102359652519226074e-01,-2.097980827093124390e-01,1.076906204223632812e+00,-8.318141698837280273e-01,-1.841059684753417969e+00,1.084798350930213928e-01,-3.450416922569274902e-01,2.089310735464096069e-01,-1.460320949554443359e+00,9.766572117805480957e-01,1.504263281822204590e+00,-1.484596610069274902e+00,3.726716041564941406e-01,-2.930029332637786865e-01,-4.614760875701904297e-01,-2.591992914676666260e-01,-4.691465198993682861e-01,-3.293324112892150879e-01,-7.012518048286437988e-01,-1.113530755043029785e+00,1.815893292427062988e+00,1.601279854774475098e+00,-9.525349736213684082e-01,3.252784311771392822e-01,-1.607212275266647339e-01,8.092959523200988770e-01,1.043803930282592773e+00,-1.594988226890563965e+00,-8.252495527267456055e-01,-1.563951015472412109e+00,-9.454269409179687500e-01,-9.958094358444213867e-01,-6.407690048217773438e-01,-7.384925484657287598e-01
-1.652455031871795654e-01,1.673557460308074951e-01,-1.141953587532043457e+00,-9.801391363143920898e-01,-1.020237684249877930e+00,6.446085572242736816e-01,6.873716711997985840e-01,3.104268908500671387e-01,-9.268605709075927734e-01,2.035329103469848633e+00,-2.544930696487426758e+00,-1.990270614624023438e+00,1.674920439720153809e+00,-3.484996259212493896e-01,-1.671589374542236328e+00,-1.358683109283447266e+00,2.251127004623413086e+00,6.100863218307495117e-01,-7.829712629318237305e-01,-2.345320880413055420e-01,-1.568451166152954102e+00,-6.207371950149536133e-01,5.198321938514709473e-01,-9.302213191986083984e-01,-4.301883280277252197e-02,-1.339445710182189941e-01,-4.568969011306762695e-01,-8.131206035614013672e-01,5.264590978622436523e-01,2.133253097534179688e+00,3.283053338527679443e-01,-1.162923336029052734e+00,1.086214423179626465e+00,9.153183698654174805e-01,2.186028480529785156e+00,3.612332046031951904e-01,1.396867990493774414e+00,-2.004957795143127441e-01,5.317689776420593262e-01,4.202368482947349548e-02,-3.204801380634307861e-01,3.161208927631378174e-01,-6.304756402969360352e-01,-5.836389958858489990e-02,1.544541001319885254e+00,-6.900129318237304688e-01,-8.959871530532836914e-01,1.227170825004577637e-01,6.309792399406433105e-01,6.124021410942077637e-01,2.646831870079040527e-01,-1.075667381286621094e+00,3.568582832813262939e-01,1.364619255065917969e+00,3.752316161990165710e-02,-4.991759955883026123e-01,2.916109323501586914e+00,-7.271968722343444824e-01
5.999666452407836914e-01,5.339754000306129456e-02,8.580972552299499512e-01,1.435358524322509766e+00,1.684100866317749023e+00,-9.282588958740234375e-02,-1.777214258909225464e-01,1.530211567878723145e+00,7.857623696327209473e-01,-2.381933927536010742e-01,8.667820692062377930e-01,-3.901162743568420410e-01,-3.639047145843505859e-01,1.699049949645996094e+00,1.096340715885162354e-01,-1.119591593742370605e+00,3.087674379348754883e-01,1.105231717228889465e-01,-2.631993532180786133e+00,-5.730418562889099121e-01,-9.612288475036621094e-01,-1.048715710639953613e+00,-5.109387040138244629e-01,1.495394349098205566e+00,5.296682119369506836e-01,-6.859018802642822266e-01,-5.584691762924194336e-01,3.953646123409271240e-01,-2.686857432126998901e-02,3.439760506153106689e-01,2.118636131286621094e+00,-1.678105950355529785e+00,-3.258379697799682617e-01,-1.045968651771545410e+00,4.110935926437377930e-01,-6.925324797630310059e-01,-4.704397022724151611e-01,4.538997411727905273e-01,-1.148949980735778809e+00,-3.061503469944000244e-01,2.138569802045822144e-01,-1.311682224273681641e+00,1.484532713890075684e+00,1.803684830665588379e+00,-7.187012434005737305e-01,-1.983670890331268311e-01,-9.626488089561462402e-01,6.005915999412536621e-01,1.154478549957275391e+00,-7.914209365844726562e-01,5.627177953720092773e-01,-1.584171414375305176e+00,2.043067067861557007e-01,-1.026871800422668457e+00,7.829251885414123535e-02,2.553580701351165771e-01,9.600909948348999023e-01,-8.797826766967773438e-01
7.861737608909606934e-01,7.889987528324127197e-02,1.027333661913871765e-01,2.829975485801696777e-01,-3.591734766960144043e-01,-5.355588793754577637e-01,-2.560656964778900146e-01,6.348508596420288086e-02,1.756999492645263672e+00,9.068384170532226562e-01,5.451525449752807617e-01,-1.012795448303222656e+00,-2.806225717067718506e-01,-1.480215489864349365e-01,1.120661973953247070e+00,-3.992370665073394775e-01,1.460955142974853516e-01,-1.669833809137344360e-01,-5.780019760131835938e-01,7.129814028739929199e-01,-1.112181663513183594e+00,-5.228892564773559570e-01,-6.871944665908813477e-01,2.584573030471801758e+00,-8.473567366600036621e-01,-9.937981367111206055e-01,-1.166761279106140137e+00,-1.114405393600463867e+00,1.707881838083267212e-01,1.381846904754638672e+00,-8.926022052764892578e-01,-1.614709198474884033e-01,-6.287600845098495483e-02,-6.836690902709960938e-01,2.344840019941329956e-01,-6.483923792839050293e-01,-1.156830549240112305e+00,-1.537115454673767090e+00,1.478505283594131470e-01,-1.248427405953407288e-01,-1.697650998830795288e-01,-7.718991041183471680e-01,-1.393361091613769531e+00,1.164479017257690430e+00,-1.074354410171508789e+00,3.855172395706176758e-01,8.456649184226989746e-01,2.456887960433959961e-01,-1.996006369590759277e+00,-1.477715730667114258e+00,-1.656145095825195312e+00,2.232593774795532227e+00,-4.318129122257232666e-01,1.365982294082641602e+00,2.260203361511230469e-01,-3.147561252117156982e-01,-1.233309268951416016e+00,-9.038303494453430176e-01
8.921781778335571289e-01,-7.858184576034545898e-01,1.120895981788635254e+00,1.259541392326354980e+00,-1.404937505722045898e+00,-2.367700487375259399e-01,4.342417716979980469e-01,7.826806306838989258e-01,2.002370655536651611e-01,4.071592390537261963e-01,-1.021972179412841797e+00,1.601110696792602539e+00,-1.345712780952453613e+00,3.962998092174530029e-01,-4.068320095539093018e-01,1.680917382240295410e+00,1.395782232284545898e+00,7.755768299102783203e-01,-8.964120596647262573e-02,-2.395452558994293213e-01,1.316773295402526855e-01,5.252100229263305664e-01,8.256215602159500122e-02,-1.120128393173217773e+00,-5.276235342025756836e-01,-2.016838073730468750e+00,-1.720351338386535645e+00,4.361990988254547119e-01,7.370492219924926758e-01,-5.116594582796096802e-02,5.683088302612304688e-01,-3.173283636569976807e-01,-1.045789480209350586e+00,5.170699954032897949e-02,4.237928092479705811e-01,1.817734479904174805e+00,-1.647638201713562012e+00,-5.931306481361389160e-01,6.765915751457214355e-01,6.377796530723571777e-01,1.364309430122375488e+00,5.643867254257202148e-01,-1.416939646005630493e-01,-2.880800515413284302e-02,-1.246355533599853516e+00,1.919011354446411133e+00,-1.622312664985656738e-01,-4.796448945999145508e-01,1.028859734535217285e+00,-3.010134994983673096e-01,-2.893174886703491211e-01,-1.242775797843933105e+00,-9.938024878501892090e-01,-1.104663133621215820e+00,-7.895784974098205566e-01,2.887449562549591064e-01,2.184779793024063110e-01,2.419384568929672241e-01
1.144918680191040039e+00,-3.678036630153656006e-01,5.808416604995727539e-01,1.548972576856613159e-01,2.351921558380126953e+00,-2.150685638189315796e-01,6.355704069137573242e-01,1.001684188842773438e+00,2.909819185733795166e-01,1.814065694808959961e+00,-9.488994255661964417e-03,2.954310178756713867e+00,8.912164568901062012e-01,-2.742672897875308990e-02,-5.973769426345825195e-01,-1.151498198509216309e+00,9.457949995994567871e-01,1.291654348373413086e+00,6.592612266540527344e-01,-8.333594202995300293e-01,-6.015207618474960327e-02,1.212122559547424316e+00,-2.776941657066345215e-01,-1.585022807121276855e+00,2.117594331502914429e-01,-3.756770789623260498e-01,-1.053767085075378418e+00,-5.050859451293945312e-01,9.641778469085693359e-01,-1.085643768310546875e+00,-1.563156843185424805e-01,6.973990201950073242e-01,4.033500254154205322e-01,1.038075327873229980e+00,-6.243312954902648926e-01,-1.431931257247924805e+00,2.195976018905639648e+00,4.910113215446472168e-01,-8.284935355186462402e-01,-3.319523036479949951e-01,-3.990150690078735352e-01,-2.688014268875122070e+00,9.186614751815795898e-01,2.269419431686401367e-01,-7.222317457199096680e-01,1.426541686058044434e+00,9.136617183685302734e-01,-6.530936360359191895e-01,-3.875688090920448303e-02,-2.108458876609802246e-01,-4.329968392848968506e-01,-1.560290902853012085e-01,2.415531873703002930e-01,4.440568089485168457e-01,-1.346543729305267334e-01,4.094516932964324951e-01,-1.755573004484176636e-01,-1.520539522171020508e-01
1.001946091651916504e+00,7.516652345657348633e-01,-9.115017056465148926e-01,1.887748241424560547e+00,-3.704678714275360107e-01,2.639780044555664062e-01,6.659953594207763672e-01,1.461154103279113770e+00,3.333907127380371094e+00,1.055146694183349609e+00,2.580478906631469727e+00,4.079358875751495361e-01,-3.853474259376525879e-01,-3.353231251239776611e-01,-6.752099394798278809e-01,8.767555952072143555e-01,9.055619835853576660e-01,2.123003359884023666e-03,-1.038609266281127930e+00,-5.348366498947143555e-01,-3.675035014748573303e-02,4.857722222805023193e-01,-1.032335400581359863e+00,-2.052212804555892944e-01,1.855541586875915527e+00,3.077900409698486328e-01,-3.852933943271636963e-01,-2.424810677766799927e-01,-1.387045383453369141e+00,-2.445922136306762695e+00,-1.157590508460998535e+00,8.859580755233764648e-01,8.971382863819599152e-03,-4.254421889781951904e-01,-5.643276572227478027e-01,1.989320218563079834e-01,1.266998052597045898e+00,-1.600676536560058594e+00,-3.306109607219696045e-01,5.651807785034179688e-01,6.002871990203857422e-01,3.340920507907867432e-01,1.012452840805053711e+00,-2.077487468719482422e+00,3.212726116180419922e-01,3.658596277236938477e-01,6.777748465538024902e-01,-1.645501852035522461e+00,-6.204455494880676270e-01,-5.572813749313354492e-01,3.099547028541564941e-01,1.899689674377441406e+00,-3.146712481975555420e-01,3.074545860290527344e-01,-4.384486079216003418e-01,-2.442108690738677979e-01,1.191527605056762695e+00,1.114874243736267090e+00
-7.656351923942565918e-01,5.253388285636901855e-01,-1.131450057029724121e+00,7.192631363868713379e-01,1.952554941177368164e+00,-4.245132505893707275e-01,-1.305777192115783691e+00,-1.359234690666198730e+00,4.283512830734252930e-01,1.568551957607269287e-01,-5.773852467536926270e-01,6.626914143562316895e-01,-8.041015267372131348e-01,1.178921937942504883e+00,-2.576197870075702667e-02,-1.705001711845397949e+00,1.289270997047424316e+00,1.098049759864807129e+00,-6.769890785217285156e-01,7.602630257606506348e-01,1.185333251953125000e+00,-9.027191400527954102e-01,5.710805058479309082e-01,-3.226265013217926025e-01,2.893870770931243896e-01,9.979709386825561523e-01,2.101331949234008789e-01,1.911846399307250977e-01,-7.549162507057189941e-01,-3.699314892292022705e-01,1.114679336547851562e+00,-5.832402110099792480e-01,6.133435964584350586e-01,2.193658053874969482e-01,-8.409538865089416504e-01,9.840142130851745605e-01,-2.932948827743530273e+00,-9.448871016502380371e-01,5.330947041511535645e-01,-2.992343306541442871e-01,-6.521542668342590332e-01,-9.965017437934875488e-02,-2.485858052968978882e-01,2.076762020587921143e-01,6.670085787773132324e-01,-4.319902136921882629e-02,1.508780866861343384e-01,7.395504117012023926e-01,4.363494813442230225e-01,-1.876137107610702515e-01,1.300506114959716797e+00,-9.773043394088745117e-01,-4.731595516204833984e-01,1.111530661582946777e+00,-2.265264652669429779e-02,-1.374879851937294006e-02,5.346636176109313965e-01,-4.939252734184265137e-01
1.329123497009277344e+00,-7.554295063018798828e-01,-9.304964542388916016e-02,1.325019240379333496e+00,1.208797454833984375e+00,-1.653182864189147949e+00,6.107730865478515625e-01,-9.001024365425109863e-01,4.115917086601257324e-01,3.054117560386657715e-01,1.377502799034118652e+00,8.043605089187622070e-01,-3.276624083518981934e-01,1.305502891540527344e+00,7.027617096900939941e-01,2.604283094406127930e-01,2.833996713161468506e-01,2.115175873041152954e-01,-5.455776676535606384e-02,-1.042860865592956543e+00,-2.413111031055450439e-01,2.083596944808959961e+00,2.579448521137237549e-01,1.274067163467407227e-01,-9.630666971206665039e-01,-7.953301668167114258e-01,-1.065654635429382324e+00,6.600105762481689453e-01,1.381030797958374023e+00,1.696422398090362549e-01,-9.321925044059753418e-02,-1.399683833122253418e+00,1.500636935234069824e+00,-8.479315638542175293e-01,-8.826300501823425293e-03,1.223285198211669922e+00,-1.014981627464294434e+00,-1.796961128711700439e-01,-1.718564391136169434e+00,-6.856470704078674316e-01,6.060081124305725098e-01,1.706077307462692261e-01,1.149427369236946106e-01,5.528174638748168945e-01,2.887668013572692871e-01,3.839985728263854980e-01,-1.976177096366882324e+00,3.324430584907531738e-01,1.235158443450927734e+00,-1.591198921203613281e+00,1.281900882720947266e+00,5.421916246414184570e-01,-1.363984465599060059e+00,1.293907403945922852e+00,-6.369900107383728027e-01,1.927726030349731445e+00,1.341789007186889648e+00,4.506573081016540527e-01
1.384123325347900391e+00,-7.087929248809814453e-01,-9.848660230636596680e-01,-2.563976347446441650e-01,-3.601079583168029785e-01,-5.531443953514099121e-01,1.029768705368041992e+00,9.379196166992187500e-01,4.552199840545654297e-01,-2.020512074232101440e-01,5.525555610656738281e-01,5.006148219108581543e-01,7.041484117507934570e-01,-4.582246243953704834e-01,6.559079140424728394e-02,7.276905179023742676e-01,1.046910583972930908e-01,-7.874335646629333496e-01,-8.416597545146942139e-02,-1.576478630304336548e-01,1.342421770095825195e+00,-4.133861660957336426e-01,-7.046592235565185547e-01,-5.757693201303482056e-02,2.728818416595458984e+00,4.079147279262542725e-01,-1.002903103828430176e+00,-3.121727406978607178e-01,1.167221188545227051e+00,7.792108058929443359e-01,-3.077089041471481323e-02,-5.866566300392150879e-02,-4.180274307727813721e-01,1.048000574111938477e+00,-8.119490742683410645e-01,1.833823800086975098e+00,-5.216013789176940918e-01,1.462461948394775391e+00,1.658293962478637695e+00,1.258257746696472168e+00,-7.763633728027343750e-01,-3.014222681522369385e-01,4.804480373859405518e-01,4.253989458084106445e-01,-1.774658679962158203e+00,2.818438053131103516e+00,1.594040155410766602e+00,-9.387430548667907715e-01,-1.344602942466735840e+00,-1.126678109169006348e+00,-9.391098022460937500e-01,2.224096059799194336e-01,-4.783766865730285645e-01,1.560916543006896973e+00,-6.271954774856567383e-01,-3.796053528785705566e-01,7.020416259765625000e-01,2.929525673389434814e-01
-1.227003931999206543e+00,1.830114483833312988e+00,1.822917312383651733e-01,7.575827836990356445e-01,-7.946043461561203003e-02,3.665225207805633545e-01,1.338175058364868164e+00,4.764536023139953613e-01,4.624559879302978516e-01,7.918823361396789551e-01,-8.386538028717041016e-01,-8.301439881324768066e-02,-3.596159070730209351e-02,1.219830036163330078e+00,-1.499068140983581543e-01,-1.064870953559875488e+00,-4.516813755035400391e-01,-4.870395958423614502e-01,8.178312182426452637e-01,2.128124535083770752e-01,-2.636064589023590088e-01,4.193626046180725098e-01,-1.413176178932189941e+00,-9.013495445251464844e-01,-1.659374117851257324e+00,-1.722199916839599609e+00,3.356743976473808289e-02,5.799140930175781250e-01,-2.198119640350341797e+00,1.267549276351928711e+00,1.151384860277175903e-01,1.891750097274780273e+00,-1.443071126937866211e+00,4.959428608417510986e-01,-1.746663093566894531e+00,1.707296729087829590e+00,7.587915062904357910e-01,3.257151246070861816e-01,-1.272324681282043457e+00,8.438881635665893555e-01,1.012493491172790527e+00,-5.741133093833923340e-01,-1.037539839744567871e+00,6.382127404212951660e-01,-1.842689156532287598e+00,-7.697829008102416992e-01,1.149030208587646484e+00,2.886778116226196289e-01,-1.909438490867614746e+00,2.385426014661788940e-01,7.067832350730895996e-01,-3.654761016368865967e-01,-1.343073248863220215e+00,6.465659141540527344e-01,7.024011015892028809e-01,-3.813679218292236328e-01,1.784799337387084961e+00,-2.263948880136013031e-02
-3.333681449294090271e-02,-1.907968997955322266e+00,3.786343932151794434e-01,3.277857899665832520e-01,3.157697245478630066e-02,-1.990251541137695312e+00,1.458363533020019531e+00,6.870082113891839981e-03,4.072563648223876953e-01,1.090879678726196289e+00,-1.512848377227783203e+00,-8.471617698669433594e-01,4.878241419792175293e-01,9.734359383583068848e-01,4.941459298133850098e-01,1.270165801048278809e+00,3.377935290336608887e-02,4.390096068382263184e-01,-9.657734036445617676e-01,4.073340594768524170e-01,-9.558754563331604004e-01,-8.005455881357192993e-02,-8.908519521355628967e-03,1.450863957405090332e+00,-1.656247138977050781e+00,-6.621965169906616211e-01,-8.941802382469177246e-01,-6.220757365226745605e-01,-1.769267082214355469e+00,1.261559367179870605e+00,5.834199786186218262e-01,-1.567522883415222168e+00,-1.213502407073974609e+00,-1.598732471466064453e+00,-4.070204198360443115e-01,1.155354976654052734e+00,9.393571615219116211e-01,8.339797258377075195e-01,4.284497201442718506e-01,-1.110649228096008301e+00,2.054394036531448364e-01,-5.058465600013732910e-01,7.281021773815155029e-02,1.969776153564453125e-01,1.875904440879821777e+00,6.311889737844467163e-02,5.754603743553161621e-01,-1.372566461563110352e+00,5.222947597503662109e-01,-1.359579265117645264e-01,-1.825986981391906738e+00,1.461099237203598022e-01,5.761545300483703613e-01,-3.568601012229919434e-01,1.849412441253662109e+00,4.647852778434753418e-01,2.498600259423255920e-02,-1.214611530303955078e-01
1.031603097915649414e+00,1.281042098999023438e+00,-1.236899197101593018e-01,6.618356108665466309e-01,-5.978821590542793274e-02,3.480758368968963623e-01,-5.028845071792602539e-01,2.795488759875297546e-02,-4.564060270786285400e-02,-2.110199183225631714e-01,-1.860194504261016846e-01,2.464128136634826660e-01,1.950927376747131348e-01,1.351576089859008789e+00,-9.975182265043258667e-02,-9.245824217796325684e-01,2.070809155702590942e-01,2.167559385299682617e+00,-3.173176646232604980e-01,-7.813910245895385742e-01,9.284275770187377930e-01,3.149041831493377686e-01,1.733571529388427734e+00,1.277511119842529297e+00,-3.266145661473274231e-02,-9.508865475654602051e-01,-6.866521239280700684e-01,9.321327209472656250e-01,1.466239213943481445e+00,1.887404441833496094e+00,5.190693140029907227e-01,4.250597655773162842e-01,1.982563853263854980e+00,1.404668688774108887e-01,-2.384148240089416504e-01,4.323756396770477295e-01,-2.041570425033569336e+00,5.517813563346862793e-01,2.205917984247207642e-02,-2.978864610195159912e-01,-3.117703497409820557e-01,2.799660898745059967e-02,-1.453197747468948364e-01,-1.176191568374633789e+00,-2.553420960903167725e-01,-2.142286896705627441e-01,-7.432568073272705078e-01,-1.173499822616577148e+00,1.739294648170471191e+00,9.984733462333679199e-01,2.240026235580444336e+00,3.587627410888671875e-01,1.106173038482666016e+00,-7.650486826896667480e-01,-1.174925446510314941e+00,1.874822229146957397e-01,-2.070632457733154297e+00,-6.412145495414733887e-01
1.898256242275238037e-01,1.239335298538208008e+00,-1.093779325485229492e+00,-3.261320665478706360e-02,1.477780342102050781e+00,1.093635678291320801e+00,6.071425676345825195e-01,1.227755546569824219e+00,-2.639269530773162842e-01,1.412889480590820312e+00,6.090667843818664551e-01,-1.047110676765441895e+00,-1.152756571769714355e+00,2.721335887908935547e+00,1.999803781509399414e+00,1.086116790771484375e+00,-1.280536651611328125e+00,1.141432285308837891e+00,1.755503296852111816e+00,1.558789424598217010e-02,2.213889658451080322e-01,-4.638747572898864746e-01,1.680597782135009766e+00,-4.332570135593414307e-01,1.886928677558898926e-01,-1.907477855682373047e+00,-6.672449707984924316e-01,-9.258041381835937500e-01,-1.703251451253890991e-01,-2.741703987121582031e-01,-4.327735602855682373e-01,1.292369961738586426e-01,5.185714364051818848e-01,-6.230605244636535645e-01,-8.023831248283386230e-02,-3.167054951190948486e-01,3.028591275215148926e-01,1.166177630424499512e+00,-2.956252098083496094e-01,1.765270352363586426e+00,1.172836065292358398e+00,-4.518854990601539612e-02,8.201750516891479492e-01,4.556487500667572021e-01,5.348361730575561523e-01,-2.129672914743423462e-01,2.110424637794494629e-01,4.959542453289031982e-01,-3.805309534072875977e-01,-9.983106851577758789e-01,1.777857989072799683e-01,1.088237404823303223e+00,1.869903564453125000e+00,6.584377288818359375e-01,-1.392605006694793701e-01,7.761004380881786346e-03,-9.272007644176483154e-02,-4.482354223728179932e-01
-1.220628857612609863e+00,-2.604612112045288086e-01,-1.600158095359802246e+00,-4.974366128444671631e-01,1.705527305603027344e-01,-1.051394820213317871e+00,-2.021525651216506958e-01,1.038709163665771484e+00,-5.572896003723144531e-01,-6.382847428321838379e-01,-1.674667745828628540e-01,1.004342794418334961e+00,-1.560607403516769409e-01,-1.148233413696289062e-01,-4.406110942363739014e-01,-8.547942852601408958e-04,-6.350399851799011230e-01,1.497707128524780273e+00,-6.030858159065246582e-01,2.981076002120971680e+00,-2.814533114433288574e-01,2.173437774181365967e-01,-6.213474273681640625e-01,3.660506308078765869e-01,9.042550623416900635e-02,3.149066865444183350e-01,-8.895111680030822754e-01,1.354140996932983398e+00,4.147947728633880615e-01,1.028142213821411133e+00,-1.552371263504028320e+00,-9.273850321769714355e-01,1.589425444602966309e+00,-1.097972869873046875e+00,1.768219113349914551e+00,8.881495893001556396e-02,1.430005073547363281e+00,4.045234024524688721e-01,5.441079139709472656e-01,-5.139124989509582520e-01,-2.182481288909912109e+00,-1.182615280151367188e+00,1.087536931037902832e+00,1.133832097053527832e+00,-1.749142527580261230e+00,-8.276252150535583496e-01,2.113071918487548828e+00,-7.599495649337768555e-01,2.254225254058837891e+00,-9.550653696060180664e-01,-6.256608963012695312e-01,-4.184292852878570557e-01,3.876936733722686768e-01,-5.165987014770507812e-01,-1.047034978866577148e+00,-3.381285071372985840e-01,8.034107685089111328e-01,1.489849209785461426e+00
-5.996653437614440918e-01,9.813365340232849121e-01,-8.812197297811508179e-02,-2.011146843433380127e-01,-3.913905322551727295e-01,2.237627208232879639e-01,-1.227835297584533691e+00,3.619267344474792480e-01,-2.113550603389739990e-01,-2.269259929656982422e+00,2.033855199813842773e+00,-3.226144611835479736e-01,2.648532092571258545e-01,7.504557967185974121e-01,-1.034008860588073730e-01,-1.933917552232742310e-01,8.300785422325134277e-01,8.631645888090133667e-02,9.820381402969360352e-01,9.136704802513122559e-01,-3.111437559127807617e-01,-1.753654330968856812e-01,-1.857720971107482910e+00,-1.098621249198913574e+00,-7.929129600524902344e-01,1.124618649482727051e+00,1.517735719680786133e+00,2.294203191995620728e-01,9.134868383407592773e-01,3.738660514354705811e-01,-1.181567192077636719e+00,4.015316814184188843e-02,6.487783193588256836e-01,-1.160988807678222656e+00,-4.558501541614532471e-01,9.911980628967285156e-01,9.671884775161743164e-01,-6.513285040855407715e-01,-4.515773952007293701e-01,2.313050180673599243e-01,-1.315468549728393555e+00,5.382316187024116516e-03,6.821961998939514160e-01,-1.520296484231948853e-01,-8.282752633094787598e-01,-2.277388334274291992e+00,-7.361447066068649292e-02,-9.149501919746398926e-01,2.018838226795196533e-01,9.209408164024353027e-01,1.625462174415588379e+00,1.137038469314575195e+00,-1.236221432685852051e+00,-7.385933995246887207e-01,6.909143924713134766e-01,-1.545916050672531128e-01,-9.318577647209167480e-01,1.477466225624084473e+00
-1.085275053977966309e+00,-8.038458824157714844e-01,-8.361807465553283691e-01,-5.049679055809974670e-02,1.108203053474426270e+00,1.357441674917936325e-02,-6.294625401496887207e-01,5.208646655082702637e-01,1.302884221076965332e+00,7.007964253425598145e-01,-1.215808868408203125e+00,3.023729324340820312e-01,-7.739452645182609558e-03,-5.470975041389465332e-01,-3.275726318359375000e+00,3.687657117843627930e-01,-1.361117482185363770e+00,-1.106485486030578613e+00,4.604854881763458252e-01,6.525478363037109375e-01,-8.126714825630187988e-01,5.818491578102111816e-01,-2.013629525899887085e-01,5.242413282394409180e-01,-6.267474293708801270e-01,-9.252092242240905762e-01,6.698881983757019043e-01,-7.676058411598205566e-01,-1.177775025367736816e+00,2.550662159919738770e-01,6.550419926643371582e-01,2.251511961221694946e-01,6.312596797943115234e-01,2.879831567406654358e-02,-9.307023882865905762e-02,-1.176303386688232422e+00,4.682723283767700195e-01,8.442835807800292969e-01,4.623610079288482666e-01,-5.553064346313476562e-01,-1.330270469188690186e-01,-1.317709684371948242e-01,1.751544117927551270e+00,5.066112279891967773e-01,6.172201037406921387e-01,1.899284958839416504e+00,5.724093914031982422e-01,-2.387259244918823242e+00,-9.139820933341979980e-01,1.593721866607666016e+00,-3.489895025268197060e-03,1.529110670089721680e+00,3.426868021488189697e-01,3.301657736301422119e-01,-1.852644830942153931e-01,-1.270345687866210938e+00,-1.679291576147079468e-01,3.577663302421569824e-01
-4.158649444580078125e-01,1.821537734940648079e-03,1.834956884384155273e+00,-1.139787435531616211e+00,-1.138328433036804199e+00,-1.135006427764892578e+00,-8.771186470985412598e-01,-2.022450923919677734e+00,1.151073873043060303e-01,7.199226617813110352e-01,-1.661914944648742676e+00,2.277337551116943359e+00,-6.932052373886108398e-01,1.065117716789245605e+00,1.262855648994445801e+00,1.089263439178466797e+00,-5.005474090576171875e-01,4.133570939302444458e-02,2.431154809892177582e-02,-1.042244553565979004e+00,-5.925185084342956543e-01,-5.304269865155220032e-02,2.591204941272735596e-01,-1.122623160481452942e-01,1.374775767326354980e+00,5.154634714126586914e-01,9.512376785278320312e-01,9.193969964981079102e-01,-1.036033481359481812e-01,9.570143222808837891e-01,-7.716359496116638184e-01,2.075010299682617188e+00,1.354400038719177246e+00,-2.798071503639221191e-01,-1.136409997940063477e+00,-2.106166034936904907e-01,-5.101741552352905273e-01,-1.599332690238952637e+00,9.036962985992431641e-01,-5.939339399337768555e-01,2.518446445465087891e-01,-1.497910141944885254e+00,2.826874852180480957e-01,1.016698598861694336e+00,1.648155331611633301e+00,9.490683078765869141e-01,9.687022119760513306e-02,6.273518204689025879e-01,-2.255082130432128906e+00,7.316595911979675293e-01,-1.544368863105773926e+00,1.782121300697326660e+00,-8.805159926414489746e-01,2.040251940488815308e-01,2.342264726758003235e-02,1.398139953613281250e+00,-1.775570958852767944e-01,-2.808898985385894775e-01
-1.412395834922790527e-01,5.306946635246276855e-01,1.320559382438659668e+00,4.645838961005210876e-02,-1.705989360809326172e+00,-1.626305282115936279e-02,3.006099164485931396e-01,-1.256733894348144531e+00,-2.643231153488159180e-01,8.039166331291198730e-01,-4.858341217041015625e-01,1.167534887790679932e-01,-1.228650510311126709e-01,1.347511410713195801e+00,-1.798958182334899902e+00,1.963828206062316895e+00,3.253344893455505371e-01,1.033948183059692383e+00,-2.606775760650634766e-01,-4.947596490383148193e-01,-1.337080955505371094e+00,1.636288642883300781e+00,4.052602350711822510e-01,1.014124512672424316e+00,-4.473545551300048828e-01,4.044410586357116699e-01,6.421120464801788330e-02,1.444449067115783691e+00,-6.546112149953842163e-02,4.425010643899440765e-03,-1.241235613822937012e+00,1.217964589595794678e-01,9.401564598083496094e-01,-9.778054952621459961e-01,1.152878999710083008e+00,-6.653969287872314453e-01,-4.517931938171386719e-01,-6.236846446990966797e-01,8.583934903144836426e-01,9.843226075172424316e-01,1.231931924819946289e+00,1.585357069969177246e+00,8.996777981519699097e-02,1.369997859001159668e+00,2.376469410955905914e-02,-1.790689229965209961e-01,2.153955459594726562e+00,-1.602998256683349609e+00,-1.089053630828857422e+00,2.977744042873382568e-01,2.342722177505493164e+00,9.138709902763366699e-01,2.902932167053222656e-01,-5.350227952003479004e-01,8.651416897773742676e-01,-4.055622220039367676e-01,-5.777439475059509277e-01,-1.144721060991287231e-01
1.065613269805908203e+00,6.186929345130920410e-01,1.256162077188491821e-01,-8.056510686874389648e-01,1.826197028160095215e+00,-6.838699579238891602e-01,-1.292287468910217285e+00,6.758096218109130859e-01,-4.199556410312652588e-01,-3.219889998435974121e-01,-6.540556550025939941e-01,-1.111045666038990021e-02,2.836390018463134766e+00,8.042876720428466797e-01,1.635571837425231934e+00,-1.252997398376464844e+00,-1.904987931251525879e+00,7.606756091117858887e-01,-8.319660276174545288e-02,8.936952799558639526e-03,1.870960146188735962e-01,-3.047628998756408691e-01,3.314121365547180176e-01,4.665678143501281738e-01,-4.728765785694122314e-02,2.664521038532257080e-01,-2.910992801189422607e-01,4.179212152957916260e-01,-5.544354319572448730e-01,1.055820465087890625e+00,1.560685634613037109e+00,1.965524077415466309e+00,8.090531229972839355e-01,8.548866957426071167e-02,3.356827795505523682e-01,-1.517349183559417725e-01,1.298404812812805176e+00,-1.062718749046325684e+00,2.959986031055450439e-01,-9.158162474632263184e-01,1.456935405731201172e-01,-1.309762477874755859e+00,-1.062606215476989746e+00,1.598551869392395020e+00,-9.088707715272903442e-02,-1.339504361152648926e+00,-7.385885119438171387e-01,-1.501875519752502441e-01,9.715982526540756226e-02,1.165198802947998047e+00,-1.514075398445129395e-01,1.056730031967163086e+00,-9.824638366699218750e-01,-2.028283029794692993e-01,-4.212873876094818115e-01,8.548635840415954590e-01,-1.510676980018615723e+00,-2.575482130050659180e-01
5.119315385818481445e-01,4.054096341133117676e-01,-3.885427117347717285e-02,4.549853801727294922e-01,-1.180690675973892212e-01,-1.551041126251220703e+00,5.016446113586425781e-01,-1.905018210411071777e+00,1.680105566978454590e+00,-1.702888965606689453e+00,-1.407383531332015991e-01,-9.907386898994445801e-01,-9.514617174863815308e-02,-1.903833985328674316e+00,-3.536724746227264404e-01,1.422977745532989502e-01,-3.804109990596771240e-01,-5.844694375991821289e-01,5.362748503684997559e-01,-6.973332166671752930e-01,-3.717537224292755127e-01,3.534322082996368408e-01,1.648985147476196289e+00,4.424437880516052246e-01,-5.580140948295593262e-01,-1.281025528907775879e+00,2.671490907669067383e-01,5.174659490585327148e-01,-4.663486182689666748e-01,3.813607394695281982e-01,1.292557716369628906e+00,-2.033976793289184570e+00,-6.401239037513732910e-01,-4.212540388107299805e-01,-8.763586282730102539e-01,1.508427262306213379e+00,7.583563327789306641e-01,-8.651082515716552734e-01,1.338879168033599854e-01,-3.829692006111145020e-01,2.201669216156005859e+00,-5.000696778297424316e-01,-1.284481585025787354e-01,3.730485737323760986e-01,-1.549504995346069336e+00,-8.837843537330627441e-01,-5.328033566474914551e-01,1.154362559318542480e+00,-1.820400714874267578e+00,-2.767533063888549805e-01,-8.558729290962219238e-01,-3.855895400047302246e-01,-1.022227525711059570e+00,-1.100738763809204102e+00,-1.761853337287902832e+00,2.735720276832580566e-01,4.989973604679107666e-01,1.770146369934082031e+00
-1.570593416690826416e-01,-3.816869854927062988e-01,-4.771357476711273193e-01,-1.222921133041381836e+00,-4.058383107185363770e-01,-2.624504268169403076e-01,-2.164649367332458496e-01,8.156684637069702148e-01,5.502274036407470703e-01,-1.400606930255889893e-01,-7.691982388496398926e-01,-9.768980145454406738e-01,9.398318529129028320e-01,9.009007811546325684e-01,-1.453663229942321777e+00,2.427679896354675293e-01,2.893504798412322998e-01,-1.930123269557952881e-01,-4.555253982543945312e-01,-7.751813530921936035e-01,-5.029878616333007812e-01,-4.313681423664093018e-01,7.412558887153863907e-03,-4.194165468215942383e-01,9.124993681907653809e-01,1.015548944473266602e+00,1.321346998214721680e+00,7.083870768547058105e-01,-2.279712200164794922e+00,-1.135475873947143555e+00,2.638531476259231567e-02,3.391014337539672852e-01,-2.846070766448974609e+00,9.857724905014038086e-01,2.675963342189788818e-01,-6.733487844467163086e-01,-4.160191416740417480e-01,-5.520432591438293457e-01,-1.010736346244812012e+00,-8.810869455337524414e-01,1.953960061073303223e+00,-5.439321994781494141e-01,-2.089567422866821289e+00,3.197326362133026123e-01,-1.515246275812387466e-02,7.343890666961669922e-01,1.772211790084838867e-01,-2.372171357274055481e-02,-8.441881537437438965e-01,-8.306438922882080078e-01,8.571470975875854492e-01,-1.461255908012390137e+00,-4.068039357662200928e-01,1.714562326669692993e-01,-2.916747033596038818e-01,1.340419888496398926e+00,1.743293762207031250e+00,7.037374973297119141e-01
-7.623647451400756836e-01,3.557490929961204529e-02,-2.385527193546295166e-01,3.200070559978485107e-01,3.079048395156860352e-01,-7.018138170242309570e-01,8.241635560989379883e-01,1.174216032028198242e+00,1.429829835891723633e+00,7.989748120307922363e-01,1.857391744852066040e-01,-9.672682285308837891e-01,-1.826309919357299805e+00,-3.477218151092529297e-01,3.810473680496215820e-01,6.263090372085571289e-01,-6.378231644630432129e-01,1.730212926864624023e+00,1.030034065246582031e+00,7.078247666358947754e-01,1.941395044326782227e+00,9.195647835731506348e-01,-9.994850754737854004e-01,6.223666667938232422e-01,2.356247156858444214e-01,-6.869137883186340332e-01,-9.530173540115356445e-01,-2.929658889770507812e-01,2.158480167388916016e+00,-5.762230157852172852e-01,5.527647137641906738e-01,-1.669678330421447754e+00,-6.433393359184265137e-01,-1.036656945943832397e-01,7.509838342666625977e-01,4.752956032752990723e-01,1.207450747489929199e+00,8.284378051757812500e-01,-1.148093581199645996e+00,-7.250770926475524902e-03,-2.703680098056793213e-01,-8.462013602256774902e-01,-1.964120507240295410e+00,-1.181179165840148926e+00,1.220025897026062012e+00,8.699444532394409180e-01,3.287803530693054199e-01,-4.382612705230712891e-01,-1.043646693229675293e+00,1.178822398185729980e+00,-5.721004605293273926e-01,5.106249451637268066e-01,9.587312936782836914e-01,1.426136940717697144e-01,8.255489468574523926e-01,-9.722586870193481445e-01,-7.318459749221801758e-01,3.124810159206390381e-01
-9.024469852447509766e-01,-1.932186186313629150e-01,2.009320020675659180e+00,3.747832179069519043e-01,-4.094706177711486816e-01,-1.914564967155456543e+00,-1.015389800071716309e+00,-2.895610332489013672e-01,9.315249323844909668e-01,4.538216292858123779e-01,2.408856004476547241e-01,-8.251131325960159302e-02,1.062022686004638672e+00,-1.888137936592102051e+00,-1.060555968433618546e-02,-5.541300773620605469e-01,-4.532855451107025146e-01,1.016588926315307617e+00,-9.800299406051635742e-01,6.174207106232643127e-02,-5.567527413368225098e-01,1.679059267044067383e-01,5.454348325729370117e-01,3.166764676570892334e-01,-5.290984511375427246e-01,-1.193765997886657715e+00,-1.207097649574279785e+00,1.416981518268585205e-01,-1.886067748069763184e+00,1.773329675197601318e-01,-4.844125360250473022e-02,1.023680925369262695e+00,5.659410953521728516e-01,7.077741026878356934e-01,6.424376368522644043e-01,-8.634572029113769531e-01,2.046427577733993530e-01,-2.933185100555419922e-01,-2.968467175960540771e-01,-1.617981553077697754e+00,1.154754400253295898e+00,-5.944752693176269531e-01,-3.021436035633087158e-01,4.710877239704132080e-01,1.632351398468017578e+00,4.691449999809265137e-01,-1.264186978340148926e+00,4.603532552719116211e-01,-6.310091018676757812e-01,6.411167979240417480e-01,-8.435004949569702148e-01,-1.450839638710021973e+00,2.151699364185333252e-01,4.003099799156188965e-01,-7.615802884101867676e-01,-1.939118504524230957e-01,-6.007133722305297852e-01,7.794265747070312500e-01
2.682850837707519531e+00,-1.348800659179687500e+00,3.519910871982574463e-01,1.355587005615234375e+00,-4.262174367904663086e-01,1.806849837303161621e+00,5.160236358642578125e-02,-1.026741504669189453e+00,9.295811653137207031e-01,3.943638503551483154e-01,-1.308916091918945312e+00,-1.779313921928405762e+00,6.362538039684295654e-02,-5.440106391906738281e-01,-1.521150916814804077e-01,-7.825548052787780762e-01,1.818256378173828125e+00,-1.840735554695129395e+00,2.728703320026397705e-01,-4.577704891562461853e-02,-2.748732082545757294e-02,-7.031376361846923828e-01,7.477615475654602051e-01,1.214725375175476074e+00,-1.289249300956726074e+00,9.915619492530822754e-01,4.402799010276794434e-01,3.030403256416320801e-01,-1.356064081192016602e-01,-1.922347843647003174e-01,-2.976876199245452881e-01,-6.673580408096313477e-01,1.144454002380371094e+00,-1.596730947494506836e+00,1.039973139762878418e+00,-1.013007283210754395e+00,3.207006258890032768e-03,-1.851012349128723145e+00,1.459579944610595703e+00,-6.357446908950805664e-01,-5.309445261955261230e-01,9.358165264129638672e-01,-1.309036463499069214e-01,-5.169380903244018555e-01,-8.078427910804748535e-01,-1.441179156303405762e+00,9.404829144477844238e-01,-9.243797063827514648e-01,-1.128208279609680176e+00,3.859890699386596680e-01,1.487831592559814453e+00,1.186145395040512085e-01,5.018337965011596680e-01,2.463340163230895996e-01,-1.434341192245483398e+00,6.400928497314453125e-01,5.557588338851928711e-01,-1.027830392122268677e-01
-5.290639400482177734e-01,-7.248147726058959961e-01,6.720372438430786133e-01,4.646963775157928467e-01,1.922399759292602539e+00,7.278484702110290527e-01,1.142169535160064697e-01,-5.462620854377746582e-01,-4.949859678745269775e-01,-6.311302185058593750e-01,-3.402953147888183594e-01,1.622580885887145996e+00,2.170160770416259766e+00,1.244018912315368652e+00,-4.276248514652252197e-01,-3.736898005008697510e-01,9.983744025230407715e-01,-7.271210551261901855e-01,-1.174291968345642090e+00,2.150393724441528320e-01,-1.058806300163269043e+00,1.159723520278930664e+00,8.263465762138366699e-01,1.205287575721740723e+00,-1.638691663742065430e+00,8.234637230634689331e-02,1.701130032539367676e+00,2.926164865493774414e-01,8.782554864883422852e-01,4.361140355467796326e-02,9.373756647109985352e-01,-1.909698009490966797e+00,-8.576104044914245605e-01,-1.098501205444335938e+00,1.291231751441955566e+00,-6.345287710428237915e-02,-7.991902530193328857e-02,-1.855470389127731323e-01,-2.596827745437622070e-01,1.727426171302795410e+00,-2.371492832899093628e-01,4.127165302634239197e-02,-1.647220253944396973e+00,-2.392750233411788940e-01,-2.281072735786437988e-01,-1.433432579040527344e+00,9.457502961158752441e-01,8.545975089073181152e-01,-3.164414763450622559e-01,7.257896661758422852e-01,2.064233720302581787e-01,-7.481963634490966797e-01,-1.466696023941040039e+00,1.999774575233459473e+00,5.308905839920043945e-01,-4.081932902336120605e-01,-1.572222471237182617e+00,9.840092658996582031e-01
-3.181917965412139893e-01,-7.227849960327148438e-02,-1.582566618919372559e+00,6.926189064979553223e-01,-1.025456309318542480e+00,9.862188696861267090e-01,-7.141775488853454590e-01,-5.236189365386962891e-01,-8.106656670570373535e-01,-3.776716440916061401e-02,2.789287567138671875e-01,-8.806408643722534180e-01,-7.267185449600219727e-01,-9.336904883384704590e-01,1.600639104843139648e+00,9.479987621307373047e-01,-1.449614763259887695e+00,-4.622335731983184814e-01,4.359591901302337646e-01,9.939805865287780762e-01,1.438900113105773926e+00,-4.249095320701599121e-01,-1.018859863281250000e+00,-4.363447427749633789e-01,2.909243106842041016e-01,-3.444514274597167969e-01,-1.235102057456970215e+00,3.210107386112213135e-01,4.714597761631011963e-02,-9.827657938003540039e-01,1.101660057902336121e-01,-2.791292071342468262e-01,1.242790147662162781e-01,1.882204294204711914e+00,2.708205580711364746e-01,1.410689949989318848e+00,3.360418081283569336e-01,2.925284504890441895e-01,1.055253386497497559e+00,-2.061164617538452148e+00,-5.357803106307983398e-01,7.625432610511779785e-01,1.905475854873657227e+00,-2.753864526748657227e-01,-1.593570560216903687e-01,-8.385578393936157227e-01,1.453628540039062500e-01,6.285815834999084473e-01,1.442134380340576172e+00,-1.872323751449584961e+00,-2.840648591518402100e-01,4.066155850887298584e-01,-2.673906981945037842e-01,2.274435460567474365e-01,1.699643015861511230e+00,4.425668120384216309e-01,1.030623912811279297e+00,1.453695297241210938e-01
1.420906901359558105e+00,3.195584714412689209e-01,-1.388677358627319336e+00,3.398707509040832520e-01,-2.058038860559463501e-01,-1.590700864791870117e+00,-8.913617730140686035e-01,1.980430632829666138e-01,1.068272948265075684e+00,1.378029823303222656e+00,-7.357271909713745117e-01,-1.172398209571838379e+00,3.931832909584045410e-01,1.593993663787841797e+00,1.581036806106567383e+00,-1.031894922256469727e+00,1.722172260284423828e+00,2.242029607295989990e-01,1.338584423065185547e-01,-4.818146526813507080e-01,5.433771014213562012e-01,1.894603848457336426e+00,-2.034913897514343262e-01,1.566194653511047363e+00,1.945237398147583008e+00,5.463542938232421875e-01,-9.103220105171203613e-01,3.386549353599548340e-01,1.772004008293151855e+00,3.073630928993225098e-01,1.308577537536621094e+00,-7.077670097351074219e-01,-6.382234096527099609e-01,-8.968444466590881348e-01,1.400303211994469166e-03,8.991116285324096680e-01,-8.376973271369934082e-01,-4.141106903553009033e-01,-6.824941635131835938e-01,8.225249499082565308e-02,-9.267389178276062012e-01,-3.758163452148437500e-01,-3.043197095394134521e-01,-2.042057365179061890e-01,-7.027949392795562744e-02,-1.301371455192565918e-01,-1.134448289871215820e+00,-5.343081355094909668e-01,2.156530380249023438e+00,1.388787388801574707e+00,-1.171599552035331726e-01,-7.943175435066223145e-01,1.962853193283081055e+00,-2.029085159301757812e+00,-2.324389219284057617e-01,-1.272509932518005371e+00,-3.044974803924560547e-01,-4.718024283647537231e-03
1.307842135429382324e-02,-1.281858921051025391e+00,4.480864107608795166e-01,4.647795557975769043e-01,-6.273602247238159180e-01,-7.872500419616699219e-01,-1.113524138927459717e-01,-7.495883107185363770e-01,1.242021441459655762e+00,1.179332494735717773e+00,-1.597174257040023804e-01,-1.745435744524002075e-01,1.543059587478637695e+00,-4.659984707832336426e-01,6.145746111869812012e-01,3.634809851646423340e-01,-1.026784777641296387e+00,-3.274903297424316406e-01,3.584266006946563721e-01,-1.235452771186828613e+00,-5.319580435752868652e-01,-8.825739473104476929e-02,6.346126198768615723e-01,1.298803091049194336e+00,8.670438826084136963e-02,1.531156659126281738e+00,5.999503731727600098e-01,3.248331844806671143e-01,-1.528089046478271484e-01,-2.603577375411987305e-01,2.859123349189758301e-01,-1.300345659255981445e+00,-9.459232091903686523e-01,-4.062017798423767090e-01,-1.497928380966186523e+00,-8.153548836708068848e-01,-1.320641338825225830e-01,-1.460270524024963379e+00,1.117347240447998047e+00,-6.081962585449218750e-01,-9.163058996200561523e-01,2.268607169389724731e-01,2.369978129863739014e-01,-3.525947928428649902e-01,-7.353213429450988770e-01,-4.095901548862457275e-01,1.040546536445617676e+00,6.391679495573043823e-02,1.407236456871032715e+00,-1.461435317993164062e+00,2.436649203300476074e-01,-2.235397815704345703e+00,-1.756775856018066406e+00,7.212101817131042480e-01,3.282556831836700439e-01,1.031616806983947754e+00,4.394922852516174316e-01,-1.630823127925395966e-02
1.081029176712036133e+00,7.881575226783752441e-01,1.206020355224609375e+00,1.116468161344528198e-01,-1.533931970596313477e+00,5.675747394561767578e-01,1.497921049594879150e-01,-4.008666276931762695e-01,-5.603917241096496582e-01,-7.513477653264999390e-02,-1.300139188766479492e+00,6.090030074119567871e-01,-1.341890096664428711e+00,2.844170480966567993e-02,-1.142793536186218262e+00,9.867246747016906738e-01,-2.481888681650161743e-01,-5.538910627365112305e-01,1.786845207214355469e+00,2.861186265945434570e-01,-1.094742894172668457e+00,-1.131572425365447998e-01,-1.244782507419586182e-01,-7.382942438125610352e-01,-7.990448735654354095e-03,-2.847342751920223236e-02,-9.991253018379211426e-01,-9.421218037605285645e-01,-1.832767367362976074e+00,7.331585884094238281e-01,-1.185169577598571777e+00,-3.622012734413146973e-01,8.371161222457885742e-01,6.381241083145141602e-01,1.458558797836303711e+00,2.826819419860839844e-01,1.181350588798522949e+00,-5.889188647270202637e-01,5.743345022201538086e-01,-1.892660617828369141e+00,6.462664902210235596e-02,1.269285082817077637e+00,-2.397605419158935547e+00,9.682236313819885254e-01,1.097072720527648926e+00,-1.422734856605529785e+00,-1.680378168821334839e-01,6.799951195716857910e-02,-2.116646468639373779e-01,-1.944206476211547852e+00,-8.645492792129516602e-02,1.660556316375732422e+00,-6.408841609954833984e-01,-2.845620393753051758e+00,-1.861103624105453491e-01,1.509421169757843018e-01,-1.759420990943908691e+00,1.087977766990661621e+00
1.393739581108093262e+00,-1.318235397338867188e+00,-4.922633245587348938e-02,-5.236504673957824707e-01,4.175746440887451172e-01,2.732361793518066406e+00,4.359149336814880371e-01,-7.301558256149291992e-01,2.958835959434509277e-01,-9.085309505462646484e-01,4.856172204017639160e-02,-3.248669505119323730e-01,7.083368897438049316e-01,-7.196588516235351562e-01,-1.161668896675109863e+00,-1.778973221778869629e+00,1.233062386512756348e+00,-8.459346294403076172e-01,-6.556831002235412598e-01,3.370202779769897461e-01,6.977168917655944824e-01,1.164087414741516113e+00,-2.699695229530334473e-01,9.203247427940368652e-01,1.437030673027038574e+00,6.040504574775695801e-01,-2.996575117111206055e+00,-2.251873910427093506e-02,-3.653610944747924805e-01,7.119310498237609863e-01,2.653962075710296631e-01,-7.028154134750366211e-01,-2.428254783153533936e-01,9.066681265830993652e-01,-7.370293736457824707e-01,-4.462625980377197266e-01,1.222433522343635559e-01,1.063948154449462891e+00,-8.440443873405456543e-01,8.244208097457885742e-01,-6.592652797698974609e-01,7.961921095848083496e-01,5.706620216369628906e-01,-9.560010433197021484e-01,-7.356924414634704590e-01,-4.265227317810058594e-01,6.188934296369552612e-02,1.116034314036369324e-01,-4.680753350257873535e-01,-2.494485862553119659e-02,-1.212128043174743652e+00,7.891638278961181641e-01,-2.472302436828613281e+00,1.206911802291870117e-01,-4.285552501678466797e-01,1.048839688301086426e+00,-2.026502847671508789e+00,4.967281818389892578e-01
6.640311479568481445e-01,-1.037079453468322754e+00,-2.034176349639892578e+00,7.659633755683898926e-01,8.024379014968872070e-01,3.049364984035491943e-01,-1.492044687271118164e+00,-9.401850700378417969e-01,2.177773714065551758e+00,-6.801459193229675293e-01,-1.854467868804931641e+00,7.354177832603454590e-01,5.909962058067321777e-01,-9.877611398696899414e-01,-6.004596352577209473e-01,-2.928981781005859375e-01,-1.347060948610305786e-01,7.826304435729980469e-01,1.160442829132080078e+00,4.010125100612640381e-01,-7.162421941757202148e-02,2.765505909919738770e-01,-4.171484112739562988e-01,1.353257179260253906e+00,-8.560498803853988647e-02,7.953578233718872070e-01,7.184447050094604492e-01,-1.181584715843200684e+00,-4.048839509487152100e-01,1.607546210289001465e+00,9.977546930313110352e-01,3.705572485923767090e-01,-1.219297885894775391e+00,1.706120848655700684e+00,5.330679416656494141e-01,1.257980585098266602e+00,-1.457362532615661621e+00,4.648389220237731934e-01,-2.015018910169601440e-01,6.839460134506225586e-01,1.578768134117126465e+00,9.663535952568054199e-01,4.593102037906646729e-01,2.362926751375198364e-01,3.061180114746093750e-01,1.023132920265197754e+00,4.494190216064453125e-01,-6.207772493362426758e-01,2.874189138412475586e+00,-4.309542179107666016e-01,1.100409626960754395e+00,-6.192881464958190918e-01,1.182997673749923706e-01,3.523671925067901611e-01,-2.732222378253936768e-01,2.332320362329483032e-01,-6.384776234626770020e-01,-5.240401625633239746e-01
-1.396610379219055176e+00,-7.838199734687805176e-01,1.377883791923522949e+00,3.503315150737762451e-01,2.281325310468673706e-01,-7.027530670166015625e-01,-1.034360051155090332e+00,-2.421052902936935425e-01,5.746949315071105957e-01,2.271750122308731079e-01,-6.850677132606506348e-01,-2.094570100307464600e-01,-2.803010940551757812e-01,-1.404792428016662598e+00,2.919878363609313965e-01,-1.695345044136047363e-01,5.706136226654052734e-01,7.826772928237915039e-01,7.849922180175781250e-01,5.740754604339599609e-01,4.891626536846160889e-01,-6.259315013885498047e-01,-6.399680972099304199e-01,-8.587015867233276367e-01,1.008306622505187988e+00,-6.266729831695556641e-01,-1.212325453758239746e+00,3.659043610095977783e-01,2.848596498370170593e-02,4.073724448680877686e-01,1.753395646810531616e-01,-6.883130222558975220e-02,6.945402622222900391e-01,9.815101623535156250e-01,4.628498256206512451e-01,-1.740056276321411133e-01,-3.074932992458343506e-01,-1.061293005943298340e+00,1.043710231781005859e+00,1.580940485000610352e-01,-4.162716269493103027e-01,1.526368558406829834e-01,2.011845350265502930e+00,1.058195233345031738e+00,1.440088152885437012e-01,3.670803308486938477e-01,-5.130733251571655273e-01,-1.304196119308471680e+00,1.693166196346282959e-01,-1.611010670661926270e+00,1.306349515914916992e+00,1.595184087753295898e+00,1.001663208007812500e+00,7.469271421432495117e-01,4.108016192913055420e-01,1.868709325790405273e+00,1.102866649627685547e+00,1.342021822929382324e+00
-2.603853642940521240e-01,-1.366494655609130859e+00,-3.173836171627044678e-01,-4.473569095134735107e-01,4.603482782840728760e-01,-8.733015060424804688e-01,2.363778114318847656e+00,1.692698448896408081e-01,4.317130446434020996e-01,-6.428191661834716797e-01,1.147843837738037109e+00,-2.288754701614379883e+00,1.165869832038879395e+00,-8.882714062929153442e-02,-2.890934944152832031e-01,2.133919954299926758e+00,-1.218483746051788330e-01,2.725405991077423096e-01,-2.322040796279907227e-01,1.642227321863174438e-01,-3.227476775646209717e-01,4.292445629835128784e-02,3.354392349720001221e-01,-2.073025256395339966e-01,-3.284201323986053467e-01,4.062642455101013184e-01,-4.560172259807586670e-01,-9.421968460083007812e-01,3.845431506633758545e-01,-1.198318004608154297e-01,4.183766245841979980e-02,-9.891815185546875000e-01,-1.329480111598968506e-01,2.418347299098968506e-01,-2.860888838768005371e-01,-1.217368006706237793e+00,8.573172688484191895e-01,-3.819080591201782227e-01,-1.168268442153930664e+00,1.725527167320251465e+00,6.202072501182556152e-01,-5.086287260055541992e-01,2.275136232376098633e+00,-1.720259308815002441e+00,1.367121040821075439e-01,1.093541264533996582e+00,-8.923730254173278809e-01,1.532300710678100586e+00,7.155159711837768555e-01,8.152310550212860107e-02,9.230313301086425781e-01,-9.153751730918884277e-01,1.705600261688232422e+00,-6.529423594474792480e-02,1.031523346900939941e+00,-6.912923455238342285e-01,4.220067262649536133e-01,2.075048685073852539e+00
3.050073683261871338e-01,-2.455765008926391602e+00,2.809364199638366699e-01,8.086270093917846680e-01,-1.418701171875000000e+00,-4.433007836341857910e-01,8.223439753055572510e-02,-7.987653613090515137e-01,-1.400055408477783203e+00,3.506377637386322021e-01,-7.295407652854919434e-01,2.836387753486633301e-01,-7.951242327690124512e-01,-3.561823964118957520e-01,-1.096791699528694153e-01,-1.914361864328384399e-01,-4.080000519752502441e-01,1.662361994385719299e-02,-1.664754152297973633e-01,-5.805770158767700195e-01,-1.069717332720756531e-01,2.393890619277954102e-01,1.109943032264709473e+00,1.608038306236267090e+00,1.140415430068969727e+00,-1.341683745384216309e+00,1.671852946281433105e+00,2.404964685440063477e+00,5.186782404780387878e-02,-6.887052059173583984e-01,-3.099977374076843262e-01,-2.824174642562866211e+00,-5.175691843032836914e-01,-8.761135935783386230e-01,8.122521638870239258e-01,8.043918609619140625e-01,-7.112273573875427246e-01,-9.019477963447570801e-01,3.074752092361450195e-01,1.270473241806030273e+00,1.047535181045532227e+00,-1.507366299629211426e+00,-1.211906313896179199e+00,8.190255761146545410e-01,-8.174183964729309082e-01,2.163400173187255859e+00,5.837083458900451660e-01,1.042808219790458679e-01,1.294949054718017578e-01,-2.817322313785552979e-01,-6.891605257987976074e-01,2.527482509613037109e-01,-3.988475799560546875e-01,-7.850827574729919434e-01,3.386538922786712646e-01,-1.615532040596008301e+00,7.114347815513610840e-01,-1.412327140569686890e-01
1.432009339332580566e+00,-5.098605751991271973e-01,1.919982790946960449e+00,1.218589425086975098e+00,2.101454257965087891e+00,-7.623923420906066895e-01,-6.680051684379577637e-01,4.945290833711624146e-02,2.211915850639343262e-01,2.512211799621582031e+00,-1.202055290341377258e-01,4.076314568519592285e-01,6.997081041336059570e-01,2.161431759595870972e-01,6.130698323249816895e-01,6.080922484397888184e-01,-5.753467679023742676e-01,1.135963872075080872e-01,2.707783281803131104e-01,2.698930799961090088e-01,-7.263363152742385864e-02,1.479988694190979004e+00,5.499441623687744141e-01,-1.105060242116451263e-02,-1.140722632408142090e-01,-1.107120156288146973e+00,-3.898683488368988037e-01,5.928025841712951660e-01,1.382170438766479492e+00,-1.338158130645751953e+00,-9.625700861215591431e-02,-1.025542259216308594e+00,1.025821447372436523e+00,3.303613364696502686e-01,-9.664148092269897461e-01,1.469040274620056152e+00,-4.628507494926452637e-01,8.757395744323730469e-01,5.570640563964843750e-01,-1.098176598548889160e+00,-1.548500299453735352e+00,-9.612063765525817871e-01,9.163585305213928223e-01,8.377829939126968384e-02,2.326021432876586914e+00,1.805971145629882812e+00,-1.020454049110412598e+00,1.246177434921264648e+00,-1.231613636016845703e+00,-4.579082727432250977e-01,5.210397839546203613e-01,1.574782609939575195e+00,2.487425565719604492e+00,-1.499432086944580078e+00,1.215586811304092407e-01,-2.665723323822021484e+00,-2.844204902648925781e-01,1.323997735977172852e+00
-4.728743433952331543e-01,-1.090738654136657715e+00,-1.730200529098510742e+00,1.146899104118347168e+00,2.565125226974487305e-01,-8.923680186271667480e-01,1.698945879936218262e+00,4.731563925743103027e-01,2.096184730529785156e+00,1.225604891777038574e+00,-2.051310688257217407e-01,7.654575705528259277e-01,8.896807432174682617e-01,-6.353241205215454102e-01,-6.497129797935485840e-02,-8.969760686159133911e-02,4.098439514636993408e-01,1.185250997543334961e+00,-1.891562491655349731e-01,6.743721961975097656e-01,-1.379869431257247925e-01,3.647679835557937622e-02,-1.097426772117614746e+00,-1.367219537496566772e-01,-1.142116904258728027e+00,-3.175240039825439453e+00,-4.468190371990203857e-01,-1.845134645700454712e-01,1.454267859458923340e+00,7.167949676513671875e-01,-6.538013815879821777e-01,-1.294239908456802368e-01,-2.392606139183044434e-01,-9.994701147079467773e-01,9.699948430061340332e-01,5.414155125617980957e-02,-1.477416872978210449e+00,-1.226494789123535156e+00,3.261072039604187012e-01,9.908198714256286621e-01,-1.804745644330978394e-01,-5.494404435157775879e-01,2.637037634849548340e-01,-1.872097253799438477e+00,-5.951613187789916992e-01,-1.511221826076507568e-01,-1.899804621934890747e-01,-1.409319758415222168e+00,7.397807240486145020e-01,8.977959156036376953e-01,4.852254092693328857e-01,1.218111395835876465e+00,-4.641437828540802002e-01,2.475377559661865234e+00,2.301886796951293945e+00,4.429348707199096680e-01,-3.377551436424255371e-01,1.105460405349731445e+00
-1.041378259658813477e+00,1.716923832893371582e+00,-1.600810647010803223e+00,4.738445878028869629e-01,-4.494233727455139160e-01,1.945194005966186523e+00,7.149218916893005371e-01,5.699920058250427246e-01,-7.686715722084045410e-01,-9.097464084625244141e-01,-1.014723181724548340e-01,-2.522419929504394531e+00,2.018202841281890869e-02,-1.050734400749206543e+00,-6.349892616271972656e-01,7.984280586242675781e-01,-3.240534365177154541e-01,2.125481128692626953e+00,-5.341504216194152832e-01,9.944925904273986816e-01,-3.529656231403350830e-01,7.797520756721496582e-01,1.756846427917480469e+00,-4.553266763687133789e-01,-4.038467407226562500e-01,1.731810808181762695e+00,1.807691454887390137e+00,-3.609428703784942627e-01,5.338992476463317871e-01,1.566877007484436035e+00,1.401570200920104980e+00,1.282389760017395020e+00,5.587360858917236328e-01,-3.972961008548736572e-01,5.883505344390869141e-01,-5.927293896675109863e-01,6.692982316017150879e-01,4.991339445114135742e-01,9.546657204627990723e-01,-8.484648466110229492e-01,6.257060170173645020e-01,-8.093972802162170410e-01,-1.695705533027648926e+00,6.547322273254394531e-01,1.468998670578002930e+00,-5.871652960777282715e-01,1.208368062973022461e+00,1.092227101325988770e+00,4.260107278823852539e-01,1.840935088694095612e-02,-6.624968647956848145e-01,-8.167229294776916504e-01,5.094240903854370117e-01,-6.859666854143142700e-02,-1.025321960449218750e+00,7.246135473251342773e-01,6.579967737197875977e-01,2.944758236408233643e-01
7.714432477951049805e-01,-1.096614599227905273e+00,1.486867964267730713e-01,-4.143738150596618652e-01,1.538883894681930542e-01,1.991797208786010742e+00,1.507895350456237793e+00,2.697626315057277679e-02,8.497285842895507812e-01,3.089212626218795776e-02,-1.118904352188110352e+00,-6.661287546157836914e-01,-1.005721092224121094e+00,1.735924363136291504e+00,1.040583178400993347e-01,1.018613457679748535e+00,-2.538987994194030762e-01,-1.345918893814086914e+00,1.391242891550064087e-01,-1.373811721801757812e+00,1.084741950035095215e+00,2.765679657459259033e-01,5.130358338356018066e-01,1.129136562347412109e+00,8.446296453475952148e-01,4.413322731852531433e-02,-1.128533244132995605e+00,-2.518184781074523926e-01,-8.943921327590942383e-01,2.159327268600463867e+00,-1.257775425910949707e-01,1.566174864768981934e+00,-8.995798975229263306e-02,-2.720519006252288818e-01,1.571974009275436401e-01,1.042468905448913574e+00,-1.511970400810241699e+00,1.422604680061340332e+00,-2.365995496511459351e-01,-5.118380188941955566e-01,-1.052277207374572754e+00,-9.515737295150756836e-01,-4.971597790718078613e-01,1.286102175712585449e+00,3.777984380722045898e-01,-1.176515370607376099e-01,-5.456947684288024902e-01,-8.768398165702819824e-01,2.352245301008224487e-01,-3.208811283111572266e-01,-7.939156293869018555e-01,3.218388259410858154e-01,7.978630661964416504e-01,-9.126758575439453125e-02,-2.677108049392700195e+00,4.672398567199707031e-01,1.421297550201416016e+00,8.404143452644348145e-01
1.272784471511840820e+00,-2.016889810562133789e+00,9.396917223930358887e-01,4.648886322975158691e-01,1.050614118576049805e+00,7.924211025238037109e-01,8.399178981781005859e-01,-3.681978583335876465e-01,5.053077265620231628e-02,7.158428430557250977e-01,4.548985660076141357e-01,-2.101795524358749390e-01,3.708782494068145752e-01,-1.816004663705825806e-01,8.810040950775146484e-01,-4.427318274974822998e-01,-5.780214816331863403e-02,1.328215956687927246e+00,1.572526216506958008e+00,-7.100498676300048828e-01,-5.219782590866088867e-01,-8.582245707511901855e-01,1.762588024139404297e+00,1.727740287780761719e+00,4.916119948029518127e-02,1.456832170486450195e+00,1.822999954223632812e+00,7.712231278419494629e-01,-1.459607362747192383e+00,8.705995678901672363e-01,-1.185299634933471680e+00,-1.228926301002502441e+00,-1.124212265014648438e+00,2.675196409225463867e+00,5.898065567016601562e-01,-1.757934689521789551e+00,-6.563846468925476074e-01,7.326095700263977051e-01,-1.068284511566162109e+00,1.104837134480476379e-01,-1.208217501640319824e+00,4.095291197299957275e-01,2.782319068908691406e+00,-1.240890979766845703e+00,-2.266324609518051147e-01,1.864742994308471680e+00,1.901503562927246094e+00,-1.388162016868591309e+00,4.528710842132568359e-01,-1.180505156517028809e+00,4.934526085853576660e-01,-2.842012941837310791e-01,4.970061480998992920e-01,-8.866775631904602051e-01,1.387417197227478027e+00,-4.406352639198303223e-01,-1.168086409568786621e+00,-4.956843256950378418e-01
6.122903227806091309e-01,-6.714512407779693604e-02,-8.292410373687744141e-01,1.138642668724060059e+00,-1.098770797252655029e-01,1.699078977108001709e-01,1.021006822586059570e+00,4.209830611944198608e-02,-1.405916929244995117e+00,4.415671229362487793e-01,-4.979311525821685791e-01,7.821280956268310547e-01,7.935070246458053589e-02,1.381183564662933350e-01,3.606900870800018311e-01,1.448271751403808594e+00,2.964012622833251953e-01,4.117293357849121094e-01,5.692675113677978516e-01,-1.352954626083374023e+00,6.000917777419090271e-02,-5.316784381866455078e-01,-1.620652437210083008e+00,-1.531868726015090942e-01,-9.422606974840164185e-02,-1.119063735008239746e+00,8.088275194168090820e-01,4.594600498676300049e-01,1.144505620002746582e+00,1.849641561508178711e+00,9.829732775688171387e-01,7.792360782623291016e-01,-3.303580880165100098e-01,9.266003370285034180e-01,-8.742714524269104004e-01,-9.125355631113052368e-02,7.863557934761047363e-01,5.217705965042114258e-01,9.136017411947250366e-02,-2.633198723196983337e-02,7.416707873344421387e-01,9.100452810525894165e-02,-1.053007245063781738e+00,6.845762133598327637e-01,6.854344904422760010e-02,2.830103039741516113e-01,-3.704362213611602783e-01,1.178050875663757324e+00,-1.125611782073974609e+00,2.560355067253112793e-01,1.294996857643127441e+00,1.136939764022827148e+00,3.246237337589263916e-01,-3.708966672420501709e-01,6.288122534751892090e-01,1.133691072463989258e+00,2.699996232986450195e+00,-8.301596343517303467e-02
-1.758297383785247803e-01,-4.895247220993041992e-01,-1.462131261825561523e+00,4.513976573944091797e-01,1.409549117088317871e+00,-1.963142514228820801e+00,1.578275322914123535e+00,-1.042055860161781311e-01,-1.866924285888671875e+00,1.426970720291137695e+00,-4.622824788093566895e-01,6.306136250495910645e-01,-1.068728566169738770e+00,6.521655917167663574e-01,-1.078224740922451019e-02,9.428381174802780151e-02,1.496143579483032227e+00,5.631745457649230957e-01,1.277621150016784668e+00,-1.128969907760620117e+00,-1.636370897293090820e+00,-1.194281101226806641e+00,4.463335573673248291e-01,-3.982933461666107178e-01,8.608746528625488281e-02,-1.019252538681030273e+00,1.788141205906867981e-02,1.017599225044250488e+00,-1.809266090393066406e+00,9.358592033386230469e-01,-3.104600906372070312e-01,3.684980869293212891e-01,2.357205897569656372e-01,7.977440953254699707e-01,-3.693967461585998535e-01,-1.476169228553771973e+00,-4.609605073928833008e-01,1.786527186632156372e-01,-5.819106101989746094e-01,-1.765867471694946289e+00,4.829088449478149414e-01,-1.712455511093139648e+00,2.043212413787841797e+00,1.701292991638183594e+00,1.069616913795471191e+00,7.800753116607666016e-01,-8.198689818382263184e-01,-7.120127230882644653e-02,1.281153783202171326e-02,-6.083901524543762207e-01,-2.905231714248657227e-01,1.136964559555053711e+00,-2.582231760025024414e-01,6.985449194908142090e-01,1.011940240859985352e+00,-2.799629867076873779e-01,-1.203174889087677002e-01,-4.973246157169342041e-01
1.817038178443908691e+00,2.344793319702148438e+00,1.050651788711547852e+00,1.250074148178100586e+00,-3.902442455291748047e-01,-1.793744862079620361e-01,-1.675298660993576050e-01,1.628241062164306641e+00,1.120114549994468689e-01,-1.145490527153015137e+00,1.090147718787193298e-01,-1.714138746261596680e+00,8.332510590553283691e-01,2.811096608638763428e-01,-1.454476475715637207e+00,-1.995726466178894043e+00,5.302283167839050293e-01,-1.791451215744018555e+00,1.399803638458251953e+00,2.308288812637329102e-01,1.124985337257385254e+00,3.380547463893890381e-01,1.371698737144470215e+00,3.548793196678161621e-01,4.050632715225219727e-01,1.047347426414489746e+00,-1.923804759979248047e+00,-8.713177442550659180e-01,2.047900199890136719e+00,-2.240125834941864014e-01,-5.718539357185363770e-01,-9.271017313003540039e-01,-1.142937183380126953e+00,4.860924780368804932e-01,5.492556095123291016e-01,-3.909315168857574463e-01,-6.924862861633300781e-01,7.456916570663452148e-01,-3.066174387931823730e-01,-1.401734828948974609e+00,-3.506261706352233887e-01,4.588149189949035645e-01,-7.714090943336486816e-01,1.360051929950714111e-01,-2.454045772552490234e+00,1.386101365089416504e+00,8.951520323753356934e-01,1.240269541740417480e+00,-1.846601486206054688e+00,8.163523674011230469e-01,7.814061641693115234e-01,-1.202581524848937988e+00,-9.175407886505126953e-02,2.797245420515537262e-02,1.388528943061828613e+00,-2.378927916288375854e-01,-9.276020526885986328e-02,-7.905927896499633789e-01
5.265800952911376953e-01,-6.140112280845642090e-01,-1.559471130371093750e+00,2.877334058284759521e-01,-2.373091936111450195e+00,-1.157668456435203552e-01,3.932270407676696777e-01,-2.210835933685302734e+00,-8.048418760299682617e-01,1.019457101821899414e+00,1.253866106271743774e-01,2.275770425796508789e+00,-2.089426964521408081e-01,1.780728697776794434e+00,1.601182371377944946e-01,2.382778167724609375e+00,-1.446218132972717285e+00,-1.251387149095535278e-01,3.865933120250701904e-01,-2.202951431274414062e+00,1.513112187385559082e+00,1.040457606315612793e+00,2.076977193355560303e-01,-1.806743264198303223e+00,4.556598961353302002e-01,1.453602872788906097e-02,7.567946314811706543e-01,-4.885080158710479736e-01,-1.470881104469299316e+00,-7.249699234962463379e-01,1.371082782745361328e+00,1.063687682151794434e+00,-7.270474433898925781e-01,-2.357095956802368164e+00,3.096967458724975586e+00,2.001972943544387817e-01,-9.519577026367187500e-01,1.942021548748016357e-01,-1.160884737968444824e+00,2.713684439659118652e-01,-6.810377836227416992e-01,1.724205017089843750e+00,-2.256703972816467285e-01,1.829007625579833984e+00,-8.420974016189575195e-01,3.299713730812072754e-01,2.429626137018203735e-01,6.031208634376525879e-01,1.402463793754577637e+00,6.502707600593566895e-01,-9.468477368354797363e-01,-1.412768810987472534e-01,5.845516547560691833e-02,4.192857146263122559e-01,9.823967218399047852e-01,3.634309470653533936e-01,-1.568829298019409180e+00,-6.973471641540527344e-01
