-2.119220972061157227e+00,-5.561231374740600586e-01,-7.249397039413452148e-01,-5.298352241516113281e-01,9.040202945470809937e-02,-1.418818235397338867e+00,-4.157178401947021484e-01,-1.116139888763427734e+00,8.531096577644348145e-01,-1.174797177314758301e+00,-1.995955556631088257e-01,3.866624236106872559e-01,-1.909386277198791504e+00,-9.743298888206481934e-01,-9.829105436801910400e-02,1.070234537124633789e+00,-1.110531687736511230e+00,-9.628899693489074707e-01,2.480304092168807983e-01,-1.323813915252685547e+00,7.530878484249114990e-02,4.016846120357513428e-01,7.366942763328552246e-01,-3.405377566814422607e-01,5.467351526021957397e-02,-1.765105426311492920e-01,-2.306609869003295898e+00,2.550069689750671387e-01,-5.728256106376647949e-01,7.274917960166931152e-01,-1.165061816573143005e-01,-1.866205334663391113e+00,-6.326778531074523926e-01,-1.129091143608093262e+00,3.717789053916931152e-01,2.910947322845458984e+00,1.178992033004760742e+00,-7.098031044006347656e-01,-2.237293422222137451e-01,-1.309938311576843262e+00,-5.560699105262756348e-01,4.039078056812286377e-01,-3.504732847213745117e-01,-1.500787615776062012e+00,1.830917239189147949e+00,-1.681348919868469238e+00,1.938454210758209229e-01,4.932708144187927246e-01,8.279593586921691895e-01,-3.116213083267211914e-01,4.384348690509796143e-01,4.602027535438537598e-01,2.069410562515258789e+00,5.472572445869445801e-01,-8.078528046607971191e-01,-9.964870810508728027e-01,-7.161621451377868652e-01,2.201504260301589966e-01
1.368256926536560059e+00,2.910450398921966553e-01,-6.178415417671203613e-01,-2.047716140747070312e+00,7.211379408836364746e-01,-7.026992440223693848e-01,-2.845718860626220703e-01,-5.139533281326293945e-01,-5.074030160903930664e-01,1.001239895820617676e+00,-8.341468572616577148e-01,8.244762420654296875e-01,-8.836470246315002441e-01,-1.272426545619964600e-01,1.201281547546386719e+00,5.696583390235900879e-01,-2.699205875396728516e-01,-1.350810170173645020e+00,-9.846457242965698242e-01,-1.200268119573593140e-01,-1.518286228179931641e+00,1.043643832206726074e+00,1.989241600036621094e+00,8.116386532783508301e-01,-7.588740438222885132e-02,-1.023896574974060059e+00,3.848117589950561523e-01,1.055202364921569824e+00,-2.759762704372406006e-01,1.413081288337707520e+00,-3.973906040191650391e-01,2.201808393001556396e-01,-1.358352065086364746e+00,-1.110296398401260376e-01,9.961938261985778809e-01,-1.000157713890075684e+00,1.338070869445800781e+00,7.986097931861877441e-01,7.876652479171752930e-01,-4.381317496299743652e-01,1.673123002052307129e+00,3.503914773464202881e-01,1.576535820960998535e+00,1.488590687513351440e-01,5.403403639793395996e-01,5.615760684013366699e-01,2.540073633193969727e+00,2.123009681701660156e+00,-9.256448149681091309e-01,-1.173762083053588867e+00,1.090759396553039551e+00,-7.973465919494628906e-01,1.070343889296054840e-02,8.684770464897155762e-01,-3.795568943023681641e-01,3.228088915348052979e-01,1.904665589332580566e+00,-8.101763129234313965e-01
8.254460692405700684e-01,1.894101738929748535e+00,2.769680976867675781e+00,2.179803848266601562e+00,-3.461642861366271973e-01,4.514113366603851318e-01,7.840170860290527344e-01,-1.902964860200881958e-01,1.326427340507507324e+00,8.762076497077941895e-01,1.284484863281250000e-01,1.946325063705444336e+00,-9.100577235221862793e-01,-4.980482757091522217e-01,4.198048412799835205e-01,-1.110665082931518555e+00,1.405214190483093262e+00,-6.724348068237304688e-01,-1.669966280460357666e-01,3.480411469936370850e-01,-9.804245233535766602e-01,-6.955372095108032227e-01,6.068246960639953613e-01,-4.177670776844024658e-01,-2.432857036590576172e+00,2.158690929412841797e+00,-3.763644099235534668e-01,4.962588846683502197e-01,2.279931008815765381e-01,-6.341094970703125000e-01,1.368670463562011719e+00,-3.537530303001403809e-01,1.068555474281311035e+00,5.947634577751159668e-01,9.926627874374389648e-01,-1.017895579338073730e+00,-1.064637660980224609e+00,8.880401030182838440e-03,-1.482407927513122559e+00,2.396358251571655273e-01,2.164957046508789062e+00,1.937439888715744019e-01,-1.428152680397033691e+00,1.381077766418457031e-01,3.706873655319213867e-01,1.509049534797668457e+00,-9.560092091560363770e-01,9.045289158821105957e-01,1.857833385467529297e+00,3.267937004566192627e-01,-1.709378838539123535e+00,-2.893680632114410400e-01,-1.049658060073852539e+00,-1.078658699989318848e+00,2.671222388744354248e-01,1.177799701690673828e+00,2.605798244476318359e-01,7.910724282264709473e-01
8.679371327161788940e-02,-3.328367471694946289e-01,-1.382276773452758789e+00,5.111540853977203369e-02,-6.725721359252929688e-01,5.403707027435302734e-01,-6.385653018951416016e-01,1.193889021873474121e+00,1.311833739280700684e+00,2.697843313217163086e-01,-1.035503983497619629e+00,-1.310900807380676270e+00,-9.879182577133178711e-01,-3.954260945320129395e-01,1.502635627985000610e-01,-2.294395565986633301e-01,4.694467186927795410e-01,-2.158396959304809570e+00,-1.705453038215637207e+00,-8.445234298706054688e-01,-5.588224530220031738e-01,-4.497799873352050781e-01,7.432355284690856934e-01,2.974553585052490234e+00,-3.771872818470001221e-01,1.179604530334472656e+00,1.934421896934509277e+00,-6.898735165596008301e-01,-1.838538050651550293e+00,1.192000031471252441e+00,-3.263505697250366211e-01,1.598701328039169312e-01,-1.600614666938781738e+00,3.378754556179046631e-01,-1.080954670906066895e+00,-5.455625653266906738e-01,-2.997660934925079346e-01,4.440695047378540039e-01,8.591324090957641602e-01,-7.093299627304077148e-01,-5.394976735115051270e-01,-1.486355900764465332e+00,-2.088829040527343750e+00,1.485400795936584473e-01,1.936841845512390137e+00,1.542917937040328979e-01,-1.123397588729858398e+00,8.333743214607238770e-01,-3.233921229839324951e-01,1.483950853347778320e+00,-1.145186066627502441e+00,-1.023514986038208008e+00,-1.083429098129272461e+00,5.345045924186706543e-01,1.093162149190902710e-01,-8.638900518417358398e-01,-3.070756494998931885e-01,1.506434679031372070e+00
6.904047727584838867e-01,-6.581053137779235840e-01,1.063352823257446289e+00,-4.220987558364868164e-01,-1.020199537277221680e+00,-7.771047949790954590e-01,-8.566042184829711914e-01,5.396269559860229492e-01,6.684712767601013184e-01,2.146338939666748047e+00,-1.546425104141235352e+00,-1.240700483322143555e+00,6.754297018051147461e-01,-2.244510203599929810e-01,-7.190571427345275879e-01,4.369645714759826660e-01,-6.279934048652648926e-01,-6.364973187446594238e-01,-3.442431613802909851e-02,2.996091842651367188e-01,1.422839164733886719e-01,-1.949110329151153564e-01,-3.476594984531402588e-01,-2.654446661472320557e-01,1.017144083976745605e+00,1.256484538316726685e-01,2.514668405055999756e-01,9.585744738578796387e-01,-7.458879351615905762e-01,6.786877512931823730e-01,1.004951715469360352e+00,-3.500323891639709473e-01,-8.708419799804687500e-01,8.000953197479248047e-01,-1.185448169708251953e-01,-1.826505184173583984e+00,1.114222526550292969e+00,-1.083251357078552246e+00,-1.300125002861022949e+00,-2.143107652664184570e+00,2.484754426404833794e-03,1.505896896123886108e-01,5.792904496192932129e-01,1.250753879547119141e+00,4.476085901260375977e-01,2.942427694797515869e-01,-5.472697019577026367e-01,1.837954401969909668e+00,-1.068662762641906738e+00,-3.254061639308929443e-01,-4.306201636791229248e-01,-6.657003760337829590e-01,-9.397645592689514160e-01,-5.322137475013732910e-01,-6.166302561759948730e-01,1.349390029907226562e+00,1.303793907165527344e+00,-4.419850409030914307e-01
-7.112159729003906250e-01,8.669542074203491211e-01,-2.046927928924560547e+00,4.875518679618835449e-01,8.627989888191223145e-01,-9.691371023654937744e-02,-1.671460151672363281e+00,7.510808110237121582e-01,5.264039635658264160e-01,-2.768243551254272461e-01,-9.092074632644653320e-02,-1.232829570770263672e+00,6.606423854827880859e-01,2.067434310913085938e+00,7.419560551643371582e-01,-4.684139490127563477e-01,1.346338272094726562e+00,-1.633161067962646484e+00,1.030048251152038574e+00,-1.515477180480957031e+00,-2.128439188003540039e+00,-1.488563299179077148e+00,-2.483277209103107452e-02,9.584896564483642578e-01,-7.794129848480224609e-01,-2.080910444259643555e+00,-1.837550997734069824e+00,7.055674493312835693e-02,-5.359275341033935547e-01,-8.987869024276733398e-01,-1.545845866203308105e+00,-6.056481003761291504e-01,-1.395066618919372559e+00,2.886967360973358154e-01,-6.322085857391357422e-01,-1.465848922729492188e+00,1.881661534309387207e+00,-3.914059400558471680e-01,5.072634816169738770e-01,-3.114809095859527588e-01,-5.221579670906066895e-01,1.000090241432189941e+00,1.736103594303131104e-01,-2.470462769269943237e-01,9.414233267307281494e-02,1.120556712150573730e+00,-1.470368504524230957e+00,-9.646201133728027344e-01,-9.454770684242248535e-01,1.037215709686279297e+00,-2.420523315668106079e-01,-1.026768684387207031e+00,-1.844316720962524414e-01,-4.119497537612915039e-01,-1.240829348564147949e+00,-4.859515726566314697e-01,-7.266036272048950195e-01,-1.271401286125183105e+00
-3.444625437259674072e-01,9.561038017272949219e-01,-1.100491285324096680e-01,6.700096726417541504e-01,6.986247897148132324e-01,1.329211473464965820e+00,1.113176345825195312e+00,-5.151213407516479492e-01,3.556933999061584473e-01,-1.446983218193054199e-01,5.093955993652343750e-01,-8.596298098564147949e-01,5.466731786727905273e-01,-1.517071127891540527e-01,8.143214583396911621e-01,7.364200353622436523e-01,-1.688614368438720703e+00,-5.493269562721252441e-01,3.621624112129211426e-01,6.012502908706665039e-01,-7.852489948272705078e-01,1.325773239135742188e+00,-5.235432386398315430e-01,1.360522747039794922e+00,1.934733390808105469e-01,1.294901490211486816e+00,-1.254818290472030640e-01,-4.223196506500244141e-01,-1.094409465789794922e+00,-2.704218387603759766e+00,1.728404499590396881e-02,-4.264999330043792725e-01,-4.122337698936462402e-01,7.038800120353698730e-01,-4.973387420177459717e-01,-1.215599775314331055e+00,-2.142456054687500000e+00,-5.924472212791442871e-01,4.309433512389659882e-03,-6.602249145507812500e-01,-1.606296896934509277e-01,2.207331210374832153e-01,-4.487485885620117188e-01,-5.241495370864868164e-01,8.145558834075927734e-01,-2.299150526523590088e-01,-1.151969194412231445e+00,-1.157111644744873047e+00,6.065260767936706543e-01,-8.838639855384826660e-01,3.398043811321258545e-01,-3.697213828563690186e-01,2.680288553237915039e-01,-4.953120350837707520e-01,-6.046120524406433105e-01,-5.125606656074523926e-01,8.142282813787460327e-02,6.661654263734817505e-02
-1.173198103904724121e+00,9.675409197807312012e-01,-4.666420221328735352e-01,-7.699521183967590332e-01,-9.745831489562988281e-01,-5.089532136917114258e-01,-4.895541667938232422e-01,9.220025539398193359e-01,9.602417945861816406e-01,-1.821341395378112793e+00,1.014136910438537598e+00,3.128502666950225830e-01,-8.065849542617797852e-01,-7.440987825393676758e-01,-1.096011042594909668e+00,2.089416384696960449e-01,-3.620522916316986084e-01,-6.905622482299804688e-01,-7.586500644683837891e-01,-2.647430002689361572e-01,-1.316246271133422852e+00,3.598555922508239746e-01,-1.636421203613281250e+00,5.767701268196105957e-01,5.119136571884155273e-01,3.461045026779174805e+00,6.144409179687500000e-01,4.247721433639526367e-01,4.870575964450836182e-01,-8.255807161331176758e-01,-4.427957534790039062e-01,-3.513825237751007080e-01,-1.205356597900390625e+00,-6.763019561767578125e-01,-3.803874850273132324e-01,9.704247713088989258e-01,-5.010396242141723633e-01,-1.608148813247680664e+00,-9.891374111175537109e-01,-1.560027718544006348e+00,-7.625732570886611938e-02,-1.254437685012817383e+00,-8.178242444992065430e-01,-9.176439046859741211e-01,1.201110243797302246e+00,-9.447295069694519043e-01,4.013980031013488770e-01,1.308589339256286621e+00,-1.995522022247314453e+00,-2.975405938923358917e-02,7.396873235702514648e-01,-9.023237824440002441e-01,-2.271191328763961792e-01,-2.586746215820312500e-01,2.806363701820373535e-01,4.292393922805786133e-01,5.533233284950256348e-01,-1.949882149696350098e+00
-1.580243706703186035e+00,-1.777959585189819336e+00,-3.314237594604492188e-01,-2.649403214454650879e-01,-3.865018784999847412e-01,1.588593244552612305e+00,6.767120361328125000e-01,-1.645372152328491211e+00,2.593165934085845947e-01,-1.679439902305603027e+00,2.977398633956909180e-01,5.229579806327819824e-01,9.506150484085083008e-01,1.096290230751037598e+00,-1.998786777257919312e-01,6.930159926414489746e-01,5.951560735702514648e-01,-1.082694604992866516e-01,-3.533589467406272888e-02,2.373008280992507935e-01,-1.441253185272216797e+00,6.068716049194335938e-01,5.590035021305084229e-02,3.531513810157775879e-01,3.317811191082000732e-01,2.732661068439483643e-01,-9.975027292966842651e-02,9.318889379501342773e-01,1.053104162216186523e+00,7.831310033798217773e-01,7.921072840690612793e-01,-5.006234049797058105e-01,9.890781044960021973e-01,-1.623082995414733887e+00,-9.598846435546875000e-01,-1.759252429008483887e+00,1.600293666124343872e-01,1.590367317199707031e+00,-1.686017751693725586e+00,-2.013706713914871216e-01,-2.228768348693847656e+00,1.083609580993652344e+00,5.998317003250122070e-01,2.565341591835021973e-01,-1.288842439651489258e+00,-2.575676739215850830e-01,5.195865631103515625e-01,-1.001147389411926270e+00,5.629318356513977051e-01,-3.576960563659667969e-01,1.231995701789855957e+00,-1.205774068832397461e+00,7.602874636650085449e-01,-2.694903850555419922e+00,5.368565320968627930e-01,1.904196143150329590e-01,-1.953324198722839355e+00,4.633454978466033936e-01
-2.574232101440429688e+00,9.346037507057189941e-01,-1.520816683769226074e+00,-6.296147406101226807e-02,-2.817789018154144287e-01,-1.283542871475219727e+00,2.595241069793701172e-01,6.691867709159851074e-01,1.910251379013061523e-01,-1.854212880134582520e-01,5.918988585472106934e-01,1.035530492663383484e-01,9.945927858352661133e-01,-1.212456345558166504e+00,9.512207657098770142e-02,3.828615844249725342e-01,4.220798313617706299e-01,-9.703320264816284180e-01,1.547468006610870361e-01,1.751403361558914185e-01,1.990495562553405762e+00,-4.782982766628265381e-01,4.925579130649566650e-01,-8.417727947235107422e-01,1.582940816879272461e+00,8.585690259933471680e-01,-1.854097843170166016e+00,-9.136754870414733887e-01,-1.022634029388427734e+00,-6.041457653045654297e-01,-2.136166989803314209e-01,4.390822649002075195e-01,-1.493604779243469238e+00,-8.038005232810974121e-01,1.828009605407714844e+00,2.570196092128753662e-01,1.520816564559936523e+00,3.632178157567977905e-02,3.262540698051452637e-01,-1.574554204940795898e+00,-2.873261868953704834e-01,1.411911725997924805e+00,-1.279191136360168457e+00,9.313017129898071289e-01,-1.382571578025817871e+00,1.160560250282287598e+00,-8.857689499855041504e-01,3.562925755977630615e-01,-4.393805265426635742e-01,5.242548584938049316e-01,-5.991230607032775879e-01,7.047312259674072266e-01,-1.102164506912231445e+00,-4.587657451629638672e-01,-2.745926618576049805e+00,1.348842382431030273e+00,1.250196695327758789e+00,-6.241123676300048828e-01
-8.590851426124572754e-01,1.222259044647216797e+00,-1.045453548431396484e+00,-1.190990805625915527e-01,-1.187883853912353516e+00,-7.349766492843627930e-01,1.274382025003433228e-01,9.080282449722290039e-01,1.459359973669052124e-01,-2.396552637219429016e-02,-2.219364047050476074e-01,7.901429533958435059e-01,1.278128266334533691e+00,-7.054600119590759277e-01,-8.379118442535400391e-01,-2.754700183868408203e-01,3.394431471824645996e-01,-1.708930969238281250e+00,7.387497276067733765e-02,-6.397847533226013184e-01,-2.845325469970703125e-01,-1.105843305587768555e+00,-9.163075089454650879e-01,-1.124133110046386719e+00,-7.965252995491027832e-01,-8.820430040359497070e-01,-8.300926685333251953e-01,-4.204988479614257812e-02,1.694375514984130859e+00,-6.705451011657714844e-01,-5.716567859053611755e-02,1.288890719413757324e+00,-9.410809874534606934e-01,4.910224080085754395e-01,-1.635361552238464355e+00,-1.968596220016479492e+00,2.383805513381958008e-01,1.560122072696685791e-01,3.917192220687866211e-01,-1.734525918960571289e+00,-6.558835506439208984e-01,-1.666955500841140747e-01,1.384967446327209473e+00,1.150211691856384277e+00,4.192492365837097168e-01,-1.832851290702819824e+00,5.043468996882438660e-02,-1.399413824081420898e+00,-8.831182122230529785e-01,-5.890513062477111816e-01,-1.947896957397460938e+00,-2.120157927274703979e-01,1.086340069770812988e+00,-1.432249665260314941e+00,-3.768733888864517212e-02,1.443493008613586426e+00,1.358176827430725098e+00,-6.225531920790672302e-02
-2.019775629043579102e+00,-1.256906747817993164e+00,1.406023979187011719e+00,1.227026700973510742e+00,-1.807797551155090332e+00,1.097025156021118164e+00,5.804695188999176025e-02,-1.984249830245971680e+00,-2.245113402605056763e-01,9.336996674537658691e-01,-3.992790281772613525e-01,1.022875532507896423e-01,-3.219855427742004395e-01,1.139285564422607422e+00,9.164013266563415527e-01,1.489760428667068481e-01,-2.934510111808776855e-01,-1.116885781288146973e+00,3.052604794502258301e-01,5.755166411399841309e-01,2.438991367816925049e-01,1.384650707244873047e+00,-9.897528290748596191e-01,-2.621583938598632812e-01,-3.183102607727050781e-01,5.707536339759826660e-01,-7.345545291900634766e-01,9.980304837226867676e-01,7.928376793861389160e-01,-5.309510231018066406e-01,2.573966681957244873e-01,-2.565223872661590576e-01,-1.177137494087219238e+00,1.505583059042692184e-02,-6.395958662033081055e-01,-1.491924524307250977e+00,2.111716568470001221e-01,-5.863666534423828125e-01,-2.711500525474548340e-01,-5.459899306297302246e-01,1.220683753490447998e-01,9.610193967819213867e-01,-7.737949490547180176e-01,7.521693408489227295e-02,-4.249271377921104431e-02,2.985091686248779297e+00,-1.973324269056320190e-01,-1.055501818656921387e+00,-4.046445190906524658e-01,-3.649838864803314209e-01,-1.411068439483642578e+00,-2.422731965780258179e-01,1.838335752487182617e+00,-1.169769763946533203e+00,-1.022086963057518005e-01,1.566433347761631012e-02,1.670724868774414062e+00,1.133807539939880371e+00
-5.658975243568420410e-01,-2.735039949417114258e+00,-7.097274065017700195e-01,4.040729701519012451e-01,9.110573530197143555e-01,2.420156747102737427e-01,-4.081904888153076172e-01,5.703669786453247070e-01,-9.330595284700393677e-02,9.637382626533508301e-01,8.226137161254882812e-01,-1.155898094177246094e+00,4.415238201618194580e-01,1.099713921546936035e+00,-4.857564717531204224e-02,1.592188000679016113e+00,-1.175570011138916016e+00,-5.339909791946411133e-01,-1.438095569610595703e-01,7.447365522384643555e-01,-5.968495011329650879e-01,2.691957652568817139e-01,-1.419062733650207520e+00,4.734302759170532227e-01,4.762301743030548096e-01,5.649202466011047363e-01,-6.815997362136840820e-01,-5.501500368118286133e-01,8.476436734199523926e-01,1.700445562601089478e-01,-9.483156204223632812e-01,5.088346004486083984e-01,2.017833232879638672e+00,5.793085321784019470e-02,3.784944117069244385e-01,-2.035133838653564453e+00,1.078457981348037720e-01,-4.134513735771179199e-01,9.422484785318374634e-02,6.522437930107116699e-01,-1.668304800987243652e-01,-1.494663000106811523e+00,-1.745848953723907471e-01,-1.254948496818542480e+00,-1.395862698554992676e+00,1.499789208173751831e-01,1.168430805206298828e+00,7.504326701164245605e-01,5.432876944541931152e-01,-9.633705951273441315e-03,-1.711933493614196777e+00,1.874493360519409180e+00,-1.382134675979614258e+00,9.886082410812377930e-01,-1.333001494407653809e+00,1.175426244735717773e+00,-1.978589445352554321e-01,6.665401458740234375e-01
2.662842869758605957e-01,-3.276304304599761963e-01,1.540799617767333984e+00,-1.091654181480407715e+00,1.694660663604736328e+00,1.227449059486389160e+00,-3.885670006275177002e-01,1.855563998222351074e+00,-2.420221567153930664e+00,5.898745059967041016e-01,-1.276940464973449707e+00,-1.466730475425720215e+00,2.793757617473602295e-01,-4.224838912487030029e-01,2.263007014989852905e-01,1.395305395126342773e+00,-6.741538047790527344e-01,-1.247692227363586426e+00,-1.654737949371337891e+00,-1.316397905349731445e+00,-1.570858001708984375e+00,-2.289186239242553711e+00,6.730546951293945312e-01,7.044412493705749512e-01,-1.606235265731811523e+00,-3.574816584587097168e-01,1.103182315826416016e+00,4.026087820529937744e-01,-1.653903126716613770e+00,-1.306682229042053223e+00,1.037351012229919434e+00,-2.448099553585052490e-01,1.920651048421859741e-01,1.836978644132614136e-01,-9.494546651840209961e-01,-4.346930086612701416e-01,-1.470764279365539551e+00,-7.723478972911834717e-02,4.258401691913604736e-01,-5.368288755416870117e-01,-1.468387484550476074e+00,-1.666181087493896484e+00,-1.014506340026855469e+00,-1.241804838180541992e+00,1.251600623130798340e+00,6.292110681533813477e-01,-6.055814027786254883e-02,-2.270220965147018433e-01,5.101591944694519043e-01,-3.133191540837287903e-02,-6.813675761222839355e-01,-1.566570878028869629e+00,-2.151479721069335938e+00,2.728033959865570068e-01,-1.439802646636962891e-01,4.335199594497680664e-01,-4.829161167144775391e-01,-9.400325417518615723e-01
1.141023874282836914e+00,1.751659989356994629e+00,3.528954982757568359e-01,-2.811207771301269531e-01,2.156745910644531250e+00,9.285231828689575195e-01,-1.605840921401977539e+00,-8.303291797637939453e-01,1.129362106323242188e+00,-1.083348393440246582e+00,-8.408702015876770020e-01,-1.100040674209594727e-01,-1.280932784080505371e+00,-6.984454989433288574e-01,7.859166264533996582e-01,-1.951168060302734375e+00,-5.710388422012329102e-01,3.811436295509338379e-01,8.380404859781265259e-02,1.371519565582275391e+00,9.409507513046264648e-01,-7.076563835144042969e-01,-4.861835837364196777e-01,-6.760284900665283203e-01,8.112845420837402344e-01,-1.107116192579269409e-01,-7.976205945014953613e-01,4.916108548641204834e-01,-1.834321498870849609e+00,1.065603733062744141e+00,-8.771328926086425781e-01,-1.947856694459915161e-01,1.444531202316284180e+00,-3.628102838993072510e-01,-2.041072130203247070e+00,-1.327240943908691406e+00,-5.128276720643043518e-02,-4.108322560787200928e-01,5.682051777839660645e-01,-5.558663606643676758e-01,-8.005025982856750488e-01,-8.283452987670898438e-01,1.210341095924377441e+00,2.212960958480834961e+00,-3.930608630180358887e-01,-8.209968209266662598e-01,2.173839330673217773e+00,-1.170265674591064453e+00,-3.985725641250610352e-01,-1.380642175674438477e+00,-1.313857555389404297e+00,1.586323529481887817e-01,8.876369595527648926e-01,-1.624760031700134277e+00,1.543460190296173096e-01,8.655435442924499512e-01,2.236577421426773071e-01,8.285476267337799072e-02
4.342886805534362793e-01,-1.426138401031494141e+00,3.561120927333831787e-01,1.160615235567092896e-01,-1.155376911163330078e+00,8.576311171054840088e-02,-1.189792808145284653e-02,2.809571800753474236e-03,2.887989580631256104e-01,-8.558663539588451385e-03,-8.510200381278991699e-01,-3.448549807071685791e-01,1.449946761131286621e+00,-9.503298252820968628e-02,7.934101223945617676e-01,7.273929715156555176e-01,1.244188904762268066e+00,1.152702927589416504e+00,3.449658676981925964e-02,-8.077326416969299316e-01,2.562049925327301025e-01,2.367142915725708008e+00,-1.415132403373718262e+00,6.494888663291931152e-01,4.084737300872802734e-01,2.434814274311065674e-01,4.514093399047851562e-01,1.378717541694641113e+00,-6.409121304750442505e-02,6.954494863748550415e-02,8.264195322990417480e-01,-9.253165721893310547e-01,7.428740710020065308e-02,-2.442572414875030518e-01,5.954996347427368164e-01,-3.684843480587005615e-01,5.097988247871398926e-01,-7.312824726104736328e-01,-1.343316197395324707e+00,-1.711685180664062500e+00,-7.695667743682861328e-01,7.234354317188262939e-02,-2.118874192237854004e-01,1.481209039688110352e+00,-8.139402866363525391e-01,6.094561815261840820e-01,8.860323429107666016e-01,7.625062465667724609e-01,-9.180240631103515625e-01,1.071085095405578613e+00,-1.194844841957092285e+00,1.920147389173507690e-01,4.824033379554748535e-01,9.425239562988281250e-01,3.089310824871063232e-01,3.283239006996154785e-01,1.255424380302429199e+00,5.175338685512542725e-02
-1.237844750285148621e-01,1.537897735834121704e-01,5.502156615257263184e-01,1.462979078292846680e+00,-1.429998278617858887e+00,-6.546583771705627441e-01,2.309802621603012085e-01,-1.430856823921203613e+00,1.003274321556091309e+00,1.836241483688354492e+00,-3.488233983516693115e-01,-7.896088361740112305e-01,-1.302299499511718750e+00,5.894386172294616699e-01,-7.803016901016235352e-01,-9.376388192176818848e-01,9.722161293029785156e-01,-1.217458248138427734e-01,-1.483793735504150391e+00,1.738525867462158203e+00,4.018158838152885437e-02,1.251894474029541016e+00,1.032938599586486816e+00,-4.538773298263549805e-01,-4.781621992588043213e-01,-1.697367310523986816e+00,5.891315937042236328e-01,1.417786955833435059e+00,1.068994164466857910e+00,-1.367343068122863770e+00,-2.239107936620712280e-01,-1.034120082855224609e+00,-1.591378092765808105e+00,-1.353764414787292480e+00,1.993025183677673340e+00,-1.693652749061584473e+00,-1.550286412239074707e+00,2.196310907602310181e-01,-9.481799602508544922e-01,-6.598008275032043457e-01,-1.296125411987304688e+00,1.582877874374389648e+00,-6.510843038558959961e-01,-1.112467765808105469e+00,7.445513606071472168e-01,4.737360775470733643e-01,2.054455280303955078e-01,-4.007565081119537354e-01,-1.140819430351257324e+00,3.085232973098754883e-01,3.705382347106933594e-01,1.762789964675903320e+00,-8.263718485832214355e-01,2.787984311580657959e-01,-1.247933983802795410e+00,5.935791134834289551e-01,-7.637754082679748535e-01,-4.166019260883331299e-01
1.116911694407463074e-01,8.109759688377380371e-01,8.587688207626342773e-01,-1.659170836210250854e-01,4.372914135456085205e-02,5.576614737510681152e-01,-9.146792441606521606e-02,2.853638410568237305e+00,-1.154977202415466309e+00,-2.891611337661743164e+00,-6.500903367996215820e-01,-8.795928955078125000e-01,-1.175242662429809570e+00,1.969317555427551270e+00,-1.897124648094177246e+00,1.380128502845764160e+00,-1.209642179310321808e-02,-6.201423406600952148e-01,3.998858481645584106e-02,1.601556986570358276e-01,5.255855917930603027e-01,-8.683544397354125977e-01,5.462743714451789856e-02,-1.252168416976928711e+00,8.053359389305114746e-02,-4.283351600170135498e-01,6.676623821258544922e-01,-1.465336561203002930e+00,-9.875487685203552246e-01,1.017109394073486328e+00,6.771529316902160645e-01,7.112672924995422363e-01,6.626893281936645508e-01,-3.928412497043609619e-01,-1.657957077026367188e+00,-4.908752739429473877e-01,2.028694376349449158e-02,4.414985477924346924e-01,2.586697340011596680e+00,4.780871570110321045e-01,-6.058173179626464844e-01,-1.047457933425903320e+00,-5.595621466636657715e-01,7.436430454254150391e-01,1.851288199424743652e+00,-2.013839721679687500e+00,-3.184470534324645996e-01,-1.675987005233764648e+00,4.603336453437805176e-01,1.477679848670959473e+00,4.643832892179489136e-02,7.434643805027008057e-02,1.132153153419494629e+00,-2.119083404541015625e+00,-5.864542722702026367e-01,-1.650931119918823242e+00,5.780333280563354492e-01,3.974682986736297607e-01
-1.144261717796325684e+00,-1.104456424713134766e+00,-1.351462751626968384e-01,4.294182658195495605e-01,1.959766149520874023e-01,5.398152470588684082e-01,-1.263576507568359375e+00,-1.570050001144409180e+00,-4.422939121723175049e-01,-3.888575136661529541e-01,-3.379294276237487793e-01,7.810360789299011230e-01,1.488790154457092285e+00,1.903078854084014893e-01,8.155218362808227539e-01,2.135180495679378510e-02,-6.984881162643432617e-01,-3.473166003823280334e-02,-2.378816366195678711e+00,3.379713892936706543e-01,-1.603522062301635742e+00,-7.394916415214538574e-01,-3.604804873466491699e-01,2.260879874229431152e-01,-6.449932456016540527e-01,3.109649419784545898e-01,-7.924866080284118652e-01,-7.422406077384948730e-01,-1.500004678964614868e-01,-1.829415559768676758e+00,-9.782745838165283203e-01,-5.924946665763854980e-01,1.288974404335021973e+00,-2.889396846294403076e-01,3.189704120159149170e-01,1.627327561378479004e+00,-4.753784239292144775e-01,9.562696218490600586e-01,-9.120084643363952637e-01,-1.234963417053222656e+00,4.062640666961669922e-01,-4.096847176551818848e-01,-2.887888550758361816e-01,1.148337244987487793e+00,-1.086081743240356445e+00,-1.892706602811813354e-01,2.106644660234451294e-01,-2.143477648496627808e-01,-4.311962723731994629e-01,1.565871953964233398e+00,-1.038858652114868164e+00,-5.416080951690673828e-01,7.815080285072326660e-01,-7.226831316947937012e-01,6.192969083786010742e-01,-6.230412721633911133e-01,-4.211525022983551025e-01,-4.394662976264953613e-01
-7.361091375350952148e-01,-4.228791892528533936e-01,3.074287995696067810e-02,-1.020557284355163574e+00,-2.584345340728759766e+00,1.258088350296020508e+00,9.358993172645568848e-02,-1.763748526573181152e-01,1.275093913078308105e+00,1.711291670799255371e+00,-9.679415822029113770e-01,-6.574604511260986328e-01,8.978530168533325195e-01,-8.926869630813598633e-01,6.182900071144104004e-01,7.075978517532348633e-01,1.696657896041870117e+00,-2.268792867660522461e+00,-3.709477931261062622e-02,8.929741978645324707e-01,8.828597068786621094e-01,1.252600431442260742e+00,-7.212033867835998535e-01,-7.940460443496704102e-01,-3.678075373172760010e-01,1.550659894943237305e+00,1.190205335617065430e+00,-3.764488548040390015e-02,7.656276822090148926e-01,-1.342335581779479980e+00,1.154735207557678223e+00,7.578323781490325928e-02,-2.915795743465423584e-01,4.558185935020446777e-01,5.811315774917602539e-01,1.254899024963378906e+00,7.931916713714599609e-01,-4.461417198181152344e-01,-1.633293628692626953e-01,-2.229727357625961304e-01,1.356190536171197891e-02,-3.615519404411315918e-01,2.145768888294696808e-02,5.069202780723571777e-01,1.269506335258483887e+00,1.784235835075378418e+00,1.932083070278167725e-01,-4.540262520313262939e-01,-5.440174937248229980e-01,4.220889508724212646e-01,2.936891093850135803e-02,8.731743693351745605e-01,-4.931759834289550781e-01,5.949445366859436035e-01,6.220358014106750488e-01,4.747182726860046387e-01,1.713722757995128632e-02,-1.628316760063171387e+00
-6.578879356384277344e-01,-8.315113782882690430e-01,-1.517826557159423828e+00,-8.144913315773010254e-01,-2.456478178501129150e-01,1.020403623580932617e+00,-9.288867712020874023e-01,4.608105719089508057e-01,-1.164898633956909180e+00,-6.059306859970092773e-01,-3.751359879970550537e-01,1.976816058158874512e+00,1.887054927647113800e-02,-1.359981745481491089e-01,1.603477835655212402e+00,-6.501882672309875488e-01,-5.526525378227233887e-01,-1.110011219978332520e+00,-4.942211136221885681e-02,-2.017832696437835693e-01,-7.914606332778930664e-01,1.294353127479553223e+00,-3.547920882701873779e-01,2.018261432647705078e+00,7.128733992576599121e-01,-3.051251769065856934e-01,1.943715065717697144e-01,-1.696295619010925293e+00,1.658879160881042480e+00,8.172515630722045898e-01,8.020968437194824219e-01,7.452698945999145508e-01,-6.645771265029907227e-01,-1.100612521171569824e+00,-2.522827498614788055e-02,-1.470023989677429199e-01,9.680408984422683716e-02,5.631103515625000000e-01,-9.979923367500305176e-01,4.572298824787139893e-01,-4.208039045333862305e-01,9.845908880233764648e-01,2.659110307693481445e+00,1.329405546188354492e+00,3.577172458171844482e-01,-3.575402498245239258e-01,-1.527895212173461914e+00,1.273740410804748535e+00,-5.535293817520141602e-01,-1.614845097064971924e-01,8.515696525573730469e-01,-8.608454465866088867e-01,-1.948354095220565796e-01,1.417469739913940430e+00,-1.114919334650039673e-01,-1.722342967987060547e+00,1.394041180610656738e-01,-1.116645336151123047e+00
1.209847688674926758e+00,-3.115500509738922119e-02,-1.482871890068054199e+00,2.221370190382003784e-01,-1.042030930519104004e+00,1.814688444137573242e+00,-4.449271261692047119e-01,2.747285664081573486e-01,2.033527791500091553e-01,5.920248627662658691e-01,8.245061635971069336e-01,-2.652173861861228943e-02,1.958753466606140137e+00,-9.794421792030334473e-01,4.180528521537780762e-01,1.539992988109588623e-01,-1.759054064750671387e-01,7.071914076805114746e-01,2.677269279956817627e-01,5.049955844879150391e-01,-8.959602117538452148e-01,-2.526392228901386261e-02,-1.763943195343017578e+00,-1.642299771308898926e+00,-6.050482392311096191e-01,3.940677046775817871e-01,-5.964777469635009766e-01,7.811459302902221680e-01,-5.428562313318252563e-02,-6.531054377555847168e-01,-6.447904109954833984e-01,3.723753988742828369e-01,8.217807412147521973e-01,-5.985599756240844727e-01,1.469876646995544434e+00,-7.090880870819091797e-01,-4.984642192721366882e-02,-2.419813275337219238e-01,4.505643546581268311e-01,9.755527377128601074e-01,-2.128414869308471680e+00,-1.349233865737915039e+00,4.889822006225585938e-01,7.788775563240051270e-01,1.047521114349365234e+00,-1.566563248634338379e+00,2.485151767730712891e+00,1.283168911933898926e+00,-7.905669212341308594e-01,2.258316129446029663e-01,-1.209604889154434204e-01,1.377898693084716797e+00,6.048892140388488770e-01,-1.374186873435974121e+00,3.300502598285675049e-01,1.061315536499023438e+00,7.092706561088562012e-01,-1.896883398294448853e-01
5.618430376052856445e-01,-1.059623599052429199e+00,2.342013835906982422e+00,1.586953043937683105e+00,-9.615298509597778320e-01,7.992517352104187012e-01,-1.703693270683288574e-01,-5.343283414840698242e-01,-1.545999050140380859e+00,-8.771646767854690552e-02,-1.093650221824645996e+00,9.282248020172119141e-01,8.619627952575683594e-01,6.643255949020385742e-01,1.070455431938171387e+00,-1.934070587158203125e+00,-5.981207489967346191e-01,-5.895816087722778320e-01,1.271850347518920898e+00,1.290829896926879883e+00,-1.258520245552062988e+00,6.352650523185729980e-01,2.266668319702148438e+00,1.041211187839508057e-01,-6.210300326347351074e-01,2.056107968091964722e-01,-1.655169844627380371e+00,9.358392953872680664e-01,-1.431981444358825684e+00,2.314046025276184082e-01,2.851067483425140381e-01,1.485189914703369141e+00,-1.253398656845092773e+00,2.579634189605712891e-01,7.008731961250305176e-01,1.158701181411743164e-01,-5.031407997012138367e-02,-9.146937727928161621e-01,4.876514673233032227e-01,-5.352130532264709473e-01,1.175283908843994141e+00,2.780031859874725342e-01,9.281564950942993164e-01,-2.268699556589126587e-01,1.544486045837402344e+00,2.489654114469885826e-03,1.633188962936401367e+00,4.250157177448272705e-01,6.995472908020019531e-01,3.340844213962554932e-01,-1.006283879280090332e+00,1.165399909019470215e+00,-2.568434178829193115e-01,1.537074685096740723e+00,-4.658603966236114502e-01,-2.451300144195556641e+00,-2.947818040847778320e+00,-6.571729183197021484e-01
-6.034974455833435059e-01,8.202051743865013123e-03,-2.627251446247100830e-01,-6.035229191184043884e-02,-1.951183974742889404e-01,-3.747169077396392822e-01,-3.968492448329925537e-01,-1.017194271087646484e+00,-1.864681601524353027e+00,-8.900055885314941406e-01,-2.229028046131134033e-01,1.815135031938552856e-01,2.651406526565551758e-01,8.620438575744628906e-01,1.154303789138793945e+00,4.139010906219482422e-01,7.827796339988708496e-01,-3.335129022598266602e-01,-2.516382932662963867e-01,-1.815684437751770020e-01,1.557216644287109375e+00,1.654075831174850464e-01,-5.289140939712524414e-01,-1.277241468429565430e+00,1.836257934570312500e+00,2.362910985946655273e+00,-2.618379145860671997e-02,-8.848337531089782715e-01,5.587621927261352539e-01,-6.368709206581115723e-01,1.108920097351074219e+00,-1.068185448646545410e+00,3.869511783123016357e-01,-3.710813224315643311e-01,1.940358519554138184e+00,8.414697647094726562e-01,-1.356441140174865723e+00,-1.209977269172668457e+00,4.881688058376312256e-01,-1.079599380493164062e+00,-9.774567484855651855e-01,1.035967618227005005e-01,-1.224808216094970703e+00,4.489660263061523438e-01,4.161925017833709717e-01,-6.350581347942352295e-02,-7.947957515716552734e-01,7.475868463516235352e-01,5.263277292251586914e-01,6.749215126037597656e-01,4.274575710296630859e-01,-5.587974786758422852e-01,6.507092714309692383e-01,-3.203933238983154297e-01,-1.370167732238769531e+00,-5.350311398506164551e-01,-4.190135300159454346e-01,-6.227334141731262207e-01
-3.142575919628143311e-01,1.442054629325866699e+00,7.553624510765075684e-01,-1.926146268844604492e+00,5.837205648422241211e-01,3.384567499160766602e+00,6.767715811729431152e-01,-1.862321257591247559e+00,-1.315588593482971191e+00,-2.039818525314331055e+00,9.308865070343017578e-01,2.877147793769836426e-01,6.217429041862487793e-01,8.866146951913833618e-02,-6.516197323799133301e-01,3.113811731338500977e+00,-1.932613015174865723e+00,3.243924379348754883e-01,-3.337740302085876465e-01,1.970003694295883179e-01,-2.116865962743759155e-01,-1.159145474433898926e+00,-4.550728499889373779e-01,8.317872285842895508e-01,-1.052127122879028320e+00,7.668294906616210938e-01,8.577104806900024414e-01,-1.170049190521240234e+00,-2.366298586130142212e-01,-2.240709066390991211e-01,-3.701710104942321777e-01,-1.760386824607849121e-01,3.566993400454521179e-02,-3.529253304004669189e-01,-6.083244681358337402e-01,-4.827623367309570312e-01,-1.036218047142028809e+00,2.301123440265655518e-01,8.381857872009277344e-01,8.688707351684570312e-01,6.170905232429504395e-01,-9.523313641548156738e-01,-2.361851632595062256e-01,-6.152673363685607910e-01,8.198894858360290527e-01,6.649886965751647949e-01,-2.498569637537002563e-01,4.439211785793304443e-01,4.520783424377441406e-01,-1.099837183952331543e+00,-1.376587986946105957e+00,-2.035505294799804688e+00,-1.712699830532073975e-01,5.002586841583251953e-01,-9.299167990684509277e-02,-8.821468353271484375e-01,1.099417448043823242e+00,5.250726938247680664e-01
1.296021342277526855e+00,1.155888289213180542e-01,5.885451436042785645e-01,-7.676255702972412109e-01,5.086072087287902832e-01,-1.473824858665466309e+00,1.037255406379699707e+00,1.478641182184219360e-01,-2.911956310272216797e-01,8.118122220039367676e-01,-9.927361607551574707e-01,-1.984818279743194580e-01,-1.029705643653869629e+00,-9.266912937164306641e-01,-1.687631964683532715e+00,-3.244439139962196350e-02,-8.636530041694641113e-01,-5.533200502395629883e-02,1.666909307241439819e-01,-2.503124997019767761e-03,-2.140802890062332153e-01,5.920311808586120605e-01,-1.356588840484619141e+00,-1.843695789575576782e-01,1.505242347717285156e+00,3.430797159671783447e-01,1.012182712554931641e+00,1.002382040023803711e+00,-8.693907260894775391e-01,-1.381593346595764160e+00,7.480403184890747070e-01,4.203722178936004639e-01,1.476637959480285645e+00,8.827334642410278320e-01,-4.553205668926239014e-01,1.825042366981506348e-01,-2.756891250610351562e-01,-2.190749168395996094e+00,-2.210654735565185547e+00,-6.834244132041931152e-01,1.452975869178771973e-01,2.792826890945434570e-01,6.267977952957153320e-01,3.822643756866455078e-01,-9.248098134994506836e-01,1.165623426437377930e+00,-4.768224060535430908e-01,-7.208493351936340332e-01,-1.533918082714080811e-01,-2.411162406206130981e-01,-9.862203001976013184e-01,6.772298216819763184e-01,-4.044456481933593750e-01,8.836289048194885254e-01,1.589890718460083008e-01,4.610174298286437988e-01,1.384840250015258789e+00,9.684672355651855469e-01
-8.494755625724792480e-01,-7.417938113212585449e-01,7.931627035140991211e-01,2.495562285184860229e-01,1.306599140167236328e+00,1.151052951812744141e+00,6.016976237297058105e-01,3.295106887817382812e-01,1.694942951202392578e+00,-6.480745077133178711e-01,7.881625890731811523e-01,5.859896540641784668e-01,1.246153235435485840e+00,-6.175525784492492676e-01,-3.783056437969207764e-01,-1.666576385498046875e+00,2.827056646347045898e-01,8.990637063980102539e-01,6.376966834068298340e-01,-5.598189309239387512e-02,-7.613314986228942871e-01,-5.772895216941833496e-01,-1.228199824690818787e-01,2.165106773376464844e+00,6.270960718393325806e-02,1.930273771286010742e-01,5.002187490463256836e-01,-1.094753980636596680e+00,2.043513059616088867e+00,6.865283846855163574e-01,-7.230473160743713379e-01,1.732877254486083984e+00,3.542662858963012695e-01,9.120759367942810059e-02,1.495720863342285156e+00,-2.088681012392044067e-01,-3.012776188552379608e-02,1.999316930770874023e+00,6.461832523345947266e-01,6.568542718887329102e-01,-2.096160501241683960e-01,-6.357733607292175293e-01,-6.099103689193725586e-01,8.037155866622924805e-01,2.684718966484069824e-01,-6.995658874511718750e-01,-1.124083474278450012e-01,5.249435901641845703e-01,-1.350745320320129395e+00,2.094151496887207031e+00,1.313393831253051758e+00,2.695346176624298096e-01,-2.185600809752941132e-02,3.194976225495338440e-02,3.998892605304718018e-01,-4.081229865550994873e-01,1.402580857276916504e+00,-5.740843415260314941e-01
7.321023941040039062e-01,-1.841636180877685547e+00,6.445157527923583984e-01,-1.636796951293945312e+00,-2.155414581298828125e+00,-1.551435708999633789e+00,-2.042709112167358398e+00,5.737743973731994629e-01,-7.496321201324462891e-01,4.904219806194305420e-01,9.111298918724060059e-01,-8.416789025068283081e-02,-1.014249563217163086e+00,1.896442174911499023e+00,-4.459029436111450195e-01,-1.294165551662445068e-01,1.070293426513671875e+00,6.263843178749084473e-01,-3.251262605190277100e-01,-1.016246080398559570e+00,3.417003750801086426e-01,8.539317846298217773e-01,-1.003260016441345215e+00,-6.219828128814697266e-01,-4.038036167621612549e-01,-1.404405713081359863e+00,2.380950003862380981e-01,1.108428478240966797e+00,4.559124708175659180e-01,2.331588029861450195e+00,-1.228110671043395996e+00,8.849989175796508789e-01,-4.790668189525604248e-01,-4.900993108749389648e-01,7.423256039619445801e-01,-2.315437316894531250e+00,1.476809978485107422e+00,7.195623219013214111e-02,4.414001703262329102e-01,-3.461624681949615479e-01,1.216942906379699707e+00,-8.224663734436035156e-01,1.018843293190002441e+00,-6.237202882766723633e-01,-3.544719517230987549e-01,-3.423326611518859863e-01,7.082606852054595947e-02,-2.213161706924438477e+00,2.747350037097930908e-01,-1.829602420330047607e-01,3.836650848388671875e-01,-1.817852020263671875e+00,-3.772976398468017578e-01,1.833538562059402466e-01,-3.810609877109527588e-02,1.299568891525268555e+00,-7.460671067237854004e-01,-4.637266695499420166e-01
4.606721699237823486e-01,-2.982073128223419189e-01,3.029531240463256836e-01,5.634908676147460938e-01,-6.459944248199462891e-01,-1.588211804628372192e-01,-1.222476482391357422e+00,8.167136460542678833e-02,6.849857512861490250e-03,-2.250761508941650391e+00,5.743310451507568359e-01,-5.503293275833129883e-01,1.623185873031616211e+00,-7.733150720596313477e-01,-7.538824677467346191e-01,5.403084307909011841e-02,2.498373836278915405e-01,1.042053818702697754e+00,-1.669193625450134277e+00,6.048634648323059082e-01,-7.483681440353393555e-01,6.729460954666137695e-01,1.965234041213989258e+00,1.925117373466491699e+00,-1.324830532073974609e+00,4.603765010833740234e-01,-7.378992438316345215e-01,1.816082000732421875e+00,1.159185051918029785e+00,5.956808924674987793e-01,2.542822360992431641e-01,-1.375384926795959473e+00,9.024848341941833496e-01,-2.050725519657135010e-01,-1.231888771057128906e+00,6.238307952880859375e-01,-1.983435750007629395e+00,1.136202812194824219e+00,1.013473272323608398e+00,-8.044343590736389160e-01,1.577917575836181641e+00,-2.919032871723175049e-01,-2.393157720565795898e+00,-9.623094201087951660e-01,-1.495144963264465332e+00,-6.761636137962341309e-01,-1.657367825508117676e+00,7.894831895828247070e-01,9.787831306457519531e-01,-7.109295129776000977e-01,-6.575026512145996094e-01,-1.625476360321044922e+00,3.900280594825744629e-01,1.869707405567169189e-01,1.996480375528335571e-01,1.259500980377197266e-01,-3.147267699241638184e-01,-4.039898216724395752e-01
5.457131266593933105e-01,-3.821122050285339355e-01,2.179683208465576172e+00,-2.759214341640472412e-01,9.579342603683471680e-01,-3.218545913696289062e-01,-5.056846737861633301e-01,1.529579609632492065e-01,7.059385776519775391e-01,-5.462796092033386230e-01,-8.937118649482727051e-01,-5.435258150100708008e-01,-6.234081983566284180e-01,-8.377434611320495605e-01,-1.080901741981506348e+00,-3.255192041397094727e+00,1.552223443984985352e+00,-3.424234092235565186e-01,-7.279662042856216431e-02,-1.202103614807128906e+00,1.422972679138183594e-01,1.010383963584899902e+00,2.308850049972534180e+00,-1.045376420021057129e+00,-1.356096506118774414e+00,8.473692834377288818e-02,1.315708637237548828e+00,7.147700190544128418e-01,5.036995410919189453e-01,-2.078728824853897095e-01,4.272899776697158813e-02,-1.029963970184326172e+00,-1.139323949813842773e+00,-1.748599648475646973e+00,-4.604197740554809570e-01,-2.851594388484954834e-01,1.848190546035766602e+00,-4.815024137496948242e-01,-1.006974816322326660e+00,-2.002722978591918945e+00,-1.578473329544067383e+00,-2.161381483078002930e+00,7.320235371589660645e-01,-2.958534359931945801e-01,8.296911120414733887e-01,-1.443332076072692871e+00,3.632709980010986328e-01,7.817397713661193848e-01,3.119919002056121826e-01,-6.707697510719299316e-01,2.565083205699920654e-01,-3.594689667224884033e-01,-3.696347475051879883e+00,-1.286438107490539551e-01,-1.168473720550537109e+00,1.164745569229125977e+00,1.413082182407379150e-01,-5.879058968275785446e-03
-2.143162250518798828e+00,7.039558291435241699e-01,-2.590616941452026367e-01,7.349196076393127441e-01,-4.153143465518951416e-01,1.635452628135681152e+00,-6.428079009056091309e-01,2.738250195980072021e-01,7.232117056846618652e-01,-2.522001981735229492e+00,-1.667825222015380859e+00,3.872964382171630859e-01,6.669399887323379517e-02,-4.152225553989410400e-01,2.178819179534912109e-01,-1.666487216949462891e+00,1.676558107137680054e-01,-6.154903024435043335e-02,4.006934165954589844e-01,8.036445081233978271e-02,7.218483090400695801e-02,-8.208552002906799316e-01,-3.352333605289459229e-01,-5.685070157051086426e-01,-8.772738575935363770e-01,-6.262022852897644043e-01,-2.641930818557739258e+00,-1.259845346212387085e-01,-4.994345307350158691e-01,-7.159581780433654785e-01,-6.711204051971435547e-01,-6.133751273155212402e-01,3.674484789371490479e-01,-1.015950679779052734e+00,6.872151792049407959e-02,8.047639131546020508e-01,-3.324972093105316162e-01,-1.232992053031921387e+00,5.308574438095092773e-01,-9.068456292152404785e-01,3.158899247646331787e-01,-1.630312353372573853e-01,4.048342108726501465e-01,-1.180231690406799316e+00,-3.548501431941986084e-01,-1.129214167594909668e-01,1.927833795547485352e+00,-2.008868604898452759e-01,-1.051397025585174561e-01,5.947142839431762695e-01,4.690178334712982178e-01,1.186805009841918945e+00,5.934590697288513184e-01,-7.741226553916931152e-01,-3.680247962474822998e-01,-3.223530352115631104e-01,1.000571727752685547e+00,-6.191836595535278320e-01
4.826046228408813477e-01,3.747705817222595215e-01,6.820694208145141602e-01,1.641401886940002441e+00,-1.648782730102539062e+00,4.334086477756500244e-01,-1.949045419692993164e+00,-2.253983169794082642e-02,1.664781451225280762e+00,7.382808327674865723e-01,1.384293556213378906e+00,-5.191453695297241211e-01,-8.136851340532302856e-02,-1.845660060644149780e-02,4.574798345565795898e-01,8.676342964172363281e-01,1.159086346626281738e+00,-8.974846601486206055e-01,8.815380334854125977e-01,1.613696932792663574e+00,2.796851992607116699e-01,-5.646568536758422852e-01,-1.006808161735534668e+00,-5.249248743057250977e-01,8.758429884910583496e-01,1.441329479217529297e+00,1.484659463167190552e-01,1.814247965812683105e-01,-3.384543657302856445e-01,-9.977574944496154785e-01,1.893687993288040161e-02,1.129049658775329590e+00,6.298358440399169922e-01,1.591604113578796387e+00,5.360804796218872070e-01,1.880062103271484375e+00,-1.488891839981079102e+00,-4.219372272491455078e-01,7.160332798957824707e-01,-1.156837463378906250e+00,6.914986968040466309e-01,-1.175066351890563965e+00,6.392524391412734985e-02,5.141841173171997070e-01,6.637887954711914062e-01,-6.960670351982116699e-01,-2.143609076738357544e-01,8.432618528604507446e-02,-1.767406821250915527e+00,1.006785631179809570e+00,-2.737603187561035156e-01,-6.084891557693481445e-01,-1.350633025169372559e+00,-1.722471356391906738e+00,-5.463305115699768066e-01,1.403523564338684082e+00,4.529388546943664551e-01,-1.646886944770812988e+00
-1.125924110412597656e+00,6.157510876655578613e-01,5.709879398345947266e-01,-1.587281465530395508e+00,1.657378435134887695e+00,-2.012335538864135742e+00,1.336504697799682617e+00,-1.266699880361557007e-01,-5.995871424674987793e-01,1.135408282279968262e+00,-1.358912467956542969e+00,1.531883955001831055e+00,1.297399997711181641e-01,5.515280365943908691e-01,-4.299923405051231384e-02,-2.343384504318237305e+00,-6.412237286567687988e-01,3.909407854080200195e-01,4.235828816890716553e-01,1.691487729549407959e-01,7.808975577354431152e-01,-4.211404323577880859e-01,-7.751981019973754883e-01,6.363784074783325195e-01,-5.813018083572387695e-01,-1.810335993766784668e+00,-4.698458313941955566e-01,6.960143893957138062e-02,4.537711739540100098e-01,1.548214466311037540e-03,-3.812364041805267334e-01,2.536659002304077148e+00,2.853847444057464600e-01,2.748522162437438965e-01,2.570168972015380859e-01,-8.243514597415924072e-02,-2.320325374603271484e+00,8.741075545549392700e-02,1.484302997589111328e+00,-4.462794363498687744e-01,1.436586380004882812e+00,-6.739743947982788086e-01,-7.723184823989868164e-01,8.249377608299255371e-01,-3.680434525012969971e-01,1.149233281612396240e-01,-2.054058015346527100e-01,6.478924751281738281e-01,-6.211772561073303223e-01,1.643866539001464844e+00,1.312435388565063477e+00,4.138950407505035400e-01,2.428014278411865234e-01,-4.880245029926300049e-01,-2.940640151500701904e-01,-2.195193529129028320e+00,1.280187129974365234e+00,-2.260728925466537476e-01
-1.006847739219665527e+00,7.139210700988769531e-01,-1.671034693717956543e-01,1.058318495750427246e+00,-2.341695308685302734e+00,-1.781694442033767700e-01,-1.190571904182434082e+00,1.866320848464965820e+00,-1.561089456081390381e-01,-7.675976753234863281e-01,-1.131124734878540039e+00,9.418524503707885742e-01,-7.610017061233520508e-02,6.642944812774658203e-01,-6.429153084754943848e-01,-9.168956875801086426e-01,1.298971176147460938e+00,7.235448360443115234e-01,-1.906995326280593872e-01,-3.959331810474395752e-01,-9.766573309898376465e-01,-5.519177913665771484e-01,-1.568346977233886719e+00,9.697496891021728516e-02,-5.082420706748962402e-01,1.044241905212402344e+00,-1.160542368888854980e+00,2.196277976036071777e-01,6.306101083755493164e-01,1.508085578680038452e-01,4.969176352024078369e-01,-1.498366296291351318e-01,-4.497320353984832764e-01,5.910640358924865723e-01,-1.250732183456420898e+00,4.665261805057525635e-01,-1.419373601675033569e-01,1.276564240455627441e+00,-1.493387103080749512e+00,-6.804010272026062012e-01,4.619702696800231934e-01,6.744438409805297852e-01,1.531698226928710938e+00,-5.382302999496459961e-01,-4.687685668468475342e-01,1.014027833938598633e+00,2.426223903894424438e-01,2.362094372510910034e-01,2.014440484344959259e-02,3.278896510601043701e-01,-3.802607357501983643e-01,-2.786062479019165039e+00,-2.167781591415405273e-01,6.566378474235534668e-01,2.771325111389160156e-01,7.659701108932495117e-01,-4.323424398899078369e-01,-2.039453029632568359e+00
2.999352850019931793e-02,1.350734233856201172e+00,-2.524188041687011719e+00,-1.242224097251892090e+00,1.871883511543273926e+00,8.321012854576110840e-01,-3.869944512844085693e-01,3.528825640678405762e-01,-5.765149593353271484e-01,-1.326594114303588867e+00,-6.196447014808654785e-01,6.374569237232208252e-02,3.780302107334136963e-01,-2.050669342279434204e-01,6.173326969146728516e-01,-2.472351640462875366e-01,1.184613704681396484e+00,1.411943554878234863e+00,-1.377727508544921875e+00,-5.895830988883972168e-01,-1.248330950736999512e+00,1.674310684204101562e+00,-2.755846083164215088e-01,2.383687198162078857e-01,4.947773218154907227e-01,-3.965289294719696045e-01,6.297786235809326172e-01,-9.526338577270507812e-01,7.692282199859619141e-01,1.044383645057678223e+00,-7.638180851936340332e-01,2.189726531505584717e-01,2.737088501453399658e-01,-1.205736845731735229e-01,-6.856136918067932129e-01,-1.887534856796264648e+00,-2.961851358413696289e-01,-4.846431910991668701e-01,1.433409303426742554e-01,1.483531117439270020e+00,7.248311638832092285e-01,6.985037922859191895e-01,1.703715175390243530e-01,-4.513520300388336182e-01,-5.422435998916625977e-01,2.143806517124176025e-01,5.426145792007446289e-01,-4.414656162261962891e-01,7.853638529777526855e-01,5.440770983695983887e-01,-3.588410317897796631e-01,9.433132410049438477e-01,7.179853916168212891e-01,-1.370234727859497070e+00,4.779886454343795776e-02,1.601847887039184570e+00,9.852469563484191895e-01,-2.663744211196899414e+00
1.791127771139144897e-01,6.496552228927612305e-01,-9.973282217979431152e-01,-2.145916670560836792e-01,-1.828578859567642212e-01,-1.419443011283874512e+00,-1.138828754425048828e+00,2.261911146342754364e-02,1.405619233846664429e-01,4.881736636161804199e-02,1.227604627609252930e+00,-6.617587804794311523e-01,-7.531671524047851562e-01,-1.917909145355224609e+00,7.502028942108154297e-01,1.551260240375995636e-02,3.941584527492523193e-01,-9.377869367599487305e-01,2.247047424316406250e-01,-9.414770007133483887e-01,1.606437683105468750e+00,1.372434973716735840e+00,1.211491465568542480e+00,-1.225352048873901367e+00,2.535417973995208740e-01,1.919381022453308105e+00,-1.860674858093261719e+00,1.652831792831420898e+00,-6.469654440879821777e-01,-3.854923322796821594e-02,-8.171659708023071289e-01,1.460782527923583984e+00,-9.467031061649322510e-02,1.309195719659328461e-02,1.565930843353271484e+00,-2.329496443271636963e-01,-4.010611027479171753e-02,-9.273227453231811523e-01,5.532637238502502441e-01,-6.070206761360168457e-01,-2.550575017929077148e+00,-1.179666042327880859e+00,-1.280372031033039093e-02,-1.605954647064208984e+00,-1.745282709598541260e-01,-1.475625872611999512e+00,-5.170455574989318848e-01,9.722574949264526367e-01,-3.720309957861900330e-02,-5.907588452100753784e-02,9.164444208145141602e-01,7.750245332717895508e-01,-6.592934131622314453e-01,1.029812216758728027e+00,9.348281025886535645e-01,-2.318146079778671265e-01,8.933799862861633301e-01,4.487482309341430664e-01
-1.476881861686706543e+00,-2.370095849037170410e-01,1.531710147857666016e+00,-3.375445127487182617e+00,-2.326534837484359741e-01,-3.479363918304443359e-01,-8.604242652654647827e-02,9.528488516807556152e-01,1.289074063301086426e+00,-2.117529511451721191e-01,1.456542015075683594e-01,9.089451432228088379e-01,-8.024101257324218750e-01,-2.264481335878372192e-01,5.175735354423522949e-01,1.830728054046630859e+00,1.077787876129150391e-01,-7.542860507965087891e-01,5.205048918724060059e-01,2.812733948230743408e-01,-2.122416019439697266e+00,-5.359346419572830200e-02,8.471003770828247070e-01,7.210823893547058105e-01,-5.334769189357757568e-02,9.916791319847106934e-02,9.524750709533691406e-01,-4.502651989459991455e-01,-8.823443651199340820e-01,-4.578905105590820312e-01,2.703042268753051758e+00,1.592582315206527710e-01,1.151654601097106934e+00,-1.807289600372314453e+00,9.335768818855285645e-01,9.652992486953735352e-01,-9.922684729099273682e-02,-6.130827665328979492e-01,-1.321019768714904785e+00,9.064561128616333008e-01,-1.136631011962890625e+00,1.453026652336120605e+00,9.576241970062255859e-01,1.913120031356811523e+00,1.495640158653259277e+00,-3.215928375720977783e-01,-3.308075666427612305e-01,-4.108273386955261230e-01,-8.076751232147216797e-02,-5.075039267539978027e-01,4.107742607593536377e-01,1.032681465148925781e+00,-8.468565344810485840e-01,-1.967744529247283936e-01,-2.096087932586669922e+00,6.621444970369338989e-02,1.906959533691406250e+00,-8.538132309913635254e-01
6.903350353240966797e-01,2.109566032886505127e-01,9.857063293457031250e-01,5.053061246871948242e-01,5.087895989418029785e-01,2.891781628131866455e-01,-6.364307999610900879e-01,3.074704110622406006e-02,-1.826342940330505371e-01,-1.361826062202453613e+00,-2.458006292581558228e-01,3.927144110202789307e-01,4.774616956710815430e-01,-1.468954682350158691e+00,-6.142092943191528320e-01,1.069428801536560059e+00,2.889770865440368652e-01,-4.783109128475189209e-01,2.286457121372222900e-01,-1.797992438077926636e-01,-8.998177051544189453e-01,-7.842300534248352051e-01,-8.939336538314819336e-01,-7.139909863471984863e-01,3.497897684574127197e-01,5.891569256782531738e-01,5.871610045433044434e-01,-7.492188215255737305e-01,-3.446798324584960938e-01,-4.622772037982940674e-01,1.105433702468872070e+00,-2.210061311721801758e+00,-9.906905293464660645e-01,-3.499951064586639404e-01,7.833778262138366699e-01,-6.620690822601318359e-01,-8.238986134529113770e-02,1.068131685256958008e+00,-1.327087998390197754e+00,1.166870832443237305e+00,3.551046922802925110e-02,-7.735103368759155273e-01,2.425505071878433228e-01,-9.910129308700561523e-01,8.691254258155822754e-01,-2.742580473423004150e-01,1.893768757581710815e-01,1.672158837318420410e-01,-2.717504501342773438e-01,1.557479858398437500e+00,3.517320871353149414e+00,4.870829284191131592e-01,-1.020682573318481445e+00,7.357314974069595337e-02,-1.337850332260131836e+00,-7.416043281555175781e-01,2.569997787475585938e+00,5.225431323051452637e-01
3.996616303920745850e-01,6.879142522811889648e-01,9.659568667411804199e-01,1.664018392562866211e+00,-2.424810886383056641e+00,9.180872440338134766e-01,1.324016094207763672e+00,-6.602177768945693970e-02,9.534723162651062012e-01,-9.326003789901733398e-01,8.059544861316680908e-02,-1.454286932945251465e+00,-6.974866390228271484e-01,-2.878891676664352417e-02,1.304858446121215820e+00,-6.524452567100524902e-01,-2.919834852218627930e-01,-2.488946467638015747e-01,1.560978412628173828e+00,1.394821643829345703e+00,-1.864865422248840332e-01,-1.335278987884521484e+00,-8.610336780548095703e-01,-1.054662108421325684e+00,-8.768763542175292969e-01,2.833220660686492920e-01,7.536842226982116699e-01,-1.485734462738037109e+00,-6.614844799041748047e-01,1.731957674026489258e+00,2.041948288679122925e-01,2.565834224224090576e-01,-1.344270706176757812e-01,3.454033136367797852e-01,-3.012639582157135010e-01,-1.560597896575927734e+00,-2.344363927841186523e+00,1.294046401977539062e+00,-1.466595292091369629e+00,-7.975314259529113770e-01,-2.003178119659423828e+00,-9.969177842140197754e-02,8.560766577720642090e-01,4.989695847034454346e-01,2.481102794408798218e-01,-3.810198009014129639e-01,9.434475898742675781e-01,1.067586302757263184e+00,2.343690544366836548e-01,4.363869316875934601e-03,8.046439886093139648e-01,5.340448021888732910e-01,1.272926926612854004e+00,1.007242575287818909e-01,-1.699936032295227051e+00,1.377110928297042847e-01,8.493845462799072266e-01,1.742793202400207520e+00
8.749658241868019104e-03,1.082940585911273956e-02,-1.096299052238464355e+00,1.715116977691650391e+00,-1.171838045120239258e+00,1.466292858123779297e+00,1.009502291679382324e+00,-1.616220921277999878e-01,-6.103630661964416504e-01,8.006697297096252441e-01,7.957741022109985352e-01,4.048223197460174561e-01,-5.587955117225646973e-01,7.008960098028182983e-02,-9.641493558883666992e-01,-1.005474805831909180e+00,-8.056342005729675293e-01,8.851171731948852539e-01,-9.452884644269943237e-02,1.693578243255615234e+00,1.619434714317321777e+00,4.871687591075897217e-01,8.705909252166748047e-01,-3.522725105285644531e-01,1.707009434700012207e+00,-1.692621231079101562e+00,-7.550089955329895020e-01,-1.625912189483642578e+00,8.263742923736572266e-01,8.959891200065612793e-01,-7.768322825431823730e-01,-6.334799528121948242e-01,2.463590949773788452e-01,-6.466623544692993164e-01,1.239517807960510254e+00,-7.581818103790283203e-01,2.249163866043090820e+00,-2.439309835433959961e+00,-3.180591464042663574e-01,4.355050921440124512e-01,1.643068075180053711e+00,4.492540061473846436e-01,-9.284164309501647949e-01,-7.256703972816467285e-01,-9.430409073829650879e-01,-1.630128860473632812e+00,8.592740297317504883e-01,-1.770764470100402832e+00,1.950623154640197754e+00,-4.882156252861022949e-01,-1.113319635391235352e+00,-3.945172727108001709e-01,-1.459502816200256348e+00,1.215217590332031250e+00,3.256629407405853271e-01,-1.122819662094116211e+00,7.666476368904113770e-01,-5.963788628578186035e-01
7.407962083816528320e-01,4.695439040660858154e-01,1.042991518974304199e+00,-3.119055032730102539e-01,2.827268242835998535e-01,-1.608736068010330200e-02,9.993218779563903809e-01,3.502616286277770996e-01,-5.122255086898803711e-01,-1.120487675070762634e-01,-3.328497111797332764e-01,2.236608713865280151e-01,-7.251465320587158203e-01,-2.673110961914062500e-01,8.628270030021667480e-01,-7.332867980003356934e-01,-1.296560019254684448e-01,-3.036924898624420166e-01,3.739171922206878662e-01,9.154943376779556274e-02,-1.026347398757934570e+00,-9.314690232276916504e-01,-7.737448215484619141e-01,1.584544420242309570e+00,1.796969026327133179e-01,1.233675837516784668e+00,-6.370655298233032227e-01,5.097832083702087402e-01,4.688163399696350098e-01,-2.631730437278747559e-01,-1.276421189308166504e+00,-3.768137842416763306e-02,1.043185591697692871e+00,-2.905052185058593750e+00,1.522735357284545898e+00,-4.945864081382751465e-01,1.033343672752380371e+00,6.521511077880859375e-01,2.576995491981506348e-01,-8.489095419645309448e-02,2.951876521110534668e-01,-7.038646936416625977e-01,8.768836855888366699e-01,-2.870762944221496582e-01,-1.577513068914413452e-01,1.218047976493835449e+00,1.095003485679626465e+00,9.073115587234497070e-01,-9.504793882369995117e-01,-4.921374320983886719e-01,1.248368620872497559e+00,1.367462635040283203e+00,-1.444963961839675903e-01,-2.188698649406433105e-01,-4.429079592227935791e-01,4.088481664657592773e-01,-1.940311044454574585e-01,2.260631024837493896e-01
-1.213926225900650024e-01,6.740948557853698730e-01,1.144604325294494629e+00,4.184206128120422363e-01,-6.243648529052734375e-01,-5.324057936668395996e-01,-3.253966271877288818e-01,7.758078575134277344e-01,5.291730761528015137e-01,-9.966514110565185547e-01,-4.515688419342041016e-01,-9.203420579433441162e-02,1.352132707834243774e-01,5.300234258174896240e-02,5.326650738716125488e-01,-1.447963356971740723e+00,-6.629795432090759277e-01,-5.579037666320800781e-01,1.035175919532775879e+00,1.129662632942199707e+00,1.426599323749542236e-01,-1.066437959671020508e+00,-3.889337480068206787e-01,-1.124820470809936523e+00,2.086571753025054932e-01,-8.097055554389953613e-01,-8.374930620193481445e-01,5.134195685386657715e-01,1.895697861909866333e-01,1.362248659133911133e-01,1.863412261009216309e-01,-8.980849385261535645e-01,-3.546772524714469910e-02,-1.412939548492431641e+00,-1.135618805885314941e+00,1.738236099481582642e-01,7.904939055442810059e-01,-1.663289070129394531e-01,6.826595664024353027e-01,-2.577143311500549316e-01,-2.103803873062133789e+00,-2.235280275344848633e+00,7.158930897712707520e-01,1.897729396820068359e+00,1.305543333292007446e-01,-1.723555028438568115e-01,5.041010379791259766e-01,-6.021367311477661133e-01,2.810849808156490326e-02,-8.914287090301513672e-01,1.883047670125961304e-01,1.474379450082778931e-01,-1.795184373855590820e+00,-1.350368618965148926e+00,4.572117924690246582e-01,3.322776854038238525e-01,-1.529551506042480469e+00,-9.153947830200195312e-01
-2.452450096607208252e-01,-1.696486592292785645e+00,-3.598417043685913086e-01,1.222251355648040771e-01,-7.486387491226196289e-01,-1.141813516616821289e+00,2.455335855484008789e-01,9.352766275405883789e-01,2.685593962669372559e-01,-1.699918061494827271e-01,-2.172545529901981354e-02,2.024880796670913696e-01,1.456408858299255371e+00,7.623802423477172852e-01,5.934861302375793457e-01,2.408368110656738281e+00,8.588094115257263184e-01,-1.493279576301574707e+00,9.296874403953552246e-01,7.615613937377929688e-02,-7.291222214698791504e-01,-8.322107791900634766e-02,-8.986289501190185547e-01,-4.074668586254119873e-01,1.281916201114654541e-01,-1.627909950911998749e-02,-6.161771416664123535e-01,-5.646243095397949219e-01,7.291811108589172363e-01,1.633557438850402832e+00,1.857298314571380615e-01,1.890103518962860107e-02,8.998562097549438477e-01,-1.330347299575805664e+00,-7.813126593828201294e-02,-5.831009149551391602e-01,-1.424819469451904297e+00,-6.382215023040771484e-02,-2.300628721714019775e-01,2.643845319747924805e+00,-8.835397958755493164e-01,-5.927643179893493652e-01,1.831503987312316895e+00,-2.344778329133987427e-01,3.999770805239677429e-02,-8.531742691993713379e-01,2.391700744628906250e+00,-4.474842548370361328e-01,-1.988483071327209473e+00,-7.869344949722290039e-01,-3.174866735935211182e-01,2.081471443176269531e+00,6.528298258781433105e-01,-1.045181006193161011e-01,5.845671892166137695e-01,-5.261867642402648926e-01,1.231538876891136169e-01,4.466361999511718750e-01
-1.219968557357788086e+00,-4.627773165702819824e-01,-1.031130075454711914e+00,-1.020690798759460449e+00,-6.577702760696411133e-01,8.492777943611145020e-01,2.164522707462310791e-01,8.387618064880371094e-01,-1.388419512659311295e-02,4.438346028327941895e-01,-6.070435643196105957e-01,5.006423592567443848e-01,1.255987524986267090e+00,1.466442346572875977e+00,1.319672107696533203e+00,2.442584276199340820e+00,1.368897706270217896e-01,1.711330771446228027e+00,1.085627794265747070e+00,-9.914246201515197754e-01,-5.082458853721618652e-01,-1.486354947090148926e+00,7.803396582603454590e-01,5.661312341690063477e-01,-1.056482791900634766e+00,-8.874729275703430176e-01,1.552610158920288086e+00,-3.143520355224609375e-01,-6.790850162506103516e-01,-3.520016074180603027e-01,-2.891022861003875732e-01,-1.414077520370483398e+00,-3.350066542625427246e-01,1.231001853942871094e+00,5.599772930145263672e-01,1.227277874946594238e+00,-1.059102416038513184e+00,3.425921797752380371e-01,1.458137392997741699e+00,2.477763295173645020e-01,7.503511905670166016e-01,-1.523842215538024902e+00,6.080662608146667480e-01,-1.419874906539916992e+00,-1.146406605839729309e-01,-2.151205837726593018e-01,-1.693250089883804321e-01,-5.931925773620605469e-01,-7.700344920158386230e-01,-6.615555286407470703e-01,-1.625491023063659668e+00,-3.487918525934219360e-02,-3.063035011291503906e-01,3.873507678508758545e-01,-2.907527983188629150e-01,8.770850300788879395e-02,-1.240116357803344727e+00,8.224331736564636230e-01
1.208272933959960938e+00,9.213349819183349609e-01,1.243273735046386719e+00,-1.047800779342651367e+00,9.749926328659057617e-01,-1.556136757135391235e-01,1.145108565688133240e-01,7.149231433868408203e-01,6.142713427543640137e-01,5.742179155349731445e-01,-1.540042459964752197e-01,-1.233710289001464844e+00,-1.338601946830749512e+00,-2.226397752761840820e+00,-5.693976879119873047e-01,1.184635400772094727e+00,-1.190521597862243652e+00,2.037633895874023438e+00,-1.328372210264205933e-01,-1.550722479820251465e+00,1.159172892570495605e+00,9.045751094818115234e-01,4.098203778266906738e-01,2.973971068859100342e-01,5.265483856201171875e-01,-9.900876879692077637e-01,-7.359028458595275879e-01,1.212137699127197266e+00,-6.794280409812927246e-01,-2.799202442169189453e+00,8.657333254814147949e-01,-2.682051420211791992e+00,-1.307505249977111816e+00,1.612469792366027832e+00,-2.481115460395812988e-01,3.056139051914215088e-01,-1.041260361671447754e+00,5.050402283668518066e-01,-8.546028733253479004e-01,-7.314325124025344849e-02,-8.823328018188476562e-01,-8.440461754798889160e-01,3.260110020637512207e-01,5.809128880500793457e-01,1.616547107696533203e+00,-1.301624298095703125e+00,-7.527667284011840820e-02,-1.281787991523742676e+00,-1.223582267761230469e+00,-7.925142645835876465e-01,-3.600530922412872314e-01,9.018461704254150391e-01,-4.647693037986755371e-01,-1.340842366218566895e+00,3.775226473808288574e-01,-5.305423960089683533e-02,-4.119491279125213623e-01,1.161342024803161621e+00
-4.405198693275451660e-01,1.768539547920227051e-01,1.346457719802856445e+00,-4.896776080131530762e-01,7.053009271621704102e-01,2.527499675750732422e+00,-1.501654744148254395e+00,2.052704572677612305e+00,-1.626479744911193848e+00,-3.207778036594390869e-01,-8.382279276847839355e-01,2.397872686386108398e+00,-2.523583412170410156e+00,1.671708375215530396e-01,-1.000481843948364258e+00,-1.218437314033508301e+00,-2.969574630260467529e-01,-2.278148889541625977e+00,-5.561487078666687012e-01,2.121711820363998413e-01,-1.314145885407924652e-02,9.860519170761108398e-01,-9.243033528327941895e-01,8.668320775032043457e-01,-8.002699613571166992e-01,1.613894343376159668e+00,-4.719634950160980225e-01,-1.651104807853698730e+00,2.038383483886718750e-01,-8.517862558364868164e-01,-6.595560312271118164e-01,1.757715791463851929e-01,7.190830111503601074e-01,-2.840285003185272217e-01,3.842741549015045166e-01,-4.820749163627624512e-01,-1.286512970924377441e+00,2.202170848846435547e+00,-1.998519062995910645e+00,-2.712354362010955811e-01,2.802300155162811279e-01,1.281022787094116211e+00,2.551259994506835938e-01,2.006978392601013184e-01,7.832056283950805664e-01,6.205862164497375488e-01,1.637278944253921509e-01,1.056067347526550293e+00,-5.197455883026123047e-01,1.028964042663574219e+00,-1.089756131172180176e+00,3.543129861354827881e-01,9.803968667984008789e-01,1.011325120925903320e+00,5.604716539382934570e-01,7.557919025421142578e-01,-1.740721106529235840e+00,-2.195403277873992920e-01
-4.660556316375732422e-01,1.399168848991394043e+00,-1.519088387489318848e+00,-4.552345871925354004e-01,-1.012785792350769043e+00,7.142214477062225342e-02,-2.873135805130004883e-01,1.222050338983535767e-01,-9.062724113464355469e-01,2.186112254858016968e-01,4.537217020988464355e-01,4.049484133720397949e-01,1.588585495948791504e+00,-5.478072762489318848e-01,1.655387043952941895e+00,-1.098706841468811035e+00,1.670170873403549194e-01,-3.077200055122375488e-01,7.923879474401473999e-02,-1.696784138679504395e+00,-1.005257725715637207e+00,4.994067251682281494e-01,5.738716572523117065e-02,5.687320232391357422e-01,-5.448233485221862793e-01,1.791447639465332031e+00,1.270948171615600586e+00,-1.258300185203552246e+00,9.166501760482788086e-01,-8.085463643074035645e-01,-9.959314465522766113e-01,5.746442675590515137e-01,9.213710427284240723e-01,-2.604224979877471924e-01,-8.602322936058044434e-01,-7.750086784362792969e-01,2.711826376616954803e-02,-3.632062813267111778e-03,4.092283546924591064e-01,1.889445424079895020e+00,-4.262651801109313965e-01,-6.082335710525512695e-01,-1.864675641059875488e+00,-1.154221892356872559e-01,1.077072769403457642e-01,9.248742461204528809e-01,-1.149610519409179688e+00,-1.201182365417480469e+00,1.367948949337005615e-01,-2.381049245595932007e-01,4.798258543014526367e-01,-3.371378639712929726e-03,1.451033283956348896e-03,-6.438643336296081543e-01,5.703706145286560059e-01,1.211736321449279785e+00,-4.407582283020019531e-01,-8.759717941284179688e-01
6.279609203338623047e-01,-1.032639384269714355e+00,-1.356811523437500000e+00,4.150457680225372314e-01,5.388003587722778320e-01,4.518204629421234131e-01,-9.430183172225952148e-01,-9.456750750541687012e-01,-5.903327465057373047e-01,3.669706732034683228e-02,-4.840484857559204102e-01,-2.227175422012805939e-02,2.226929962635040283e-01,3.701072931289672852e-01,6.112249493598937988e-01,3.047714754939079285e-02,-1.434356093406677246e+00,-4.420674145221710205e-01,1.827339649200439453e+00,2.786336541175842285e-01,1.399659663438796997e-01,-1.867199301719665527e+00,7.098307609558105469e-01,-1.826432347297668457e-01,-1.655616044998168945e+00,2.649599611759185791e-01,-1.108484491705894470e-01,-3.752873837947845459e-01,1.520999670028686523e-01,-1.371320486068725586e+00,-6.210908889770507812e-01,1.251458168029785156e+00,-5.378940328955650330e-02,1.689159274101257324e+00,1.139304876327514648e+00,5.381455421447753906e-01,-1.713381171226501465e+00,1.196615099906921387e+00,-9.869035482406616211e-01,7.437167167663574219e-01,-3.894678652286529541e-01,-1.325600385665893555e+00,-1.712685823440551758e+00,-1.728608846664428711e+00,9.555664658546447754e-02,-1.344530610367655754e-04,-6.311492323875427246e-01,-1.142709374427795410e+00,-4.690042138099670410e-01,-1.390278697013854980e+00,2.908709347248077393e-01,1.222435355186462402e+00,-4.391900599002838135e-01,-2.491838932037353516e-01,4.628677070140838623e-01,-2.611672639846801758e+00,-8.125897645950317383e-01,-4.698447287082672119e-01
1.615261554718017578e+00,8.162759244441986084e-02,1.297553062438964844e+00,2.779079973697662354e-01,1.002080887556076050e-01,1.431667327880859375e+00,5.981275439262390137e-01,1.063307404518127441e+00,-2.626949548721313477e-01,2.286523431539535522e-01,-1.090893864631652832e+00,-8.448690176010131836e-02,-2.965007126331329346e-01,-7.842118740081787109e-01,9.967771172523498535e-01,4.174943268299102783e-01,-1.571204185485839844e+00,-8.216361999511718750e-01,1.236541271209716797e+00,4.903058707714080811e-01,-4.996511340141296387e-01,3.779152035713195801e-01,7.050006985664367676e-01,-1.659805417060852051e+00,-1.720502138137817383e+00,1.750369906425476074e+00,-2.367273438721895218e-03,5.383496284484863281e-01,-4.751526415348052979e-01,-3.866895139217376709e-01,1.618880629539489746e+00,1.235870718955993652e+00,-3.725858032703399658e-01,-2.559345722198486328e+00,-7.257310207933187485e-04,1.892307102680206299e-01,-1.193619966506958008e+00,-5.381607413291931152e-01,1.433006674051284790e-01,-6.607200950384140015e-02,-7.218196392059326172e-01,-3.662172555923461914e-01,-5.141639709472656250e-01,1.007232546806335449e+00,-3.257884979248046875e-01,5.169318318367004395e-01,-9.912512302398681641e-01,1.514709830284118652e+00,-9.009341597557067871e-01,-3.917385637760162354e-01,-2.393465489149093628e-01,-8.528146147727966309e-01,8.809963464736938477e-01,2.036911398172378540e-01,-1.354533791542053223e+00,1.131121993064880371e+00,1.050216674804687500e+00,-3.411104679107666016e-01
1.661527752876281738e+00,7.636356949806213379e-01,9.630501866340637207e-01,-7.393475621938705444e-02,-1.941998362541198730e+00,-1.985758841037750244e-01,-8.216909170150756836e-01,3.514820337295532227e-01,-7.476017475128173828e-01,-5.786630511283874512e-01,-1.481774926185607910e+00,3.551611676812171936e-02,8.251256346702575684e-01,8.657094836235046387e-01,1.472225666046142578e+00,2.871449589729309082e-01,-1.845213621854782104e-01,9.237052202224731445e-01,-1.281431198120117188e+00,-2.265267372131347656e+00,1.503550529479980469e+00,5.255903601646423340e-01,-3.640981018543243408e-01,-9.574676752090454102e-01,2.758631110191345215e-01,-1.422798633575439453e+00,3.507555723190307617e-01,1.849791288375854492e+00,9.103109687566757202e-02,4.667549133300781250e-01,-5.929221212863922119e-02,-7.635570168495178223e-01,-5.989139080047607422e-01,6.220702081918716431e-02,4.818328917026519775e-01,-1.949790596961975098e+00,-1.634863376617431641e+00,-8.551170229911804199e-01,3.024919927120208740e-01,1.497151970863342285e+00,-6.261436343193054199e-01,-5.387213826179504395e-01,7.749173045158386230e-02,-6.671800017356872559e-01,-1.439998030662536621e+00,1.762183159589767456e-01,2.361062355339527130e-02,-4.739662632346153259e-03,-1.172883629798889160e+00,-7.004896402359008789e-01,1.261137008666992188e+00,-8.004776835441589355e-01,9.618831872940063477e-01,1.452344417572021484e+00,4.110303223133087158e-01,-9.532344341278076172e-01,-2.118771076202392578e-01,2.314448356628417969e+00
