-7.829394191503524780e-02,3.422753512859344482e-02,2.784938551485538483e-02,-2.366281859576702118e-02,-1.283934265375137329e-01,1.440657861530780792e-02,-6.427197158336639404e-02,9.934108704328536987e-02,1.237813994521275163e-04,-2.775458386167883873e-03,-7.800289243459701538e-02,3.062667511403560638e-02,9.665568359196186066e-03,-9.326941333711147308e-03,4.759344272315502167e-03,-1.554621011018753052e-01,1.493783667683601379e-02,3.585738316178321838e-02,1.439159642904996872e-02,4.211103171110153198e-02,-2.161382697522640228e-02,-1.329065114259719849e-01,-5.430203303694725037e-02,-3.976544737815856934e-02,-8.625969057902693748e-04,-7.229937613010406494e-02,-7.569631934165954590e-02,5.710169300436973572e-02,1.184896286576986313e-02,-2.024174295365810394e-02,-9.576341509819030762e-02,-1.713609904982149601e-03,-5.987773090600967407e-02,-3.639119863510131836e-02,1.186489835381507874e-01,6.527543067932128906e-03,2.936923503875732422e-02,6.860196124762296677e-03,-3.327951207756996155e-02,-2.448036894202232361e-02,2.772706001996994019e-02,2.926823124289512634e-02,-1.988827949389815331e-03,9.160595387220382690e-02,-1.016534045338630676e-01,3.748118132352828979e-02,-1.230603158473968506e-01,-6.312008481472730637e-04,3.844527155160903931e-02,4.689835011959075928e-02
