-6.825353950262069702e-03,1.768680848181247711e-02,4.358671233057975769e-02,-9.740509837865829468e-02,-7.925496995449066162e-02,5.047136172652244568e-02,-1.853710040450096130e-02,1.051343604922294617e-01,-4.407477099448442459e-03,-6.283726077526807785e-03,-7.692093402147293091e-02,3.395221382379531860e-02,-6.268636789172887802e-03,1.116104237735271454e-02,1.138379890471696854e-02,-9.369498491287231445e-02,2.682571485638618469e-02,3.413337469100952148e-02,-2.565996255725622177e-04,-3.870974294841289520e-03,-3.559336066246032715e-02,-6.635297089815139771e-02,-6.194655597209930420e-02,-2.019159682095050812e-02,2.436328679323196411e-03,-8.768767863512039185e-02,-8.295509032905101776e-03,3.987151011824607849e-02,6.034091487526893616e-02,4.181227460503578186e-02,-9.500112384557723999e-02,-3.336268663406372070e-02,-1.606674864888191223e-02,-9.127607196569442749e-02,1.036859527230262756e-01,-1.086014136672019958e-02,3.927891701459884644e-02,-1.583627192303538322e-03,-3.463416360318660736e-03,4.740647226572036743e-02,1.954144239425659180e-02,3.644168004393577576e-02,-2.950754202902317047e-02,1.123625505715608597e-02,-8.796180784702301025e-02,2.718335017561912537e-02,-9.125339984893798828e-02,1.220913324505090714e-02,5.885854479856789112e-04,5.902095139026641846e-02
