7.336584478616714478e-02,-4.543602466583251953e-02,2.056362107396125793e-02,-5.558217875659465790e-03,-3.464118391275405884e-02,-5.933991074562072754e-02,-6.082274392247200012e-02,1.423904895782470703e-01,3.554427996277809143e-02,7.812656462192535400e-03,-6.823302805423736572e-02,-5.745786055922508240e-02,1.526775117963552475e-02,2.389370091259479523e-02,9.898532927036285400e-02,-4.818968102335929871e-02,-4.762275144457817078e-02,-6.172692519612610340e-04,4.413054883480072021e-02,-9.714070707559585571e-02,-1.589860022068023682e-02,-3.237069770693778992e-02,-5.433248821645975113e-03,-7.223614305257797241e-02,6.050390750169754028e-02,-5.565352365374565125e-02,4.479239135980606079e-02,-9.917892515659332275e-03,5.620900169014930725e-02,1.281953230500221252e-02,-5.287551134824752808e-02,-2.186095900833606720e-02,-3.780874609947204590e-02,-9.909836202859878540e-02,1.057351082563400269e-01,1.659473590552806854e-02,2.478981390595436096e-03,-8.184871403500437737e-04,1.735595427453517914e-02,6.315252929925918579e-02,3.065435914322733879e-03,2.049648016691207886e-02,-2.702161855995655060e-02,-2.479905262589454651e-02,-3.099908493459224701e-02,1.129456423223018646e-02,-4.733325913548469543e-02,-8.767188340425491333e-02,5.383038893342018127e-03,4.321699589490890503e-02
