5.620894022285938263e-03,3.753481060266494751e-02,1.029818411916494370e-02,-1.366160344332456589e-03,-4.929376021027565002e-02,-2.079216949641704559e-02,8.006560802459716797e-02,-7.078943401575088501e-02,3.342782706022262573e-02,-3.740622848272323608e-02,-6.748313549906015396e-03,9.142826311290264130e-03,1.438470650464296341e-02,3.447667136788368225e-02,2.813879027962684631e-02,-5.328368023037910461e-02,8.790860883891582489e-03,-2.622924931347370148e-02,-3.870885446667671204e-02,1.536186784505844116e-02,3.073400445282459259e-02,7.704359013587236404e-03,6.328730378299951553e-03,-5.023981910198926926e-03,-1.185714267194271088e-02,4.677013307809829712e-02,3.058476187288761139e-02,-8.004844188690185547e-02,4.993286356329917908e-02,-6.970708817243576050e-02,-8.053882420063018799e-02,-5.274116620421409607e-02,8.431889116764068604e-02,-6.931883748620748520e-03,9.337289631366729736e-02,-9.578838944435119629e-02,-4.475248977541923523e-02,3.343039005994796753e-02,-4.170699045062065125e-03,3.061044402420520782e-02,-3.927848115563392639e-02,-5.571524053812026978e-02,-5.866639688611030579e-02,3.562313690781593323e-02,4.287947341799736023e-02,-5.006785504519939423e-03,-2.909509092569351196e-02,2.379655279219150543e-02,7.737250626087188721e-02,6.752135604619979858e-02
