-2.684037983417510986e-01,-4.091516137123107910e-02,-2.101878404617309570e+00,-1.217179536819458008e+00,-1.323472738265991211e+00,5.321836471557617188e-01,-2.211768388748168945e+00,-9.123685956001281738e-01,-8.028272986412048340e-01,1.517438441514968872e-01,1.054961681365966797e+00,-1.810239791870117188e+00,7.746446132659912109e-01,-2.867018878459930420e-01,1.605014353990554810e-01,-3.247125148773193359e-01,4.983690381050109863e-01,-9.306646585464477539e-01,9.966385960578918457e-01,4.621163904666900635e-01,3.606388568878173828e-01,9.850192666053771973e-01,1.949387907981872559e+00,-1.363566756248474121e+00,8.037359714508056641e-01,1.639756083488464355e+00,-2.424314260482788086e+00,-2.171501368284225464e-01,-2.061807960271835327e-01,-1.383624792098999023e+00,1.976932883262634277e+00,3.712590634822845459e-01,-1.491841435432434082e+00,1.729184150695800781e+00,5.731731653213500977e-01,5.537881255149841309e-01,-2.616810560226440430e+00,1.183162689208984375e+00,1.857244968414306641e-01,2.957318127155303955e-01,2.953300178050994873e-01,-4.860078096389770508e-01,-5.953065156936645508e-01,9.526513814926147461e-01,1.270769953727722168e+00,3.867896199226379395e-01,7.723705768585205078e-01,2.823215126991271973e-01,-2.298704832792282104e-01,1.168181672692298889e-01,-1.502005219459533691e+00,-5.312258601188659668e-01,1.917876452207565308e-01,-7.021022439002990723e-01,1.074409246444702148e+00,1.462081521749496460e-01,-9.785907268524169922e-01,1.846391558647155762e-01
1.710493803024291992e+00,9.485810399055480957e-01,2.691746652126312256e-01,4.752189517021179199e-01,-1.087702903896570206e-02,8.659518957138061523e-01,2.913663685321807861e-01,1.498544216156005859e+00,1.255362749099731445e+00,-5.192013382911682129e-01,-3.773185908794403076e-01,-5.001223683357238770e-01,7.556352615356445312e-01,-3.269790410995483398e-01,-1.908159554004669189e-01,-3.348321914672851562e-01,-1.281767249107360840e+00,4.228804409503936768e-01,-1.199514508247375488e+00,5.373592376708984375e-01,-9.266262874007225037e-03,-1.397044420242309570e+00,5.613123774528503418e-01,8.068783879280090332e-01,8.777573704719543457e-01,8.010527491569519043e-01,-4.201268851757049561e-01,-1.786484271287918091e-01,7.782030105590820312e-02,-4.785856008529663086e-01,-1.847860813140869141e-01,-4.418158531188964844e-02,8.680698871612548828e-01,3.135027587413787842e-01,-4.349840879440307617e-01,-4.170233309268951416e-01,5.305996537208557129e-02,6.314458250999450684e-01,1.119629517197608948e-01,-2.772077322006225586e-01,-1.316163837909698486e-01,-1.302716135978698730e+00,1.475449204444885254e-01,8.791790604591369629e-01,-7.821378111839294434e-01,-6.511918306350708008e-01,4.385434687137603760e-01,1.125304818153381348e+00,-1.741888403892517090e+00,-3.261112570762634277e-01,-9.255546927452087402e-01,1.473536849021911621e+00,2.413101911544799805e+00,1.557303786277770996e+00,1.190523982048034668e+00,-3.820698261260986328e-01,1.662971973419189453e+00,1.457879424095153809e+00
-5.852752923965454102e-01,3.353821635246276855e-01,-2.622933983802795410e-01,6.265934705734252930e-01,-6.629316210746765137e-01,1.362300753593444824e+00,4.662609472870826721e-02,-9.371493011713027954e-02,-1.198022007942199707e+00,2.044431686401367188e+00,-3.862183168530464172e-02,-7.641218304634094238e-01,1.654087781906127930e+00,-1.312653541564941406e+00,8.407571315765380859e-01,-9.812108427286148071e-02,1.021901488304138184e+00,-1.473615132272243500e-02,-1.390969147905707359e-03,4.988774657249450684e-01,-1.316657423973083496e+00,5.190714001655578613e-01,2.738391399383544922e+00,-6.735078096389770508e-01,-3.350852131843566895e-01,3.729460537433624268e-01,7.218394428491592407e-02,-1.147958993911743164e+00,2.919271469116210938e+00,9.839932918548583984e-01,6.597067117691040039e-01,-1.830967068672180176e-01,2.794750332832336426e-01,4.048802554607391357e-01,1.098022818565368652e+00,5.031462907791137695e-01,4.461767673492431641e-01,6.999194622039794922e-02,5.852666869759559631e-02,1.554680824279785156e+00,5.483947396278381348e-01,3.631852865219116211e-01,1.124735355377197266e+00,-1.523085832595825195e+00,-6.970910727977752686e-02,-8.349840641021728516e-01,7.652136683464050293e-01,-5.061028003692626953e-01,-6.632106900215148926e-01,9.218185544013977051e-01,-1.777184963226318359e+00,2.455629110336303711e-01,-2.562805414199829102e-01,-7.783262133598327637e-01,1.883983731269836426e+00,-4.372501745820045471e-02,1.806848645210266113e+00,2.441178262233734131e-01
2.484858989715576172e+00,-1.502194553613662720e-01,1.291133046150207520e+00,-9.373260289430618286e-02,-1.469715714454650879e+00,8.054572939872741699e-01,7.222636342048645020e-01,-4.462687373161315918e-01,-3.059489428997039795e-01,-1.252359390258789062e+00,-1.178194805979728699e-01,-3.607780858874320984e-02,5.166378021240234375e-01,-3.552311956882476807e-01,-4.164500236511230469e-01,1.421349763870239258e+00,-1.827527582645416260e-01,1.747401952743530273e-01,-1.066815137863159180e+00,-4.674972295761108398e-01,-5.945664048194885254e-01,-9.105514287948608398e-01,1.735973805189132690e-01,2.071902602910995483e-01,4.973432719707489014e-01,-2.192539215087890625e+00,-7.678451538085937500e-01,1.906516313552856445e+00,-5.025611724704504013e-03,-1.029695272445678711e+00,-1.162896752357482910e+00,-1.158749908208847046e-01,3.521856665611267090e-01,2.005241155624389648e+00,7.191982865333557129e-01,-3.529658913612365723e-01,-1.312602639198303223e+00,-7.284020781517028809e-01,-5.777284502983093262e-01,-1.143913269042968750e+00,-5.855535864830017090e-01,-2.953798770904541016e-01,-5.739940404891967773e-01,-3.886921107769012451e-01,-4.684071838855743408e-01,3.443394228816032410e-02,-1.067081570625305176e+00,1.652733087539672852e+00,-2.366120368242263794e-01,-4.701917171478271484e-01,1.247815847396850586e+00,4.132193326950073242e-01,-5.349856987595558167e-02,1.101817586459219456e-03,6.516473889350891113e-01,-5.892460942268371582e-01,2.504568696022033691e-01,9.038209915161132812e-01
3.661427795886993408e-01,1.504516959190368652e+00,7.608828544616699219e-01,7.726412266492843628e-02,-8.446597456932067871e-01,6.972904205322265625e-01,1.860724806785583496e+00,-1.534682273864746094e+00,-1.951787769794464111e-01,2.358750581741333008e+00,1.999194920063018799e-01,-3.465984463691711426e-01,1.863867163658142090e+00,1.158226370811462402e+00,-4.041330218315124512e-01,-6.803482770919799805e-01,-2.286252975463867188e-01,-8.169384598731994629e-01,3.185236454010009766e-01,8.323553800582885742e-01,1.025108575820922852e+00,6.308539509773254395e-01,-1.356794387102127075e-01,8.630627989768981934e-01,-9.072911143302917480e-01,9.333436936140060425e-02,2.862243652343750000e-01,-4.293261468410491943e-02,4.017020463943481445e-01,4.295347258448600769e-02,2.999525070190429688e-01,-1.179862618446350098e+00,6.473479419946670532e-02,7.897093892097473145e-02,-1.348158240318298340e+00,-5.861360430717468262e-01,1.548754870891571045e-01,-2.910733222961425781e+00,-1.776383042335510254e+00,1.074346065521240234e+00,-2.070790767669677734e+00,-9.341273307800292969e-01,-6.894992589950561523e-01,-3.722933530807495117e-01,2.328203320503234863e-01,8.757446408271789551e-01,-1.877988219261169434e+00,-3.708354830741882324e-01,2.166442871093750000e+00,9.192014932632446289e-01,4.749973416328430176e-01,-5.566121935844421387e-01,-1.307886838912963867e+00,1.317443966865539551e+00,1.985127478837966919e-01,8.687393665313720703e-01,2.203195989131927490e-01,-3.201792240142822266e-01
1.157770395278930664e+00,5.745608210563659668e-01,2.039407789707183838e-01,3.020110540091991425e-02,1.486027836799621582e+00,8.893895745277404785e-01,1.911142468452453613e+00,2.181245982646942139e-01,-1.308261156082153320e+00,-1.195221066474914551e+00,-4.363227188587188721e-01,6.140707135200500488e-01,-2.251696109771728516e+00,-4.178563356399536133e-01,1.097046360373497009e-01,-7.670205831527709961e-01,5.886635184288024902e-01,-8.632019758224487305e-01,3.577584326267242432e-01,8.280093073844909668e-01,-4.386052787303924561e-01,6.303213834762573242e-01,-2.104081630706787109e+00,-1.140431404113769531e+00,-1.260351300239562988e+00,4.873785004019737244e-02,3.658746778964996338e-01,5.010749697685241699e-01,1.959835052490234375e+00,-6.596359610557556152e-01,-8.129785060882568359e-01,-4.587673544883728027e-01,-4.869190752506256104e-01,1.888953089714050293e+00,-1.018827438354492188e+00,5.542770028114318848e-01,-9.369484186172485352e-01,-1.375948786735534668e+00,-2.320186048746109009e-01,5.211705565452575684e-01,-9.514740668237209320e-03,-1.060142517089843750e+00,-6.118022799491882324e-01,-1.615238666534423828e+00,-4.295182228088378906e-01,8.027680963277816772e-02,5.437932014465332031e-01,3.022884428501129150e-01,-5.082217454910278320e-01,-6.659666299819946289e-01,-6.073838472366333008e-01,-1.192467585206031799e-01,-2.517203807830810547e+00,5.009853839874267578e-01,7.407391667366027832e-01,8.537856936454772949e-01,1.315239191055297852e+00,-1.135778188705444336e+00
5.804005861282348633e-01,-7.223099470138549805e-01,-4.622260108590126038e-02,1.062901541590690613e-01,-7.660874128341674805e-01,3.802259266376495361e-01,-5.435296893119812012e-01,6.391130685806274414e-01,-7.636016607284545898e-01,-9.594087004661560059e-01,4.195715785026550293e-01,-8.148776888847351074e-01,4.371279180049896240e-01,8.833593726158142090e-01,-9.323769211769104004e-01,3.237268328666687012e-01,-7.271548509597778320e-01,-6.925663948059082031e-01,-1.181275129318237305e+00,-1.448828101158142090e+00,-6.005557775497436523e-01,-1.891076683998107910e+00,-8.759070038795471191e-01,-4.265768826007843018e-02,4.311472550034523010e-02,6.608931422233581543e-01,-4.932408630847930908e-01,-3.203425705432891846e-01,5.554781556129455566e-01,-3.830443322658538818e-01,-1.478012561798095703e+00,-1.316681742668151855e+00,-2.238723754882812500e+00,-4.617030918598175049e-01,-1.477467417716979980e+00,-6.631529927253723145e-01,-6.005093082785606384e-02,-1.469590187072753906e+00,1.301060914993286133e-01,-1.063480615615844727e+00,1.708944916725158691e+00,-6.968734264373779297e-01,-7.822971343994140625e-01,-4.791608750820159912e-01,-6.535154581069946289e-01,-7.317902445793151855e-01,1.853663921356201172e-01,-8.895704895257949829e-02,3.709850311279296875e-01,6.522677540779113770e-01,1.230175733566284180e+00,-5.063846111297607422e-01,7.266853451728820801e-01,-7.013474106788635254e-01,6.485419869422912598e-01,-1.147299766540527344e+00,1.517263770103454590e+00,4.568920135498046875e-01
8.140633702278137207e-01,-6.665185093879699707e-03,-3.016587197780609131e-01,-8.506259918212890625e-01,4.295486211776733398e-01,1.000589132308959961e+00,-1.982650637626647949e+00,8.035492897033691406e-01,-6.203436255455017090e-01,9.771642088890075684e-01,2.129270076751708984e+00,-4.828368127346038818e-01,-4.901189506053924561e-01,-1.284019835293292999e-02,4.779928326606750488e-01,-8.167154192924499512e-01,-9.419221878051757812e-01,-1.416839241981506348e+00,1.744421869516372681e-01,5.434744432568550110e-02,1.344086050987243652e+00,-7.433993816375732422e-01,-1.361196279525756836e+00,-1.562120556831359863e+00,-4.821497797966003418e-01,3.341520726680755615e-01,-5.711711198091506958e-02,-7.436140626668930054e-02,3.389207646250724792e-03,-2.505209922790527344e+00,7.573795914649963379e-01,-1.580952763557434082e+00,-8.529430255293846130e-03,-8.350747227668762207e-01,1.886888444423675537e-01,-2.501488626003265381e-01,5.142849087715148926e-01,-9.193786233663558960e-02,4.074082374572753906e-01,-2.081741094589233398e+00,1.003229856491088867e+00,5.609295964241027832e-01,1.063591599464416504e+00,-4.523601382970809937e-03,2.049839794635772705e-01,-2.876452505588531494e-01,9.729205965995788574e-01,-5.993479490280151367e-01,-4.460437595844268799e-01,2.471618413925170898e+00,3.671284019947052002e-01,5.152390599250793457e-01,1.312766671180725098e+00,1.929934695363044739e-02,4.243524745106697083e-02,4.589208662509918213e-01,4.065853357315063477e-01,-9.567964076995849609e-02
8.015887141227722168e-01,-6.100170016288757324e-01,-8.903049677610397339e-02,-5.145654082298278809e-01,-4.884848892688751221e-01,-1.006481170654296875e+00,5.206851363182067871e-01,4.840823113918304443e-01,-8.345740437507629395e-01,6.604940891265869141e-01,2.799598574638366699e-01,4.680069535970687866e-02,-9.723057746887207031e-01,-4.704521596431732178e-01,6.810634732246398926e-01,6.711629629135131836e-01,2.280663996934890747e-01,1.235356211662292480e+00,-5.707603693008422852e-01,2.477541208267211914e+00,-2.211102545261383057e-01,1.498768210411071777e+00,1.116786241531372070e+00,5.265956521034240723e-01,6.903735399246215820e-01,8.774703741073608398e-01,7.599021792411804199e-01,1.301038265228271484e+00,-1.364310979843139648e+00,-1.058620214462280273e+00,2.816880643367767334e-01,-3.265518844127655029e-01,-3.762496709823608398e-01,-6.322777867317199707e-01,-1.403206884860992432e-01,5.354709625244140625e-01,-1.445579290390014648e+00,-6.884155273437500000e-01,3.174378871917724609e-01,-6.202902644872665405e-02,-1.073228001594543457e+00,-1.337958335876464844e+00,3.759787082672119141e-01,6.623114347457885742e-01,1.388807415962219238e+00,-1.909637600183486938e-01,-1.116564154624938965e+00,2.573928356170654297e+00,-6.162951588630676270e-01,-4.026062786579132080e-01,-4.185788035392761230e-01,-6.438885331153869629e-01,6.979326009750366211e-01,-9.533246159553527832e-01,3.396652936935424805e-01,-7.603254318237304688e-01,3.521244823932647705e-01,-2.562369346618652344e+00
1.038589954376220703e+00,2.968276292085647583e-02,3.480745255947113037e-01,-4.276128485798835754e-02,-3.532363474369049072e-01,4.421564638614654541e-01,6.978713274002075195e-01,-2.403177469968795776e-01,2.209631681442260742e+00,-5.758957862854003906e-01,1.470194935798645020e+00,-1.207925558090209961e+00,3.392631709575653076e-01,-1.543944180011749268e-01,1.014565706253051758e+00,7.712002396583557129e-01,2.673559784889221191e-01,8.011310696601867676e-01,-5.539153218269348145e-01,-4.795170426368713379e-01,-2.840369701385498047e+00,-2.595615983009338379e-01,5.641364455223083496e-01,6.008101701736450195e-01,1.079798221588134766e+00,-5.906429290771484375e-01,1.277303576469421387e+00,1.942434191703796387e+00,-4.015272557735443115e-01,-4.996128678321838379e-01,5.573819875717163086e-01,-1.170139238238334656e-01,-1.399958729743957520e+00,-4.656302332878112793e-01,4.748158454895019531e-01,-5.919084548950195312e-01,8.821900486946105957e-01,8.585273623466491699e-01,-1.172225356101989746e+00,-6.289992928504943848e-01,-1.676192432641983032e-01,5.410166382789611816e-01,1.707103371620178223e+00,1.966977834701538086e+00,1.789161443710327148e+00,1.272065162658691406e+00,1.782323002815246582e+00,-6.802445650100708008e-01,-1.671103537082672119e-01,1.203391551971435547e+00,3.684522211551666260e-01,2.420950531959533691e-01,5.327258110046386719e-01,-1.694782972335815430e-01,-3.599556982517242432e-01,3.705048263072967529e-01,-5.601398348808288574e-01,1.234021425247192383e+00
-1.380992293357849121e+00,2.147270679473876953e+00,-1.231935620307922363e+00,1.050951927900314331e-01,1.099829077720642090e+00,1.418271541595458984e+00,1.758531332015991211e-01,2.045017927885055542e-01,2.017048597335815430e+00,4.312480390071868896e-01,1.536233663558959961e+00,-1.662115335464477539e+00,1.129194021224975586e+00,7.550906538963317871e-01,4.148922562599182129e-01,1.038244605064392090e+00,5.385057330131530762e-01,-2.294816493988037109e+00,-2.268200218677520752e-01,-1.920278668403625488e-01,2.633295953273773193e-01,-3.563638031482696533e-01,-5.848132967948913574e-01,1.524966657161712646e-01,9.996336102485656738e-01,5.346567630767822266e-01,-1.921231389045715332e+00,8.173426985740661621e-01,1.307063102722167969e+00,-1.162258386611938477e+00,2.241054475307464600e-01,1.475722670555114746e+00,-1.967244029045104980e+00,-1.546880722045898438e+00,-5.195248723030090332e-01,6.873639822006225586e-01,-1.158853888511657715e+00,-4.223042130470275879e-01,3.050208985805511475e-01,-7.121331989765167236e-02,5.261008739471435547e-01,-6.008268594741821289e-01,-1.531320214271545410e-01,-6.582819819450378418e-01,5.598222613334655762e-01,-1.724502086639404297e+00,1.569655299186706543e+00,2.043064497411251068e-02,1.180814146995544434e+00,5.747462436556816101e-02,1.026592969894409180e+00,6.523509621620178223e-01,-8.212953209877014160e-01,-1.106086969375610352e+00,-1.822375506162643433e-01,1.309762001037597656e+00,-7.779634594917297363e-01,1.467897057533264160e+00
4.695499837398529053e-01,-5.299889445304870605e-01,-7.647061944007873535e-01,-6.227436065673828125e-01,6.861518025398254395e-01,9.370148181915283203e-01,-6.568970084190368652e-01,3.483268618583679199e-01,2.476403474807739258e+00,2.897305488586425781e-01,-1.199096083641052246e+00,-4.501065611839294434e-01,1.316537976264953613e+00,8.600720018148422241e-02,2.744251787662506104e-01,2.502719759941101074e-01,6.468646526336669922e-01,-1.626332700252532959e-01,1.021808907389640808e-01,-1.944189310073852539e+00,-4.325046539306640625e-01,-1.104025125503540039e+00,-9.403520822525024414e-01,-5.588248968124389648e-01,3.335646092891693115e-01,-1.818938374519348145e+00,-1.227670669555664062e+00,9.829047322273254395e-01,-1.099812626838684082e+00,8.968085050582885742e-01,-1.651776075363159180e+00,3.114137947559356689e-01,6.904194951057434082e-01,6.153580732643604279e-03,-6.055416464805603027e-01,1.167387008666992188e+00,-2.392613887786865234e+00,5.212414860725402832e-01,-5.257469415664672852e-01,-1.232593655586242676e+00,9.295044541358947754e-01,1.757435384206473827e-03,-1.061642050743103027e+00,7.535017728805541992e-01,-1.227031946182250977e+00,2.415580272674560547e+00,1.574750065803527832e+00,8.167707920074462891e-01,8.421614766120910645e-01,-1.763023614883422852e+00,-1.844281107187271118e-01,3.184915781021118164e-01,-6.728274822235107422e-01,3.293512761592864990e-01,1.579107761383056641e+00,1.311589717864990234e+00,5.503129959106445312e-01,4.066539406776428223e-01
-5.858004093170166016e-01,-1.424984812736511230e+00,-5.401432514190673828e-02,-1.851485610008239746e+00,2.894526720046997070e+00,-1.337380766868591309e+00,-1.713454604148864746e+00,-5.198537707328796387e-01,-2.208450317382812500e+00,2.306550890207290649e-01,-1.302971005439758301e+00,-1.533277332782745361e-01,1.368669122457504272e-01,2.438843250274658203e+00,-1.779313921928405762e+00,-1.221384763717651367e+00,4.602290093898773193e-01,-3.586980402469635010e-01,3.772172033786773682e-01,-6.994221210479736328e-01,-9.145659208297729492e-01,-8.350938558578491211e-02,-1.251773715019226074e+00,1.245739936828613281e+00,-3.330738842487335205e-01,5.876697301864624023e-01,1.816357225179672241e-01,1.717975974082946777e+00,1.182646080851554871e-01,3.329318016767501831e-02,6.635488271713256836e-01,-8.168525099754333496e-01,-4.863557815551757812e-01,1.676294803619384766e+00,-8.417829871177673340e-01,-1.110031366348266602e+00,3.036796697415411472e-04,-9.621728658676147461e-01,-1.506031870841979980e+00,-2.809533596038818359e+00,6.139087080955505371e-01,-1.671035885810852051e+00,3.753529787063598633e-01,6.528210043907165527e-01,-1.141798496246337891e+00,-1.591853499412536621e+00,6.512296199798583984e-01,-1.392647266387939453e+00,-5.789621472358703613e-01,1.721431165933609009e-01,-1.147359371185302734e+00,1.236280322074890137e+00,-7.335007190704345703e-02,9.367557168006896973e-01,-3.522218465805053711e-01,-1.588057994842529297e+00,9.065011143684387207e-01,1.897797547280788422e-02
3.224146962165832520e-01,2.415053173899650574e-02,1.374179273843765259e-01,-1.538136005401611328e-01,2.094622135162353516e+00,-5.746855735778808594e-01,1.195708036422729492e+00,2.076786756515502930e-01,6.583292484283447266e-01,4.870281815528869629e-01,9.020090103149414062e-01,8.762717843055725098e-01,-5.292444825172424316e-01,3.132414221763610840e-01,1.142948746681213379e+00,-6.677103638648986816e-01,7.078861594200134277e-01,-4.202432334423065186e-01,1.806940674781799316e+00,5.960276722908020020e-01,1.096724390983581543e+00,-3.786359131336212158e-01,-8.220984935760498047e-01,-2.087662518024444580e-01,-7.765556573867797852e-01,1.000733017921447754e+00,-1.362730026245117188e+00,-1.888122200965881348e+00,-6.928358227014541626e-02,-1.169675469398498535e+00,-5.252048373222351074e-01,4.852095618844032288e-02,-4.139942303299903870e-02,6.900810450315475464e-02,-8.399153947830200195e-01,1.103178977966308594e+00,-1.108626723289489746e+00,-1.410086870193481445e+00,5.599707961082458496e-01,-3.428566157817840576e-01,1.045778155326843262e+00,9.735479950904846191e-01,-5.818760991096496582e-01,2.222239971160888672e-01,-7.915244698524475098e-01,2.618066668510437012e-01,2.601096928119659424e-01,1.155163526535034180e+00,-9.441798925399780273e-01,6.376187205314636230e-01,-8.919082283973693848e-01,5.246556401252746582e-01,7.699485421180725098e-01,1.138732954859733582e-01,-6.875720024108886719e-01,1.223879218101501465e+00,1.074386000633239746e+00,8.603768348693847656e-01
1.299769401550292969e+00,1.118799805641174316e+00,-1.902252286672592163e-01,-4.674766063690185547e-01,6.265263557434082031e-01,-9.815473556518554688e-01,2.487430274486541748e-01,-2.235912531614303589e-01,7.527964711189270020e-01,3.872898519039154053e-01,-2.177720546722412109e+00,6.077188253402709961e-01,-1.560110330581665039e+00,1.741567730903625488e+00,-2.965583801269531250e-01,5.220389366149902344e-01,7.516422271728515625e-01,7.286698818206787109e-01,1.940702460706233978e-02,-8.732851743698120117e-01,1.347321867942810059e+00,-2.273747920989990234e-01,3.142469823360443115e-01,8.711231946945190430e-01,-5.233208537101745605e-01,5.884621739387512207e-01,9.991183280944824219e-01,-6.215159893035888672e-01,-1.126440763473510742e+00,-7.729580998420715332e-02,3.087110221385955811e-01,7.163388133049011230e-01,9.047837853431701660e-01,-3.080661296844482422e-01,2.717116117477416992e+00,-8.069704771041870117e-01,7.647616863250732422e-01,-1.277932763099670410e+00,-1.187553763389587402e+00,-1.501818299293518066e+00,-1.440951585769653320e+00,4.671256840229034424e-01,-1.678578615188598633e+00,5.767422318458557129e-01,1.783072829246520996e+00,-1.104963898658752441e+00,1.180352091789245605e+00,-6.753539443016052246e-01,-1.786953806877136230e+00,1.151935458183288574e+00,1.326733827590942383e+00,1.654139995574951172e+00,-3.898672163486480713e-01,9.330916404724121094e-02,4.307485520839691162e-01,-7.971670031547546387e-01,4.340062737464904785e-01,-1.678122758865356445e+00
-1.690999269485473633e+00,3.345655277371406555e-02,-5.630961656570434570e-01,1.570547580718994141e+00,1.280837297439575195e+00,1.447553396224975586e+00,7.202547788619995117e-01,2.064435243606567383e+00,-4.643826186656951904e-01,6.626454591751098633e-01,-7.068488001823425293e-01,-6.394045948982238770e-01,-1.675908923149108887e+00,9.445205330848693848e-01,6.957139372825622559e-01,-7.621130347251892090e-02,-1.409932971000671387e+00,1.196086287498474121e+00,-3.017681837081909180e-01,1.043956160545349121e+00,-1.444708585739135742e+00,3.688530325889587402e-01,-4.551831483840942383e-01,3.166046738624572754e-01,-5.520026087760925293e-01,-1.624651432037353516e+00,7.605285644531250000e-01,1.437632143497467041e-01,-1.290228366851806641e+00,-8.898482918739318848e-01,-2.002768993377685547e+00,-1.267971515655517578e+00,-6.342260241508483887e-01,3.933860361576080322e-01,-3.655784130096435547e-01,-9.290492534637451172e-01,8.733813166618347168e-01,2.904318332672119141e+00,1.245533704757690430e+00,2.510572075843811035e-01,1.516298890113830566e+00,8.993001580238342285e-01,6.093150973320007324e-01,-1.272166609764099121e+00,2.428614348173141479e-01,8.253213763236999512e-01,2.547152340412139893e-01,1.227526903152465820e+00,1.221726298332214355e+00,-5.138170719146728516e-01,1.457862377166748047e+00,-4.724184572696685791e-01,7.079356312751770020e-01,5.057533979415893555e-01,-7.043653130531311035e-01,-9.945711493492126465e-02,1.329058259725570679e-01,3.112127780914306641e-01
1.168934941291809082e+00,5.651113390922546387e-01,1.088573575019836426e+00,-3.765279054641723633e-01,4.930055737495422363e-01,7.195559740066528320e-01,2.094128847122192383e+00,-5.576671659946441650e-02,1.166728973388671875e+00,8.640461564064025879e-01,-4.390367865562438965e-01,1.961706638336181641e+00,-9.112692475318908691e-01,-1.094602584838867188e+00,-1.626601368188858032e-01,-1.005316853523254395e+00,1.438373923301696777e-01,-4.900009632110595703e-01,1.658856421709060669e-01,-6.500031352043151855e-01,7.062978744506835938e-01,-3.027203977108001709e-01,5.503162145614624023e-01,3.118324577808380127e-01,-5.385739207267761230e-01,1.329508781433105469e+00,1.625237822532653809e+00,-6.003974676132202148e-01,-9.753665328025817871e-01,1.413084506988525391e+00,-8.553633689880371094e-01,-8.206217736005783081e-02,4.511413276195526123e-01,-1.627745032310485840e+00,1.573740839958190918e+00,-3.826607465744018555e-01,-8.803636580705642700e-02,-6.267411112785339355e-01,-6.902441978454589844e-01,-5.092179030179977417e-02,-4.348377585411071777e-01,-4.671900570392608643e-01,1.638020873069763184e-01,-2.324119061231613159e-01,3.574737608432769775e-01,6.575018763542175293e-01,-9.767050743103027344e-01,5.479623675346374512e-01,3.999797403812408447e-01,9.278548359870910645e-01,9.374498724937438965e-01,-1.911702394485473633e+00,4.945237562060356140e-02,8.957547694444656372e-02,1.239095211029052734e+00,-2.025375127792358398e+00,4.369918107986450195e-01,5.894994139671325684e-01
-2.710821032524108887e-01,6.392837166786193848e-01,-2.276386260986328125e+00,5.882506966590881348e-01,-5.749565958976745605e-01,-2.913042783737182617e+00,1.900061130523681641e+00,-6.145798563957214355e-01,-5.846289396286010742e-01,-4.858969449996948242e-01,1.285819411277770996e-01,-6.195620298385620117e-01,1.365918397903442383e+00,-8.057024478912353516e-01,-1.972669124603271484e+00,1.055706143379211426e+00,1.206246972084045410e+00,7.531621456146240234e-01,6.092065572738647461e-01,-4.738106727600097656e-01,-4.706968069076538086e-01,-1.521113872528076172e+00,6.666203141212463379e-01,-9.491249322891235352e-01,-1.578318476676940918e-01,2.961423099040985107e-01,1.482601404190063477e+00,9.517492651939392090e-01,-2.222540378570556641e-01,-1.034767150878906250e+00,-1.765070110559463501e-01,-7.692536711692810059e-01,3.011416494846343994e-01,-5.721390843391418457e-01,-1.117558404803276062e-01,1.898120403289794922e+00,-1.381909012794494629e+00,-9.231234192848205566e-01,4.472371935844421387e-01,3.850370645523071289e-01,-3.088930845260620117e-01,2.897880971431732178e-01,5.749797224998474121e-01,1.232842087745666504e+00,-3.629724979400634766e-01,2.889126241207122803e-01,9.648774266242980957e-01,-4.984338879585266113e-01,3.710105717182159424e-01,1.164709478616714478e-01,-2.314392030239105225e-01,-1.836063563823699951e-01,1.360271215438842773e+00,1.540968775749206543e+00,-1.184191226959228516e+00,-4.318600893020629883e-01,-7.174596786499023438e-01,-1.002802014350891113e+00
7.050381302833557129e-01,3.619522154331207275e-01,2.356105744838714600e-01,9.200427532196044922e-01,-1.875025153160095215e+00,-4.035521447658538818e-01,4.588855504989624023e-01,-1.215889692306518555e+00,-1.388678908348083496e+00,-1.014695286750793457e+00,-8.627654314041137695e-01,1.279083967208862305e+00,1.298289299011230469e+00,-7.017735838890075684e-01,9.192354977130889893e-02,5.569148659706115723e-01,1.019049525260925293e+00,2.841019034385681152e-01,1.155881524085998535e+00,1.403357237577438354e-01,-8.898330330848693848e-01,1.884739041328430176e+00,-1.079575657844543457e+00,-6.377421617507934570e-01,3.933074176311492920e-01,-1.085280850529670715e-01,6.512036919593811035e-01,6.733137965202331543e-01,-2.823001742362976074e-01,-1.109582662582397461e+00,-6.253476254642009735e-03,5.781269073486328125e-02,-9.062746167182922363e-02,-8.989892005920410156e-01,1.001735448837280273e+00,1.386103272438049316e+00,-8.232013583183288574e-01,-4.314441680908203125e-01,1.530528306961059570e+00,1.663717925548553467e-01,-4.332038573920726776e-03,-1.934104681015014648e+00,-2.460935860872268677e-01,1.305568665266036987e-01,4.677395224571228027e-01,5.565891265869140625e-01,5.083174705505371094e-01,8.320207148790359497e-02,1.419512629508972168e+00,2.135370858013629913e-02,1.223039269447326660e+00,6.850039958953857422e-01,7.247702479362487793e-01,-5.044642090797424316e-01,-7.186993956565856934e-01,-1.345277547836303711e+00,-1.685131937265396118e-01,5.096173882484436035e-01
-5.825933218002319336e-01,2.716264128684997559e-01,-9.709409475326538086e-01,1.655738353729248047e-01,-8.094789385795593262e-01,-2.709765732288360596e-01,2.142509669065475464e-01,-4.940961897373199463e-01,-2.485800720751285553e-02,-7.973489761352539062e-01,-2.584703266620635986e-01,-9.043597579002380371e-01,6.204351782798767090e-01,-2.878399193286895752e-02,4.656344652175903320e-01,-2.095554113388061523e+00,-1.141302704811096191e+00,-4.753409326076507568e-01,9.279524683952331543e-01,-3.431763127446174622e-02,2.975591659545898438e+00,4.676036834716796875e-01,7.784497737884521484e-01,3.594586551189422607e-01,-5.965161323547363281e-01,6.811777353286743164e-01,-2.015057086944580078e+00,-1.071954220533370972e-01,-1.032647609710693359e+00,-1.467179059982299805e-01,1.552405953407287598e+00,-1.569860458374023438e+00,5.011958479881286621e-01,3.983559310436248779e-01,-8.283124566078186035e-01,6.189808249473571777e-01,1.909388899803161621e+00,-6.051172614097595215e-01,-3.773455619812011719e-01,4.901716485619544983e-02,-2.494728803634643555e+00,3.263850463554263115e-03,-2.115731716156005859e+00,-7.761318236589431763e-02,-1.654295921325683594e+00,-4.515325427055358887e-01,2.608258485794067383e+00,1.345994591712951660e+00,-7.854148149490356445e-01,-3.898132443428039551e-01,1.459681391716003418e-01,2.132346630096435547e-01,-4.642913937568664551e-01,-5.985711514949798584e-02,-7.160326838493347168e-01,-2.223333358764648438e+00,1.102245330810546875e+00,-4.823125600814819336e-01
2.786374092102050781e-01,-1.333360195159912109e+00,1.783697283826768398e-03,2.522073388099670410e-01,2.471745386719703674e-02,7.420700192451477051e-01,5.353618264198303223e-01,3.048854768276214600e-01,-1.189983487129211426e-01,3.765216469764709473e-01,-6.214312314987182617e-01,1.353591442108154297e+00,-9.637404680252075195e-01,4.020316302776336670e-01,-7.166707515716552734e-02,2.409943938255310059e-02,-5.800144076347351074e-01,3.183152377605438232e-01,-9.061532020568847656e-01,-3.930898308753967285e-01,8.115677237510681152e-01,4.056118130683898926e-01,2.950946092605590820e+00,-4.716015160083770752e-01,2.310119122266769409e-01,2.147904634475708008e+00,8.020032644271850586e-01,6.357516050338745117e-01,-1.200183510780334473e+00,-6.630784273147583008e-01,-3.295151293277740479e-01,-1.028602719306945801e+00,1.218436837196350098e+00,-9.009883999824523926e-01,-6.015885472297668457e-01,3.872012794017791748e-01,5.885083675384521484e-01,5.645809173583984375e-01,2.068233042955398560e-01,6.942897439002990723e-01,1.669662714004516602e+00,-6.656439304351806641e-01,-3.761394321918487549e-02,2.733638510107994080e-02,-1.452777028083801270e+00,6.172623634338378906e-01,1.771582812070846558e-01,6.921319365501403809e-01,1.279642879962921143e-01,-4.988640248775482178e-01,1.909583508968353271e-01,-3.496839851140975952e-02,3.999739289283752441e-01,-6.124979257583618164e-01,3.862796351313591003e-02,1.786104142665863037e-01,-2.438449144363403320e+00,3.367352485656738281e-01
-2.148562297224998474e-02,-6.308826059103012085e-02,7.279480099678039551e-01,-3.008540347218513489e-02,-5.487906932830810547e-01,8.764154911041259766e-01,-3.644623756408691406e-01,-5.126727819442749023e-01,4.920462667942047119e-01,2.237017005681991577e-01,9.918208420276641846e-02,5.427725911140441895e-01,6.147325038909912109e-01,-5.966373253613710403e-03,-9.395180344581604004e-01,-4.259264469146728516e-02,9.386221766471862793e-01,-7.492607235908508301e-01,-1.746475934982299805e+00,7.991322278976440430e-01,1.299653887748718262e+00,-1.875811457633972168e+00,-1.578296780586242676e+00,-5.276598930358886719e-01,-1.383198142051696777e+00,6.589258909225463867e-01,-1.514627575874328613e+00,5.276772975921630859e-01,-6.879137754440307617e-01,1.248727291822433472e-01,1.542647480964660645e+00,-5.957700014114379883e-01,-4.540809988975524902e-01,-9.921944737434387207e-01,-3.577209234237670898e+00,-1.111354470252990723e+00,-1.008780717849731445e+00,-1.621155261993408203e+00,3.137491643428802490e-01,-1.253188729286193848e+00,3.266160488128662109e-01,2.113451957702636719e+00,1.218024015426635742e+00,-1.565020322799682617e+00,-4.594594240188598633e-01,-1.777309060096740723e+00,9.543314576148986816e-01,4.028946161270141602e-01,-1.435297369956970215e+00,-1.791888624429702759e-01,1.158619880676269531e+00,-5.501998662948608398e-01,-2.012911319732666016e+00,-1.316902399063110352e+00,-4.870094656944274902e-01,-1.774848103523254395e+00,-1.070378065109252930e+00,-2.376320809125900269e-01
-3.444240689277648926e-01,-1.555018663406372070e+00,-1.800242066383361816e-01,1.081094264984130859e+00,2.239326685667037964e-01,1.276334881782531738e+00,-6.185340881347656250e-01,1.582657933235168457e+00,-1.375279738567769527e-03,-1.182468175888061523e+00,-2.625754177570343018e-01,4.668622612953186035e-01,-1.106679320335388184e+00,1.348654031753540039e-01,9.527974724769592285e-01,-1.349049448966979980e+00,-5.503286719322204590e-01,4.495056867599487305e-01,1.549392789602279663e-01,4.702762514352798462e-02,-6.382293701171875000e-01,9.520094841718673706e-03,-4.032796025276184082e-01,1.047855913639068604e-01,4.239203631877899170e-01,2.785831503570079803e-02,2.557252943515777588e-01,-6.803234219551086426e-01,-6.207746863365173340e-01,2.909409403800964355e-01,6.050117611885070801e-01,5.940588712692260742e-01,-8.945549130439758301e-01,1.514844775199890137e+00,2.288782596588134766e+00,1.581201434135437012e+00,9.991361498832702637e-01,1.541170239448547363e+00,1.223989129066467285e+00,-6.181473135948181152e-01,1.224605560302734375e+00,-5.470936298370361328e-01,-8.026437759399414062e-01,-1.061896800994873047e+00,-2.219708561897277832e-01,4.506576061248779297e-01,-4.764684140682220459e-01,-7.150744199752807617e-01,-3.162685036659240723e-01,-1.229217886924743652e+00,1.356555372476577759e-01,1.261779785156250000e+00,4.153594076633453369e-01,-2.272046357393264771e-01,-1.280869543552398682e-01,5.297874808311462402e-01,2.099974900484085083e-01,-5.092169642448425293e-01
-7.981656789779663086e-01,-4.079987406730651855e-01,2.681149244308471680e-01,-6.607613563537597656e-01,-9.085895866155624390e-02,3.835293948650360107e-01,-3.033274114131927490e-01,-1.873780488967895508e+00,1.596874594688415527e-01,1.186525106430053711e+00,-9.437415003776550293e-01,-1.034900695085525513e-01,-5.851505398750305176e-01,7.347384691238403320e-01,-5.161999464035034180e-01,1.274705231189727783e-01,3.566268682479858398e-01,-3.695264756679534912e-01,-2.745776474475860596e-01,-9.599719047546386719e-01,9.526773095130920410e-01,3.102098703384399414e-01,-3.756254154723137617e-04,2.161912202835083008e+00,8.634522557258605957e-02,3.620389699935913086e-01,-1.649631261825561523e+00,-1.934029221534729004e+00,3.956622481346130371e-01,9.284323453903198242e-01,1.117926478385925293e+00,-9.076222181320190430e-01,7.164486050605773926e-01,6.205746531486511230e-01,7.433669567108154297e-01,1.207466423511505127e-01,2.333204746246337891e-01,-1.210935831069946289e+00,5.439487099647521973e-01,2.861216664314270020e-01,-3.358349502086639404e-01,-2.738458861131221056e-04,5.768594145774841309e-02,1.269055724143981934e+00,1.862110495567321777e-01,1.676816791296005249e-01,-4.886217713356018066e-01,-1.246414542198181152e+00,-2.060041576623916626e-02,-1.542265534400939941e+00,-2.477602958679199219e+00,-1.736892580986022949e+00,-4.017511308193206787e-01,1.338656991720199585e-01,-5.691326856613159180e-01,6.514637470245361328e-01,-1.304186701774597168e+00,1.072451233863830566e+00
2.736153602600097656e-01,4.654355645179748535e-01,-4.084200263023376465e-01,6.370359659194946289e-01,-3.677626252174377441e-01,-3.368096053600311279e-01,5.682603120803833008e-01,-4.080314040184020996e-01,2.869130969047546387e-01,4.654189646244049072e-01,5.361973643302917480e-01,9.499801993370056152e-01,-2.051217317581176758e+00,-1.148427724838256836e+00,-7.183424234390258789e-01,-1.619085073471069336e+00,-1.120926737785339355e+00,-9.141258597373962402e-01,1.323105394840240479e-01,6.756293177604675293e-01,-8.138917684555053711e-01,1.777303367853164673e-01,-9.131294488906860352e-01,-1.023943066596984863e+00,1.043059229850769043e+00,-1.855576276779174805e+00,-1.140810772776603699e-01,-2.825702726840972900e-01,-1.531024217605590820e+00,-1.330367028713226318e-01,3.396341502666473389e-01,1.453672409057617188e+00,-8.506732583045959473e-01,2.055283069610595703e+00,1.506053656339645386e-01,-1.130433917045593262e+00,4.934845864772796631e-01,-6.439650058746337891e-01,-7.965496182441711426e-01,1.835797548294067383e+00,-2.584661841392517090e-01,1.254512071609497070e+00,5.875508785247802734e-01,1.168704256415367126e-01,-9.032701849937438965e-01,-1.594948530197143555e+00,3.104279935359954834e-01,-6.605290770530700684e-01,3.844902217388153076e-01,-2.462359219789505005e-01,1.198623657226562500e+00,1.017978936433792114e-01,2.328567579388618469e-02,9.421485662460327148e-01,5.464951992034912109e-01,-5.839245319366455078e-01,7.461508512496948242e-01,2.550349533557891846e-01
6.979756355285644531e-01,2.716704905033111572e-01,5.781816840171813965e-01,-1.664878964424133301e+00,-1.779552578926086426e+00,9.525890350341796875e-01,1.094229170121252537e-03,3.892841935157775879e-01,-5.609740018844604492e-01,1.594399571418762207e+00,-1.386514902114868164e+00,2.795850038528442383e-01,7.236640900373458862e-02,1.310640692710876465e+00,-2.001909494400024414e+00,-1.859119385480880737e-01,-5.598699450492858887e-01,1.479965686798095703e+00,1.207013845443725586e+00,2.566963136196136475e-01,1.179714202880859375e+00,-2.658773660659790039e-01,9.255762696266174316e-01,-1.720357537269592285e+00,-7.761077582836151123e-02,9.018961191177368164e-01,2.208974584937095642e-02,7.837168574333190918e-01,5.730963945388793945e-01,2.459323704242706299e-01,-4.456556737422943115e-01,4.736124277114868164e-01,-5.689079165458679199e-01,1.477694511413574219e+00,-1.239468812942504883e+00,-5.027523636817932129e-01,-1.494855880737304688e+00,9.965094327926635742e-01,-8.005954623222351074e-01,6.174080967903137207e-01,4.151543080806732178e-01,-1.135876059532165527e+00,3.635818958282470703e-01,6.935707926750183105e-01,-1.025952339172363281e+00,-2.333956807851791382e-01,6.217593550682067871e-01,1.541217565536499023e-01,1.977887392044067383e+00,-1.854834318161010742e+00,3.999326527118682861e-01,1.064208030700683594e+00,-1.378255128860473633e+00,5.764930248260498047e-01,-3.500968590378761292e-02,2.502081394195556641e+00,-4.392913579940795898e-01,9.425970315933227539e-01
-1.066181421279907227e+00,-9.645321965217590332e-01,4.814140498638153076e-01,-1.054271578788757324e+00,-2.628621757030487061e-01,1.683627247810363770e+00,-2.278186231851577759e-01,-1.833851635456085205e-01,3.236216306686401367e-01,4.942817091941833496e-01,9.073675870895385742e-01,-8.190330862998962402e-02,-5.579341053962707520e-01,-3.283046185970306396e-01,-2.644268989562988281e+00,1.420422077178955078e+00,2.363332062959671021e-01,-1.058235645294189453e+00,-4.295783340930938721e-01,7.903545498847961426e-01,-5.953511223196983337e-03,-1.469349980354309082e+00,-8.624627590179443359e-01,-1.749174833297729492e+00,-2.052608318626880646e-02,6.525985598564147949e-01,-9.861993789672851562e-01,8.944478034973144531e-01,7.141050696372985840e-01,-4.921236038208007812e-01,2.512330710887908936e-01,1.211072444915771484e+00,-3.027904987335205078e+00,1.567744255065917969e+00,8.602703362703323364e-02,9.053195714950561523e-01,1.304844498634338379e+00,-1.378478050231933594e+00,1.713558845221996307e-02,2.005067914724349976e-01,-1.401881933212280273e+00,4.199086725711822510e-01,-2.500621676445007324e-01,1.610473513603210449e+00,-5.971520207822322845e-03,-1.257106900215148926e+00,8.138940334320068359e-01,4.779854416847229004e-02,2.641227841377258301e-01,-1.254878997802734375e+00,-1.888773292303085327e-01,1.037396192550659180e+00,3.002350963652133942e-02,-1.265542745590209961e+00,-8.330611586570739746e-01,9.532258845865726471e-03,1.037135124206542969e+00,-1.473494768142700195e+00
-6.494190692901611328e-01,-2.991293072700500488e-01,4.310795962810516357e-01,-5.642985701560974121e-01,2.017333507537841797e-01,-7.270374894142150879e-01,3.412738144397735596e-01,3.949351608753204346e-01,1.248069927096366882e-01,-4.975717067718505859e-01,1.432905316352844238e+00,2.253480441868305206e-02,1.208492636680603027e+00,4.429437816143035889e-01,1.428042650222778320e-01,-4.677572548389434814e-01,-1.647256463766098022e-01,3.077350258827209473e-01,2.291866391897201538e-01,-1.898494511842727661e-01,-1.266857683658599854e-01,-8.352420330047607422e-01,4.744212031364440918e-01,2.230811595916748047e+00,1.089894250035285950e-01,6.851102113723754883e-01,-7.172407507896423340e-01,8.401219248771667480e-01,-1.150204241275787354e-02,-9.755337834358215332e-01,6.181669831275939941e-01,-1.514155864715576172e+00,2.161533355712890625e+00,-4.176424443721771240e-01,1.624384045600891113e+00,-1.976316452026367188e+00,-8.419506549835205078e-01,-6.394357085227966309e-01,5.944183468818664551e-01,-9.569317698478698730e-01,-4.622825086116790771e-01,8.248965740203857422e-01,1.645168900489807129e+00,2.211133390665054321e-01,-1.055933356285095215e+00,1.489931464195251465e+00,1.570746183395385742e+00,-6.254552006721496582e-01,3.346488475799560547e-01,1.134921431541442871e+00,-1.107349395751953125e-01,1.313868522644042969e+00,-4.857353866100311279e-01,-1.191504716873168945e+00,2.063393443822860718e-01,1.092580199241638184e+00,7.951654195785522461e-01,-6.177536249160766602e-01
5.957372188568115234e-01,-1.899068951606750488e+00,7.241293191909790039e-01,1.159093022346496582e+00,4.024721980094909668e-01,-5.376006960868835449e-01,-2.001343727111816406e+00,-7.837657630443572998e-02,-3.280664384365081787e-01,-7.431643009185791016e-01,5.340499281883239746e-01,8.306890130043029785e-01,1.461896002292633057e-01,-1.187727093696594238e+00,3.123776912689208984e-01,1.177226424217224121e+00,-5.442886427044868469e-02,8.318810462951660156e-01,-1.315503954887390137e+00,3.221164047718048096e-01,3.380146026611328125e-01,2.237491369247436523e+00,-6.614155769348144531e-01,3.905631229281425476e-02,-5.775124579668045044e-02,3.284987807273864746e-01,4.630550444126129150e-01,7.589386403560638428e-02,1.547406554222106934e+00,9.528541564941406250e-02,-1.105405688285827637e+00,-8.478834033012390137e-01,6.549474596977233887e-01,-1.084031343460083008e+00,2.135197639465332031e+00,2.307446748018264771e-01,-1.069146245718002319e-01,-5.059651732444763184e-01,5.895623564720153809e-01,-8.458521962165832520e-01,1.922304511070251465e+00,-8.151224255561828613e-01,-4.850352108478546143e-01,-6.409963965415954590e-02,5.482084751129150391e-01,1.384617388248443604e-01,1.076345682144165039e+00,-8.793003559112548828e-01,5.832746624946594238e-01,1.421233564615249634e-01,-8.010991215705871582e-01,9.884348511695861816e-02,1.423525691032409668e+00,1.713443636894226074e+00,6.610887646675109863e-01,-1.924486607313156128e-01,5.112655162811279297e-01,4.671015143394470215e-01
7.967668175697326660e-01,-4.785062968730926514e-01,-2.922242879867553711e-01,-3.728486001491546631e-01,5.673112273216247559e-01,4.387738555669784546e-02,-9.431509971618652344e-01,-1.486226439476013184e+00,-7.571382522583007812e-01,3.418543636798858643e-01,-1.668134093284606934e+00,-5.235288143157958984e-01,1.315414786338806152e+00,1.391903758049011230e+00,1.843729496002197266e+00,-1.234199523925781250e+00,4.890947937965393066e-01,-8.238439559936523438e-01,8.552837371826171875e-02,-1.609312295913696289e+00,3.622173070907592773e-01,-1.237566396594047546e-01,1.479165256023406982e-01,-1.758616685867309570e+00,1.013752892613410950e-01,8.655697107315063477e-01,-8.981205821037292480e-01,1.152558684349060059e+00,-8.852097988128662109e-01,-5.097810551524162292e-02,-2.333844423294067383e+00,2.968361675739288330e-01,3.672992587089538574e-01,-4.009135365486145020e-01,-4.647064805030822754e-01,5.713212490081787109e-01,1.187030434608459473e+00,1.093071699142456055e+00,1.354549050331115723e+00,-1.614167541265487671e-01,3.167761266231536865e-01,-1.080844759941101074e+00,-1.696978330612182617e+00,-2.936264991760253906e+00,8.553778529167175293e-01,-2.389639377593994141e+00,-2.125815860927104950e-02,3.990202844142913818e-01,2.214702367782592773e+00,-3.252771794795989990e-01,6.126763299107551575e-02,2.839806973934173584e-01,1.259556412696838379e+00,9.704464673995971680e-01,-1.296841621398925781e+00,-3.168043196201324463e-01,-1.532705575227737427e-01,1.069530963897705078e+00
5.188093185424804688e-01,9.626775979995727539e-01,2.678594365715980530e-02,-2.339123487472534180e+00,1.509148359298706055e+00,7.819972038269042969e-01,-1.822429895401000977e+00,1.535187363624572754e+00,1.355721116065979004e+00,-1.328514814376831055e-01,-3.612234294414520264e-01,1.746073484420776367e+00,3.890025243163108826e-02,-8.370664715766906738e-01,-3.505380749702453613e-01,-9.916427731513977051e-01,6.926845312118530273e-01,-1.179992258548736572e-01,-3.536377549171447754e-01,-7.056247442960739136e-02,1.145432740449905396e-01,-6.836891174316406250e-01,-1.339304912835359573e-02,7.010094821453094482e-02,-1.857784032821655273e+00,-4.504037201404571533e-01,-7.391144335269927979e-02,-4.033756554126739502e-01,1.530369400978088379e+00,-1.779049396514892578e+00,-7.122055888175964355e-01,1.691938877105712891e+00,6.620746850967407227e-01,1.046665549278259277e+00,-4.322802722454071045e-01,1.432734012603759766e+00,-4.426567554473876953e-01,1.167805433273315430e+00,-3.828311562538146973e-01,-2.506432235240936279e-01,-1.439268235117197037e-02,-1.404657959938049316e-01,-7.029504179954528809e-01,-4.593969285488128662e-01,3.505675792694091797e-01,1.064118266105651855e+00,-1.354202628135681152e+00,-9.954147934913635254e-01,8.275526165962219238e-01,5.793759226799011230e-01,2.716784775257110596e-01,4.428458809852600098e-01,-1.715746760368347168e+00,-1.075282216072082520e+00,1.642202496528625488e+00,-9.097390174865722656e-01,2.431724071502685547e-01,-1.358077645301818848e+00
9.769233465194702148e-01,-1.665934920310974121e+00,8.245767354965209961e-01,-5.945277810096740723e-01,1.115923643112182617e+00,-1.052613139152526855e+00,-5.282821655273437500e-01,5.703454613685607910e-01,-2.330421209335327148e+00,1.448196530342102051e+00,1.524177193641662598e+00,5.031188130378723145e-01,1.999002218246459961e+00,-4.565587043762207031e-01,-3.303873836994171143e-01,-7.334424257278442383e-01,1.177744865417480469e+00,7.775166630744934082e-01,-9.259888529777526855e-01,-3.296738564968109131e-01,3.568396270275115967e-01,-1.342982202768325806e-01,-2.713779449462890625e+00,4.217279851436614990e-01,-1.303865313529968262e+00,1.723809242248535156e+00,5.296648144721984863e-01,5.933101773262023926e-01,-5.266367197036743164e-01,1.614658981561660767e-01,1.277181386947631836e+00,-7.196846008300781250e-01,1.001248240470886230e+00,8.039095997810363770e-01,-3.979657590389251709e-01,5.130720734596252441e-01,1.759160310029983521e-01,5.426707211881875992e-03,-5.760732293128967285e-01,-7.202638387680053711e-01,1.088169455528259277e+00,2.338180541992187500e+00,-8.496162295341491699e-01,-1.120528936386108398e+00,9.403758049011230469e-01,3.400181829929351807e-01,2.777103781700134277e-01,-2.314784228801727295e-01,-1.070522427558898926e+00,-7.729918956756591797e-01,1.094625473022460938e+00,-1.616332888603210449e+00,2.549105882644653320e-01,1.321011066436767578e+00,-1.947863399982452393e-01,2.137475728988647461e+00,7.618013024330139160e-01,-1.568107455968856812e-01
-1.144545555114746094e+00,-1.052899241447448730e+00,-7.874921560287475586e-01,-6.859679818153381348e-01,-1.086349368095397949e+00,-1.902734190225601196e-01,-6.560735106468200684e-01,-1.012476444244384766e+00,-2.602777242660522461e+00,6.921300292015075684e-01,3.935338854789733887e-01,1.600772976875305176e+00,6.705691218376159668e-01,-1.647405505180358887e+00,-3.785510361194610596e-01,-3.522567749023437500e-01,-4.089685678482055664e-01,-1.726168751716613770e+00,6.539385914802551270e-01,-1.829062342643737793e+00,9.071946740150451660e-01,2.170937061309814453e-01,1.159724712371826172e+00,-3.568414449691772461e-01,-7.556909322738647461e-01,-9.521237611770629883e-01,-1.134606003761291504e+00,-4.870038852095603943e-02,-6.505176424980163574e-01,6.820967793464660645e-01,-5.767928361892700195e-01,-6.543922424316406250e-01,-6.447730064392089844e-01,1.150005936622619629e+00,2.848204374313354492e-01,4.727151244878768921e-02,3.826437518000602722e-02,1.681248426437377930e+00,-1.363303395919501781e-03,1.359626770019531250e+00,-6.629360318183898926e-01,1.676216125488281250e+00,4.836439192295074463e-01,1.083062887191772461e+00,2.923376262187957764e-01,-8.641719222068786621e-01,8.659856915473937988e-01,1.233365297317504883e+00,-3.666011095046997070e-01,5.394956469535827637e-01,-5.319688916206359863e-01,1.547175168991088867e+00,-7.573205232620239258e-01,-2.549956142902374268e-01,-7.945073246955871582e-01,-7.420759201049804688e-01,-6.902424097061157227e-01,2.185276985168457031e+00
1.367934942245483398e+00,-1.495122194290161133e+00,6.215158477425575256e-02,-4.096848890185356140e-02,9.495021700859069824e-01,5.460996627807617188e-01,1.565866112709045410e+00,5.889289379119873047e-01,-5.511011928319931030e-02,1.642259001731872559e+00,-6.178877353668212891e-01,-2.033636093139648438e+00,-1.083208844065666199e-01,-9.870477318763732910e-01,2.421467453241348267e-01,5.837317705154418945e-01,-4.060793817043304443e-01,6.099430918693542480e-01,2.176972150802612305e+00,-9.262248277664184570e-01,-2.781564235687255859e+00,-9.884034991264343262e-01,7.278110715560615063e-04,1.214668512344360352e+00,1.273677468299865723e+00,8.061460852622985840e-01,-2.189339995384216309e-01,2.036653459072113037e-01,-4.500311613082885742e-01,-5.196495056152343750e-01,-4.975339472293853760e-01,-1.043609380722045898e+00,8.667016029357910156e-02,-1.492889285087585449e+00,-9.182930588722229004e-01,7.409396171569824219e-01,-6.545331478118896484e-01,-1.418281793594360352e+00,-1.085935115814208984e+00,-1.778226345777511597e-01,-1.151381611824035645e+00,-2.900182604789733887e-01,1.778636097908020020e+00,-5.089775919914245605e-01,-4.761813282966613770e-01,2.408744812011718750e+00,1.310597658157348633e+00,5.065879225730895996e-01,-5.073469877243041992e-01,4.046725481748580933e-02,2.370082616806030273e+00,-4.522447288036346436e-01,2.038909941911697388e-01,1.676593065261840820e+00,-3.353437781333923340e-01,2.470138549804687500e+00,-7.747016549110412598e-01,3.363641500473022461e-01
1.478267312049865723e+00,-2.967354655265808105e-01,7.806170731782913208e-02,-4.551208019256591797e-01,-8.396455049514770508e-01,-7.281516194343566895e-01,2.168270111083984375e+00,-1.255154013633728027e+00,-4.126011729240417480e-01,2.443921804428100586e+00,4.413737058639526367e-01,-1.245905756950378418e+00,-8.236970305442810059e-01,6.191276907920837402e-01,-6.541524529457092285e-01,-1.043161392211914062e+00,8.606667518615722656e-01,3.418937325477600098e-01,1.490609645843505859e+00,1.469259619712829590e+00,-5.675232410430908203e-01,4.759665727615356445e-01,-1.185753822326660156e+00,-3.840366899967193604e-01,2.065501213073730469e+00,4.543025419116020203e-02,6.920977830886840820e-01,1.672979593276977539e+00,3.588284552097320557e-02,6.251819133758544922e-01,-1.789998859167098999e-01,6.719084978103637695e-01,9.451444447040557861e-02,9.500113129615783691e-02,5.706401076167821884e-03,-1.983747780323028564e-01,8.364962339401245117e-01,-1.303489446640014648e+00,1.841015338897705078e+00,3.592062592506408691e-01,-2.651090860366821289e+00,-9.761980175971984863e-01,-2.438880801200866699e-01,-9.628655910491943359e-01,4.958955198526382446e-02,7.854409217834472656e-01,2.506219387054443359e+00,-4.364250600337982178e-02,1.724548935890197754e+00,5.357307195663452148e-01,-4.470321834087371826e-01,1.640974402427673340e+00,-2.420296818017959595e-01,-6.796866059303283691e-01,5.972393155097961426e-01,-6.955260876566171646e-03,1.429311782121658325e-01,-8.320148289203643799e-02
-1.556771844625473022e-01,9.634958580136299133e-03,5.567964911460876465e-01,9.424921274185180664e-01,-7.862954735755920410e-01,-6.399066448211669922e-01,5.443450212478637695e-01,-9.112860560417175293e-01,4.226903915405273438e-01,-9.736198186874389648e-01,-1.141115054488182068e-01,-3.983575403690338135e-01,-1.704503893852233887e+00,-3.174964785575866699e-01,-7.590746283531188965e-01,-1.120381355285644531e+00,-6.342907994985580444e-02,4.424135684967041016e-01,-1.783310294151306152e+00,3.755933344364166260e-01,3.658822774887084961e-01,-4.082392156124114990e-01,1.851915359497070312e+00,2.459699101746082306e-02,-1.253382444381713867e+00,-6.223254650831222534e-02,1.036822795867919922e+00,-7.888354361057281494e-02,1.101512238383293152e-01,1.351074457168579102e+00,-1.879282474517822266e+00,6.896019913256168365e-03,1.198988318443298340e+00,-2.083882838487625122e-01,3.628713488578796387e-01,3.515625000000000000e-01,6.015749573707580566e-01,-6.283463835716247559e-01,6.428648829460144043e-01,3.893620669841766357e-01,-2.031389713287353516e+00,-4.912212491035461426e-02,-3.450970649719238281e+00,7.766113281250000000e-01,-1.866153031587600708e-01,-6.762846112251281738e-01,3.745941817760467529e-02,-2.251299619674682617e-01,1.690011024475097656e+00,2.137025892734527588e-01,5.201002955436706543e-01,1.736480236053466797e+00,1.079489350318908691e+00,-8.907357454299926758e-01,4.542747512459754944e-02,-1.534053921699523926e+00,4.123606383800506592e-01,3.710691034793853760e-01
-6.815763711929321289e-01,-1.762515902519226074e-01,2.467778325080871582e-02,-1.297410845756530762e+00,-1.130781769752502441e+00,-3.366314888000488281e+00,1.059599280357360840e+00,-9.785847663879394531e-01,1.754973888397216797e+00,-1.479436635971069336e+00,8.356341123580932617e-01,1.894580602645874023e+00,-1.024724692106246948e-01,3.499037921428680420e-01,-5.742548704147338867e-01,1.835824251174926758e+00,-3.637950420379638672e-01,7.655634284019470215e-01,-9.216083288192749023e-01,-2.641390323638916016e+00,-2.061882495880126953e+00,-1.012426614761352539e+00,-1.025548577308654785e+00,8.496590852737426758e-01,1.815622806549072266e+00,7.384397387504577637e-01,-1.040528297424316406e+00,-1.305591106414794922e+00,1.390679836273193359e+00,1.617069244384765625e-01,1.886855721473693848e+00,5.526850819587707520e-01,9.576162695884704590e-01,4.253911599516868591e-02,-7.090027928352355957e-01,7.267363071441650391e-01,1.176954880356788635e-01,1.500035762786865234e+00,-4.578968584537506104e-01,3.112400174140930176e-01,6.086798310279846191e-01,-2.891010046005249023e-01,-9.270283579826354980e-02,-7.386360168457031250e-01,7.706555128097534180e-01,-1.947822093963623047e+00,-1.568684101104736328e+00,1.919213294982910156e+00,-5.466418266296386719e-01,-8.303563594818115234e-01,-2.192112922668457031e+00,-1.420383453369140625e-01,1.359498977661132812e+00,-1.995573759078979492e+00,-4.336457550525665283e-01,8.829671144485473633e-02,2.377898097038269043e-01,-4.301688373088836670e-01
-4.014365077018737793e-01,4.720801115036010742e-01,-1.305275559425354004e+00,1.079642549157142639e-01,1.385498762130737305e+00,9.768594056367874146e-02,-1.718155860900878906e+00,6.177303791046142578e-01,-3.312427997589111328e-01,-8.448400497436523438e-01,1.206264019012451172e+00,1.084826350212097168e+00,7.947431206703186035e-01,-8.549094796180725098e-01,1.370818614959716797e+00,-8.493373990058898926e-01,4.057750105857849121e-02,-2.504818439483642578e-01,1.081440925598144531e+00,-7.428637742996215820e-01,6.109004616737365723e-01,1.480153203010559082e+00,1.008300423622131348e+00,5.337763428688049316e-01,9.744800925254821777e-01,-2.294558286666870117e+00,8.246292471885681152e-01,-7.580572739243507385e-03,3.872559964656829834e-01,-7.247925996780395508e-01,-4.348365068435668945e-01,-2.334785610437393188e-01,-1.770265996456146240e-01,-7.060745358467102051e-01,-8.613827824592590332e-01,-1.462589144706726074e+00,-8.554295450448989868e-02,-7.908130884170532227e-01,-1.587859988212585449e+00,-7.792348861694335938e-01,5.678603053092956543e-01,1.481453180313110352e-01,7.864891290664672852e-01,-7.334105372428894043e-01,1.019273042678833008e+00,1.468715786933898926e+00,-5.740904808044433594e-01,-4.570580273866653442e-02,1.055009126663208008e+00,2.001059427857398987e-02,-1.097807777114212513e-03,-1.434003949165344238e+00,-1.344878077507019043e+00,1.173444151878356934e+00,-1.185016989707946777e+00,-8.648716211318969727e-01,6.681472063064575195e-01,1.043708801269531250e+00
1.014228463172912598e+00,1.227669358253479004e+00,6.622575521469116211e-01,1.637534618377685547e+00,8.011830449104309082e-01,3.605571687221527100e-01,-4.062341153621673584e-01,2.109548151493072510e-01,1.034876585006713867e+00,-1.728119373321533203e+00,-6.862983852624893188e-02,-5.671392679214477539e-01,1.192481517791748047e-01,-2.155043601989746094e+00,-4.940152168273925781e-01,5.750144124031066895e-01,6.064004302024841309e-01,8.980401754379272461e-01,-2.474133968353271484e-01,1.346435904502868652e+00,-1.149452924728393555e+00,1.274492502212524414e+00,-1.355828762054443359e+00,2.454140186309814453e+00,-1.267473399639129639e-01,8.795429468154907227e-01,7.629460096359252930e-02,1.550962567329406738e+00,-8.805000782012939453e-01,6.035334467887878418e-01,4.203407168388366699e-01,8.563577532768249512e-01,-1.139755725860595703e+00,-4.934956133365631104e-01,-7.605977654457092285e-01,-4.495439231395721436e-01,1.352612376213073730e-01,-1.165696084499359131e-01,-2.882052063941955566e-01,8.549461513757705688e-02,-1.851883053779602051e+00,-1.183547854423522949e+00,1.331643700599670410e+00,6.274789571762084961e-01,1.820131897926330566e+00,-7.295911759138107300e-02,1.789636611938476562e-01,-4.129380285739898682e-01,3.535575270652770996e-01,-1.998196959495544434e+00,1.411520361900329590e+00,-1.371794700622558594e+00,1.059422612190246582e+00,-4.783736169338226318e-02,8.261336088180541992e-01,5.140517950057983398e-01,-4.305155575275421143e-01,-9.552807360887527466e-02
1.562091172672808170e-03,-4.956052824854850769e-02,-1.946517825126647949e-01,9.116895794868469238e-01,2.754817903041839600e-01,1.389428377151489258e+00,-4.278238415718078613e-01,1.484751939773559570e+00,-1.463875532150268555e+00,-3.450827002525329590e-01,-2.841713130474090576e-01,1.035033106803894043e+00,-4.089220464229583740e-01,-1.379886507987976074e+00,9.259437322616577148e-01,1.116888642311096191e+00,7.500739097595214844e-01,-1.281640768051147461e+00,-4.078227877616882324e-01,-1.811272740364074707e+00,1.812270045280456543e+00,-1.071247577667236328e+00,7.764102816581726074e-01,-2.460595071315765381e-01,1.020608544349670410e+00,-1.115021347999572754e+00,1.299219131469726562e+00,5.279138088226318359e-01,-1.628571748733520508e-01,8.747353553771972656e-01,-1.330096460878849030e-02,3.720859885215759277e-01,1.029321312904357910e+00,3.881208598613739014e-01,-1.143626093864440918e+00,-2.437081784009933472e-01,-8.520513772964477539e-01,-1.087958812713623047e+00,1.702086687088012695e+00,8.935572504997253418e-01,1.799257755279541016e+00,-4.802152216434478760e-01,-8.180153369903564453e-02,-7.578564882278442383e-01,-1.285548925399780273e+00,3.130345419049263000e-02,-1.114271402359008789e+00,-1.181053463369607925e-02,8.751058578491210938e-01,-1.941574454307556152e+00,-6.897383332252502441e-01,-9.237132072448730469e-01,1.717720270156860352e+00,-4.450789093971252441e-01,-2.059916034340858459e-02,-1.265680074691772461e+00,1.822712779045104980e+00,1.720106720924377441e+00
-6.640430092811584473e-01,-4.956144988536834717e-01,2.993932664394378662e-01,3.419067859649658203e-01,7.374703139066696167e-02,8.173368573188781738e-01,3.002427518367767334e-01,9.345781803131103516e-01,5.475149750709533691e-01,-9.572246670722961426e-01,4.942532181739807129e-01,-2.178069204092025757e-01,-5.215051770210266113e-01,8.751672506332397461e-01,4.742124974727630615e-01,-1.074210166931152344e+00,-2.252267360687255859e+00,7.838244438171386719e-01,-2.145034521818161011e-01,9.267560839653015137e-01,1.323880553245544434e+00,-2.910074889659881592e-01,-5.134639739990234375e-01,-2.568506479263305664e+00,9.051418900489807129e-01,-1.793584823608398438e+00,-1.107869029045104980e+00,3.417370021343231201e-01,-3.783712387084960938e-01,-1.289770156145095825e-01,-6.117945909500122070e-01,1.870862990617752075e-01,-1.365152597427368164e+00,-2.866295576095581055e-01,-1.644512772560119629e+00,1.235451027750968933e-01,-9.565846920013427734e-01,9.814935326576232910e-01,-3.179743289947509766e-01,-7.693243026733398438e-01,8.976069092750549316e-01,-1.469967514276504517e-02,-7.563845068216323853e-02,-1.137729287147521973e+00,9.476968989474698901e-05,1.454294323921203613e-01,-3.877972364425659180e-01,2.847691476345062256e-01,-1.604220867156982422e+00,-9.437121748924255371e-01,-1.075104236602783203e+00,-1.112935900688171387e+00,-7.885702252388000488e-01,1.353661268949508667e-01,-7.273480296134948730e-01,4.028157591819763184e-01,8.104825019836425781e-01,-1.180469393730163574e+00
3.807710409164428711e-01,-1.138571023941040039e+00,2.809822261333465576e-01,2.658943831920623779e-01,-2.122990339994430542e-01,6.770762801170349121e-01,4.577938020229339600e-01,-1.169358253479003906e+00,1.374890562146902084e-02,-7.278445959091186523e-01,-7.401568293571472168e-01,-1.388877868652343750e+00,2.456387039273977280e-03,-7.781540509313344955e-03,1.590133666992187500e+00,4.656956493854522705e-01,-5.928238034248352051e-01,6.987709403038024902e-01,1.068163990974426270e+00,1.924174875020980835e-01,-9.255011379718780518e-02,3.307677805423736572e-01,-6.276576519012451172e-01,-1.495402604341506958e-01,-8.337711095809936523e-01,-1.144483923912048340e+00,-1.762668490409851074e-01,8.950574398040771484e-01,1.736364066600799561e-01,-6.801013350486755371e-01,-1.398820281028747559e+00,-7.113943696022033691e-01,9.916781187057495117e-01,1.832774430513381958e-01,8.479950428009033203e-01,1.269306302070617676e+00,-1.082650899887084961e+00,2.982912302017211914e+00,3.551495373249053955e-01,-9.854924678802490234e-01,-8.667845726013183594e-01,2.639409542083740234e+00,9.506652951240539551e-01,4.158284068107604980e-01,-3.131933808326721191e-01,-1.361907124519348145e+00,-1.006490945816040039e+00,8.766273260116577148e-01,4.443817138671875000e-01,1.585788875818252563e-01,-3.632841110229492188e-01,-6.630135178565979004e-01,3.916015326976776123e-01,9.138906002044677734e-01,-6.283723115921020508e-01,1.552754640579223633e-01,-3.068597912788391113e-01,1.332354664802551270e+00
1.165702700614929199e+00,-6.318541169166564941e-01,-9.353620558977127075e-02,4.616788029670715332e-01,1.857118725776672363e+00,3.858162462711334229e-02,-1.210994958877563477e+00,-2.406079530715942383e+00,2.021459817886352539e+00,1.241637229919433594e+00,2.498297244310379028e-01,1.256499052047729492e+00,1.970499753952026367e-02,-2.474541515111923218e-01,-7.894508838653564453e-01,7.838574051856994629e-01,-5.279246568679809570e-01,-9.420585036277770996e-01,5.689559578895568848e-01,1.476748943328857422e+00,1.332270264625549316e+00,1.009937524795532227e+00,1.974828958511352539e+00,7.437644898891448975e-02,4.947261512279510498e-01,-5.075532197952270508e-01,-7.755249142646789551e-01,3.377099037170410156e-01,6.986958980560302734e-01,2.913918718695640564e-02,1.359515309333801270e+00,1.693800449371337891e+00,8.250146508216857910e-01,1.771901130676269531e+00,-1.921331286430358887e+00,8.695074319839477539e-01,-2.293834984302520752e-01,-7.946836948394775391e-02,3.811830878257751465e-01,1.490098536014556885e-01,-7.273986935615539551e-01,1.250713586807250977e+00,1.052539348602294922e+00,1.790158867835998535e+00,-5.178591012954711914e-01,6.566163152456283569e-02,6.676113605499267578e-01,-1.749583631753921509e-01,-1.012164711952209473e+00,-6.415758728981018066e-01,4.534772038459777832e-01,1.283088684082031250e+00,1.606259226799011230e+00,2.017492771148681641e+00,-7.457706332206726074e-01,-9.829558730125427246e-01,-1.090004563331604004e+00,1.156148672103881836e+00
-8.095667362213134766e-01,2.303412914276123047e+00,5.768430829048156738e-01,2.398880720138549805e+00,-3.724786639213562012e-01,4.410557746887207031e-01,-1.920341968536376953e+00,1.447095721960067749e-01,-1.519775152206420898e+00,1.080281376838684082e+00,-1.752694845199584961e+00,1.447450995445251465e+00,9.236628413200378418e-01,-1.542307138442993164e+00,3.378985822200775146e-01,6.258406043052673340e-01,-1.667773365974426270e+00,-1.038486123085021973e+00,2.532854080200195312e-01,1.227758288383483887e+00,4.292424321174621582e-01,-1.002135947346687317e-01,-1.284443020820617676e+00,3.124983310699462891e-01,1.387075753882527351e-03,-1.684894859790802002e-01,5.170219764113426208e-02,-1.090714707970619202e-01,3.112151622772216797e-01,-4.099596142768859863e-01,-5.643903017044067383e-01,-1.813232302665710449e+00,-4.634646475315093994e-01,1.338454961776733398e+00,2.227880477905273438e+00,-1.373536437749862671e-01,-3.919631540775299072e-01,1.458923578262329102e+00,1.749084442853927612e-01,-9.916222095489501953e-01,9.902623891830444336e-01,1.061187386512756348e+00,-9.434989690780639648e-01,3.443313762545585632e-02,3.314864039421081543e-01,-2.472153455018997192e-01,2.862689495086669922e-01,5.015384554862976074e-01,-3.544999063014984131e-01,6.873073577880859375e-01,-3.882857859134674072e-01,6.878968477249145508e-01,1.575134038925170898e+00,9.704797863960266113e-01,-1.160745173692703247e-01,-1.228033006191253662e-01,7.664631605148315430e-01,-1.100532174110412598e+00
2.044814825057983398e+00,8.740298151969909668e-01,1.825553476810455322e-01,-2.068868875503540039e-01,-5.551339685916900635e-02,-1.174144268035888672e+00,-9.256122112274169922e-01,2.383409976959228516e+00,1.168026924133300781e+00,-7.817973494529724121e-01,1.200461506843566895e+00,-6.025137305259704590e-01,6.981847882270812988e-01,1.159703850746154785e+00,-2.303622961044311523e-01,-1.724599361419677734e+00,-2.187509685754776001e-01,-9.887740015983581543e-01,-9.572326391935348511e-02,6.771873831748962402e-01,1.171048760414123535e+00,-1.494925141334533691e+00,2.678840398788452148e+00,-4.392583072185516357e-01,-3.510491251945495605e-01,-4.719492793083190918e-01,-9.525063633918762207e-01,-7.548508048057556152e-02,-2.517128705978393555e+00,-3.608539104461669922e-01,5.071686506271362305e-01,9.303386211395263672e-01,-2.565259039402008057e-01,-5.553700327873229980e-01,-8.685179948806762695e-01,7.434080243110656738e-01,-1.666994690895080566e+00,1.642922610044479370e-01,-2.697248160839080811e-01,1.582337617874145508e-01,1.013743400573730469e+00,-1.996666312217712402e+00,1.921969205141067505e-01,-4.565541818737983704e-02,-6.973881125450134277e-01,-6.263796240091323853e-02,-1.106025427579879761e-01,8.861573934555053711e-01,2.695499956607818604e-01,-1.650634765625000000e+00,-7.714993953704833984e-01,1.615397930145263672e+00,-9.086133241653442383e-01,-2.292971014976501465e-01,-7.925313711166381836e-01,3.830178678035736084e-01,-5.056340694427490234e-01,8.063268065452575684e-01
-1.120205044746398926e+00,5.843152105808258057e-02,1.507384896278381348e+00,1.577011346817016602e+00,-2.955697476863861084e-01,-2.736514210700988770e-01,-4.269164800643920898e-01,-1.342568159103393555e+00,-2.140560150146484375e+00,1.156532287597656250e+00,-8.343003392219543457e-01,5.805670022964477539e-01,-1.252569913864135742e+00,-1.021275997161865234e+00,1.644367128610610962e-01,-9.081017971038818359e-01,2.562210857868194580e-01,-1.212003707885742188e+00,3.855624496936798096e-01,-1.384571194648742676e-01,-5.126946568489074707e-01,1.194641113281250000e+00,2.327119559049606323e-01,-1.659696578979492188e+00,4.169237911701202393e-01,7.795359492301940918e-01,-1.423903465270996094e+00,-9.815775752067565918e-01,-3.570479750633239746e-01,7.783374786376953125e-01,-3.685202598571777344e-01,8.568024039268493652e-01,6.905812025070190430e-01,2.333141118288040161e-01,-1.090713739395141602e-01,3.407122492790222168e-01,-1.422024130821228027e+00,-4.293861389160156250e-01,-1.005536794662475586e+00,-2.434271425008773804e-01,1.663725256919860840e+00,-1.275821924209594727e+00,-3.351165056228637695e-01,2.727842926979064941e-01,3.048518300056457520e-01,2.222356945276260376e-01,-2.276847600936889648e+00,-1.219776511192321777e+00,1.731535673141479492e+00,-4.938580095767974854e-01,8.404520750045776367e-01,2.508558630943298340e-01,-1.315659523010253906e+00,1.073757886886596680e+00,4.229892790317535400e-01,2.425821423530578613e-01,-4.822121858596801758e-01,-2.157806903123855591e-01
1.818657875061035156e+00,1.420063138008117676e+00,2.185895144939422607e-01,1.252099871635437012e-01,1.479373216629028320e+00,4.540493786334991455e-01,4.706957936286926270e-01,9.078693389892578125e-01,9.032992720603942871e-01,1.241832256317138672e+00,-5.291452407836914062e-01,-4.758839681744575500e-02,-7.533994913101196289e-01,-1.073177933692932129e+00,2.004353761672973633e+00,-3.969167768955230713e-01,2.717863023281097412e-01,1.203372120857238770e+00,9.641736745834350586e-01,-5.939501523971557617e-01,8.828084915876388550e-03,-9.129871129989624023e-01,-2.653669118881225586e-01,-6.241571307182312012e-01,-1.442010760307312012e+00,8.601011633872985840e-01,6.710206866264343262e-01,4.346573650836944580e-01,1.039946913719177246e+00,3.611296713352203369e-01,-8.322188258171081543e-01,-7.348946928977966309e-01,2.713078737258911133e+00,-1.449338674545288086e+00,-6.385403871536254883e-01,-1.060193538665771484e+00,9.233710169792175293e-01,-3.487181961536407471e-01,-3.385123014450073242e-01,-6.523714661598205566e-01,-2.700398921966552734e+00,2.168116718530654907e-01,-1.056727051734924316e+00,-2.682544589042663574e-01,-1.600700378417968750e+00,3.236615955829620361e-01,-7.642421722412109375e-01,-9.032918214797973633e-01,1.177332177758216858e-01,1.133438944816589355e+00,-1.206895709037780762e+00,-9.859057068824768066e-01,-2.135977983474731445e+00,-1.027373895049095154e-01,5.443273186683654785e-01,-3.902805149555206299e-01,5.020743608474731445e-01,2.172402888536453247e-01
-3.279023468494415283e-01,-6.502246856689453125e-01,-5.137594342231750488e-01,1.210671588778495789e-01,-2.548332512378692627e-01,-1.991508603096008301e+00,-7.370209693908691406e-01,-5.688126683235168457e-01,1.997127890586853027e+00,5.171073675155639648e-01,-1.358533859252929688e+00,-2.118520259857177734e+00,-5.059462785720825195e-01,-9.829026646912097931e-03,6.305218935012817383e-01,3.375872597098350525e-02,3.184739649295806885e-01,4.612366203218698502e-03,-7.638829946517944336e-01,-6.513127088546752930e-01,-2.353136837482452393e-01,-1.660793781280517578e+00,6.034042239189147949e-01,-9.748737215995788574e-01,-7.028429508209228516e-01,-2.531022429466247559e-01,1.051767349243164062e+00,1.463246196508407593e-01,1.912097632884979248e-01,-1.535700708627700806e-01,7.980505228042602539e-01,4.251107573509216309e-01,-3.016962409019470215e-01,3.469923138618469238e-01,-1.203747838735580444e-01,-6.883044838905334473e-01,5.082643628120422363e-01,-1.186811208724975586e+00,1.304984092712402344e+00,2.459437370300292969e+00,1.772158145904541016e+00,9.202592968940734863e-01,-3.911801576614379883e-01,-1.322166919708251953e+00,-2.431591749191284180e+00,-8.373606801033020020e-01,-8.598513603210449219e-01,-1.312077641487121582e+00,1.359671950340270996e-01,1.267890930175781250e+00,-2.257248610258102417e-01,-1.447464704513549805e+00,5.204775929450988770e-01,1.273852229118347168e+00,2.299243211746215820e-02,-8.042114973068237305e-01,-6.981519050896167755e-03,-2.496452778577804565e-01
-1.254070758819580078e+00,-1.587914466857910156e+00,-1.167145371437072754e+00,4.950736463069915771e-01,-1.719096153974533081e-01,1.939584851264953613e+00,-1.204538702964782715e+00,-2.479549050331115723e-01,2.448919266462326050e-01,1.827059686183929443e-01,8.982580900192260742e-01,-1.324170470237731934e+00,-5.542709231376647949e-01,1.481076955795288086e+00,6.211409568786621094e-01,-2.597102522850036621e-01,1.026619076728820801e+00,2.062603235244750977e-01,-3.147752881050109863e-01,-5.935014039278030396e-02,3.950699269771575928e-01,1.178628504276275635e-01,-2.297888278961181641e+00,-3.923738896846771240e-01,-2.626593351364135742e+00,-9.194772243499755859e-01,-1.776554286479949951e-01,-7.066769599914550781e-01,2.175301313400268555e+00,-6.853769421577453613e-01,6.178998574614524841e-02,-4.062390029430389404e-01,1.211724281311035156e+00,1.148303270339965820e+00,-1.598637342453002930e+00,-9.780182838439941406e-01,-9.257230758666992188e-01,4.377374947071075439e-01,-1.661543965339660645e+00,-9.961171150207519531e-01,1.146171465516090393e-01,3.224756419658660889e-01,3.846359625458717346e-02,-7.829887270927429199e-01,-3.414627313613891602e-01,-4.347380995750427246e-01,-2.746909856796264648e-01,6.436075568199157715e-01,1.031600356101989746e+00,2.307294309139251709e-01,-5.455718636512756348e-01,7.684143781661987305e-01,-6.533762812614440918e-01,1.079266309738159180e+00,-4.118911921977996826e-01,5.093758702278137207e-01,1.669103026390075684e+00,4.712226390838623047e-01
1.440438628196716309e+00,-3.396704196929931641e-01,1.045050263404846191e+00,-6.112855672836303711e-01,4.462565481662750244e-01,-2.332881689071655273e-01,-1.499800980091094971e-01,2.427814304828643799e-01,-5.081689357757568359e-01,-7.978545874357223511e-02,9.053366184234619141e-01,-2.413004040718078613e-01,-4.879829585552215576e-01,-1.885057985782623291e-01,5.046198964118957520e-01,3.236064910888671875e+00,-9.989760518074035645e-01,1.908670663833618164e-01,4.287903010845184326e-01,9.140734374523162842e-02,-2.867855131626129150e-01,5.535748004913330078e-01,-2.030229270458221436e-01,-1.420178532600402832e+00,-1.834438294172286987e-01,1.256013870239257812e+00,-7.806795835494995117e-01,8.078398108482360840e-01,1.552757978439331055e+00,1.916888236999511719e+00,8.103899359703063965e-01,4.484238922595977783e-01,-7.921268939971923828e-01,-1.606801748275756836e+00,-2.845357358455657959e-01,1.161641031503677368e-01,2.166813611984252930e-01,4.169050157070159912e-01,-3.986351788043975830e-01,-3.226935565471649170e-01,-5.209513306617736816e-01,4.297669231891632080e-01,-1.653780639171600342e-01,-1.346687912940979004e+00,-9.198736548423767090e-01,3.149254322052001953e-01,1.972714662551879883e-01,-2.915261983871459961e-01,-3.214582800865173340e-01,4.232503175735473633e-01,2.933259606361389160e-01,-4.915152862668037415e-02,6.290380954742431641e-01,-6.801193356513977051e-01,2.605715692043304443e-01,-8.430742621421813965e-01,1.512174308300018311e-01,-8.757036328315734863e-01
