1.391576766967773438e+00,-5.134174823760986328e-01,1.187984585762023926e+00,9.211997389793395996e-01,-1.002802252769470215e+00,4.575544595718383789e-01,-1.016021251678466797e+00,1.119105339050292969e+00,9.337280876934528351e-03,1.033829331398010254e+00,7.014822363853454590e-01,-8.180561661720275879e-01,1.290792107582092285e+00,2.736039459705352783e-01,-6.424899697303771973e-01,1.308379620313644409e-01,-8.738294839859008789e-01,-2.249871253967285156e+00,-1.318410873413085938e+00,-1.473655223846435547e+00,2.930367588996887207e-01,2.094692230224609375e+00,-1.456423997879028320e+00,1.254327148199081421e-01,6.093670725822448730e-01,-7.493220567703247070e-01,-3.436697423458099365e-01,-1.150496244430541992e+00,1.872815966606140137e+00,1.511486411094665527e+00,-3.394646048545837402e-01,7.112064957618713379e-01,-7.536456584930419922e-01,1.655509829521179199e+00,-1.720193028450012207e+00,3.052550852298736572e-01,-2.643752396106719971e-01,1.607387185096740723e+00,1.402350306510925293e+00,8.921183943748474121e-01,-1.089467525482177734e+00,-3.913519680500030518e-01,-2.151253461837768555e+00,-1.158874034881591797e+00,-7.859904170036315918e-01,-8.505036234855651855e-01,3.482798635959625244e-01,-1.026032090187072754e+00,-1.889846444129943848e+00,1.049430131912231445e+00,-1.928421378135681152e+00,8.420639038085937500e-01,-2.060812413692474365e-01,-7.662001848220825195e-01,-6.091578006744384766e-01,1.396245121955871582e+00,2.456201165914535522e-01,1.457479596138000488e+00
-8.067582249641418457e-01,5.099233984947204590e-01,8.221380114555358887e-01,1.729354858398437500e+00,2.144460082054138184e-01,-2.953866422176361084e-01,-7.242810726165771484e-01,-2.843923568725585938e-01,6.535274982452392578e-01,-1.042869567871093750e+00,7.299209237098693848e-01,-1.425979435443878174e-01,1.444428563117980957e+00,1.377556204795837402e+00,-4.415775835514068604e-01,-1.184191942214965820e+00,-6.544691324234008789e-01,1.390434145927429199e+00,-1.910254120826721191e+00,1.007517576217651367e+00,1.511159688234329224e-01,-2.003955096006393433e-01,1.528663992881774902e+00,-2.393821477890014648e-01,-1.320716261863708496e+00,-1.710729479789733887e+00,5.584231615066528320e-01,-1.366205453872680664e+00,-6.944437325000762939e-02,-2.305682599544525146e-01,6.649904847145080566e-01,4.069142341613769531e-01,1.473736643791198730e+00,-3.608812987804412842e-01,1.156055927276611328e+00,-1.332723498344421387e-01,-3.939086943864822388e-02,-1.680277660489082336e-02,9.846863150596618652e-01,-6.554538011550903320e-01,4.949345588684082031e-01,-1.419767379760742188e+00,1.033528327941894531e+00,4.614236056804656982e-01,1.343699812889099121e+00,-1.494873166084289551e+00,-1.692899107933044434e+00,-1.175070643424987793e+00,9.726664423942565918e-01,-2.165945470333099365e-01,-2.254028618335723877e-01,8.782910108566284180e-01,-2.567540705204010010e-01,-6.638343930244445801e-01,-1.198019266128540039e+00,-8.788220286369323730e-01,-3.570281863212585449e-01,-5.315685868263244629e-01
1.064707994461059570e+00,1.406077742576599121e+00,1.623139023780822754e+00,9.571903347969055176e-01,-2.101879835128784180e+00,-1.942835211753845215e+00,1.139737963676452637e-01,-1.376332044601440430e+00,2.778968513011932373e-01,-3.619939684867858887e-01,-6.398000121116638184e-01,3.002687692642211914e-01,-1.777409076690673828e+00,5.476670265197753906e-01,8.887302279472351074e-01,1.133933544158935547e+00,1.401953101158142090e+00,1.048455595970153809e+00,-1.418931223452091217e-02,-2.669670283794403076e-01,1.996358275413513184e+00,1.756071567535400391e+00,-1.759947687387466431e-01,-3.157370984554290771e-01,8.032810091972351074e-01,-2.842080295085906982e-01,4.318247139453887939e-01,1.110377430915832520e+00,-2.300222396850585938e+00,7.042012214660644531e-01,-9.879981875419616699e-01,1.978923082351684570e-01,-8.993579745292663574e-01,2.416250258684158325e-01,1.539952516555786133e+00,8.490507304668426514e-02,-1.577045679092407227e+00,-5.031670331954956055e-01,1.507174611091613770e+00,-9.645929932594299316e-01,-4.224778413772583008e-01,6.867922842502593994e-02,1.311445236206054688e-01,-1.184385895729064941e+00,-3.728766143321990967e-01,-2.159380674362182617e+00,-4.672513902187347412e-01,3.137534856796264648e-01,-1.776531338691711426e-01,4.743115305900573730e-01,-4.079073071479797363e-01,7.530270814895629883e-01,1.923836022615432739e-02,1.056382656097412109e+00,1.968505263328552246e+00,-6.246211528778076172e-01,-2.378302812576293945e+00,-8.541373610496520996e-01
1.065312504768371582e+00,-8.411671034991741180e-03,1.082560300827026367e+00,-9.535515904426574707e-01,-1.542676806449890137e+00,-3.006139695644378662e-01,1.083761692047119141e+00,3.840279877185821533e-01,-3.058934807777404785e-01,-9.689254164695739746e-01,-5.016940236091613770e-01,-1.567959308624267578e+00,-1.308736205101013184e-01,3.782273232936859131e-01,-4.309938549995422363e-01,1.574674129486083984e+00,2.717492878437042236e-01,-1.046506047248840332e+00,6.318643093109130859e-01,-2.224581241607666016e+00,-1.086708545684814453e+00,1.249921560287475586e+00,1.812215805053710938e+00,1.740814000368118286e-01,1.041294932365417480e-01,-3.130404651165008545e-01,-6.751704961061477661e-03,8.789961934089660645e-01,5.965950489044189453e-01,2.485706657171249390e-01,1.417244315147399902e+00,-2.996616363525390625e-01,4.632179737091064453e-01,6.512569189071655273e-01,-2.781101465225219727e+00,-4.373469650745391846e-01,2.269203215837478638e-01,1.727704048156738281e+00,1.634655892848968506e-01,-9.535337984561920166e-02,1.830321192741394043e+00,1.079342246055603027e+00,8.051925301551818848e-01,4.710059762001037598e-01,3.607628643512725830e-01,-8.711481094360351562e-01,-1.236616373062133789e+00,-3.799511194229125977e-01,-3.865330517292022705e-01,-5.829981565475463867e-01,1.164282560348510742e+00,-4.143225774168968201e-02,5.586506724357604980e-01,-7.641589045524597168e-01,8.238340020179748535e-01,5.119039416313171387e-01,-1.591318249702453613e-01,-1.610617637634277344e+00
2.542931318283081055e+00,1.537310004234313965e+00,-8.526425361633300781e-01,1.010211706161499023e+00,-5.294942855834960938e-01,2.456743478775024414e+00,-1.143696308135986328e+00,-1.696801632642745972e-01,-1.503406167030334473e+00,7.899073958396911621e-01,-7.242966294288635254e-01,-1.257529258728027344e-01,-1.018494486808776855e+00,1.091828197240829468e-01,1.726264238357543945e+00,2.521018031984567642e-03,-9.632876515388488770e-02,-8.261116743087768555e-01,1.547251790761947632e-01,1.336234807968139648e+00,2.092477828264236450e-01,-1.012851715087890625e+00,-7.343015074729919434e-01,-8.752564191818237305e-01,-5.344186425209045410e-01,-1.283735513687133789e+00,2.847004234790802002e-01,-5.794274210929870605e-01,3.243170678615570068e-01,9.071709960699081421e-02,8.174902796745300293e-01,5.180654525756835938e-01,-1.878395527601242065e-01,1.524306893348693848e+00,-5.744597315788269043e-01,9.537183642387390137e-01,5.012066364288330078e-01,-3.841021060943603516e-01,1.186371326446533203e+00,-3.395987451076507568e-01,5.955505371093750000e-01,-9.541337490081787109e-01,6.556880474090576172e-02,-9.684404730796813965e-01,-9.009828567504882812e-01,-1.008290126919746399e-01,-2.252068281173706055e+00,-8.837911486625671387e-01,-7.438987493515014648e-02,2.654601633548736572e-01,-1.659506082534790039e+00,-7.655125260353088379e-01,-7.723803631961345673e-03,6.321471333503723145e-01,-3.867641687393188477e-01,-2.180468738079071045e-01,-4.769940972328186035e-01,8.256177306175231934e-01
-1.855065673589706421e-01,-8.001731634140014648e-01,3.757457435131072998e-01,-1.072645902633666992e+00,-1.190267443656921387e+00,2.407709658145904541e-01,-9.949734807014465332e-01,-1.090216517448425293e+00,-1.921266689896583557e-02,-5.421024560928344727e-01,-2.980967797338962555e-02,7.333770394325256348e-01,-1.726022064685821533e-01,7.293346524238586426e-01,1.027202367782592773e+00,-6.281861066818237305e-01,-1.697167158126831055e+00,-1.520672440528869629e+00,8.149725198745727539e-02,-2.156731486320495605e-01,-6.913838386535644531e-01,-1.387259483337402344e+00,4.902186691761016846e-01,1.987538486719131470e-02,7.433468103408813477e-02,-1.316865921020507812e+00,-1.552664756774902344e+00,2.404191493988037109e-01,1.917731761932373047e+00,-1.207985043525695801e+00,-1.210044264793395996e+00,-4.058313369750976562e-01,-4.881879389286041260e-01,8.638669252395629883e-01,5.371495485305786133e-01,-2.979224026203155518e-01,1.015983700752258301e+00,3.561137318611145020e-01,-2.833372950553894043e-01,-5.762465000152587891e-01,-8.573940992355346680e-01,-1.375576376914978027e+00,-2.664538919925689697e-01,1.743454337120056152e+00,7.918722927570343018e-02,9.762153625488281250e-01,-1.824476242065429688e+00,4.866457283496856689e-01,-1.057830214500427246e+00,3.879778683185577393e-01,9.852454066276550293e-01,5.180205106735229492e-01,-1.316459298133850098e+00,-3.891160488128662109e-01,9.086823463439941406e-01,-7.937732338905334473e-01,7.361609935760498047e-01,-3.741301000118255615e-01
6.511470079421997070e-01,1.470883965492248535e+00,-1.022469997406005859e+00,1.797800660133361816e-01,-2.421001672744750977e+00,-6.507934629917144775e-02,-4.110386371612548828e-01,6.381673216819763184e-01,7.732627987861633301e-01,-1.314541459083557129e+00,-3.753890991210937500e-01,8.370763808488845825e-02,2.090833187103271484e-01,3.005906820297241211e+00,1.471579790115356445e+00,4.247076809406280518e-01,-1.536359190940856934e+00,-9.220886230468750000e-01,4.527298510074615479e-01,-6.278033554553985596e-02,-2.979745864868164062e-01,-7.720755934715270996e-01,1.178474903106689453e+00,6.374570131301879883e-01,-5.069984197616577148e-01,-6.510680913925170898e-01,-4.746345877647399902e-01,2.043587565422058105e-01,-4.029349088668823242e-01,1.455922961235046387e+00,-3.732684999704360962e-02,9.896507263183593750e-01,-1.191685795783996582e+00,1.357446908950805664e+00,2.185911178588867188e+00,-3.671896159648895264e-01,-3.531307876110076904e-01,-2.463208585977554321e-01,-5.713297128677368164e-01,8.959679305553436279e-02,8.558073043823242188e-01,-1.897978425025939941e+00,-1.137764975428581238e-01,-1.178609371185302734e+00,-6.192948222160339355e-01,-2.206296443939208984e+00,1.657320380210876465e+00,2.180431604385375977e+00,-9.213642477989196777e-01,-1.519466996192932129e+00,-2.378986358642578125e+00,-8.606152534484863281e-01,-1.263967394828796387e+00,-1.536236166954040527e+00,-8.893695473670959473e-01,4.169274568557739258e-01,-5.090481638908386230e-01,-1.254914760589599609e+00
1.237177014350891113e+00,2.657254934310913086e+00,4.887113273143768311e-01,5.208064317703247070e-01,3.289467394351959229e-01,-3.690179064869880676e-02,-1.344224333763122559e+00,-1.703020185232162476e-01,4.368954002857208252e-01,3.165847957134246826e-01,3.404400646686553955e-01,-9.940875321626663208e-02,9.807734489440917969e-01,3.922303617000579834e-01,-1.241746172308921814e-01,-5.022776722908020020e-01,-7.307263016700744629e-01,-8.328665792942047119e-02,-9.832085371017456055e-01,1.065936923027038574e+00,-7.253657579421997070e-01,3.015456199645996094e-01,-1.047878980636596680e+00,-1.836131513118743896e-01,-1.347519159317016602e-01,5.243653059005737305e-01,-1.649299502372741699e+00,1.216222569346427917e-01,1.072907686233520508e+00,1.564926654100418091e-02,-1.189447999000549316e+00,1.207241415977478027e+00,-8.254177868366241455e-02,-4.478502273559570312e-01,-9.810285270214080811e-02,1.284387111663818359e+00,1.597115635871887207e+00,-7.360074669122695923e-02,-1.759596109390258789e+00,-1.398349881172180176e+00,-1.574461936950683594e+00,-6.164549589157104492e-01,1.684427261352539062e+00,7.737020403146743774e-02,1.390837192535400391e+00,-6.296260952949523926e-01,-1.248216390609741211e+00,1.073976516723632812e+00,8.977209329605102539e-01,-6.410786509513854980e-01,-2.259446620941162109e+00,7.378070354461669922e-01,6.142825484275817871e-01,1.479097843170166016e+00,6.017933487892150879e-01,-1.238285422325134277e+00,-6.351759433746337891e-01,-4.729905128479003906e-01
4.635623097419738770e-01,-4.255336225032806396e-01,1.905269742012023926e+00,-1.037035733461380005e-01,-6.673637628555297852e-01,2.354346401989459991e-02,-3.591189384460449219e-01,-6.278980970382690430e-01,4.518964886665344238e-01,-1.135456562042236328e+00,1.102003812789916992e+00,1.019039750099182129e+00,5.945950150489807129e-01,-4.608048498630523682e-01,9.020012021064758301e-01,-1.093334436416625977e+00,-6.840233206748962402e-01,-4.130805730819702148e-01,4.092396702617406845e-03,8.575278520584106445e-01,-4.203295409679412842e-01,5.142988562583923340e-01,-8.048332482576370239e-02,-2.815369665622711182e-01,-3.341571092605590820e-01,8.479654788970947266e-01,1.086477637290954590e+00,1.192503452301025391e+00,6.590144038200378418e-01,1.126647472381591797e+00,-1.159191783517599106e-02,7.006177902221679688e-01,1.224994659423828125e+00,-8.944404125213623047e-02,5.999576449394226074e-01,-4.917539060115814209e-01,-1.115363240242004395e+00,-4.697626456618309021e-02,1.046782255172729492e+00,1.767672657966613770e+00,-1.323031485080718994e-01,-1.386430859565734863e+00,1.056403875350952148e+00,-1.546154499053955078e+00,1.150172650814056396e-01,-4.386463761329650879e-01,2.682456374168395996e-01,6.736575365066528320e-01,1.506662487983703613e+00,-2.397068440914154053e-01,3.552710711956024170e-01,2.383966445922851562e+00,-6.280715465545654297e-01,-7.124876976013183594e-01,-9.774823784828186035e-01,-2.661634683609008789e+00,1.042369604110717773e-01,1.323971390724182129e+00
-1.089752316474914551e+00,3.824479281902313232e-01,4.606165587902069092e-01,-4.646593630313873291e-01,6.696445345878601074e-01,-7.480719685554504395e-01,1.364682674407958984e+00,6.461154222488403320e-01,-1.476258039474487305e+00,2.162825822830200195e+00,1.239933013916015625e+00,2.599802613258361816e-01,6.957021355628967285e-01,9.099135398864746094e-01,1.304813385009765625e+00,1.637231111526489258e+00,-9.319668412208557129e-01,7.709786891937255859e-01,1.391364216804504395e+00,1.114941909909248352e-01,2.790866792201995850e-01,-1.318870067596435547e+00,-1.304160118103027344e+00,-3.085215948522090912e-02,7.518692612648010254e-01,1.069101452827453613e+00,6.030637025833129883e-01,-4.460752904415130615e-01,1.373508721590042114e-01,1.270894169807434082e+00,2.942746877670288086e-01,1.942267775535583496e+00,6.956522464752197266e-01,3.027577996253967285e-01,-1.222984433174133301e+00,1.054433584213256836e+00,2.340839803218841553e-01,7.132459282875061035e-01,-1.036728382110595703e+00,1.394425034523010254e+00,5.597962737083435059e-01,-9.037132263183593750e-01,6.676252931356430054e-02,9.701713919639587402e-01,2.024368524551391602e+00,5.623472109436988831e-02,-3.449445664882659912e-01,2.053997278213500977e+00,-3.425181806087493896e-01,5.639041662216186523e-01,-9.847581982612609863e-01,7.104339450597763062e-02,1.646471261978149414e+00,-1.494432389736175537e-01,-3.682040423154830933e-02,2.219671308994293213e-01,-3.907847702503204346e-01,-5.063478946685791016e-01
-7.550944089889526367e-01,6.225787401199340820e-01,-4.794912040233612061e-01,-1.740705013275146484e+00,-1.393296241760253906e+00,-8.164504766464233398e-01,-2.947701811790466309e-01,4.121821746230125427e-02,-7.600737363100051880e-02,1.952043920755386353e-01,2.167840003967285156e-01,4.779044985771179199e-01,9.497759491205215454e-02,8.292014002799987793e-01,-1.607113927602767944e-01,4.655519425868988037e-01,-2.640939056873321533e-01,3.099737465381622314e-01,-1.220198154449462891e+00,1.764453649520874023e+00,-3.033830821514129639e-01,2.489715348929166794e-03,-2.722992599010467529e-01,9.228664636611938477e-01,4.615240916609764099e-02,-8.941096663475036621e-01,-2.973665893077850342e-01,5.246792435646057129e-01,-1.035555243492126465e+00,-1.322468221187591553e-01,7.384117841720581055e-01,-1.307814240455627441e+00,-7.818179130554199219e-01,8.060176968574523926e-01,9.311553835868835449e-01,-6.973739713430404663e-02,-1.436797678470611572e-01,-1.327174067497253418e+00,1.368411183357238770e+00,4.298461675643920898e-01,6.832921504974365234e-01,1.478595137596130371e+00,-3.567367196083068848e-01,-7.652943730354309082e-01,4.898824691772460938e-01,-2.122470140457153320e+00,6.665484607219696045e-02,-5.994980931282043457e-01,-2.531977415084838867e+00,7.384306788444519043e-01,-2.457909882068634033e-01,5.387948751449584961e-01,-1.490631580352783203e+00,1.091431260108947754e+00,-1.462622523307800293e+00,-7.112328410148620605e-01,-1.799991011619567871e+00,1.416416049003601074e+00
1.337373852729797363e-01,1.051253199577331543e+00,-5.245870351791381836e-01,-1.878023266792297363e+00,2.041975557804107666e-01,3.545642793178558350e-01,9.793481230735778809e-01,1.639305353164672852e-01,1.027951717376708984e+00,-6.494033932685852051e-01,1.462666153907775879e+00,6.840449571609497070e-01,9.570306539535522461e-01,6.086327433586120605e-01,1.242123961448669434e+00,3.247280716896057129e-01,1.918802499771118164e+00,5.246657133102416992e-01,-2.255290299654006958e-01,6.958913803100585938e-02,-9.876532554626464844e-01,1.101501703262329102e+00,-1.606008172035217285e+00,4.978004395961761475e-01,7.907415032386779785e-01,-2.767155878245830536e-02,1.610111892223358154e-01,6.672311425209045410e-01,-6.240032911300659180e-01,-4.596618711948394775e-01,-1.995208501815795898e+00,2.169105708599090576e-01,1.363997936248779297e+00,6.305970996618270874e-02,-5.196950435638427734e-01,-8.860038518905639648e-01,1.507027268409729004e+00,6.071383953094482422e-01,-2.487036943435668945e+00,-5.043767690658569336e-01,-4.604146182537078857e-01,1.277717709541320801e+00,-8.652643561363220215e-01,1.369243979454040527e+00,1.504572331905364990e-01,-3.217656314373016357e-01,2.233009189367294312e-01,-3.047530353069305420e-01,-1.085129380226135254e+00,7.972067594528198242e-01,-7.075816392898559570e-01,-8.643190860748291016e-01,-1.771493911743164062e+00,1.314144730567932129e+00,8.198832273483276367e-01,-6.996951103210449219e-01,-1.147377729415893555e+00,7.160091996192932129e-01
-9.349389672279357910e-01,2.713678777217864990e-01,7.387272715568542480e-01,-1.419950962066650391e+00,2.739981114864349365e-01,5.968091487884521484e-01,-3.809750378131866455e-01,-3.797896802425384521e-01,-7.228023409843444824e-01,4.632389545440673828e-01,-7.969253063201904297e-01,-2.820360846817493439e-02,-1.143100500106811523e+00,-5.728226900100708008e-01,2.801289558410644531e-01,2.511751949787139893e-01,-8.615242689847946167e-02,-1.783770024776458740e-01,-8.899636864662170410e-01,-1.567617416381835938e+00,4.962375387549400330e-02,-8.338263630867004395e-01,7.091820836067199707e-01,-1.577594518661499023e+00,-1.201737403869628906e+00,2.890989184379577637e-01,1.742460280656814575e-01,8.465164899826049805e-01,-1.506733417510986328e+00,1.559715509414672852e+00,-1.746327280998229980e+00,9.940542280673980713e-02,2.732853412628173828e+00,1.431481242179870605e-01,-1.039272993803024292e-01,5.772002935409545898e-01,-2.537966072559356689e-01,-7.107658386230468750e-01,-1.140207573771476746e-01,5.212262272834777832e-01,-9.483575224876403809e-01,7.166948318481445312e-01,9.303553104400634766e-01,2.721853554248809814e-01,-7.677413821220397949e-01,2.004418075084686279e-01,-5.349600911140441895e-01,-4.811448976397514343e-02,-1.490129947662353516e+00,2.190036296844482422e+00,-1.469763994216918945e+00,-3.537542819976806641e-01,6.970732212066650391e-01,-1.271420001983642578e+00,5.837249755859375000e-01,1.204925328493118286e-01,-1.587618350982666016e+00,9.448285698890686035e-01
-1.222431898117065430e+00,7.536851763725280762e-01,-8.787524104118347168e-01,5.301328897476196289e-01,2.104577869176864624e-01,-1.541368126869201660e+00,-1.961818933486938477e-01,-1.593997031450271606e-01,5.171999931335449219e-01,-8.824411630630493164e-01,-3.549931049346923828e-01,6.868475675582885742e-01,-1.232157349586486816e+00,5.496354103088378906e-01,-5.210832357406616211e-01,2.565991878509521484e-01,-1.260942518711090088e-01,3.723458349704742432e-01,1.123243570327758789e+00,-5.164207220077514648e-01,-2.966164797544479370e-02,-1.086208224296569824e+00,-1.946011483669281006e-01,2.358966350555419922e+00,-6.705314517021179199e-01,2.303611934185028076e-01,-6.750102043151855469e-01,-9.708795547485351562e-01,-1.086011528968811035e+00,5.444911122322082520e-01,7.531259059906005859e-01,6.074537709355354309e-02,5.051059126853942871e-01,8.136906027793884277e-01,-1.314209580421447754e+00,1.524538278579711914e+00,5.860781073570251465e-01,-1.258400321006774902e+00,-2.228091806173324585e-01,9.128521680831909180e-01,-1.000786066055297852e+00,5.115948915481567383e-01,2.833955526351928711e+00,-1.209466606378555298e-01,-4.645883664488792419e-02,6.765224933624267578e-01,1.436779022216796875e+00,1.148286461830139160e+00,7.256907820701599121e-01,-6.812236905097961426e-01,6.747190356254577637e-01,-8.148103356361389160e-01,1.184426307678222656e+00,1.970995217561721802e-01,-1.033693328499794006e-01,-9.511942267417907715e-01,2.011954635381698608e-01,-2.768817842006683350e-01
-8.582971692085266113e-01,-1.103846907615661621e+00,-3.257573768496513367e-02,1.582747220993041992e+00,7.084263563156127930e-01,4.744856357574462891e-01,-5.408252477645874023e-01,-1.934140324592590332e+00,4.987428188323974609e-01,3.624360859394073486e-01,-1.625184893608093262e+00,7.734407782554626465e-01,-1.571624636650085449e+00,5.618650093674659729e-02,2.168848037719726562e+00,1.884017229080200195e+00,-7.924229502677917480e-01,-9.824393391609191895e-01,-8.493627905845642090e-01,1.481973409652709961e+00,-1.372517466545104980e+00,-1.667776465415954590e+00,3.418304681777954102e+00,-1.763628870248794556e-01,-3.476512432098388672e-01,-3.484674543142318726e-02,-6.664934158325195312e-01,-9.391860365867614746e-01,1.015677094459533691e+00,1.018559932708740234e+00,-1.345233917236328125e+00,-8.699837327003479004e-02,1.038308620452880859e+00,1.196182012557983398e+00,4.270048737525939941e-01,6.832748651504516602e-01,-1.861849308013916016e+00,-8.554515242576599121e-01,-9.753243327140808105e-01,2.721062675118446350e-02,5.717257410287857056e-02,1.509115397930145264e-01,1.402539134025573730e+00,4.855843186378479004e-01,-5.180829167366027832e-01,5.746898055076599121e-02,-2.142888784408569336e+00,-2.527857720851898193e-01,6.715414524078369141e-01,8.309787511825561523e-01,-2.140041112899780273e+00,-1.101209402084350586e+00,8.221078515052795410e-01,-5.271050930023193359e-01,1.093835905194282532e-01,-2.230997979640960693e-01,-1.369499564170837402e+00,8.892493247985839844e-01
6.364752054214477539e-01,3.570779263973236084e-01,-3.683221042156219482e-01,3.609640300273895264e-01,1.301958113908767700e-01,-8.169993758201599121e-01,-1.185378432273864746e+00,2.227026700973510742e+00,2.639108657836914062e+00,-3.605673611164093018e-01,1.379372835159301758e+00,1.026205539703369141e+00,-9.911378026008605957e-01,6.165705323219299316e-01,3.838610053062438965e-01,-7.868856191635131836e-01,6.067448854446411133e-01,-1.101575613021850586e+00,8.825218677520751953e-01,3.740486204624176025e-01,6.077418327331542969e-01,8.618128299713134766e-01,1.085606962442398071e-01,-1.778606295585632324e+00,2.373593486845493317e-02,-1.503725886344909668e+00,1.346008926630020142e-01,-1.626852452754974365e-01,-9.896916151046752930e-01,4.494243562221527100e-01,1.831085324287414551e+00,-9.316290020942687988e-01,4.547832012176513672e-01,-7.416757345199584961e-01,-7.356444001197814941e-01,9.916961193084716797e-01,-1.395395159721374512e+00,-1.378854155540466309e+00,-9.117926359176635742e-01,1.115865826606750488e+00,5.631517171859741211e-01,-9.444586634635925293e-01,1.231399297714233398e+00,1.385107636451721191e+00,1.332591295242309570e+00,8.017650842666625977e-01,1.075747251510620117e+00,3.471689522266387939e-01,5.579340457916259766e-02,4.889586567878723145e-01,-3.037718534469604492e-01,-6.298106908798217773e-01,-1.123100280761718750e+00,9.014003723859786987e-02,1.469847708940505981e-01,-1.369656085968017578e+00,-7.058753371238708496e-01,-7.948372960090637207e-01
-1.103572130203247070e+00,-2.566001713275909424e-01,1.699451804161071777e+00,3.316523730754852295e-01,1.442979216575622559e+00,8.803554773330688477e-01,8.670272678136825562e-02,6.168490052223205566e-01,-3.558779954910278320e-01,1.142148733139038086e+00,-7.272107601165771484e-01,-2.382344007492065430e-01,-4.497053325176239014e-01,-1.086451768875122070e+00,-5.087622404098510742e-01,-1.795304775238037109e+00,-1.907166719436645508e+00,2.788323163986206055e-01,7.500497698783874512e-01,-7.450850605964660645e-01,-2.084203064441680908e-01,3.038270473480224609e-01,9.119647145271301270e-01,1.901561319828033447e-01,4.108203053474426270e-01,1.714782595634460449e+00,-1.611444115638732910e+00,8.507450819015502930e-01,1.993895292282104492e+00,1.540265560150146484e+00,9.356594681739807129e-01,2.337002754211425781e+00,4.169603884220123291e-01,-1.047632932662963867e+00,-1.043369054794311523e+00,-1.102364540100097656e+00,2.127629041671752930e+00,3.609999418258666992e-01,-1.169339179992675781e+00,-4.486134946346282959e-01,-4.138625264167785645e-01,-3.933149874210357666e-01,2.804362773895263672e-01,-5.845529437065124512e-01,-1.867376118898391724e-01,4.547616541385650635e-01,7.437325119972229004e-01,3.706431984901428223e-01,-9.998074173927307129e-01,1.071112394332885742e+00,-1.445789694786071777e+00,2.052633285522460938e+00,-2.056315988302230835e-01,-1.450913310050964355e+00,-1.774013638496398926e-01,4.274172782897949219e-01,-3.477724194526672363e-01,-1.472272157669067383e+00
-2.125106573104858398e+00,1.058946132659912109e+00,-1.487359642982482910e+00,-4.418207108974456787e-01,-1.894742697477340698e-01,-6.171928048133850098e-01,5.224202945828437805e-02,1.939837038516998291e-01,7.870184183120727539e-01,-1.552974939346313477e+00,5.449544191360473633e-01,5.839847922325134277e-01,-7.390841245651245117e-01,1.508710861206054688e+00,3.648667410016059875e-02,-8.653751760721206665e-02,-3.181646168231964111e-01,9.035076498985290527e-01,1.401466369628906250e+00,-9.449616074562072754e-01,1.686757355928421021e-01,-1.496964395046234131e-01,5.052153468132019043e-01,3.689470589160919189e-01,2.055079460144042969e+00,1.485966801643371582e+00,-1.552371382713317871e+00,6.507461667060852051e-01,-8.219062089920043945e-01,-2.066962480545043945e+00,7.637087106704711914e-01,-8.440712094306945801e-01,2.310818910598754883e+00,2.298519611358642578e-01,6.167840957641601562e-01,-1.346391081809997559e+00,-4.231769144535064697e-01,-9.064663648605346680e-01,5.204547047615051270e-01,-1.655338108539581299e-01,1.431376695632934570e+00,1.443096756935119629e+00,-6.063547134399414062e-01,-7.138725519180297852e-01,7.237950563430786133e-01,5.971561670303344727e-01,5.307934880256652832e-01,-1.479691267013549805e-01,8.107598870992660522e-02,-8.367387056350708008e-01,4.424048662185668945e-01,1.725260853767395020e+00,-2.526661455631256104e-01,5.425793528556823730e-01,-2.421077340841293335e-01,-5.700886845588684082e-01,6.699414849281311035e-01,-1.435400992631912231e-01
-3.736197054386138916e-01,-5.640154331922531128e-02,-1.365093708038330078e+00,-2.574249267578125000e+00,1.267394900321960449e+00,-9.125086665153503418e-01,-4.914035499095916748e-01,5.758602172136306763e-02,-6.699896454811096191e-01,1.815592348575592041e-01,-3.939666748046875000e-01,1.593942403793334961e+00,3.652195334434509277e-01,1.387962102890014648e+00,-2.310250520706176758e+00,7.203192114830017090e-01,1.326738119125366211e+00,-4.872977435588836670e-01,1.440725207328796387e+00,-5.856520533561706543e-01,4.979930222034454346e-01,1.100653529167175293e+00,2.215090751647949219e+00,1.061492562294006348e-01,1.475855827331542969e+00,-8.327290415763854980e-01,-8.107939958572387695e-01,-1.880959510803222656e+00,1.261568427085876465e+00,1.473724693059921265e-01,2.601869344711303711e+00,1.593877822160720825e-01,2.131659090518951416e-01,-8.548231124877929688e-01,-1.132925748825073242e+00,3.710482120513916016e-01,1.268401503562927246e+00,6.830321550369262695e-01,-2.980007827281951904e-01,-9.434016048908233643e-02,5.131222009658813477e-01,-1.768272876739501953e+00,-2.303879559040069580e-01,-1.422770380973815918e+00,-1.342506527900695801e+00,-4.579543471336364746e-01,-7.110684365034103394e-02,-2.437691688537597656e-01,3.941946029663085938e-01,-4.977935552597045898e-01,2.136499136686325073e-01,-4.171192646026611328e-01,-1.320987343788146973e-01,-1.363212913274765015e-01,-2.767178118228912354e-01,1.208826899528503418e+00,-3.780939280986785889e-01,2.863872349262237549e-01
-2.273752689361572266e+00,6.245709657669067383e-01,-1.016805529594421387e+00,1.788810610771179199e+00,1.173603653907775879e+00,-8.249709606170654297e-01,1.046524047851562500e+00,-1.520032882690429688e-01,1.275651097297668457e+00,1.036196351051330566e+00,-5.267687439918518066e-01,-1.898371696472167969e+00,4.637395739555358887e-01,-1.664879202842712402e+00,1.204447031021118164e+00,-1.501056671142578125e+00,3.396264314651489258e-01,-1.638501048088073730e+00,-1.473874092102050781e+00,-4.118733704090118408e-01,4.785164594650268555e-01,1.352128624916076660e+00,1.898451685905456543e+00,-4.770287871360778809e-01,-2.144972532987594604e-01,5.643617510795593262e-01,-1.019865393638610840e+00,-5.136626586318016052e-02,5.991535186767578125e-01,-1.047210097312927246e+00,2.321416735649108887e-01,2.205643504858016968e-01,6.786414384841918945e-01,1.182198286056518555e+00,8.342239856719970703e-01,2.401349991559982300e-01,-1.765616685152053833e-01,-1.317657470703125000e+00,1.887388676404953003e-01,2.288128852844238281e+00,-1.053250357508659363e-01,-5.656864047050476074e-01,-1.070030450820922852e+00,1.248849153518676758e+00,1.168999314308166504e+00,-3.010474145412445068e-01,2.432704716920852661e-01,2.674940228462219238e-01,-1.902005791664123535e+00,2.567568421363830566e-01,-3.735271990299224854e-01,1.288280606269836426e+00,1.464923381805419922e+00,2.277763366699218750e+00,-4.367098510265350342e-01,-3.516205251216888428e-01,-2.397331967949867249e-02,1.361580967903137207e+00
1.133845210075378418e+00,-1.639691710472106934e+00,-2.023696750402450562e-01,4.560375213623046875e-02,-4.973588585853576660e-01,1.453586369752883911e-01,8.679096400737762451e-02,8.524320125579833984e-01,-4.682052433490753174e-01,-1.447408080101013184e+00,-1.814642697572708130e-01,-1.645858645439147949e+00,-1.581760346889495850e-01,-1.113139688968658447e-01,-5.514987111091613770e-01,1.068869456648826599e-01,1.256306767463684082e+00,-1.535939216613769531e+00,-5.896292924880981445e-01,-4.046108722686767578e-01,-9.295362234115600586e-01,6.254618763923645020e-01,-2.093321084976196289e-01,-1.058756828308105469e+00,-9.423445463180541992e-01,9.475651383399963379e-01,2.823179662227630615e-01,-4.450836777687072754e-01,-1.107502222061157227e+00,-1.156050205230712891e+00,4.164731502532958984e-02,-1.166152358055114746e-01,4.823460876941680908e-01,4.560947790741920471e-02,-8.566581606864929199e-01,1.439389467239379883e+00,-1.142887711524963379e+00,2.212931662797927856e-01,3.390935659408569336e-01,2.031785011291503906e+00,-1.479786872863769531e+00,3.914803862571716309e-01,-5.500758886337280273e-01,9.360982477664947510e-02,6.901943087577819824e-01,-1.875261068344116211e-01,-1.089458703994750977e+00,1.574833095073699951e-01,1.968184113502502441e-01,-1.114681720733642578e+00,1.677798107266426086e-02,4.065023660659790039e-01,-3.795506656169891357e-01,-7.675634026527404785e-01,5.143697857856750488e-01,-7.859409451484680176e-01,7.306753396987915039e-01,1.455093860626220703e+00
2.444912791252136230e-01,1.875485181808471680e-01,-4.090515077114105225e-01,3.236587941646575928e-01,-5.027386546134948730e-01,8.380656689405441284e-02,7.442038059234619141e-01,1.477997422218322754e+00,1.519144326448440552e-01,-1.258534789085388184e+00,-6.941113471984863281e-01,-1.095737338066101074e+00,-4.458655789494514465e-02,2.071708142757415771e-01,-1.445361524820327759e-01,-1.544996500015258789e-01,1.192004680633544922e+00,2.922109887003898621e-02,6.517076492309570312e-01,2.227352380752563477e+00,1.767029643058776855e+00,1.746355593204498291e-01,2.256636619567871094e-01,-4.254818558692932129e-01,-1.782775968313217163e-01,1.257622122764587402e+00,4.118765592575073242e-01,2.052628993988037109e+00,-1.138406753540039062e+00,-9.837151765823364258e-01,1.757571935653686523e+00,-7.716069221496582031e-01,-1.999607682228088379e+00,5.465214848518371582e-01,-1.018155932426452637e+00,9.313595294952392578e-01,-1.596350371837615967e-01,2.400371074676513672e+00,9.285758733749389648e-01,6.126715540885925293e-01,1.123502403497695923e-01,-7.791383862495422363e-01,1.475601196289062500e+00,-1.708232052624225616e-02,1.438897490501403809e+00,1.320359587669372559e+00,-2.730703353881835938e-01,-4.849494993686676025e-01,-1.297415971755981445e+00,-8.260073065757751465e-01,7.073967456817626953e-01,1.419734716415405273e+00,-6.405149102210998535e-01,-2.002769708633422852e+00,-1.417588293552398682e-01,8.317483663558959961e-01,1.023655533790588379e+00,-2.134974580258131027e-03
-2.191458642482757568e-01,6.133190169930458069e-02,-9.834221601486206055e-01,-6.374104022979736328e-01,-1.185053586959838867e+00,1.883748173713684082e-02,-2.127338171005249023e+00,-4.949999153614044189e-01,2.419887036085128784e-01,-3.184987008571624756e-01,8.926792442798614502e-02,-1.241905570030212402e+00,7.620804905891418457e-01,4.331489801406860352e-01,9.229624867439270020e-01,-3.069140911102294922e-01,-5.742422938346862793e-01,5.977815389633178711e-01,8.616262674331665039e-01,-5.309934169054031372e-02,-7.620322108268737793e-01,-6.895840167999267578e-01,-1.674285054206848145e+00,6.130895614624023438e-01,8.938027620315551758e-01,5.738283395767211914e-01,-7.252094745635986328e-01,-1.709188699722290039e+00,-1.231295228004455566e+00,7.661065459251403809e-01,-9.695519804954528809e-01,-5.776672363281250000e-01,4.896978847682476044e-03,1.854027211666107178e-01,-6.755495071411132812e-01,1.026830434799194336e+00,2.472817301750183105e-01,1.089742705225944519e-01,-3.413684964179992676e-01,6.222628951072692871e-01,-9.747661948204040527e-01,2.529477477073669434e-01,7.650589942932128906e-02,-9.760317802429199219e-01,-1.012786507606506348e+00,-2.087147720158100128e-02,-1.053276896476745605e+00,6.000484824180603027e-01,8.260648846626281738e-01,1.448409676551818848e+00,6.276212930679321289e-01,2.608283609151840210e-02,7.535050511360168457e-01,-6.391413807868957520e-01,4.304450154304504395e-01,-4.478862136602401733e-02,-1.074211001396179199e+00,-1.913112759590148926e+00
-6.599322557449340820e-01,-1.709385514259338379e-01,8.753085732460021973e-01,1.676277518272399902e-01,-6.041653156280517578e-01,-1.079253315925598145e+00,-8.999273180961608887e-03,8.412342071533203125e-01,1.036581039428710938e+00,-1.018203854560852051e+00,7.975714802742004395e-01,8.840922117233276367e-01,-9.446312785148620605e-01,4.956595003604888916e-01,-5.010174587368965149e-02,2.122241072356700897e-03,7.866793274879455566e-01,1.473487615585327148e+00,6.989130377769470215e-01,-3.634313642978668213e-01,2.115948200225830078e+00,1.928421020507812500e+00,-3.174528479576110840e-01,-1.707046151161193848e+00,-3.438230603933334351e-02,-4.280548393726348877e-01,5.324831008911132812e-01,1.136148214340209961e+00,6.488779187202453613e-01,2.336860656738281250e+00,4.547953009605407715e-01,-3.108528852462768555e-01,-8.825004696846008301e-01,8.926465511322021484e-01,-3.155529201030731201e-01,-3.705144226551055908e-01,-1.584877520799636841e-01,-1.486360549926757812e+00,7.214806675910949707e-01,1.980156183242797852e+00,-1.300155639648437500e+00,-3.760589361190795898e-01,4.865062832832336426e-01,1.395789861679077148e+00,1.136482596397399902e+00,1.424793303012847900e-01,-1.036773681640625000e+00,-2.629807949066162109e+00,-3.364202976226806641e-01,-4.832648038864135742e-01,-1.058063507080078125e+00,6.997218132019042969e-01,-3.530972301959991455e-01,2.342166900634765625e-01,-3.220824003219604492e-01,-1.358705520629882812e+00,4.573428630828857422e-01,-5.406119227409362793e-01
1.031259745359420776e-01,4.343678355216979980e-01,8.718913197517395020e-01,1.337285995483398438e+00,3.270314931869506836e-01,-8.380866646766662598e-01,-1.032565161585807800e-01,3.945844471454620361e-01,-1.588088989257812500e+00,-9.780514240264892578e-02,-3.153592348098754883e-01,-6.613774895668029785e-01,9.706783294677734375e-02,2.643283903598785400e-01,-2.103691995143890381e-01,-1.108150333166122437e-01,2.970811426639556885e-01,-7.160380482673645020e-01,7.046439051628112793e-01,-1.619457721710205078e+00,-1.535700708627700806e-01,-1.385620117187500000e+00,6.572088599205017090e-01,7.971695065498352051e-01,-1.612406075000762939e-01,3.062126636505126953e-01,-4.796237349510192871e-01,1.267929822206497192e-01,1.244278430938720703e+00,3.439534604549407959e-01,-4.077932536602020264e-01,-4.237795770168304443e-01,-1.823398172855377197e-01,-2.221261560916900635e-01,3.143335580825805664e-01,1.350038528442382812e+00,6.648942828178405762e-01,9.724171757698059082e-01,8.222517371177673340e-01,-7.300127148628234863e-01,-5.427593588829040527e-01,-1.675812244415283203e+00,6.316416859626770020e-01,-1.115488529205322266e+00,-7.300286293029785156e-01,1.861874908208847046e-01,-2.096335887908935547e+00,-1.238092899322509766e+00,-9.388243556022644043e-01,7.248373031616210938e-01,8.299360871315002441e-01,-7.644334435462951660e-01,-2.027207851409912109e+00,1.333845376968383789e+00,3.531506955623626709e-01,-4.563001692295074463e-01,2.161077499389648438e+00,-3.449778854846954346e-01
9.532430171966552734e-01,1.721069812774658203e-01,7.268646955490112305e-01,8.938674330711364746e-01,-1.036100625991821289e+00,-3.728905022144317627e-01,3.659614026546478271e-01,4.607824683189392090e-01,-2.148167043924331665e-01,-1.460194706916809082e+00,-3.910157978534698486e-01,1.153076887130737305e+00,5.088020563125610352e-01,6.047846674919128418e-01,-1.080591082572937012e+00,8.094080686569213867e-01,1.976036071777343750e+00,-8.214545249938964844e-01,7.077739834785461426e-01,-3.872844874858856201e-01,1.315102279186248779e-01,6.934510171413421631e-02,6.644396781921386719e-01,1.000417470932006836e+00,-1.723020911216735840e+00,2.192238330841064453e+00,3.776023983955383301e-01,1.003850221633911133e+00,2.269094809889793396e-02,3.826523125171661377e-01,-2.699517607688903809e-01,-2.951867282390594482e-01,8.432745933532714844e-01,1.301974058151245117e+00,-2.357644557952880859e+00,1.354639530181884766e+00,1.675596594810485840e+00,-2.683416604995727539e-01,6.863523721694946289e-01,1.256072223186492920e-01,-4.174412488937377930e-01,1.087800338864326477e-01,1.020808815956115723e+00,5.542643070220947266e-01,-8.427276462316513062e-02,8.440852165222167969e-02,-8.099126815795898438e-01,-1.155398726463317871e+00,1.450028419494628906e+00,-1.013652920722961426e+00,-6.257326900959014893e-02,-9.036465287208557129e-01,-1.006451606750488281e+00,-4.731516838073730469e-01,1.310548543930053711e+00,1.822005391120910645e+00,-2.416660308837890625e+00,3.210276737809181213e-02
7.345472574234008789e-01,-1.962525486946105957e+00,1.396485924720764160e+00,1.273979306221008301e+00,-1.750409416854381561e-02,1.261943340301513672e+00,-8.831371669657528400e-04,2.979523539543151855e-01,-1.012607336044311523e+00,9.341346621513366699e-01,5.620474219322204590e-01,4.876404702663421631e-01,-2.494497537612915039e+00,-7.851119041442871094e-01,4.552283510565757751e-02,-5.182209014892578125e-01,5.501125454902648926e-01,-1.379914522171020508e+00,1.658641457557678223e+00,1.037660479545593262e+00,-1.773459315299987793e+00,-6.940930336713790894e-02,1.432514905929565430e+00,4.775933027267456055e-01,-5.205628871917724609e-01,2.649582862854003906e+00,2.137317359447479248e-01,-1.023882746696472168e+00,-1.327140212059020996e+00,1.564058899879455566e+00,2.467741072177886963e-01,-8.332571983337402344e-01,-6.650488972663879395e-01,1.677648425102233887e-01,4.566611945629119873e-01,-6.590219736099243164e-01,-7.807090282440185547e-01,-5.352849960327148438e-01,1.571561455726623535e+00,5.181217789649963379e-01,2.129570722579956055e+00,1.292480587959289551e+00,-1.741448640823364258e-01,1.932449817657470703e+00,4.061819911003112793e-01,8.292801976203918457e-01,1.754533499479293823e-01,-2.922878026962280273e+00,-3.969807028770446777e-01,-2.389159202575683594e-01,-4.510804414749145508e-01,-2.111143618822097778e-02,-1.791354268789291382e-01,1.135725736618041992e+00,-5.552251338958740234e-01,-2.800340950489044189e-01,-1.315895557403564453e+00,7.409921288490295410e-02
6.736971735954284668e-01,-1.586723446846008301e+00,-1.618830323219299316e+00,-2.275506019592285156e+00,-4.579740762710571289e-01,1.153593540191650391e+00,-1.763685792684555054e-02,-5.661157369613647461e-01,-8.741228580474853516e-01,-2.065920352935791016e+00,-2.143136739730834961e+00,8.071752786636352539e-01,2.469684779644012451e-01,-1.400618791580200195e+00,5.016037225723266602e-01,9.971855878829956055e-01,1.093837380409240723e+00,-2.589460313320159912e-01,-2.721898555755615234e-01,-1.609061241149902344e+00,-4.037595689296722412e-01,1.421983242034912109e+00,-1.780045390129089355e+00,-5.106666684150695801e-01,-6.088681221008300781e-01,-2.127065509557723999e-02,-2.122649997472763062e-01,-9.241483807563781738e-01,2.151552587747573853e-01,-3.881849944591522217e-01,3.689857721328735352e-01,-4.714430570602416992e-01,-9.218840003013610840e-01,5.779821872711181641e-01,4.192441105842590332e-01,1.914382576942443848e+00,1.515235185623168945e+00,5.956732630729675293e-01,-5.930815339088439941e-01,5.301069617271423340e-01,3.626000404357910156e+00,1.668156124651432037e-02,-2.057206816971302032e-02,-2.865538895130157471e-01,-7.338086366653442383e-01,-9.296666383743286133e-01,-8.757892847061157227e-01,3.453088104724884033e-01,2.198654174804687500e+00,1.592203855514526367e+00,3.121854662895202637e-01,1.730662435293197632e-01,-1.196898341178894043e+00,7.798452973365783691e-01,6.079435348510742188e-01,7.371174693107604980e-01,-1.808868646621704102e-01,-4.036204814910888672e-01
-7.353601045906543732e-03,-7.402557134628295898e-01,6.334517002105712891e-01,3.394407033920288086e-01,-1.149019718170166016e+00,2.083554416894912720e-01,-5.445239543914794922e-01,-1.184069752693176270e+00,9.233422875404357910e-01,4.260548353195190430e-01,-1.367221474647521973e+00,1.499699234962463379e+00,-1.188159584999084473e+00,7.445043325424194336e-01,-4.838551282882690430e-01,-6.074106097221374512e-01,2.369639277458190918e-01,-6.683585643768310547e-01,3.704698383808135986e-01,3.435247838497161865e-01,-1.236264228820800781e+00,2.884715795516967773e-01,3.311041593551635742e-01,-1.124529466032981873e-01,1.113294124603271484e+00,8.753282018005847931e-03,2.802374064922332764e-01,-3.929460942745208740e-01,-9.559488892555236816e-01,3.772714138031005859e-01,-5.659563541412353516e-01,5.841197371482849121e-01,2.913027405738830566e-01,-1.294666051864624023e+00,-6.278755068778991699e-01,-1.570140719413757324e-01,-5.955439209938049316e-01,4.000799655914306641e-01,-8.602710962295532227e-01,-1.017756223678588867e+00,1.632656216621398926e+00,1.456362605094909668e+00,1.715993881225585938e-01,-7.909530997276306152e-01,-2.596586942672729492e+00,-2.634121477603912354e-01,1.240872859954833984e+00,-9.835561513900756836e-01,1.191797971725463867e+00,7.094212770462036133e-01,-1.826637387275695801e+00,-1.011653423309326172e+00,1.275709569454193115e-01,2.673398330807685852e-02,-1.037109494209289551e+00,2.764430046081542969e-01,-7.600016593933105469e-01,1.285518169403076172e+00
-1.329125165939331055e+00,-2.104621529579162598e-01,-1.890375316143035889e-01,-9.401387572288513184e-01,-7.926341295242309570e-01,-2.351027965545654297e+00,4.113830327987670898e-01,8.592297434806823730e-01,-3.831186294555664062e-01,-5.742133259773254395e-01,2.277607917785644531e+00,6.713045835494995117e-01,8.313208222389221191e-01,7.678411006927490234e-01,-5.661049485206604004e-02,-2.222062647342681885e-01,-8.851351141929626465e-01,-3.461779952049255371e-01,-1.141972541809082031e+00,-4.403972625732421875e-01,-8.917580246925354004e-01,-2.969290316104888916e-01,-3.857220113277435303e-01,3.806950449943542480e-01,4.293769001960754395e-01,9.701309800148010254e-01,9.840551018714904785e-01,2.061871588230133057e-01,-1.808345466852188110e-01,1.005771160125732422e+00,-2.330960184335708618e-01,-3.684176504611968994e-01,-2.261374294757843018e-01,4.619141221046447754e-01,4.840142428874969482e-01,-4.795359671115875244e-01,-8.161296248435974121e-01,8.885591030120849609e-01,7.946714162826538086e-01,-5.607820749282836914e-01,-8.407354354858398438e-01,-5.926719307899475098e-01,7.841212749481201172e-01,9.323745965957641602e-02,-4.921548366546630859e-01,-5.922800898551940918e-01,-2.437229603528976440e-01,-1.694243431091308594e+00,-5.359055399894714355e-01,-2.857029736042022705e-01,2.075695991516113281e-01,7.286080121994018555e-01,-7.423543930053710938e-01,4.671197235584259033e-01,5.715499520301818848e-01,3.760519996285438538e-02,2.235078513622283936e-01,5.815169587731361389e-02
-6.731812357902526855e-01,3.285865485668182373e-02,1.452223658561706543e+00,-2.099910676479339600e-01,-1.566734194755554199e+00,3.360756635665893555e-01,-7.078138589859008789e-01,-1.166450828313827515e-01,-1.327506303787231445e+00,-9.053769707679748535e-01,4.000245034694671631e-02,8.482046127319335938e-01,7.057089209556579590e-01,6.782945990562438965e-02,6.416313052177429199e-01,-1.460721194744110107e-01,-2.914862334728240967e-01,4.555499851703643799e-01,9.014133810997009277e-01,6.350634694099426270e-01,4.417490065097808838e-01,4.645538926124572754e-01,5.666573643684387207e-01,-1.013985276222229004e+00,-8.574395775794982910e-01,-1.743987321853637695e+00,-2.453669160604476929e-01,3.716382682323455811e-01,-1.110378503799438477e-01,-6.227748468518257141e-02,9.625501632690429688e-01,-1.220405817031860352e+00,8.946837782859802246e-01,-1.361326932907104492e+00,-1.256567478179931641e+00,-4.918775260448455811e-01,3.626923561096191406e-01,5.369887351989746094e-01,-8.167219758033752441e-01,9.856213331222534180e-01,-7.009949088096618652e-01,-1.348364949226379395e-01,-1.499027311801910400e-01,1.782066106796264648e+00,-5.680180191993713379e-01,-1.971145868301391602e+00,-3.017019927501678467e-01,1.652559399604797363e+00,1.119923472404479980e+00,5.969401448965072632e-02,-4.960966855287551880e-02,-7.487563043832778931e-02,2.447847463190555573e-02,1.090373754501342773e+00,1.773843467235565186e-01,6.727623939514160156e-01,5.163537859916687012e-01,-9.075697064399719238e-01
-7.638309597969055176e-01,2.407693147659301758e+00,8.005937933921813965e-01,-1.025182604789733887e+00,1.504112243652343750e+00,-1.196156740188598633e+00,-6.043900847434997559e-01,-2.663699388504028320e-01,9.696056246757507324e-01,-2.357331275939941406e+00,-3.555782437324523926e-01,-1.262218952178955078e+00,1.009168386459350586e+00,1.228583455085754395e+00,2.604426741600036621e-01,-1.249657630920410156e+00,-2.164274305105209351e-01,-1.383751630783081055e+00,-2.812862396240234375e-01,-5.918743014335632324e-01,1.357241988182067871e+00,-2.778011746704578400e-02,-7.394648194313049316e-01,-6.070881709456443787e-02,-3.396469652652740479e-01,-4.153593182563781738e-01,-5.257494449615478516e-01,-5.916753411293029785e-01,3.614450097084045410e-01,-1.053222656250000000e+00,-1.134145334362983704e-01,1.543651074171066284e-01,2.575186491012573242e+00,-9.710847735404968262e-01,1.578567981719970703e+00,-4.274055063724517822e-01,3.339885175228118896e-01,-4.977655112743377686e-01,-9.854103922843933105e-01,4.703140854835510254e-01,-1.071581006050109863e+00,-5.233515501022338867e-01,-2.577872872352600098e-01,-2.198861539363861084e-01,1.240104556083679199e+00,-4.820247739553451538e-02,6.106119155883789062e-01,-2.043111085891723633e+00,4.920941591262817383e-01,6.424898505210876465e-01,-2.071537524461746216e-01,-7.212732434272766113e-01,2.127192497253417969e+00,-5.951328277587890625e-01,1.561248183250427246e+00,-2.342875748872756958e-01,-2.787227928638458252e-01,9.568576514720916748e-02
-3.543420732021331787e-01,8.157878518104553223e-01,-1.417892932891845703e+00,-7.591361999511718750e-01,8.989439010620117188e-01,-5.230854153633117676e-01,1.019642472267150879e+00,4.819610342383384705e-02,6.850847005844116211e-01,-6.208508014678955078e-01,-2.185754776000976562e-01,1.663090586662292480e-01,-1.111078023910522461e+00,5.659168958663940430e-01,7.408378720283508301e-01,1.384886264801025391e+00,1.166257381439208984e+00,6.301518082618713379e-01,-2.727948725223541260e-01,1.262806057929992676e+00,1.812709331512451172e+00,1.543389409780502319e-01,8.103352785110473633e-02,-1.179804325103759766e+00,2.277128994464874268e-01,8.054859042167663574e-01,1.744483411312103271e-02,-1.414074450731277466e-01,4.179686903953552246e-01,7.440060973167419434e-01,8.394798040390014648e-01,1.549720764160156250e-01,6.037708520889282227e-01,-2.092961549758911133e+00,-1.498347878456115723e+00,-1.524218440055847168e+00,-1.157578006386756897e-01,8.917193412780761719e-01,-2.962581217288970947e-01,-1.064792752265930176e+00,-1.532280087471008301e+00,2.174995899200439453e+00,-1.461256295442581177e-01,2.133395910263061523e+00,-4.603203833103179932e-01,9.747183918952941895e-01,4.075330793857574463e-01,-4.129754304885864258e-01,1.342606246471405029e-01,6.199802756309509277e-01,1.346073389053344727e+00,3.518025875091552734e-01,-9.632425308227539062e-01,-3.290186524391174316e-01,1.173247098922729492e+00,-1.326298862695693970e-01,4.081765413284301758e-01,-1.551015853881835938e+00
-1.750348694622516632e-02,1.218861579895019531e+00,1.502139270305633545e-01,9.108628630638122559e-01,1.669410347938537598e+00,-5.419134497642517090e-01,-4.186697602272033691e-01,-1.804326891899108887e+00,-5.627703666687011719e-01,-1.144550740718841553e-03,-1.626520901918411255e-01,8.426432013511657715e-01,-8.416619300842285156e-01,-1.136078953742980957e+00,1.288564682006835938e+00,-1.072121024131774902e+00,-1.601257920265197754e+00,1.196665048599243164e+00,1.115052580833435059e+00,-2.945749163627624512e-01,8.117432594299316406e-01,4.674348235130310059e-01,7.081943005323410034e-02,-2.813429534435272217e-01,7.535712718963623047e-01,1.053994655609130859e+00,-5.758142098784446716e-02,-4.433758556842803955e-01,-6.456748247146606445e-01,3.367271721363067627e-01,-9.890260547399520874e-02,1.710412204265594482e-01,-3.200904428958892822e-01,7.786819934844970703e-01,1.467333436012268066e+00,4.165900349617004395e-01,-9.700506925582885742e-01,6.131219267845153809e-01,-6.457504630088806152e-01,-9.295878410339355469e-01,-2.248484790325164795e-01,7.816017270088195801e-01,-1.528237313032150269e-01,-1.692420542240142822e-01,-1.785791039466857910e+00,-4.695102870464324951e-01,-3.903578221797943115e-01,-9.710817933082580566e-01,1.269015312194824219e+00,7.450884580612182617e-01,-1.772128224372863770e+00,-6.932272315025329590e-01,6.092312932014465332e-01,3.726403117179870605e-01,-2.513546943664550781e+00,-3.377823829650878906e-01,-4.862364828586578369e-01,6.542539596557617188e-01
4.246817529201507568e-02,8.625006079673767090e-01,-1.033709287643432617e+00,-4.914367496967315674e-01,-6.409169435501098633e-01,1.144364714622497559e+00,5.491875410079956055e-01,1.525436993688344955e-03,-6.733944416046142578e-01,-1.135196685791015625e+00,1.073196232318878174e-01,5.331830978393554688e-01,4.211185872554779053e-01,6.327939629554748535e-01,1.365195751190185547e+00,-1.187804579734802246e+00,2.598520219326019287e-01,8.504862338304519653e-02,8.979791998863220215e-01,-3.420348465442657471e-01,1.084637641906738281e+00,-9.159182310104370117e-01,1.402559727430343628e-01,-7.436404228210449219e-01,2.355823516845703125e-01,1.161931157112121582e-01,3.502759039402008057e-01,5.207574963569641113e-01,9.380978941917419434e-01,-6.661360859870910645e-01,3.918666839599609375e-01,-9.848802089691162109e-01,1.180983111262321472e-01,-2.269616365432739258e+00,8.535124063491821289e-01,-5.957134366035461426e-01,-6.704733371734619141e-01,8.920047283172607422e-01,-1.869589328765869141e+00,2.695781290531158447e-01,-1.958861827850341797e+00,-9.338769316673278809e-02,-6.635567545890808105e-02,2.667491436004638672e-01,3.586410522460937500e+00,-3.089321255683898926e-01,-6.733471751213073730e-01,-4.876933991909027100e-01,-9.825793504714965820e-01,1.049358248710632324e+00,-2.877309024333953857e-01,1.467568725347518921e-01,4.699795842170715332e-01,3.343023538589477539e+00,1.553973793983459473e+00,7.767344713211059570e-01,-1.693248748779296875e+00,8.399204611778259277e-01
2.179163455963134766e+00,-6.240309476852416992e-01,-3.565329611301422119e-01,7.862951755523681641e-01,1.403449773788452148e+00,1.809897422790527344e+00,-1.359292745590209961e+00,2.308431148529052734e+00,-4.569531679153442383e-01,-1.563946247100830078e+00,-7.969843745231628418e-01,1.905600547790527344e+00,-9.279183745384216309e-01,2.675395607948303223e-01,-6.085499525070190430e-01,6.390694379806518555e-01,1.089051365852355957e-02,1.032873272895812988e+00,1.743402242660522461e+00,-2.698340415954589844e-01,9.959537386894226074e-01,3.232914507389068604e-01,4.834570288658142090e-01,-3.625809848308563232e-01,7.880513668060302734e-01,-2.138829529285430908e-01,-5.257152915000915527e-01,2.212440669536590576e-01,-1.773676753044128418e+00,-4.168213009834289551e-01,5.984189510345458984e-01,-9.631321430206298828e-01,-2.280993014574050903e-01,8.773051500320434570e-01,-8.511347174644470215e-01,-1.075158715248107910e+00,-1.952119112014770508e+00,1.306703239679336548e-01,-1.834124326705932617e-01,-3.674190640449523926e-01,-6.934815049171447754e-01,4.357839822769165039e-01,-1.674563884735107422e-01,-7.084697484970092773e-01,1.222693562507629395e+00,-3.404961824417114258e-01,1.008949875831604004e+00,-9.423261880874633789e-01,1.297627806663513184e+00,-1.817513465881347656e+00,2.233067512512207031e+00,-9.493733942508697510e-02,-1.724011078476905823e-02,7.332686781883239746e-01,6.254137307405471802e-02,-1.414847970008850098e+00,-1.194890499114990234e+00,1.165444374084472656e+00
-1.466210246086120605e+00,-5.055883526802062988e-01,7.302335500717163086e-01,-1.661879777908325195e+00,-4.912734925746917725e-01,-1.712517440319061279e-01,2.029002755880355835e-01,1.576942801475524902e+00,5.079929232597351074e-01,3.482559025287628174e-01,-8.915568590164184570e-01,-7.744259238243103027e-01,1.779795408248901367e+00,2.168308198451995850e-01,-1.925326108932495117e+00,7.739315629005432129e-01,8.983986973762512207e-01,-1.099065780639648438e+00,-2.141840457916259766e+00,-2.053514480590820312e+00,-1.095584392547607422e+00,-2.079392969608306885e-01,-7.343736886978149414e-01,2.640760540962219238e-01,-9.864097833633422852e-01,-1.005352258682250977e+00,-1.276118278503417969e+00,9.290488064289093018e-02,-7.842860221862792969e-01,-5.492988824844360352e-01,1.098603129386901855e+00,-1.215932726860046387e+00,-2.050495862960815430e+00,-1.040808916091918945e+00,-1.279286384582519531e+00,1.730939507484436035e+00,-7.132519483566284180e-01,-1.079716444015502930e+00,-4.998278245329856873e-02,1.884718537330627441e+00,-1.350956559181213379e+00,-4.477778375148773193e-01,-1.417335718870162964e-01,1.455220103263854980e+00,1.524956464767456055e+00,-5.101792886853218079e-02,-1.154051870107650757e-01,-1.155414462089538574e+00,5.935641005635261536e-03,5.073806047439575195e-01,7.917121797800064087e-02,-2.200231075286865234e+00,-4.874127507209777832e-01,5.647017955780029297e-01,-2.208193689584732056e-01,7.401844859123229980e-01,-6.290087103843688965e-01,-9.920349717140197754e-01
-1.763838231563568115e-01,5.001401901245117188e-01,-1.235599040985107422e+00,-1.235409229993820190e-01,-9.048969149589538574e-01,-8.953011035919189453e-01,-3.984402120113372803e-01,-8.807701468467712402e-01,2.508985996246337891e-01,-5.644963681697845459e-02,1.203340053558349609e+00,-3.062636554241180420e-01,-6.086265668272972107e-02,-1.004355669021606445e+00,-5.247731506824493408e-02,-1.457818746566772461e+00,1.575654625892639160e+00,-5.549917221069335938e-01,-7.953149080276489258e-01,3.035136163234710693e-01,-2.192684076726436615e-02,-9.622997790575027466e-02,-1.563495039939880371e+00,1.000362277030944824e+00,-1.326326847076416016e+00,1.884372591972351074e+00,6.905465126037597656e-01,-4.870315194129943848e-01,-2.827852070331573486e-01,1.919933199882507324e+00,2.158451318740844727e+00,4.310392737388610840e-01,-1.137579679489135742e+00,1.269037842750549316e+00,1.087365671992301941e-02,-1.147058606147766113e+00,-5.023106336593627930e-01,2.778699874877929688e+00,6.034644246101379395e-01,1.455568671226501465e-01,-1.575347542762756348e+00,9.598641991615295410e-01,-1.052458524703979492e+00,-4.598845541477203369e-01,1.258406281471252441e+00,6.760836839675903320e-01,-1.312361001968383789e+00,4.635546207427978516e-01,1.416429430246353149e-01,8.385750055313110352e-01,3.284191489219665527e-01,6.086955070495605469e-01,-2.098893523216247559e-01,3.898418843746185303e-01,-1.695704162120819092e-01,5.639679357409477234e-02,-1.784008890390396118e-01,5.302309989929199219e-01
-1.416064262390136719e+00,9.883480072021484375e-01,-8.496353030204772949e-02,1.325835347175598145e+00,-1.156455636024475098e+00,9.096575379371643066e-01,-1.480669736862182617e+00,-9.420844316482543945e-01,3.641338646411895752e-01,-4.744839370250701904e-01,1.092899799346923828e+00,1.310813426971435547e-01,-1.770839691162109375e-01,-1.224247574806213379e+00,1.646284580230712891e+00,-8.897098898887634277e-01,-1.226052284240722656e+00,-6.757621169090270996e-01,-4.025250673294067383e-01,8.348969817161560059e-01,-1.575284123420715332e+00,1.148179650306701660e+00,-1.036316037178039551e+00,-3.231811225414276123e-01,-1.726844191551208496e+00,1.496015310287475586e+00,-4.100233782082796097e-03,-1.581741809844970703e+00,5.322889089584350586e-01,-8.291267156600952148e-01,3.503791093826293945e-01,-4.909701645374298096e-01,9.776059389114379883e-01,8.689305782318115234e-01,-1.958663582801818848e+00,-1.752858281135559082e+00,-1.004082784056663513e-01,-1.470376491546630859e+00,-4.666014313697814941e-01,1.119857192039489746e+00,7.329288721084594727e-01,-2.467004776000976562e+00,2.609491348266601562e-01,-3.363783657550811768e-01,8.073954582214355469e-01,9.390488862991333008e-01,-2.086703479290008545e-02,9.446582794189453125e-01,-4.060278236865997314e-01,3.552668392658233643e-01,-8.793399333953857422e-01,-1.256863355636596680e+00,-3.447325229644775391e-01,-9.357224106788635254e-01,8.341309428215026855e-01,1.566728949546813965e+00,-9.306892156600952148e-01,1.670345425605773926e+00
-6.096615791320800781e-01,4.160111248493194580e-01,-8.671325445175170898e-01,3.598995208740234375e-01,7.641485929489135742e-01,1.788694739341735840e+00,1.433678716421127319e-01,8.305020928382873535e-01,6.518299132585525513e-02,6.163596510887145996e-01,-8.768619038164615631e-03,-2.770434366539120674e-03,-2.080372810363769531e+00,-6.431580781936645508e-01,1.804852247238159180e+00,3.643457591533660889e-01,2.273152351379394531e+00,5.321273207664489746e-01,-1.566909313201904297e+00,3.333074450492858887e-01,-1.007268354296684265e-01,-6.085911393165588379e-01,-3.090054988861083984e-01,-6.506864428520202637e-01,-9.362965822219848633e-01,-2.067379951477050781e+00,9.929491877555847168e-01,-5.187698006629943848e-01,1.484437379986047745e-02,1.847364664077758789e+00,1.323009610176086426e+00,-1.530991792678833008e+00,8.648473024368286133e-01,7.653475403785705566e-01,8.037781715393066406e-01,-9.239202737808227539e-01,-1.191035151481628418e+00,-2.559411525726318359e+00,6.813473701477050781e-01,-1.906413793563842773e+00,2.586667835712432861e-01,-1.926339745521545410e+00,-4.888486266136169434e-01,-1.292301774024963379e+00,-4.754735231399536133e-01,-7.891562581062316895e-01,4.783478677272796631e-01,-2.130662053823471069e-01,-4.481287896633148193e-01,2.048323154449462891e-01,-1.270789623260498047e+00,9.332567453384399414e-01,9.576845765113830566e-01,3.817195594310760498e-01,-3.362707197666168213e-01,7.195656746625900269e-02,9.679128527641296387e-01,1.470546722412109375e+00
2.525902986526489258e-01,1.422566771507263184e-01,-1.318333297967910767e-01,-1.156537055969238281e+00,7.543067336082458496e-01,3.438030779361724854e-01,3.151933252811431885e-01,1.272265911102294922e+00,7.390512228012084961e-01,3.947934210300445557e-01,-1.170850038528442383e+00,5.988415479660034180e-01,1.092550516128540039e+00,1.574984312057495117e+00,-6.510884761810302734e-01,-6.351404190063476562e-01,6.921410560607910156e-01,-2.108612358570098877e-01,-4.765681549906730652e-02,2.039889693260192871e-01,3.904452919960021973e-01,-1.823650836944580078e+00,1.559506177902221680e+00,-4.087131619453430176e-01,1.305261015892028809e+00,1.167447641491889954e-01,3.794301748275756836e-01,5.951311439275741577e-02,2.264630347490310669e-01,-1.289061069488525391e+00,-9.970302581787109375e-01,5.308634042739868164e-01,-4.673214852809906006e-01,3.741304576396942139e-01,1.134372353553771973e+00,2.864971160888671875e-01,2.454598546028137207e-01,-8.767053484916687012e-01,-2.833482325077056885e-01,-1.046407222747802734e+00,-1.162119626998901367e+00,1.061518311500549316e+00,-8.267470002174377441e-01,5.552190542221069336e-01,7.737566232681274414e-01,9.538009762763977051e-01,2.324861735105514526e-01,8.663868159055709839e-02,-2.005589485168457031e+00,-1.637009717524051666e-02,1.016599178314208984e+00,3.187851980328559875e-02,1.441342979669570923e-01,-2.463986873626708984e-01,4.743943456560373306e-03,-6.690296530723571777e-01,-3.455176353454589844e+00,-4.516142010688781738e-01
-8.593261837959289551e-01,-5.254604667425155640e-02,-9.682434201240539551e-01,-3.224999457597732544e-02,1.655498743057250977e-01,-3.736510872840881348e-01,2.449891567230224609e+00,-4.538761079311370850e-02,2.284429371356964111e-01,1.557222902774810791e-01,-1.587428927421569824e+00,-7.104141116142272949e-01,-1.545038461685180664e+00,7.218281030654907227e-01,-8.101991415023803711e-01,-7.232241034507751465e-01,-8.450229167938232422e-01,2.440499663352966309e-01,-7.375524044036865234e-01,1.980891376733779907e-01,-4.973439276218414307e-01,1.575188875198364258e+00,-5.424297451972961426e-01,-5.496519804000854492e-02,5.218893885612487793e-01,1.073211953043937683e-01,-2.166973352432250977e-01,-5.020030140876770020e-01,-8.579388856887817383e-01,1.276660442352294922e+00,1.312260866165161133e+00,-3.387397229671478271e-01,1.519909858703613281e+00,2.479675412178039551e-01,2.450361251831054688e+00,-1.611765265464782715e+00,-1.307620108127593994e-01,1.254561901092529297e+00,-7.122760415077209473e-01,6.780931949615478516e-01,4.482895433902740479e-01,1.183861255645751953e+00,-2.517417669296264648e+00,-1.134376451373100281e-01,-9.937095642089843750e-02,7.064685821533203125e-01,-1.159387826919555664e+00,2.913611412048339844e+00,-5.039274692535400391e-01,-1.729513764381408691e+00,-6.082768440246582031e-01,-2.606312036514282227e+00,-1.688336849212646484e+00,8.824999332427978516e-01,-4.976808428764343262e-01,1.149207592010498047e+00,2.873690724372863770e-01,1.199685335159301758e+00
-6.491951346397399902e-01,-6.204693317413330078e-01,1.034012675285339355e+00,-1.688133925199508667e-01,8.945494890213012695e-01,-5.498538613319396973e-01,2.016306668519973755e-01,-3.870555162429809570e-01,-1.098141431808471680e+00,1.194994330406188965e+00,1.475674748420715332e+00,-1.288817450404167175e-02,-8.249263167381286621e-01,2.640873193740844727e+00,2.260721445083618164e+00,-9.549212455749511719e-01,4.718288779258728027e-01,-4.652744531631469727e-02,-2.930976629257202148e+00,-4.317262768745422363e-02,1.133574366569519043e+00,-2.489827573299407959e-01,9.690259695053100586e-01,2.006369233131408691e-01,4.732004404067993164e-01,-7.217938303947448730e-01,-1.339104056358337402e+00,-1.990572690963745117e+00,-3.101980090141296387e-01,1.649375915527343750e+00,7.950567603111267090e-01,6.516750436276197433e-03,-6.426762342453002930e-01,-1.687699705362319946e-01,-1.166234612464904785e+00,7.813348770141601562e-01,-9.324874281883239746e-01,9.617248773574829102e-01,-4.465995430946350098e-01,-2.075798511505126953e-01,6.775334477424621582e-01,-1.822759062051773071e-01,3.251937329769134521e-01,-2.757967710494995117e-01,8.090707063674926758e-01,-1.141550779342651367e+00,3.457088172435760498e-01,1.150274872779846191e+00,-5.462049245834350586e-01,4.606225490570068359e-01,-1.566000103950500488e+00,5.566700100898742676e-01,9.302414953708648682e-03,3.315364718437194824e-01,-6.925871968269348145e-01,1.168058067560195923e-01,7.424884438514709473e-01,4.890853464603424072e-01
8.560039997100830078e-01,1.037682145833969116e-01,3.795248866081237793e-01,6.393848657608032227e-01,1.176147818565368652e+00,-2.529276907444000244e-01,1.113070845603942871e+00,1.753864288330078125e+00,-5.680542588233947754e-01,1.383925795555114746e+00,1.469723224639892578e+00,1.721773862838745117e+00,-2.068051576614379883e+00,-3.965085148811340332e-01,3.963877260684967041e-01,3.763144314289093018e-01,1.202894091606140137e+00,-1.171944260597229004e+00,-1.054454326629638672e+00,2.346653223037719727e+00,-1.127283573150634766e+00,-7.749075889587402344e-01,-4.585268199443817139e-01,3.088504076004028320e-01,-3.345469534397125244e-01,-7.199017796665430069e-03,2.521233633160591125e-02,-5.565977096557617188e-01,-8.440802097320556641e-01,-1.209870100021362305e+00,6.488700509071350098e-01,-1.437422156333923340e+00,2.275293111801147461e+00,-6.699789166450500488e-01,-1.290679454803466797e+00,2.133753709495067596e-02,2.205668449401855469e+00,1.125367403030395508e+00,8.194966912269592285e-01,3.948969542980194092e-01,1.092871785163879395e+00,6.307829618453979492e-01,-2.980182468891143799e-01,2.170742034912109375e+00,-5.593437552452087402e-01,-1.177273392677307129e+00,-1.266751140356063843e-01,-6.058543324470520020e-01,4.571504294872283936e-01,1.263221740722656250e+00,1.258938550949096680e+00,-7.895922660827636719e-02,1.753623962402343750e+00,-1.882545113563537598e+00,-3.743945062160491943e-01,-1.070713639259338379e+00,-2.833157300949096680e+00,1.462539792060852051e+00
-1.952891945838928223e+00,1.615923792123794556e-01,-6.796708106994628906e-01,-3.784256055951118469e-02,1.466441273689270020e+00,4.195139706134796143e-01,2.384058386087417603e-01,-2.364348918199539185e-01,1.114099979400634766e+00,-1.471200823783874512e+00,2.040303707122802734e+00,1.007578969001770020e+00,-6.550514698028564453e-01,1.435977816581726074e+00,6.313357949256896973e-01,2.509371757507324219e+00,-4.690514206886291504e-01,2.902139723300933838e-01,1.735225915908813477e+00,6.745755076408386230e-01,7.036240100860595703e-01,2.337186187505722046e-01,7.097316980361938477e-01,-3.114185035228729248e-01,1.597338438034057617e+00,1.168148666620254517e-01,-5.485048294067382812e-01,-1.518532037734985352e+00,5.373646616935729980e-01,-1.137126311659812927e-01,1.281760782003402710e-01,-4.628976583480834961e-01,-8.439901471138000488e-01,4.482009410858154297e-01,4.892331957817077637e-01,-3.398712873458862305e-01,-6.848427057266235352e-01,-6.696552038192749023e-02,-7.775257825851440430e-01,1.715757608413696289e+00,-9.841822981834411621e-01,-1.017843961715698242e+00,-4.220504760742187500e-01,-4.392093122005462646e-01,-5.437982827425003052e-02,1.909743100404739380e-01,9.273740649223327637e-01,1.737519502639770508e-01,-1.263224959373474121e+00,1.659062504768371582e-01,1.595394611358642578e+00,-4.291841015219688416e-02,-2.456945031881332397e-01,-5.351133942604064941e-01,5.884125232696533203e-01,-4.574633836746215820e-01,1.006997346878051758e+00,-4.954418167471885681e-02
-1.445799946784973145e+00,-3.995729684829711914e-01,-1.902074813842773438e+00,3.363228440284729004e-01,1.161160230636596680e+00,-8.110273480415344238e-01,9.665339589118957520e-01,3.756548166275024414e-01,-3.655445277690887451e-01,-3.575941622257232666e-01,1.399250179529190063e-01,1.158491134643554688e+00,-1.539455503225326538e-01,-2.508289515972137451e-01,-8.123734593391418457e-02,3.923214077949523926e-01,3.386119604110717773e-01,-1.096302270889282227e+00,1.530562639236450195e-01,6.847667098045349121e-01,1.027270555496215820e+00,2.254395484924316406e+00,1.712656736373901367e+00,-2.844241261482238770e-01,1.438712477684020996e+00,-1.156290173530578613e+00,3.454001843929290771e-01,1.719854354858398438e+00,-6.732426881790161133e-01,9.822668433189392090e-01,-1.193586587905883789e-01,1.141490221023559570e+00,8.863921761512756348e-01,-1.071611166000366211e+00,-7.458763718605041504e-01,1.659603238105773926e+00,7.812646031379699707e-02,-7.581544667482376099e-02,1.040867120027542114e-01,-3.771837055683135986e-01,-3.671130537986755371e-01,-1.372274994850158691e+00,6.465692520141601562e-01,-1.402766630053520203e-02,-1.872113645076751709e-01,-7.845045328140258789e-01,-9.120271801948547363e-01,-8.978150784969329834e-02,-3.513664901256561279e-01,1.348011970520019531e+00,-5.111005902290344238e-01,-1.522653102874755859e+00,-3.002051413059234619e-01,1.164753794670104980e+00,-9.929423332214355469e-01,-1.950347721576690674e-01,2.306738495826721191e-01,-1.706012487411499023e-01
-6.508712768554687500e-01,-2.136620283126831055e+00,-1.735648989677429199e+00,-4.943846538662910461e-02,2.393367052078247070e+00,-6.891685128211975098e-01,-2.405796200037002563e-01,1.188602089881896973e+00,-1.192178845405578613e+00,-6.653420329093933105e-01,-2.373777776956558228e-01,-6.386401653289794922e-01,4.075938835740089417e-02,7.251133024692535400e-02,-7.037205100059509277e-01,-5.998592972755432129e-01,1.069492459297180176e+00,-8.672407269477844238e-01,8.553398847579956055e-01,-9.794644266366958618e-02,-3.348666131496429443e-01,1.085514664649963379e+00,-1.526236176490783691e+00,-2.444702535867691040e-01,5.423695445060729980e-01,6.464596837759017944e-02,9.900480508804321289e-01,7.340622544288635254e-01,-1.983548551797866821e-01,5.292659997940063477e-01,-4.877676367759704590e-01,-3.063064813613891602e-01,5.193404555320739746e-01,-5.372742414474487305e-01,7.475000619888305664e-01,5.953724384307861328e-01,-2.777794361114501953e+00,-1.486267447471618652e+00,2.303448878228664398e-02,1.201404809951782227e+00,3.540253043174743652e-01,-1.976057887077331543e-01,1.146992206573486328e+00,1.560650587081909180e+00,-2.240855842828750610e-01,-6.772058010101318359e-01,-1.580659747123718262e+00,1.330155849456787109e+00,-1.279838919639587402e+00,-5.157773848623037338e-03,-2.437451034784317017e-01,1.983621120452880859e+00,-9.307724237442016602e-01,1.663223862648010254e+00,-1.757983565330505371e+00,1.153819441795349121e+00,1.851411610841751099e-01,1.748159885406494141e+00
-9.478055834770202637e-01,5.049996972084045410e-01,6.161347031593322754e-02,-5.907167196273803711e-01,8.396906256675720215e-01,-8.990907073020935059e-01,9.238928556442260742e-01,1.358694195747375488e+00,-1.050328493118286133e+00,-6.110586524009704590e-01,6.055942550301551819e-02,1.346444725990295410e+00,1.730378508567810059e+00,1.593896299600601196e-01,-4.637537300586700439e-01,-6.022680401802062988e-01,-3.950537443161010742e-01,-8.372597098350524902e-01,1.924322605133056641e+00,1.064819455146789551e+00,7.989097386598587036e-02,6.281105875968933105e-01,-1.481509804725646973e+00,-6.138365268707275391e-01,3.565111160278320312e-01,8.278644084930419922e-01,1.505132615566253662e-01,-1.857837438583374023e-01,-1.436149120330810547e+00,-3.221013545989990234e-01,2.119847536087036133e+00,-8.810980916023254395e-01,1.331634163856506348e+00,1.381298780441284180e+00,2.018101960420608521e-01,-4.423758387565612793e-01,-1.157217979431152344e+00,-9.125159382820129395e-01,1.480202555656433105e+00,-1.366917371749877930e+00,1.000336289405822754e+00,8.664082735776901245e-02,1.348610594868659973e-02,2.163856267929077148e+00,-3.129361271858215332e-01,-1.889083236455917358e-01,1.627623915672302246e+00,2.309996843338012695e+00,8.290004730224609375e-01,6.588234752416610718e-02,-3.008996546268463135e-01,-1.522973418235778809e+00,-1.808736681938171387e+00,1.618866473436355591e-01,-6.054778695106506348e-01,1.066404700279235840e+00,-5.164670944213867188e-01,-1.369625687599182129e+00
1.946035027503967285e-01,-2.207429260015487671e-01,-1.699557304382324219e-01,-1.909335255622863770e-01,-1.458370089530944824e+00,-1.027735024690628052e-01,-5.433452725410461426e-01,-8.716723918914794922e-01,3.275521993637084961e-01,6.215472817420959473e-01,4.956118166446685791e-01,5.611686110496520996e-01,-1.164861679077148438e+00,-2.929108738899230957e-01,-5.254424810409545898e-01,8.254024386405944824e-01,3.397110998630523682e-01,-4.805693328380584717e-01,2.139012336730957031e+00,-7.761160731315612793e-01,-1.043874263763427734e+00,1.584443807601928711e+00,4.507875442504882812e-01,2.356537878513336182e-01,1.573925614356994629e+00,-8.864977955818176270e-01,-1.570524424314498901e-01,1.510624289512634277e+00,7.902985811233520508e-01,8.080635666847229004e-01,4.975627660751342773e-01,5.502219796180725098e-01,-1.037925839424133301e+00,-6.647155880928039551e-01,1.248641371726989746e+00,3.087076246738433838e-01,1.260046362876892090e+00,1.181093811988830566e+00,2.717880010604858398e+00,6.191637516021728516e-01,-1.198822185397148132e-01,-6.474200487136840820e-01,-8.378246426582336426e-01,-2.505761623382568359e+00,2.171375751495361328e-01,-8.127171397209167480e-01,-6.094537973403930664e-01,1.362421989440917969e+00,-3.224273025989532471e-01,1.104491114616394043e+00,9.695881009101867676e-01,-1.950599439442157745e-02,7.634081244468688965e-01,-1.274165391921997070e+00,4.444879889488220215e-01,-9.210121631622314453e-01,2.603032350540161133e+00,2.188682183623313904e-02
1.174413323402404785e+00,2.689820528030395508e-01,-1.951690435409545898e+00,2.521050691604614258e+00,1.155557394027709961e+00,-2.860234081745147705e-01,2.517383694648742676e-01,-4.012065529823303223e-01,-5.496951341629028320e-01,2.601892352104187012e-01,2.074567079544067383e+00,-4.340331852436065674e-01,3.537845611572265625e-01,8.642971515655517578e-01,-6.899946928024291992e-01,7.486900687217712402e-01,-1.956163287162780762e+00,-5.386524200439453125e-01,1.899195671081542969e+00,1.074743270874023438e+00,1.160881519317626953e+00,-1.516460180282592773e+00,-8.239918351173400879e-01,1.032127976417541504e+00,-2.397823780775070190e-01,-4.455958008766174316e-01,-6.673596501350402832e-01,-4.284932613372802734e-01,-5.437319353222846985e-02,3.905020654201507568e-01,1.123645663261413574e+00,3.681010305881500244e-01,-1.855015605688095093e-01,-7.429945468902587891e-01,2.914862334728240967e-01,-9.790005534887313843e-02,-1.050041168928146362e-01,-8.452468514442443848e-01,1.377593517303466797e+00,9.890519976615905762e-01,-2.100929021835327148e+00,1.480607032775878906e+00,-7.095410227775573730e-01,6.066988110542297363e-01,2.977370843291282654e-02,8.768986910581588745e-02,6.688597798347473145e-01,-1.454995423555374146e-01,-6.124811246991157532e-02,1.057625889778137207e+00,3.812423348426818848e-01,-2.616005241870880127e-01,4.047759175300598145e-01,4.557085782289505005e-02,5.753206610679626465e-01,-5.770111083984375000e-01,-1.298783063888549805e+00,-1.448654651641845703e+00
