-1.468911290168762207e+00,1.310380458831787109e+00,-7.248326390981674194e-02,-1.457555651664733887e+00,-4.200269579887390137e-01,1.408347725868225098e+00,-4.317008554935455322e-01,-1.354552388191223145e+00,5.728401709347963333e-03,-7.044700384140014648e-01,-8.578058481216430664e-01,2.658063173294067383e-01,-1.609536528587341309e+00,-2.271983074024319649e-03,8.243583440780639648e-01,2.171451896429061890e-01,-1.315279126167297363e+00,-3.230595886707305908e-01,1.357636809349060059e+00,-1.735010385513305664e+00,-1.606203764677047729e-01,1.296566843986511230e+00,-1.130879402160644531e+00,-2.015893012285232544e-01,-1.429873466491699219e+00,1.303263902664184570e-01,1.702910065650939941e-01,-1.952744603157043457e+00,1.193199992179870605e+00,-3.053420223295688629e-02,-7.871881723403930664e-01,-8.526398539543151855e-01,6.849685907363891602e-01,6.473220586776733398e-01,1.180144846439361572e-01,-1.340802311897277832e+00,-7.904196977615356445e-01,4.542500376701354980e-01,-3.887977898120880127e-01,2.437648773193359375e-01,1.740447521209716797e+00,-9.645666480064392090e-01,-4.595290422439575195e-01,8.807772397994995117e-01,-1.880133152008056641e+00,-1.976470202207565308e-01,1.315864443778991699e+00,2.089403569698333740e-01,2.090234309434890747e-01,1.514255255460739136e-01,-1.011351108551025391e+00,-7.867645025253295898e-01,-6.515228748321533203e-01,-6.179440617561340332e-01,8.256901800632476807e-02,-4.034533500671386719e-01,-4.488947987556457520e-01,1.838485121726989746e+00
4.822575747966766357e-01,2.969089150428771973e-02,1.634131073951721191e+00,4.391106665134429932e-01,1.889436483383178711e+00,-1.007015228271484375e+00,-9.603777527809143066e-02,-3.043989241123199463e-01,1.731818795204162598e+00,-2.053257226943969727e-01,1.767692118883132935e-01,-9.036414027214050293e-01,5.749807134270668030e-02,5.248666405677795410e-01,-1.288555502891540527e+00,-1.763475090265274048e-01,-6.382180005311965942e-02,1.635859906673431396e-01,6.276684403419494629e-01,-2.496926337480545044e-01,2.648430466651916504e-01,-4.680335819721221924e-01,2.677568495273590088e-01,-1.324423074722290039e+00,1.275922417640686035e+00,-3.564659953117370605e-01,-2.304350435733795166e-01,1.861690878868103027e-01,1.697903394699096680e+00,-1.501456379890441895e+00,1.598024368286132812e+00,5.827441811561584473e-02,3.900397419929504395e-01,1.299036264419555664e+00,-1.193138659000396729e-01,-7.762289047241210938e-01,-1.359755992889404297e+00,3.204121440649032593e-02,8.325020670890808105e-01,-1.270140647888183594e+00,2.181380838155746460e-01,7.272133827209472656e-01,7.893427014350891113e-01,-4.296173527836799622e-02,-1.383029818534851074e+00,-3.536998033523559570e-01,-2.097503423690795898e+00,1.074339270591735840e+00,8.068026900291442871e-01,-1.898847341537475586e+00,2.229932397603988647e-01,-1.578748971223831177e-01,8.835226893424987793e-01,-3.512276113033294678e-01,5.230115056037902832e-01,3.745515048503875732e-01,2.321679830551147461e+00,5.388851761817932129e-01
1.770065307617187500e+00,3.145430386066436768e-01,-1.450949907302856445e+00,5.096240639686584473e-01,-7.711119055747985840e-01,2.160501480102539062e+00,-1.448293447494506836e+00,-5.333074927330017090e-01,-4.813830852508544922e-01,1.420920491218566895e+00,4.155714809894561768e-02,-3.087070584297180176e-01,1.761944532394409180e+00,5.376229882240295410e-01,-1.868536353111267090e+00,-4.418149590492248535e-01,2.644841074943542480e-01,-3.617894351482391357e-01,-5.603796839714050293e-01,-2.411978989839553833e-01,1.751760721206665039e+00,6.966261267662048340e-01,1.686204671859741211e-01,3.572705388069152832e-01,3.475542366504669189e-01,-2.467053890228271484e+00,-1.026794791221618652e+00,-8.734520673751831055e-01,6.086483001708984375e-01,5.811870098114013672e-01,-1.487869143486022949e+00,1.924849390983581543e+00,-1.042303144931793213e-01,-1.509309649467468262e+00,5.138301849365234375e-01,1.506275177001953125e+00,-5.828487873077392578e-02,-1.972929537296295166e-01,-1.174600124359130859e+00,-1.857291698455810547e+00,9.075680375099182129e-01,1.650313735008239746e-01,-1.753385215997695923e-01,8.169180154800415039e-01,-8.650652598589658737e-04,5.041646361351013184e-01,3.132103085517883301e-01,3.645139932632446289e-01,8.299611508846282959e-02,-6.184902414679527283e-02,-4.502323567867279053e-01,-3.134616315364837646e-01,6.596262454986572266e-01,7.823452949523925781e-01,1.749433279037475586e+00,7.953826785087585449e-01,-7.833956182003021240e-02,1.055552959442138672e+00
-1.061883330345153809e+00,2.363887786865234375e+00,5.975650623440742493e-02,-8.272163271903991699e-01,-1.479194760322570801e-01,-7.503824830055236816e-01,1.627161502838134766e+00,-4.616135358810424805e-01,1.850422143936157227e+00,-7.126026153564453125e-01,-1.936312466859817505e-01,9.692646861076354980e-01,7.230572402477264404e-02,-3.008052110671997070e-01,-9.977113008499145508e-01,2.769837677478790283e-01,-1.703077912330627441e+00,1.361939668655395508e+00,-1.068051680922508240e-01,5.274069309234619141e-01,4.923788309097290039e-01,2.675085663795471191e-01,9.557095766067504883e-01,-2.488549947738647461e-01,-7.911163568496704102e-01,1.524771690368652344e+00,-4.313522577285766602e-01,-1.353734284639358521e-01,-5.286118984222412109e-01,-1.713986992835998535e+00,-4.061245918273925781e-01,2.265480995178222656e+00,-9.930549263954162598e-01,-1.956665366888046265e-01,1.228027462959289551e+00,-2.162334918975830078e+00,-1.429497003555297852e-01,-3.217760622501373291e-01,-6.616086363792419434e-01,-6.215487718582153320e-01,1.268536448478698730e-01,-3.805036544799804688e-01,-4.236071109771728516e-01,-5.894296765327453613e-01,-6.869936585426330566e-01,7.868342399597167969e-01,1.503698945045471191e+00,-2.982721626758575439e-01,2.624709904193878174e-01,-1.122709587216377258e-01,-3.213461637496948242e-01,1.318996101617813110e-01,-5.461454987525939941e-01,-1.569590531289577484e-02,4.323050379753112793e-01,7.196261286735534668e-01,-1.533495664596557617e+00,-6.269134581089019775e-02
6.008092314004898071e-02,1.421283721923828125e+00,-3.596182465553283691e-01,9.850941896438598633e-01,1.781874179840087891e+00,2.391623705625534058e-01,-1.397449612617492676e+00,8.258249759674072266e-01,1.986843645572662354e-01,-7.730047702789306641e-01,-3.835279941558837891e-01,5.171666741371154785e-01,-1.553976535797119141e+00,1.175753116607666016e+00,3.526354432106018066e-01,-7.265257239341735840e-01,-4.998116493225097656e-01,1.356765508651733398e+00,-1.825301051139831543e-01,-1.172220349311828613e+00,-2.155885457992553711e+00,1.512128829956054688e+00,-6.491307020187377930e-01,-3.164103627204895020e-01,1.469359755516052246e+00,-2.223455756902694702e-01,4.111134707927703857e-01,2.821879982948303223e-01,1.013404965400695801e+00,2.729677259922027588e-01,3.627933263778686523e-01,7.705771923065185547e-01,3.220761120319366455e-01,3.004963397979736328e-01,1.414827823638916016e+00,6.453789472579956055e-01,-1.281738758087158203e+00,1.726719260215759277e+00,1.859851717948913574e+00,-3.825258314609527588e-01,-1.424738883972167969e+00,-1.881538271903991699e+00,-1.229304909706115723e+00,1.411817550659179688e+00,-6.844047904014587402e-01,9.515680670738220215e-01,-1.028805136680603027e+00,4.814939200878143311e-01,1.432576537132263184e+00,1.413086149841547012e-02,1.332980871200561523e+00,5.480058193206787109e-01,4.738001823425292969e-01,-4.981041550636291504e-01,2.022425085306167603e-01,1.850040674209594727e+00,-4.194750189781188965e-01,-9.571237117052078247e-02
1.759512573480606079e-01,-1.996170431375503540e-01,-1.527256488800048828e+00,-3.829644918441772461e-01,1.403717875480651855e+00,-1.369179606437683105e+00,1.330495357513427734e+00,-3.049491345882415771e-01,5.651279687881469727e-01,-1.882147192955017090e-01,6.416079401969909668e-02,-1.159225821495056152e+00,1.419264316558837891e+00,3.575077652931213379e-01,1.003418087959289551e+00,1.018380403518676758e+00,-2.500941753387451172e+00,4.035145342350006104e-01,5.781174302101135254e-01,-2.311747819185256958e-01,-1.137878417968750000e+00,-8.435031771659851074e-01,5.077124834060668945e-01,-7.952485680580139160e-01,2.347526252269744873e-01,-2.264282703399658203e+00,-5.060928463935852051e-01,-1.344238281250000000e+00,8.015208691358566284e-02,1.738136172294616699e+00,-2.539856135845184326e-01,2.814037203788757324e-01,-8.631154894828796387e-01,-4.265525043010711670e-01,1.058276057243347168e+00,-1.077832818031311035e+00,-1.239882469177246094e+00,-1.421239137649536133e+00,-9.355815649032592773e-01,-3.589806854724884033e-01,-3.828384578227996826e-01,-1.143458247184753418e+00,8.786667585372924805e-01,-1.380870938301086426e-01,1.046526670455932617e+00,-8.693563342094421387e-01,2.550173103809356689e-01,1.029729723930358887e+00,1.201247811317443848e+00,-1.163311362266540527e+00,8.545967936515808105e-01,-1.445882558822631836e+00,-2.438562065362930298e-01,1.026360273361206055e+00,-5.674872919917106628e-02,-9.720609188079833984e-01,-2.827620208263397217e-01,1.702860593795776367e+00
7.892694473266601562e-01,2.896185398101806641e+00,-1.904982030391693115e-01,2.159376144409179688e+00,2.108921289443969727e+00,-1.284623384475708008e+00,-1.980194330215454102e+00,9.732429981231689453e-01,1.826868414878845215e+00,-3.634226918220520020e-01,4.242425858974456787e-01,1.132323026657104492e+00,-1.471052646636962891e+00,-5.365756154060363770e-01,1.748714148998260498e-01,1.108501911163330078e+00,-1.349417924880981445e+00,-4.921610355377197266e-01,-2.813502550125122070e-01,7.738156914710998535e-01,4.025644659996032715e-01,3.573251366615295410e-01,7.990236282348632812e-01,-1.791815996170043945e+00,-1.420198231935501099e-01,1.402382135391235352e+00,-2.270363457500934601e-02,-4.246309697628021240e-01,1.621505975723266602e+00,1.341272890567779541e-01,-9.010079503059387207e-01,-4.826774895191192627e-01,3.759384155273437500e-01,-5.496256351470947266e-01,-1.423851132392883301e+00,-3.097344376146793365e-02,-2.572861313819885254e-01,3.370116055011749268e-01,-1.644076466560363770e+00,-3.063972294330596924e-01,1.428207039833068848e+00,-2.068221122026443481e-01,1.207176923751831055e+00,3.150261640548706055e-01,-4.198166728019714355e-01,-7.698986530303955078e-01,9.444494843482971191e-01,-5.820021629333496094e-01,1.082819849252700806e-01,-4.206846952438354492e-01,8.104637861251831055e-01,1.160814389586448669e-01,1.903210766613483429e-02,-2.065098762512207031e+00,-8.006556630134582520e-01,8.018056750297546387e-01,-6.466087698936462402e-01,6.927009820938110352e-01
-1.735346019268035889e-01,-6.010833382606506348e-01,-7.235767245292663574e-01,1.874337792396545410e+00,-1.058518767356872559e+00,-6.497855186462402344e-01,5.500985383987426758e-01,-3.298233151435852051e-01,-1.025664210319519043e+00,-1.641769766807556152e+00,1.365183711051940918e+00,1.110247254371643066e+00,-1.039122939109802246e+00,1.383838802576065063e-01,-1.277923583984375000e+00,-8.164675831794738770e-01,-2.376359701156616211e+00,-1.046250820159912109e+00,-4.664909541606903076e-01,8.941368460655212402e-01,1.772210597991943359e+00,7.510984539985656738e-01,-5.014843493700027466e-02,-4.490051865577697754e-01,-2.200343310832977295e-01,1.286365509033203125e+00,2.135986804962158203e+00,3.697360754013061523e-01,8.315826952457427979e-02,2.930216491222381592e-01,1.042377352714538574e+00,9.742207080125808716e-02,3.712336719036102295e-01,1.829737663269042969e+00,1.074121966958045959e-01,4.721641838550567627e-01,1.571857333183288574e+00,7.672995328903198242e-01,-2.621964216232299805e+00,8.249315619468688965e-01,-4.005450606346130371e-01,6.023095250129699707e-01,5.779437422752380371e-01,7.823219299316406250e-01,1.418140888214111328e+00,1.489246129989624023e+00,-7.494430541992187500e-01,1.895581126213073730e+00,-3.682339489459991455e-01,-7.288939356803894043e-01,-1.546832919120788574e+00,7.476294040679931641e-01,-8.953265547752380371e-01,1.327677488327026367e+00,7.035378217697143555e-01,-3.472779095172882080e-01,-8.467255234718322754e-01,5.972863435745239258e-01
1.752784013748168945e+00,-4.927210882306098938e-02,-8.797162771224975586e-01,-9.703606367111206055e-01,-7.935932278633117676e-01,-1.391141772270202637e+00,-7.295579314231872559e-01,-3.546957075595855713e-01,-7.333003282546997070e-01,-3.171334862709045410e-01,5.819647312164306641e-01,1.727801442146301270e+00,1.046822428703308105e+00,-2.239808082580566406e+00,7.052103877067565918e-01,-7.764478921890258789e-01,-2.333936244249343872e-01,-4.493822157382965088e-02,-2.514081597328186035e-01,-2.086176723241806030e-01,2.044789195060729980e-01,6.152085065841674805e-01,-1.516297161579132080e-01,-3.835781812667846680e-01,-7.427471876144409180e-02,-9.748271703720092773e-01,-2.310776412487030029e-01,3.959210216999053955e-01,1.377555727958679199e+00,1.850939154624938965e+00,-1.540821671485900879e+00,-1.460682630538940430e+00,-5.137224793434143066e-01,-3.346290886402130127e-01,-5.733421444892883301e-02,-3.883914053440093994e-01,-4.364140927791595459e-01,9.917399287223815918e-02,-1.396478176116943359e+00,-1.201860785484313965e+00,-1.140156507492065430e+00,9.002309441566467285e-01,1.914591431617736816e+00,1.123785495758056641e+00,-3.317632377147674561e-01,6.510717272758483887e-01,-8.796638846397399902e-01,1.287794589996337891e+00,-7.769475579261779785e-01,6.830924749374389648e-01,6.755086779594421387e-01,-3.570710774511098862e-03,-3.017887592315673828e+00,-2.231034189462661743e-01,-8.210074305534362793e-01,2.725819647312164307e-01,1.056422948837280273e+00,-1.074526309967041016e+00
3.059742152690887451e-01,9.116681218147277832e-01,-5.684664845466613770e-01,-1.318453848361968994e-01,-1.248124986886978149e-01,1.020186185836791992e+00,4.810182750225067139e-01,-2.923440635204315186e-01,1.608710646629333496e+00,7.868025898933410645e-01,9.739114642143249512e-01,1.644327938556671143e-01,-8.165477514266967773e-01,5.649926662445068359e-01,-1.305630337446928024e-02,4.591695964336395264e-03,1.642656564712524414e+00,8.049688935279846191e-01,7.023392319679260254e-01,-4.329656958580017090e-01,-4.440513849258422852e-01,-1.131546139717102051e+00,-6.005676984786987305e-01,-9.569856524467468262e-01,1.359674334526062012e-01,5.644433498382568359e-01,6.905846595764160156e-01,6.600106954574584961e-01,1.194381117820739746e+00,-9.621902108192443848e-01,8.053008317947387695e-01,1.112757563591003418e+00,2.333850413560867310e-01,-3.415337502956390381e-01,1.465550065040588379e+00,2.775362730026245117e-01,3.365347683429718018e-01,-6.417658925056457520e-02,7.341296672821044922e-01,-3.685823976993560791e-01,2.196131944656372070e-01,1.483318448066711426e+00,2.886388778686523438e+00,2.143192768096923828e+00,9.839187376201152802e-03,-6.400358676910400391e-01,-1.665143854916095734e-02,6.045920252799987793e-01,-9.295327663421630859e-01,2.410036176443099976e-01,-1.099550008773803711e+00,-5.997540354728698730e-01,-5.652261972427368164e-01,1.577278494834899902e+00,-1.925714969635009766e+00,9.538517594337463379e-01,7.412629723548889160e-01,6.476266384124755859e-01
1.386371254920959473e-01,1.615225672721862793e+00,-1.061614990234375000e+00,-1.169914826750755310e-01,-2.537639439105987549e-01,7.259445637464523315e-02,2.341385334730148315e-01,6.279973983764648438e-01,-1.093784794211387634e-01,-2.769569456577301025e-01,1.414987444877624512e+00,9.887177944183349609e-01,2.833835184574127197e-01,-3.334722220897674561e-01,-7.799147963523864746e-01,1.352301239967346191e+00,-1.713396906852722168e+00,-8.775051832199096680e-01,1.526177644729614258e+00,4.683479070663452148e-01,1.877711527049541473e-02,1.109329938888549805e+00,-9.332812428474426270e-01,-6.930919289588928223e-01,-2.113218069076538086e+00,-4.795075058937072754e-01,-4.352876842021942139e-01,-3.766091465950012207e-01,-9.185562133789062500e-01,2.076722383499145508e+00,-1.199947595596313477e+00,1.919228672981262207e+00,-2.807639837265014648e-01,7.437584549188613892e-02,1.088843047618865967e-01,-2.784475982189178467e-01,-3.247837722301483154e-02,2.457192540168762207e-01,-2.362593412399291992e+00,9.522609710693359375e-01,-1.004096984863281250e+00,9.319751858711242676e-01,-5.965678021311759949e-02,6.081113815307617188e-01,8.856618404388427734e-01,-6.331573724746704102e-01,9.050759077072143555e-01,-5.707399845123291016e-01,-6.665213704109191895e-01,4.313705265522003174e-01,-1.673417836427688599e-01,-3.285633921623229980e-01,2.212307304143905640e-01,1.980190396308898926e+00,1.346171647310256958e-01,1.075078129768371582e+00,-1.549734115600585938e+00,-3.836134374141693115e-01
-7.329908013343811035e-02,2.994152903556823730e-01,3.120140433311462402e-01,4.816692769527435303e-01,-1.698427319526672363e+00,-1.070742011070251465e-01,-5.834677219390869141e-01,1.360159397125244141e+00,-6.134809181094169617e-02,8.865828514099121094e-01,-5.084256529808044434e-01,2.479397535324096680e+00,8.676683306694030762e-01,-6.755440831184387207e-01,-1.813825368881225586e-01,-1.411340951919555664e+00,-1.037924051284790039e+00,1.575656048953533173e-02,5.548781752586364746e-01,2.086905203759670258e-02,-9.005958437919616699e-01,1.205015778541564941e+00,-4.130230545997619629e-01,1.820948600769042969e+00,-7.302463054656982422e-01,-1.249616980552673340e+00,-5.341314673423767090e-01,2.357094734907150269e-01,3.971594870090484619e-01,1.653936743736267090e+00,-4.884214997291564941e-01,-4.482677876949310303e-01,8.827960491180419922e-02,-8.479788303375244141e-01,2.290061712265014648e+00,-9.049828648567199707e-01,9.633910655975341797e-01,5.917564034461975098e-01,7.725530862808227539e-01,-3.001216650009155273e-01,2.347739934921264648e+00,6.928617954254150391e-01,1.426094055175781250e+00,-1.064406275749206543e+00,-1.473905239254236221e-02,-1.906965732574462891e+00,-5.006418824195861816e-01,1.536778092384338379e+00,2.147418409585952759e-01,1.614145487546920776e-01,1.004081606864929199e+00,9.774290323257446289e-01,-6.934286952018737793e-01,2.084354639053344727e+00,-1.052447676658630371e+00,1.796920061111450195e+00,-5.739564299583435059e-01,-6.243011951446533203e-01
-3.409344851970672607e-01,1.458977341651916504e+00,-9.630087018013000488e-01,-1.777869939804077148e+00,-9.939361214637756348e-01,2.570102512836456299e-01,-6.691184043884277344e-01,-1.843810319900512695e+00,1.006674051284790039e+00,-1.449386477470397949e+00,3.746662735939025879e-01,7.951527833938598633e-01,-8.618218302726745605e-01,-2.202148735523223877e-01,-9.659431576728820801e-01,-1.286498188972473145e+00,-1.131727099418640137e+00,-1.401974558830261230e+00,4.058376848697662354e-01,3.163447678089141846e-01,-9.704084396362304688e-01,1.324366927146911621e+00,-1.427233815193176270e+00,1.655166968703269958e-02,8.732207119464874268e-02,1.442979574203491211e+00,7.367634177207946777e-01,5.505371689796447754e-01,6.727993953973054886e-03,-4.423976838588714600e-01,-1.639218211174011230e+00,2.781338691711425781e-01,-5.859251022338867188e-01,1.366795778274536133e+00,-6.247459650039672852e-01,2.658137381076812744e-01,5.208675861358642578e-01,-9.763279557228088379e-02,3.766561150550842285e-01,7.363026142120361328e-01,5.525118708610534668e-01,-8.031747937202453613e-01,-6.907328963279724121e-02,1.210621520876884460e-01,2.222880870103836060e-01,-6.218089535832405090e-02,3.650257289409637451e-01,1.175468564033508301e+00,5.351622104644775391e-01,3.594954013824462891e-01,-5.433396697044372559e-01,-2.553323209285736084e-01,-3.289164304733276367e-01,-5.036467313766479492e-01,-5.506923794746398926e-01,1.104106605052947998e-01,6.744084954261779785e-01,-1.193743467330932617e+00
1.931653261184692383e+00,5.563106536865234375e-01,4.652062430977821350e-02,-8.878719806671142578e-01,-2.319824934005737305e+00,-1.301134705543518066e+00,-7.497469186782836914e-01,-3.892824985086917877e-03,-4.599187672138214111e-01,3.990946114063262939e-01,-1.148274302482604980e+00,-4.478838667273521423e-02,-1.216256737709045410e+00,-1.855939984321594238e+00,-4.262121915817260742e-01,-1.588752508163452148e+00,5.126841664314270020e-01,9.069043993949890137e-01,1.113619685173034668e+00,5.152217745780944824e-01,1.138249158859252930e+00,-7.087212800979614258e-02,-1.711617857217788696e-01,-4.722661897540092468e-02,1.400287449359893799e-01,2.361239492893218994e-02,3.975428342819213867e-01,7.519242167472839355e-01,-1.016180515289306641e-01,-7.045599818229675293e-01,1.050754487514495850e-01,-6.017443537712097168e-01,6.115194782614707947e-02,-6.387726068496704102e-01,-9.772558212280273438e-01,-3.530927300453186035e-01,-1.083979964256286621e+00,1.709825873374938965e+00,-1.545922636985778809e+00,7.550289630889892578e-01,-2.698087692260742188e-01,5.074715986847877502e-02,-1.842079520225524902e+00,-5.699338316917419434e-01,2.463009804487228394e-01,-8.655905127525329590e-01,2.445365302264690399e-02,6.530142426490783691e-01,-1.082671642303466797e+00,-9.557340145111083984e-01,3.184601664543151855e-01,-3.275738358497619629e-01,-6.385725736618041992e-01,1.316042184829711914e+00,5.203675478696823120e-02,9.416772127151489258e-01,1.067026555538177490e-01,-1.486219167709350586e+00
7.938824892044067383e-01,9.577435851097106934e-01,4.275174736976623535e-01,-1.128394365310668945e+00,4.607841670513153076e-01,-2.246577262878417969e+00,-1.414621591567993164e+00,-9.471670389175415039e-01,1.192760944366455078e+00,-7.263653874397277832e-01,-1.357689350843429565e-01,1.858300805091857910e+00,6.473201327025890350e-03,-1.285894393920898438e+00,9.647741913795471191e-01,9.086220711469650269e-02,1.167677283287048340e+00,-8.852598667144775391e-01,-7.332617640495300293e-01,3.600264191627502441e-01,-2.664057910442352295e-01,1.124535918235778809e+00,7.185696959495544434e-01,1.215530782938003540e-01,3.333328664302825928e-01,1.644736886024475098e+00,4.166571199893951416e-01,9.869349598884582520e-01,5.525379776954650879e-01,2.362287938594818115e-01,-1.202424049377441406e+00,-8.129860162734985352e-01,1.092139363288879395e+00,5.234726071357727051e-01,1.639361381530761719e+00,-6.361942887306213379e-01,4.307532012462615967e-01,1.630716443061828613e+00,7.493063211441040039e-01,4.387987256050109863e-01,1.816659331321716309e+00,2.246682718396186829e-02,1.346608400344848633e+00,1.154987588524818420e-01,5.899235606193542480e-01,3.311403512954711914e+00,5.884170532226562500e-01,1.934143066406250000e+00,-6.070461273193359375e-01,6.690359115600585938e-02,-5.701170563697814941e-01,-7.251275777816772461e-01,5.939735770225524902e-01,1.521424889564514160e+00,1.269930601119995117e+00,-6.248452067375183105e-01,-1.550564914941787720e-01,9.355881810188293457e-01
2.049734354019165039e+00,-8.823761343955993652e-01,1.042253375053405762e+00,8.637459278106689453e-01,-4.270468950271606445e-01,7.502028346061706543e-02,2.638467550277709961e-01,-8.294333219528198242e-01,8.464868664741516113e-01,-9.612085223197937012e-01,8.941223621368408203e-01,8.988442420959472656e-01,-3.486294150352478027e-01,-4.847822189331054688e-01,-7.664164900779724121e-01,-6.467788815498352051e-01,-1.856724470853805542e-01,6.512496471405029297e-01,-1.268806219100952148e+00,2.619484066963195801e-01,-6.027361154556274414e-01,-6.709337234497070312e-01,-8.617913126945495605e-01,8.982753008604049683e-02,2.259050607681274414e-01,-1.190140843391418457e+00,-1.278505802154541016e+00,-5.284866094589233398e-01,1.596788644790649414e+00,1.539142727851867676e+00,-3.616870641708374023e-01,9.354699254035949707e-01,7.634049654006958008e-01,-1.499992728233337402e+00,1.353887915611267090e+00,-2.610331177711486816e-01,1.298172235488891602e+00,-3.717275559902191162e-01,-4.414717853069305420e-01,-4.586294889450073242e-01,-9.663403779268264771e-02,1.004902571439743042e-01,8.095329403877258301e-01,5.487425923347473145e-01,-2.075769662857055664e+00,-2.621239423751831055e-01,-1.391702651977539062e+00,6.372824311256408691e-01,-9.745177626609802246e-01,-2.442092150449752808e-01,-3.768411576747894287e-01,-8.769562840461730957e-01,-2.352737426757812500e+00,-6.405200958251953125e-01,3.854235112667083740e-01,-1.311449170112609863e+00,1.227365493774414062e+00,-1.025550067424774170e-01
9.106889963150024414e-01,4.282144606113433838e-01,-8.615679740905761719e-01,1.605763077735900879e+00,1.214651465415954590e+00,7.423743009567260742e-01,2.766420245170593262e-01,-7.630542516708374023e-01,1.215560674667358398e+00,-1.192148476839065552e-01,9.477661848068237305e-01,7.894344329833984375e-01,1.313288211822509766e+00,-4.079668223857879639e-02,-2.456037849187850952e-01,4.413535594940185547e-01,7.623927593231201172e-01,3.973835110664367676e-01,-1.667592376470565796e-01,8.595547676086425781e-01,-1.194325610995292664e-01,-1.552702188491821289e+00,-1.548984199762344360e-01,1.820036470890045166e-01,-5.066171884536743164e-01,1.027329206466674805e+00,-9.545624256134033203e-01,1.344599366188049316e+00,1.976593434810638428e-01,2.113317966461181641e+00,-6.388538479804992676e-01,2.104727506637573242e+00,-4.294034838676452637e-01,1.124911069869995117e+00,4.693279266357421875e-01,-1.597516059875488281e+00,-1.876874446868896484e+00,-1.946930766105651855e+00,-2.728535979986190796e-02,1.671370029449462891e+00,-1.876094460487365723e+00,5.221375226974487305e-01,3.985543847084045410e-01,-4.325487911701202393e-01,-9.635816812515258789e-01,-3.489942057058215141e-03,-4.838954806327819824e-01,2.369138240814208984e+00,-3.450042605400085449e-01,-9.511314034461975098e-01,-5.585269331932067871e-01,4.407466053962707520e-01,2.211396694183349609e+00,1.522105693817138672e+00,-9.406018257141113281e-01,2.174806445837020874e-01,4.864856004714965820e-01,-2.837387025356292725e-01
-2.785223424434661865e-01,-6.817122697830200195e-01,5.654603242874145508e-01,1.224117875099182129e+00,1.012675166130065918e-01,-1.520781636238098145e+00,-7.387493252754211426e-01,2.034169673919677734e+00,-1.516684412956237793e+00,-9.003311991691589355e-01,-2.618746459484100342e-02,1.561378836631774902e-01,-1.280613303184509277e+00,-8.384180068969726562e-01,-1.511428833007812500e+00,-1.746062636375427246e+00,7.158036231994628906e-01,1.369221568107604980e+00,-9.559964537620544434e-01,3.651562333106994629e-01,-4.431388974189758301e-01,1.137663841247558594e+00,1.714955717325210571e-01,2.073596268892288208e-01,-7.802548259496688843e-02,-1.331850528717041016e+00,-1.391236066818237305e+00,-3.632580637931823730e-01,2.089066267013549805e+00,-5.302674174308776855e-01,1.394848823547363281e+00,7.229053974151611328e-01,1.033847570419311523e+00,-1.594478964805603027e+00,-7.326672673225402832e-01,1.038451313972473145e+00,1.858134865760803223e-01,-1.347096085548400879e+00,-7.841520756483078003e-02,-3.707906603813171387e-02,-3.200991749763488770e-01,1.644218206405639648e+00,-6.514546871185302734e-01,-1.506540894508361816e+00,-4.419111907482147217e-01,-3.697427511215209961e-01,3.056300804018974304e-03,-7.018565535545349121e-01,-2.833251655101776123e-01,-3.648927509784698486e-01,-9.021815657615661621e-01,-9.103732705116271973e-01,-1.236652210354804993e-01,-1.357923448085784912e-01,3.259110748767852783e-01,1.169092729687690735e-01,-4.307160675525665283e-01,1.749674417078495026e-02
-8.942492008209228516e-01,-1.412865668535232544e-01,-1.183238983154296875e+00,-4.954077303409576416e-01,1.444827079772949219e+00,-4.835988879203796387e-01,2.090926766395568848e-01,2.152280062437057495e-01,-1.276944279670715332e+00,7.976160943508148193e-02,7.074695229530334473e-01,7.363713383674621582e-01,8.688799142837524414e-01,-4.848128259181976318e-01,-6.268975138664245605e-01,1.621426820755004883e+00,-1.684621930122375488e+00,1.190446496009826660e+00,-1.198283433914184570e+00,-1.000355277210474014e-02,-1.849201172590255737e-01,-2.619395256042480469e-01,-1.223387360572814941e+00,6.404601931571960449e-01,7.729467749595642090e-01,1.079924464225769043e+00,-9.397566914558410645e-01,-6.476637125015258789e-01,-1.935723274946212769e-01,1.332770228385925293e+00,1.481442570686340332e+00,1.083512425422668457e+00,5.177478790283203125e-01,2.195406258106231689e-01,3.889682292938232422e-01,3.379197716712951660e-01,4.023187756538391113e-01,5.372052788734436035e-01,-6.066600084304809570e-01,-5.339495539665222168e-01,-7.369796037673950195e-01,-5.659482479095458984e-01,-1.091767787933349609e+00,-5.357435345649719238e-01,3.895571231842041016e-01,3.370005488395690918e-01,-1.692182719707489014e-01,5.750151872634887695e-01,7.677921652793884277e-01,1.223789080977439880e-01,2.693327367305755615e-01,8.226080983877182007e-02,2.040776237845420837e-02,-2.512913048267364502e-01,-4.865918755531311035e-01,9.548508524894714355e-01,-1.929397433996200562e-01,-3.436055779457092285e-01
-1.298491120338439941e+00,1.222248911857604980e+00,7.943148016929626465e-01,8.725394606590270996e-01,-1.898113936185836792e-01,1.402284979820251465e+00,-3.700396120548248291e-01,5.527696609497070312e-01,-1.009759545326232910e+00,-1.759170651435852051e+00,-5.182710886001586914e-01,7.410304546356201172e-01,1.231179356575012207e+00,-8.077864050865173340e-01,-5.030310153961181641e-01,-5.510193854570388794e-02,5.324873924255371094e-01,2.497971802949905396e-01,-1.600798487663269043e+00,-1.555567830801010132e-01,-4.404864013195037842e-01,-2.114475816488265991e-01,-4.010591804981231689e-01,2.183637380599975586e+00,2.768511772155761719e-01,5.891675129532814026e-02,9.675788283348083496e-01,-1.191041246056556702e-01,-6.458413600921630859e-01,-8.942292928695678711e-01,3.301107585430145264e-01,7.500205039978027344e-01,1.338273882865905762e-01,-1.540802568197250366e-01,4.484815895557403564e-01,-9.956355690956115723e-01,-2.668435871601104736e-01,-1.151771903038024902e+00,1.494314968585968018e-01,2.964385151863098145e-01,1.693791598081588745e-01,1.267579913139343262e+00,-4.279984831809997559e-01,-1.094458103179931641e+00,-1.561450809240341187e-01,-1.149068832397460938e+00,7.353343963623046875e-01,-8.267894983291625977e-01,3.516797125339508057e-01,3.041868805885314941e-01,-4.995666909962892532e-03,-8.558512330055236816e-01,-6.004768013954162598e-01,-1.430307626724243164e+00,-7.372776865959167480e-01,3.173269331455230713e-01,-2.416939139366149902e-01,1.613865137100219727e+00
3.766147792339324951e-01,1.491119861602783203e+00,-1.789866209030151367e+00,-4.738070368766784668e-01,-2.723977565765380859e-01,-4.241138696670532227e-01,4.216394722461700439e-01,-5.061877965927124023e-01,1.730380177497863770e+00,1.122844696044921875e+00,2.259528040885925293e-01,7.439928054809570312e-01,1.452641606330871582e+00,9.880918264389038086e-01,1.594668984413146973e+00,4.772261381149291992e-01,1.483140140771865845e-01,-4.796967208385467529e-01,-1.955265551805496216e-01,3.172279298305511475e-01,1.557503789663314819e-01,-1.072320461273193359e+00,-5.212129354476928711e-01,5.741581916809082031e-01,-7.811094522476196289e-01,-9.168236851692199707e-01,-1.272234320640563965e+00,-2.621931731700897217e-01,3.198043704032897949e-01,1.126741051673889160e+00,1.059201002120971680e+00,-1.559378981590270996e+00,1.744943976402282715e+00,9.811883568763732910e-01,-6.346833705902099609e-01,-3.541580140590667725e-01,5.769352912902832031e-01,-7.032213807106018066e-01,-1.854045838117599487e-01,1.351895093917846680e+00,-1.121756672859191895e+00,3.581136837601661682e-02,7.376880049705505371e-01,-1.789525896310806274e-01,6.194350719451904297e-01,8.379829525947570801e-01,4.894900023937225342e-01,2.443286627531051636e-01,1.267189830541610718e-01,3.552282750606536865e-01,2.121190071105957031e+00,-5.270076394081115723e-01,3.769258856773376465e-01,-5.041722655296325684e-01,1.919243574142456055e+00,3.468880057334899902e-01,-1.561761051416397095e-01,-1.183721780776977539e+00
-5.431900545954704285e-02,9.900767207145690918e-01,-1.879419207572937012e+00,-1.922395348548889160e+00,-6.037623286247253418e-01,2.825821936130523682e-02,-8.861244469881057739e-02,-8.506857752799987793e-01,-7.123177647590637207e-01,-1.672592401504516602e+00,-1.831599950790405273e+00,9.445658922195434570e-01,4.055636525154113770e-01,-3.493475914001464844e-02,9.194151759147644043e-01,1.373217821121215820e+00,4.180542528629302979e-01,7.946689128875732422e-01,4.857179224491119385e-01,-2.774377763271331787e-01,1.102851480245590210e-01,1.884387135505676270e-01,-8.490949869155883789e-01,-3.232178688049316406e-01,-1.110112547874450684e+00,-2.118441581726074219e+00,-2.119522541761398315e-02,-1.199849724769592285e+00,9.062690734863281250e-01,-1.526055335998535156e-01,-8.406338095664978027e-01,-1.443661332130432129e+00,-7.207601666450500488e-01,5.521623492240905762e-01,2.495656967163085938e+00,-6.230633854866027832e-01,4.104877710342407227e-01,5.170239210128784180e-01,-4.232451319694519043e-01,3.206082582473754883e-01,-4.038226902484893799e-01,4.940090477466583252e-01,7.153800129890441895e-01,1.314079761505126953e+00,1.502504467964172363e+00,-2.851963937282562256e-01,-7.163650989532470703e-01,3.098351359367370605e-01,-1.410243660211563110e-01,5.903745293617248535e-01,1.022712111473083496e+00,7.492228150367736816e-01,5.208280682563781738e-02,1.649274587631225586e+00,2.380021102726459503e-02,-1.821960508823394775e-01,3.614714145660400391e-01,-6.355446577072143555e-01
-1.233169674873352051e+00,1.163362145423889160e+00,-1.548946201801300049e-01,6.119803786277770996e-01,1.594303011894226074e+00,-7.796323299407958984e-01,4.055479764938354492e-01,-3.039041161537170410e-01,-1.786300778388977051e+00,1.370211243629455566e+00,2.871994078159332275e-01,-2.054285049438476562e+00,-1.140336394309997559e+00,-2.330807209014892578e+00,-4.762657582759857178e-01,1.354615688323974609e+00,1.168383136391639709e-01,-1.145904418081045151e-02,-3.803158700466156006e-01,4.029490947723388672e-01,-4.993320703506469727e-01,6.014692187309265137e-01,5.281365513801574707e-01,-1.901451826095581055e+00,-2.132364988327026367e+00,1.367071922868490219e-02,8.731267452239990234e-01,3.440139591693878174e-01,-2.676840126514434814e-01,-1.512349992990493774e-01,-2.551192045211791992e+00,-1.867004483938217163e-02,-9.716151952743530273e-01,8.676621317863464355e-01,-2.310377657413482666e-01,2.455549716949462891e+00,-1.618824124336242676e+00,5.333567857742309570e-01,-8.358651399612426758e-02,-1.347532421350479126e-01,-9.722200632095336914e-01,1.056742429733276367e+00,7.036246657371520996e-01,-1.809242218732833862e-01,1.421615123748779297e+00,8.262432813644409180e-01,8.265150785446166992e-01,-6.301638484001159668e-01,-3.524768352508544922e-02,-1.440894752740859985e-01,-1.712702512741088867e+00,4.939309954643249512e-01,1.821268722414970398e-02,2.521700263023376465e-01,4.832582473754882812e-01,-9.407655000686645508e-01,-4.447394013404846191e-01,-1.313422322273254395e+00
3.891890943050384521e-01,-8.104574680328369141e-01,1.251545429229736328e+00,1.594632863998413086e-01,1.374112367630004883e-01,5.365036427974700928e-02,1.813214272260665894e-01,9.558400139212608337e-03,4.217104986310005188e-03,1.239980340003967285e+00,-2.020976990461349487e-01,2.333916664123535156e+00,2.016618013381958008e+00,1.123811244964599609e+00,1.800347328186035156e+00,4.591837823390960693e-01,-2.800257503986358643e-01,6.003972291946411133e-01,-2.441353559494018555e+00,-4.949745908379554749e-02,4.960185587406158447e-01,-3.751668632030487061e-01,6.623429059982299805e-01,-3.144343793392181396e-01,8.300226181745529175e-02,6.554336547851562500e-01,9.251515269279479980e-01,5.759087204933166504e-01,3.775911629199981689e-01,2.099189609289169312e-01,-1.366268992424011230e+00,-2.468119189143180847e-02,-7.943356633186340332e-01,1.585447192192077637e+00,-1.472817540168762207e+00,-7.876625657081604004e-01,-1.338121533393859863e+00,-5.719362497329711914e-01,-3.006651699542999268e-01,4.038457199931144714e-02,-1.676536560058593750e+00,3.861040472984313965e-01,-1.460726380348205566e+00,3.689681589603424072e-01,-1.959808915853500366e-01,-1.347784042358398438e+00,-3.499158918857574463e-01,8.719919323921203613e-01,3.988246917724609375e-01,9.439767599105834961e-01,4.196503162384033203e-01,-1.579874277114868164e+00,1.902897596359252930e+00,1.015915870666503906e+00,-9.249614477157592773e-01,8.372831940650939941e-01,4.582378864288330078e-01,-5.684086084365844727e-01
2.688950002193450928e-01,-8.805745244026184082e-01,2.881019711494445801e-01,1.970319300889968872e-01,-1.016309976577758789e+00,-7.706219553947448730e-01,8.653409034013748169e-02,-1.841374039649963379e+00,-6.740653514862060547e-01,1.703123807907104492e+00,-2.527493536472320557e-01,2.047204494476318359e+00,-8.752338290214538574e-01,4.948024749755859375e-01,1.035173654556274414e+00,-5.199295282363891602e-01,-3.365733921527862549e-01,5.002080798149108887e-01,-5.867330431938171387e-01,1.226347923278808594e+00,-1.922567248344421387e+00,4.028391838073730469e-01,2.650306820869445801e-01,9.773430228233337402e-02,-9.356523752212524414e-01,1.040291190147399902e-01,2.556392550468444824e-01,5.818881988525390625e-01,-7.535532116889953613e-01,8.129427433013916016e-01,-4.543710500001907349e-02,4.720529913902282715e-01,2.870984792709350586e+00,6.086905002593994141e-01,1.366820484399795532e-01,3.764683902263641357e-01,-9.636407494544982910e-01,5.891762301325798035e-02,5.675526857376098633e-01,1.398777961730957031e-01,9.345163106918334961e-01,9.102517962455749512e-01,9.148876667022705078e-01,-3.818075954914093018e-01,8.156791925430297852e-01,-8.493246138095855713e-02,-1.469053775072097778e-01,5.177351236343383789e-01,1.991241574287414551e-01,1.965230703353881836e+00,2.285229861736297607e-01,-1.879231333732604980e+00,4.267793595790863037e-01,1.268361061811447144e-01,8.784407973289489746e-01,-1.828065812587738037e-01,1.734853237867355347e-01,-1.185611009597778320e+00
1.722977876663208008e+00,7.149795889854431152e-01,1.710237503051757812e+00,-1.194060683250427246e+00,1.035215139389038086e+00,4.315203726291656494e-01,-8.890295624732971191e-01,9.048964083194732666e-02,-1.012269854545593262e+00,-1.282080650329589844e+00,-6.675393581390380859e-01,-1.049267888069152832e+00,-3.970195949077606201e-01,-5.460112690925598145e-01,1.325373291969299316e+00,1.927546113729476929e-01,-8.776200413703918457e-01,-1.268767118453979492e+00,9.006595611572265625e-01,4.352274239063262939e-01,-6.442008018493652344e-01,-8.386621624231338501e-02,-1.931768417358398438e+00,3.321912884712219238e-01,-6.090568304061889648e-01,2.357376068830490112e-01,-2.408984750509262085e-01,1.294488430023193359e+00,5.964141488075256348e-01,-1.899506598711013794e-01,-7.281138300895690918e-01,1.964617967605590820e-01,2.314620971679687500e+00,-3.397095501422882080e-01,-1.190857887268066406e-01,9.816687703132629395e-01,-2.963852584362030029e-01,-1.774495244026184082e-01,8.465158343315124512e-01,5.831084847450256348e-01,1.749307513236999512e+00,2.178065299987792969e+00,-6.758992075920104980e-01,1.325377821922302246e+00,1.072266697883605957e+00,1.125809907913208008e+00,-1.080876111984252930e+00,1.126588344573974609e+00,-5.236626863479614258e-01,4.609943330287933350e-01,-4.210811853408813477e-01,6.300048232078552246e-01,1.460252165794372559e+00,-1.559751510620117188e+00,7.447719573974609375e-01,1.446696043014526367e+00,-4.410016536712646484e-01,-1.336593508720397949e+00
-5.336644649505615234e-01,4.834858477115631104e-01,-3.622490763664245605e-01,-7.133352160453796387e-01,-8.523725867271423340e-01,1.885100126266479492e+00,2.053966999053955078e+00,-6.042907238006591797e-01,5.334651470184326172e-02,-1.068827867507934570e+00,2.642130255699157715e-01,7.428308129310607910e-01,1.087994098663330078e+00,-1.214756131172180176e+00,-5.900566577911376953e-01,6.652049422264099121e-01,-1.718488216400146484e+00,7.472270727157592773e-02,-1.745099574327468872e-01,2.651284933090209961e-01,1.372389793395996094e-01,-1.719808697700500488e+00,3.188599348068237305e-01,-2.312196642160415649e-01,-7.567960023880004883e-01,-1.032573580741882324e+00,9.959790110588073730e-01,2.484666556119918823e-01,-6.583839654922485352e-01,2.414601743221282959e-01,2.285550348460674286e-02,4.716329872608184814e-01,2.631787061691284180e-01,-2.867289185523986816e-01,7.712705135345458984e-01,9.864019751548767090e-01,-8.875005841255187988e-01,6.613289117813110352e-01,-7.576598525047302246e-01,-5.104604363441467285e-01,-1.744451224803924561e-01,1.396984457969665527e-01,-5.560096502304077148e-01,-8.801220059394836426e-01,-5.006256699562072754e-01,8.384265303611755371e-01,-1.308842062950134277e+00,-5.548276901245117188e-01,7.747575044631958008e-01,8.631554245948791504e-01,-3.511075675487518311e-01,4.934606850147247314e-01,6.536943316459655762e-01,-1.153600573539733887e+00,-5.446791648864746094e-01,1.300725817680358887e+00,-2.557202056050300598e-02,-6.256908178329467773e-01
-4.587637782096862793e-01,-4.778463393449783325e-02,-2.904191017150878906e-01,2.768921256065368652e-01,6.180924773216247559e-01,5.464007854461669922e-01,1.564552307128906250e+00,-3.026356995105743408e-01,1.126869559288024902e+00,1.128497362136840820e+00,-8.233180642127990723e-01,-1.529805548489093781e-02,8.819339275360107422e-01,7.038735747337341309e-01,-1.295974701642990112e-01,-7.212925702333450317e-02,7.700665593147277832e-01,-1.786049365997314453e+00,3.372575640678405762e-01,-4.649908244609832764e-01,-2.748416662216186523e-01,-1.635421991348266602e+00,6.788245439529418945e-01,2.084657847881317139e-01,5.429953336715698242e-01,1.927727103233337402e+00,-2.029339373111724854e-01,1.702012181282043457e+00,-2.205620050430297852e+00,-1.974419355392456055e+00,2.415486276149749756e-01,-1.454654335975646973e+00,6.531024724245071411e-02,1.039561629295349121e+00,-4.580247998237609863e-01,1.023132443428039551e+00,-2.627887204289436340e-02,1.502920150756835938e+00,4.320622384548187256e-01,-1.122978925704956055e+00,4.325743317604064941e-01,-6.592993140220642090e-01,-7.421374917030334473e-01,8.683363795280456543e-01,7.713090777397155762e-01,-1.147388100624084473e+00,-6.948543787002563477e-01,3.930562734603881836e-01,-1.278960704803466797e+00,-3.995455801486968994e-02,-1.261634588241577148e+00,5.339284539222717285e-01,1.489518880844116211e-01,-7.414875030517578125e-01,1.537808537483215332e+00,-1.316340565681457520e+00,-1.270776510238647461e+00,-1.953403234481811523e+00
2.475346028804779053e-01,1.448337912559509277e+00,-2.401510238647460938e+00,1.204777061939239502e-01,-8.259807527065277100e-02,-5.565940141677856445e-01,-2.826148271560668945e-02,-2.363002598285675049e-01,1.944171637296676636e-01,2.776358127593994141e-01,-1.263201951980590820e+00,-2.142996639013290405e-01,4.267836809158325195e-01,-5.338705182075500488e-01,-3.505479097366333008e-01,-1.624004095792770386e-01,-3.086916804313659668e-01,-1.096501469612121582e+00,-2.081147134304046631e-01,4.981248378753662109e-01,8.384321331977844238e-01,-1.004071474075317383e+00,9.493919014930725098e-01,3.211227059364318848e-01,-1.264600634574890137e+00,-7.404699325561523438e-01,8.534349799156188965e-01,-1.917874813079833984e+00,1.846706986427307129e+00,3.533940613269805908e-01,-3.810700178146362305e-01,4.131680130958557129e-01,-2.079041302204132080e-01,-4.356278106570243835e-02,1.609700441360473633e+00,1.204074174165725708e-01,-2.062853574752807617e+00,-6.018679141998291016e-01,-6.767508387565612793e-01,8.677169084548950195e-01,-9.892294406890869141e-01,7.112007588148117065e-02,2.249579429626464844e-01,-3.575324118137359619e-01,1.350408673286437988e+00,-1.331752657890319824e+00,-4.887664318084716797e-01,9.516057372093200684e-01,8.019467443227767944e-02,1.295760869979858398e+00,-5.875073075294494629e-01,6.775251626968383789e-01,-3.010323643684387207e-01,-1.109013438224792480e+00,1.158641695976257324e+00,6.706879939883947372e-04,8.523497581481933594e-01,-4.199347198009490967e-01
-1.076867461204528809e+00,1.464242577552795410e+00,4.743360280990600586e-01,1.118515849113464355e+00,6.741681694984436035e-01,1.208277583122253418e+00,-4.247215688228607178e-01,-1.060909181833267212e-01,-1.852113902568817139e-01,-1.596260786056518555e+00,-9.784028530120849609e-01,3.545893728733062744e-01,6.187818646430969238e-01,-1.986556172370910645e+00,9.243945591151714325e-03,1.386065602302551270e+00,-1.027157425880432129e+00,1.268960714340209961e+00,-1.193975448608398438e+00,7.394615411758422852e-01,-7.030192017555236816e-01,1.068697929382324219e+00,6.545855998992919922e-01,1.808539032936096191e-01,9.309633821249008179e-02,1.588053703308105469e+00,1.013032913208007812e+00,-7.979027032852172852e-01,-7.431003451347351074e-01,4.187616407871246338e-01,-6.859409213066101074e-01,-1.177043020725250244e-01,-1.623184800148010254e+00,1.590358972549438477e+00,1.554507851600646973e+00,-9.727923870086669922e-01,-1.876988559961318970e-01,-7.189162969589233398e-01,1.134735107421875000e+00,8.195064663887023926e-01,-2.344733178615570068e-01,-1.247827649116516113e+00,-3.859545588493347168e-01,-2.453825473785400391e+00,6.497846841812133789e-01,-1.248446106910705566e-01,-8.476694226264953613e-01,-5.763304829597473145e-01,-5.635287761688232422e-01,-2.344989478588104248e-01,-1.265079379081726074e-01,-1.304475903511047363e+00,5.797861814498901367e-01,2.821628749370574951e-01,1.426663279533386230e+00,-1.754935026168823242e+00,9.553965926170349121e-01,6.528085470199584961e-01
-4.496011734008789062e-01,1.350905895233154297e+00,-7.905757427215576172e-01,-2.079322338104248047e+00,-1.126139521598815918e+00,9.821248054504394531e-01,8.683478236198425293e-01,1.620674431324005127e-01,3.791989088058471680e-01,-7.393067479133605957e-01,-3.020572662353515625e-01,-4.273219704627990723e-01,1.311583876609802246e+00,-8.305424451828002930e-01,1.731210350990295410e+00,9.265301823616027832e-01,-6.506426334381103516e-01,-4.282790720462799072e-01,-3.576072454452514648e-01,-6.891758441925048828e-01,-3.319610059261322021e-01,1.532961845397949219e+00,4.120253622531890869e-01,-9.293041825294494629e-01,-1.190856218338012695e+00,-9.201518297195434570e-01,8.400911837816238403e-02,-1.128610372543334961e+00,-3.308614343404769897e-02,3.891116082668304443e-01,-1.738773137331008911e-01,2.299794673919677734e+00,-5.604433417320251465e-01,3.495874106884002686e-01,-3.343980312347412109e+00,6.225984096527099609e-01,-1.539755821228027344e+00,-1.129162788391113281e+00,4.783944189548492432e-01,-8.451733738183975220e-02,-1.008267641067504883e+00,-7.652734518051147461e-01,-1.172044754028320312e+00,1.993990182876586914e+00,2.226839303970336914e+00,3.451738357543945312e-01,-2.486376017332077026e-01,-1.715974807739257812e+00,-3.417347744107246399e-02,1.213995337486267090e+00,1.424778550863265991e-01,-7.622818946838378906e-01,7.421071827411651611e-02,1.288232088088989258e+00,-4.351651370525360107e-01,-2.283176779747009277e-01,-1.323085069656372070e+00,-1.281474083662033081e-01
-1.455913782119750977e+00,5.010034441947937012e-01,1.794358491897583008e+00,-1.270875573158264160e+00,4.575406610965728760e-01,1.714637279510498047e-01,2.360072612762451172e+00,2.254503250122070312e+00,6.541053652763366699e-01,1.118057250976562500e+00,1.479953527450561523e+00,-1.778086066246032715e+00,9.618728160858154297e-01,4.056183099746704102e-01,3.049799501895904541e-01,-4.317844808101654053e-01,-2.257477492094039917e-01,2.753629207611083984e+00,1.682877540588378906e-01,-1.114592909812927246e+00,2.441057711839675903e-01,9.072919487953186035e-01,-7.296364903450012207e-01,1.152209520339965820e+00,-8.992357254028320312e-01,-9.190036058425903320e-01,-4.156773090362548828e-01,-5.756857991218566895e-01,-1.299274563789367676e+00,1.833126902580261230e+00,-2.824360132217407227e-01,-1.036099314689636230e+00,-3.877582773566246033e-02,1.280435442924499512e+00,-1.773781180381774902e+00,7.128078341484069824e-01,5.749697685241699219e-01,-6.226553767919540405e-02,-5.667882561683654785e-01,1.237378120422363281e+00,-2.367316722869873047e+00,-1.718239545822143555e+00,8.377451300621032715e-01,1.346008896827697754e+00,2.810258567333221436e-01,-1.458184886723756790e-02,-7.991589307785034180e-01,-2.217411845922470093e-01,-1.314117312431335449e+00,-3.077833056449890137e-01,1.802063941955566406e+00,-1.286732554435729980e+00,-1.866823792457580566e+00,1.083186507225036621e+00,1.428579539060592651e-01,-6.921361088752746582e-01,2.307916641235351562e+00,4.128488004207611084e-01
-1.707900166511535645e+00,-1.086486697196960449e+00,2.419059753417968750e+00,-4.384234845638275146e-01,7.157394886016845703e-01,1.351290941238403320e+00,1.282353878021240234e+00,1.764222383499145508e+00,1.423699378967285156e+00,3.561217486858367920e-01,1.330692470073699951e-01,1.765137761831283569e-01,-4.468367993831634521e-01,1.432222843170166016e+00,6.162518262863159180e-01,5.587794184684753418e-01,-1.482972621917724609e+00,-8.526306748390197754e-01,-1.328149884939193726e-01,-2.215658903121948242e+00,1.006766796112060547e+00,-6.040061265230178833e-02,5.837506651878356934e-01,1.019606471061706543e+00,7.816936969757080078e-01,9.238861799240112305e-01,9.625586867332458496e-01,-4.215360879898071289e-01,4.456195235252380371e-01,-6.044273972511291504e-01,4.651837050914764404e-01,8.947594165802001953e-01,-1.466341495513916016e+00,-7.385899126529693604e-02,1.275435090065002441e+00,-3.693327605724334717e-01,-7.210389971733093262e-01,-1.970656394958496094e+00,1.073888421058654785e+00,3.151441514492034912e-01,-8.648291826248168945e-01,2.000182867050170898e+00,-3.137227892875671387e-01,5.303641408681869507e-02,-1.590662837028503418e+00,5.510981082916259766e-01,-1.223965585231781006e-01,-1.017273306846618652e+00,-4.697098135948181152e-01,-2.180370807647705078e+00,-1.191558361053466797e+00,3.946478068828582764e-01,1.380573272705078125e+00,-7.753763198852539062e-01,-3.350944519042968750e-01,2.886028885841369629e-01,1.353480696678161621e+00,1.015671849250793457e+00
-1.528736352920532227e-01,5.329984426498413086e-01,2.201480150222778320e+00,2.513058185577392578e-01,4.427785873413085938e-01,8.272319436073303223e-01,-2.221166789531707764e-01,-2.252406179904937744e-01,-7.159629464149475098e-01,8.828669786453247070e-01,-5.295506715774536133e-01,-1.542535871267318726e-01,1.426043868064880371e+00,-1.257117509841918945e+00,7.883449196815490723e-01,1.444727331399917603e-01,9.601778984069824219e-01,7.427164167165756226e-02,2.123039662837982178e-01,-5.061384439468383789e-01,-2.506686151027679443e-01,-4.395160377025604248e-01,1.612197995185852051e+00,-9.146180152893066406e-01,1.043672800064086914e+00,-1.436658501625061035e+00,-2.390660643577575684e-01,-8.509253859519958496e-01,-2.661547064781188965e-01,-5.591719150543212891e-01,-3.044539391994476318e-01,-2.353081703186035156e-01,1.783380866050720215e+00,1.385176062583923340e+00,-6.382339000701904297e-01,-4.068526625633239746e-01,6.588940024375915527e-01,7.778075933456420898e-01,-4.212482273578643799e-01,2.395108342170715332e-01,-8.997335433959960938e-01,4.114894568920135498e-01,2.623373746871948242e+00,1.336235046386718750e+00,-1.331130415201187134e-01,5.356980562210083008e-01,1.382591873407363892e-01,-1.401411294937133789e+00,-2.752290070056915283e-01,9.785494804382324219e-01,-1.184419989585876465e+00,-2.039611339569091797e+00,5.119259357452392578e-01,-1.931560933589935303e-01,2.969928979873657227e-01,-3.384740054607391357e-01,-4.817559942603111267e-02,2.284216642379760742e+00
1.158800482749938965e+00,-1.174683332443237305e+00,8.866716623306274414e-01,-5.414167642593383789e-01,1.532126665115356445e+00,-1.823461294174194336e+00,2.063801288604736328e+00,8.872009515762329102e-01,8.230943679809570312e-01,-1.025903463363647461e+00,5.472041964530944824e-01,-5.145444869995117188e-01,5.671874284744262695e-01,2.045556604862213135e-01,2.893117666244506836e-01,6.699431687593460083e-03,-2.427956312894821167e-01,2.507727861404418945e+00,4.099587202072143555e-01,1.176769971847534180e+00,-2.875492274761199951e-01,1.594929099082946777e+00,-1.486000418663024902e-01,8.856688737869262695e-01,-6.307988762855529785e-01,7.751512527465820312e-01,-1.195785284042358398e+00,4.917865693569183350e-01,1.358731091022491455e-01,5.310430377721786499e-02,6.891742944717407227e-01,-8.490701764822006226e-02,9.069413542747497559e-01,-1.082327842712402344e+00,2.281682014465332031e+00,-7.100653648376464844e-01,7.827713489532470703e-01,-1.180881142616271973e+00,9.265346527099609375e-01,-5.069459229707717896e-02,2.347358226776123047e+00,-2.074568271636962891e+00,-1.116213321685791016e+00,-1.299465179443359375e+00,-7.910171151161193848e-01,-1.541147828102111816e+00,7.174658179283142090e-01,-3.976213634014129639e-01,3.014371171593666077e-02,2.505293786525726318e-01,7.760272026062011719e-01,-1.017048716545104980e+00,-2.694266140460968018e-01,2.204770088195800781e+00,-1.247471690177917480e+00,-1.522789478302001953e+00,3.363012671470642090e-01,-8.325375318527221680e-01
-3.178372234106063843e-02,3.486497700214385986e-01,-1.497985959053039551e+00,9.190334677696228027e-01,-3.892102465033531189e-02,-1.892843842506408691e-01,6.139414310455322266e-01,7.365710735321044922e-01,-9.426004886627197266e-01,-1.670409739017486572e-01,1.679919123649597168e+00,3.409986943006515503e-02,-1.256940960884094238e+00,-2.332514047622680664e+00,6.202361583709716797e-01,2.798277378082275391e+00,1.825895905494689941e-01,-3.006732463836669922e+00,-7.950471043586730957e-01,1.137144684791564941e+00,6.808101534843444824e-01,-3.378823399543762207e-01,-7.166937738656997681e-02,7.690481543540954590e-01,6.682644486427307129e-01,-5.747395157814025879e-01,-4.616294205188751221e-01,4.679565727710723877e-01,-7.197315692901611328e-01,-1.879658736288547516e-02,-1.016382217407226562e+00,7.598466873168945312e-01,-9.088876843452453613e-01,1.204773783683776855e+00,1.121031999588012695e+00,7.858899235725402832e-01,9.662603139877319336e-01,1.907659620046615601e-01,1.034846305847167969e+00,1.636718809604644775e-01,1.736146330833435059e+00,-1.238754153251647949e+00,9.241645932197570801e-01,4.821105301380157471e-01,7.808936238288879395e-01,9.632024765014648438e-01,-6.156414747238159180e-01,-1.088596284389495850e-01,-4.794801175594329834e-01,-3.035103380680084229e-01,-2.416119128465652466e-01,-7.987524867057800293e-01,-4.202353209257125854e-02,-1.064254641532897949e+00,5.630179494619369507e-02,-8.165454864501953125e-01,1.101074695587158203e+00,7.640138268470764160e-01
-9.116268754005432129e-01,-2.206506282091140747e-01,7.456824183464050293e-01,-1.496844530105590820e+00,5.498585104942321777e-01,-9.367734789848327637e-01,1.779206991195678711e+00,7.045160531997680664e-01,-1.304051876068115234e+00,-8.186366558074951172e-01,8.040942549705505371e-01,-1.487926721572875977e+00,-1.367560267448425293e+00,1.485677003860473633e+00,1.311472505331039429e-01,-1.768889188766479492e+00,2.707934856414794922e+00,1.553167998790740967e-01,-1.115926265716552734e+00,3.109433650970458984e-01,7.372497320175170898e-01,-6.035357117652893066e-01,-7.052173018455505371e-01,-8.364822268486022949e-01,1.293735146522521973e+00,9.644640982151031494e-02,-8.312617540359497070e-01,2.808476090431213379e-01,-2.780629694461822510e-01,5.169286131858825684e-01,-1.630727529525756836e+00,-1.565747857093811035e+00,-1.534260213375091553e-01,-4.022357240319252014e-02,9.369378685951232910e-01,-2.798873782157897949e-01,1.620221018791198730e+00,-6.901117563247680664e-01,-3.453124165534973145e-01,-2.568720877170562744e-01,-8.627201318740844727e-01,-5.205843448638916016e-01,-5.531335994601249695e-02,-1.045888066291809082e+00,-6.217842698097229004e-01,4.211437404155731201e-01,4.272482395172119141e-01,-3.028201460838317871e-01,1.070983171463012695e+00,-5.354057550430297852e-01,6.793394684791564941e-01,9.470956325531005859e-01,7.494220137596130371e-01,5.932130217552185059e-01,-4.765551090240478516e-01,-1.172496795654296875e+00,4.870736300945281982e-01,-8.349100351333618164e-01
-4.753150939941406250e-01,1.178906679153442383e+00,1.101622700691223145e+00,-3.914060294628143311e-01,1.426673889160156250e+00,1.684529036283493042e-01,6.790513396263122559e-01,-3.644033074378967285e-01,9.556075930595397949e-01,5.009986758232116699e-01,5.962945818901062012e-01,2.002941817045211792e-01,-1.074040085077285767e-01,9.253918528556823730e-01,5.895631313323974609e-01,-5.855525732040405273e-01,9.075275063514709473e-01,1.677533149719238281e+00,1.103935122489929199e+00,1.849881529808044434e+00,6.409723162651062012e-01,-4.729284644126892090e-01,6.112385392189025879e-01,4.152018576860427856e-02,5.011372566223144531e-01,-1.786747932434082031e+00,-4.560170471668243408e-01,9.079711139202117920e-02,-1.629955768585205078e-01,-1.531589865684509277e+00,-6.708604842424392700e-02,-3.211656510829925537e-01,-3.383071720600128174e-01,1.414320915937423706e-01,-1.350157022476196289e+00,3.584561645984649658e-01,-9.772024154663085938e-01,-2.204180717468261719e+00,8.316296339035034180e-01,-1.412645101547241211e+00,-1.412076354026794434e+00,3.462330400943756104e-01,3.557622134685516357e-01,-1.328615248203277588e-01,-4.222776889801025391e-01,1.233526349067687988e+00,6.660240292549133301e-01,-2.166449576616287231e-01,-9.342259168624877930e-01,-3.717270195484161377e-01,1.162058353424072266e+00,9.496066719293594360e-02,-3.048246204853057861e-01,-2.766642868518829346e-01,2.412753582000732422e+00,-1.484329462051391602e+00,-7.411780357360839844e-01,9.616831541061401367e-01
7.682853937149047852e-01,-9.689978361129760742e-01,1.181051492691040039e+00,-1.004384994506835938e+00,1.098811388015747070e+00,1.552855968475341797e+00,-1.832676082849502563e-01,-2.291086614131927490e-01,1.047437787055969238e+00,1.178370475769042969e+00,1.816038042306900024e-01,-1.526094794273376465e+00,6.772369146347045898e-01,-1.147402048110961914e+00,-2.392401993274688721e-01,3.007512688636779785e-01,2.380753755569458008e-01,-8.553985357284545898e-01,-3.442254960536956787e-01,-1.581291198730468750e+00,1.806598156690597534e-01,1.246593520045280457e-01,-4.943634271621704102e-01,-1.978497147560119629e+00,6.089626625180244446e-02,1.232829332351684570e+00,8.224246650934219360e-02,-1.906280815601348877e-01,1.417578011751174927e-01,5.341477394104003906e-01,-4.008169174194335938e-01,9.780356884002685547e-01,7.834073901176452637e-01,-3.336349725723266602e-01,2.142757922410964966e-02,-7.439397573471069336e-01,-1.754364252090454102e+00,5.631024837493896484e-01,-1.119418621063232422e+00,1.515072107315063477e+00,-5.825839638710021973e-01,8.143184185028076172e-01,6.183273196220397949e-01,1.193031311035156250e+00,5.250369310379028320e-01,4.410249888896942139e-01,-1.825947165489196777e-01,6.311652064323425293e-02,-1.365982651710510254e+00,8.960022926330566406e-01,2.372818291187286377e-01,1.027249172329902649e-01,1.818434119224548340e+00,-3.485047817230224609e-02,-1.329935908317565918e+00,-1.022806167602539062e+00,6.436395645141601562e-01,9.131079316139221191e-01
-8.074148297309875488e-01,1.034032344818115234e+00,-1.020745396614074707e+00,-1.383442729711532593e-01,9.899070858955383301e-01,-4.459244906902313232e-01,-4.410361945629119873e-01,-1.592265844345092773e+00,1.266314029693603516e+00,-1.439178138971328735e-01,9.453678131103515625e-01,1.807155251502990723e+00,1.672603249549865723e+00,-5.117949247360229492e-01,3.191851973533630371e-01,3.257169723510742188e-01,-6.066435575485229492e-01,4.064441025257110596e-01,-1.058985114097595215e+00,-4.329455643892288208e-02,2.278126716613769531e+00,5.975980162620544434e-01,1.463261365890502930e+00,-9.417278766632080078e-01,-8.601346015930175781e-01,2.656777501106262207e-01,6.410487294197082520e-01,5.848215222358703613e-01,1.801363110542297363e+00,-2.202511787414550781e+00,4.878924190998077393e-01,-6.105254888534545898e-01,-1.398070096969604492e+00,-2.200447022914886475e-01,-5.583493709564208984e-01,1.159506320953369141e+00,-8.434900045394897461e-01,9.560269117355346680e-01,-7.933915853500366211e-01,-1.519819617271423340e+00,1.433600544929504395e+00,4.919582307338714600e-01,-8.604708909988403320e-01,1.692935526371002197e-01,1.124299913644790649e-01,8.646474480628967285e-01,3.529152274131774902e-01,4.567412137985229492e-01,-1.471151709556579590e-01,-3.202394545078277588e-01,-7.949753403663635254e-01,-3.992247283458709717e-01,-9.488243460655212402e-01,4.333153963088989258e-01,-8.082668185234069824e-01,2.098661422729492188e+00,6.439656615257263184e-01,-2.639707028865814209e-01
4.370480775833129883e-01,-8.588475584983825684e-01,1.363608717918395996e+00,1.191522836685180664e+00,1.199926733970642090e+00,5.652248114347457886e-02,-7.499804347753524780e-02,1.284741163253784180e+00,-1.231118083000183105e+00,2.038823127746582031e+00,-7.555273175239562988e-01,1.593146562576293945e+00,2.121760398149490356e-01,1.463988542556762695e+00,-1.726144075393676758e+00,4.526568055152893066e-01,9.398519396781921387e-01,1.407136209309101105e-02,-6.417953222990036011e-02,-6.861256957054138184e-01,7.141938060522079468e-02,2.239102274179458618e-01,1.156592130661010742e+00,-1.604610383510589600e-01,-1.679401099681854248e-01,1.348024606704711914e+00,1.845960974693298340e+00,-5.660254359245300293e-01,-1.711442589759826660e+00,-1.703205466270446777e+00,-1.428852975368499756e-01,1.438852548599243164e+00,9.406451582908630371e-01,1.266277074813842773e+00,-7.240610718727111816e-01,-8.252263069152832031e-01,2.114086151123046875e+00,-4.409541785717010498e-01,-2.253376245498657227e-01,7.739317417144775391e-01,-5.931301116943359375e-01,-1.616898894309997559e+00,2.579147517681121826e-01,7.559545040130615234e-01,-9.324595332145690918e-01,-2.836046814918518066e-01,2.130181789398193359e+00,-1.181816339492797852e+00,3.520791232585906982e-01,-1.467210531234741211e+00,1.454733848571777344e+00,6.793757081031799316e-01,-1.310631752014160156e+00,-2.202282428741455078e+00,6.211427450180053711e-01,6.633303761482238770e-01,-1.165747404098510742e+00,1.008966922760009766e+00
-8.332309126853942871e-01,2.537515163421630859e+00,-3.046800792217254639e-01,-1.050508692860603333e-01,-1.082143187522888184e+00,-1.111719131469726562e+00,4.743834733963012695e-01,1.071074306964874268e-01,1.310759425163269043e+00,-1.496108412742614746e+00,-1.188442945480346680e+00,-1.450578689575195312e+00,-1.683773696422576904e-01,-3.486479073762893677e-02,-2.077539414167404175e-01,1.141559600830078125e+00,3.731667399406433105e-01,6.349080801010131836e-01,2.163669824600219727e+00,-7.228884845972061157e-02,-1.089834332466125488e+00,1.218811392784118652e+00,1.881532430648803711e+00,5.601309537887573242e-01,-8.853394985198974609e-01,1.450010180473327637e+00,-1.764969944953918457e+00,-1.580375909805297852e+00,3.818505406379699707e-01,1.134004354476928711e+00,-2.086443185806274414e+00,-2.943207025527954102e+00,-1.763828285038471222e-02,7.117795348167419434e-01,6.669942140579223633e-01,-9.760622978210449219e-01,-8.551218509674072266e-01,-2.394280731678009033e-01,2.474692016839981079e-01,-9.705262780189514160e-01,-1.273132085800170898e+00,-7.703108191490173340e-01,-6.629117131233215332e-01,-8.806893602013587952e-03,5.400645732879638672e-02,-1.680408000946044922e+00,9.574799537658691406e-01,8.561142683029174805e-01,8.357023596763610840e-01,-1.258002042770385742e+00,-6.351100206375122070e-01,-9.250018596649169922e-01,-9.237356781959533691e-01,2.334819793701171875e+00,3.334624767303466797e-01,-4.363552033901214600e-01,-7.819359898567199707e-01,4.255997538566589355e-01
9.550439119338989258e-01,1.517366170883178711e+00,1.465811133384704590e-01,6.511327624320983887e-01,4.401872456073760986e-01,-7.057466357946395874e-02,-1.879641890525817871e+00,-9.278570413589477539e-01,1.040517091751098633e+00,2.864214181900024414e-01,-1.339591741561889648e+00,2.723345346748828888e-02,9.164131283760070801e-01,2.408596575260162354e-01,1.500626802444458008e+00,2.271168708801269531e+00,-3.696617484092712402e-01,-3.546232879161834717e-01,-1.372017264366149902e-01,-1.897252559661865234e+00,-1.141169190406799316e+00,-2.534255743026733398e+00,5.821615457534790039e-01,-3.138912096619606018e-02,6.838461756706237793e-01,6.437160968780517578e-01,-1.401706457138061523e+00,-9.019861817359924316e-01,1.157201360911130905e-02,-5.672503709793090820e-01,1.325994133949279785e+00,-1.373170256614685059e+00,-1.004368066787719727e+00,1.192544698715209961e+00,1.285778880119323730e+00,-2.151300162076950073e-01,2.764158248901367188e-01,8.408679366111755371e-01,4.814849793910980225e-02,5.964326262474060059e-01,1.771593540906906128e-01,7.614286243915557861e-02,5.256938934326171875e-01,-1.574114441871643066e+00,4.844464063644409180e-01,-1.343423128128051758e+00,-5.759229063987731934e-01,2.154982835054397583e-01,1.243553519248962402e+00,1.155315756797790527e+00,-2.767386473715305328e-02,1.121077895164489746e+00,-6.648300290107727051e-01,8.209096193313598633e-01,-1.203492760658264160e+00,-5.644824504852294922e-01,5.938845872879028320e-01,7.255741208791732788e-02
-1.632652431726455688e-01,-1.285142451524734497e-01,1.295144081115722656e+00,-5.398907065391540527e-01,2.182174623012542725e-01,1.356733679771423340e+00,2.113615125417709351e-01,-2.782510817050933838e-01,4.337243139743804932e-01,-5.010870695114135742e-01,4.639290571212768555e-01,-6.046264767646789551e-01,-5.528402328491210938e-02,-1.235262393951416016e+00,2.546783983707427979e-01,2.834105491638183594e-01,7.479073405265808105e-01,-8.361988067626953125e-01,1.489997059106826782e-01,1.541327953338623047e+00,-1.776663184165954590e+00,2.861164510250091553e-01,-3.898352682590484619e-01,-1.087946295738220215e-01,1.287651658058166504e+00,8.600782603025436401e-02,6.134549900889396667e-02,-9.159088134765625000e-01,-1.227441310882568359e+00,2.186248779296875000e+00,-2.512085914611816406e+00,-2.545408010482788086e-01,9.789847135543823242e-01,1.184462785720825195e+00,-6.225954294204711914e-01,1.730850040912628174e-01,1.154308766126632690e-01,-1.552222132682800293e+00,5.429579019546508789e-01,-9.653477072715759277e-01,1.325384020805358887e+00,-8.264676928520202637e-01,-1.925337314605712891e+00,-1.967491507530212402e-01,-1.072410464286804199e+00,-1.151142239570617676e+00,2.024511337280273438e+00,-9.040374159812927246e-01,2.223525345325469971e-01,1.613524198532104492e+00,1.877954006195068359e-01,-1.072391774505376816e-02,7.548055052757263184e-01,-5.320532917976379395e-01,-2.980334460735321045e-01,-3.997357189655303955e-01,-1.340212225914001465e+00,-2.811260521411895752e-01
7.441474199295043945e-01,-1.060256361961364746e+00,-6.843426823616027832e-01,-1.071715727448463440e-01,-6.398650407791137695e-01,7.281723618507385254e-01,-1.056712508201599121e+00,-3.376595973968505859e+00,1.522340893745422363e+00,-1.976518511772155762e+00,-8.217911720275878906e-01,7.016323208808898926e-01,4.418148100376129150e-02,-1.192526936531066895e+00,-8.673968315124511719e-01,-8.607355505228042603e-02,-1.181479692459106445e+00,-1.738311767578125000e+00,2.143323868513107300e-01,5.878973752260208130e-02,-1.103301882743835449e+00,-9.572239220142364502e-02,-3.629120588302612305e-01,-2.080787181854248047e+00,1.402112990617752075e-01,2.818084239959716797e+00,-3.202892243862152100e-01,-6.525285243988037109e-01,1.003997921943664551e-01,-8.610546588897705078e-01,1.527702957391738892e-01,1.775297164916992188e+00,5.470338463783264160e-01,2.025199174880981445e+00,-3.130926191806793213e-01,5.168409347534179688e-01,-3.309400975704193115e-01,-8.373589515686035156e-01,-3.867353498935699463e-01,1.471125364303588867e+00,-2.282864004373550415e-01,1.576422452926635742e+00,4.376857876777648926e-01,2.856584191322326660e-01,-4.445196390151977539e-01,-7.057958841323852539e-01,-1.450672984123229980e+00,2.296710759401321411e-01,-2.023593664169311523e+00,8.408782482147216797e-01,2.541098296642303467e-01,1.730204939842224121e+00,7.989764809608459473e-01,-1.540266156196594238e+00,8.584020733833312988e-01,-1.979354023933410645e-01,-1.003571227192878723e-01,7.658457756042480469e-01
1.137366220355033875e-01,1.488915324211120605e+00,1.652888655662536621e-01,1.551176667213439941e+00,-9.596019983291625977e-02,1.959415793418884277e+00,-2.648460268974304199e-01,2.184507250785827637e-01,4.913606643676757812e-01,-7.205636501312255859e-01,7.239897847175598145e-01,-2.573630571365356445e+00,1.678909301757812500e+00,3.482784628868103027e-01,-1.540317296981811523e+00,4.500461518764495850e-01,-1.196412682533264160e+00,-4.712733626365661621e-01,-2.755652666091918945e-01,-5.794594287872314453e-01,-1.969985514879226685e-01,-4.068036377429962158e-01,1.079457640647888184e+00,5.197365880012512207e-01,-1.240741133689880371e+00,-1.212723255157470703e+00,-6.179560422897338867e-01,-9.075300097465515137e-01,1.165270358324050903e-01,6.367653608322143555e-01,1.868041753768920898e+00,1.851107031106948853e-01,-2.841518402099609375e+00,-4.736907407641410828e-02,-8.080261945724487305e-01,-2.057175189256668091e-01,-5.983242988586425781e-01,-1.147594690322875977e+00,1.403806805610656738e+00,1.513324022293090820e+00,-1.171177744865417480e+00,-7.708353400230407715e-01,-3.421424031257629395e-01,1.510574370622634888e-01,5.899598002433776855e-01,2.806489169597625732e-01,2.237528085708618164e+00,-4.102231860160827637e-01,-6.726252436637878418e-01,6.815229356288909912e-02,1.221391558647155762e+00,-1.095732331275939941e+00,-9.760553240776062012e-01,-1.231079101562500000e-01,-2.383891820907592773e+00,2.707332074642181396e-01,2.820069901645183563e-02,-5.926278829574584961e-01
-3.625378906726837158e-01,7.019369304180145264e-02,1.189465880393981934e+00,-7.546420097351074219e-01,9.398011565208435059e-01,-4.242305755615234375e-01,-1.383187294006347656e+00,9.159438014030456543e-01,-7.426092028617858887e-01,1.032207980751991272e-01,-2.078494787216186523e+00,-1.913018822669982910e-01,9.071398973464965820e-01,-4.335140287876129150e-01,8.972492218017578125e-01,3.043809831142425537e-01,1.048720359802246094e+00,1.935075670480728149e-01,2.109170436859130859e+00,-3.914872407913208008e-01,1.143237471580505371e+00,3.893042206764221191e-01,5.467835068702697754e-01,8.433806300163269043e-01,-9.052498340606689453e-01,-4.701017439365386963e-01,-1.308273077011108398e+00,7.823180556297302246e-01,-1.149330615997314453e+00,-7.499808669090270996e-01,-9.935185313224792480e-01,1.063955187797546387e+00,6.984850764274597168e-02,2.863058149814605713e-01,-1.461843848228454590e-01,5.899300426244735718e-02,-9.840904921293258667e-02,-1.876133829355239868e-01,1.177839517593383789e+00,-1.258494257926940918e+00,3.129082545638084412e-02,1.941130995750427246e+00,1.186281323432922363e+00,3.291223943233489990e-01,1.636594414710998535e+00,-3.893036544322967529e-01,2.132699728012084961e+00,-5.875791907310485840e-01,-9.150722995400428772e-03,-4.819775223731994629e-01,5.558292195200920105e-02,1.092757225036621094e+00,-1.269338369369506836e+00,-1.107139862142503262e-03,1.682649701833724976e-01,1.265355110168457031e+00,-7.343557476997375488e-02,9.096380472183227539e-01
8.371297121047973633e-01,-3.402317464351654053e-01,-1.595183134078979492e+00,4.584056735038757324e-01,9.528147578239440918e-01,-1.221003770828247070e+00,-7.304618954658508301e-01,-2.125512212514877319e-01,-1.399893999099731445e+00,3.714041709899902344e-01,1.679764509201049805e+00,1.567166090011596680e+00,6.477776169776916504e-02,-1.057232022285461426e-01,-2.666102051734924316e-01,1.588042080402374268e-01,-1.689681410789489746e+00,1.729507446289062500e+00,-1.384990096092224121e+00,-4.839827418327331543e-01,-1.209669947624206543e+00,2.747647762298583984e-01,6.078430637717247009e-02,1.540285229682922363e+00,4.769045114517211914e-01,1.732726246118545532e-01,2.333751201629638672e+00,-7.275728583335876465e-01,-4.647764377295970917e-03,-5.841341614723205566e-01,-5.020449310541152954e-02,-1.067784205079078674e-01,4.688133895397186279e-01,-6.510313153266906738e-01,-1.335442900657653809e+00,7.894620299339294434e-01,-1.289983749389648438e+00,-1.256718516349792480e+00,-8.340678811073303223e-01,-3.684752881526947021e-01,7.217040657997131348e-02,7.657070755958557129e-01,-3.034581542015075684e-01,-5.186910182237625122e-02,-2.431790828704833984e-01,-5.091295838356018066e-01,-1.186355113983154297e+00,3.892050385475158691e-01,-1.010457277297973633e+00,1.753864049911499023e+00,9.302431941032409668e-01,-1.242241144180297852e+00,8.313970565795898438e-01,-4.921843856573104858e-02,-8.766807913780212402e-01,1.005193829536437988e+00,2.789454758167266846e-01,1.023193225264549255e-01
-4.502140581607818604e-01,4.540657401084899902e-01,8.415911197662353516e-01,-2.674763917922973633e+00,-6.932551264762878418e-01,7.112359404563903809e-01,-2.103202044963836670e-01,-2.382870167493820190e-01,7.871899604797363281e-01,-2.581974983215332031e+00,5.150319337844848633e-01,8.896650075912475586e-01,1.187981963157653809e-01,3.699182569980621338e-01,1.115650773048400879e+00,1.652174592018127441e+00,-1.039687633514404297e+00,8.362152576446533203e-01,-1.328565359115600586e+00,4.274241626262664795e-01,3.463785648345947266e-01,4.832783341407775879e-02,7.434293627738952637e-01,-1.437231183052062988e+00,-6.786945462226867676e-01,7.154614925384521484e-01,1.099591970443725586e+00,1.469001531600952148e+00,9.639428853988647461e-01,-9.533903002738952637e-01,-4.326847791671752930e-01,3.006785809993743896e-01,-3.315420821309089661e-03,-7.392689585685729980e-01,1.364052534103393555e+00,-4.926624298095703125e-01,1.083744540810585022e-01,-1.737881302833557129e+00,-7.859284877777099609e-01,5.351011157035827637e-01,-5.752391815185546875e-01,-5.078209042549133301e-01,5.354358553886413574e-01,-1.444752216339111328e+00,-3.227673470973968506e-02,-5.883526206016540527e-01,6.812534928321838379e-01,-1.414164751768112183e-01,5.457075834274291992e-01,-9.587674140930175781e-01,1.977822929620742798e-02,1.567234635353088379e+00,1.278064846992492676e-01,1.010059356689453125e+00,-7.372025251388549805e-01,-1.159029304981231689e-01,-9.345809817314147949e-01,-1.126806020736694336e+00
8.830953836441040039e-01,-2.946353554725646973e-01,5.231761932373046875e-01,-4.880472719669342041e-01,7.600418329238891602e-01,-3.127691447734832764e-01,-5.734500288963317871e-01,-8.381441831588745117e-01,9.553492665290832520e-01,3.388971686363220215e-01,3.091056048870086670e-01,-7.803594321012496948e-02,-1.106135770678520203e-01,-2.823245227336883545e-01,3.979686796665191650e-01,-1.339741110801696777e+00,1.426332350820302963e-02,-1.197390556335449219e+00,-6.912245750427246094e-01,-2.508323788642883301e-01,-6.981889009475708008e-01,1.055114984512329102e+00,-1.014818549156188965e-01,1.578294873237609863e+00,-1.091173648834228516e+00,-2.804825007915496826e-01,6.211428046226501465e-01,5.930827260017395020e-01,-7.282316088676452637e-01,-2.978321611881256104e-01,9.226292371749877930e-01,6.925265192985534668e-01,-5.218587815761566162e-03,-1.425335109233856201e-01,-1.312375664710998535e+00,-1.390316605567932129e+00,6.972582936286926270e-01,3.093115687370300293e-01,1.675000935792922974e-01,1.199695825576782227e+00,1.281126737594604492e+00,1.010189175605773926e+00,-3.233017027378082275e-01,7.194762825965881348e-01,3.468828275799751282e-02,-8.479701876640319824e-01,-1.371172308921813965e+00,1.792707324028015137e+00,2.661490142345428467e-01,1.507711291313171387e+00,1.025286674499511719e+00,-7.821431159973144531e-01,-8.934015631675720215e-01,1.799930334091186523e+00,2.005119919776916504e-01,-4.719068706035614014e-01,-5.269704461097717285e-01,-1.514971494674682617e+00
