-1.007020354270935059e+00,3.283080458641052246e-01,1.442927122116088867e+00,-1.112082749605178833e-01,-4.090414047241210938e-01,1.272102117538452148e+00,-1.677496075630187988e+00,4.873903691768646240e-01,6.114926934242248535e-01,-2.642630934715270996e-01,-1.507051229476928711e+00,-2.367634057998657227e+00,9.931473433971405029e-02,7.682073116302490234e-01,8.177077770233154297e-01,1.508247256278991699e+00,7.512755393981933594e-01,8.387703895568847656e-01,-7.973443716764450073e-02,1.451448500156402588e-01,6.975539326667785645e-01,-5.540268421173095703e-01,-7.040316462516784668e-01,-1.571035027503967285e+00,1.091220155358314514e-01,4.603641033172607422e-01,1.276393234729766846e-01,5.570757985115051270e-01,5.677942633628845215e-01,7.908318042755126953e-01,-1.686594724655151367e+00,-4.396913945674896240e-01,8.170713186264038086e-01,1.333764314651489258e+00,-1.302180767059326172e+00,1.905512064695358276e-01,-1.969448089599609375e+00,2.467550709843635559e-02,-6.628943085670471191e-01,-1.295868158340454102e+00,2.781826555728912354e-01,3.953965902328491211e-01,1.258407682180404663e-01,-2.346144914627075195e+00,5.152837187051773071e-02,-6.782769560813903809e-01,4.685858786106109619e-01,-5.272091031074523926e-01,8.226761221885681152e-01,-6.298228502273559570e-01,7.721076905727386475e-02,3.155369162559509277e-01,-5.593088269233703613e-01,-6.218764185905456543e-01,-6.363509297370910645e-01,2.683239579200744629e-01,-3.372611105442047119e-01,2.407522648572921753e-01
7.055194675922393799e-02,1.227348089218139648e+00,1.696024537086486816e+00,3.716763854026794434e-02,-2.481862306594848633e-01,4.848604202270507812e-01,-2.278554201126098633e+00,8.306851610541343689e-03,-5.892246961593627930e-01,4.316315054893493652e-01,-1.223451733589172363e+00,8.397708535194396973e-01,4.041095376014709473e-01,1.007737040519714355e+00,9.365309476852416992e-01,6.984106898307800293e-01,1.659769892692565918e+00,-6.235868334770202637e-01,5.743412971496582031e-01,4.202688038349151611e-01,1.468524098396301270e+00,-4.697966873645782471e-01,2.233480662107467651e-01,-1.208941578865051270e+00,1.913468241691589355e-01,6.475267559289932251e-02,-2.277586221694946289e+00,-1.258170127868652344e+00,-6.181589365005493164e-01,1.287859678268432617e+00,7.193266749382019043e-01,1.331694245338439941e+00,2.728278934955596924e-01,-7.576863169670104980e-01,-3.133732676506042480e-01,1.401468068361282349e-01,1.871035218238830566e+00,-1.065428495407104492e+00,-1.069326162338256836e+00,7.653650045394897461e-01,1.756432652473449707e-01,7.830981016159057617e-01,-5.294298529624938965e-01,2.784349024295806885e-02,-5.305132865905761719e-01,-3.633179366588592529e-01,-9.311148524284362793e-02,5.342850089073181152e-01,4.806059878319501877e-03,4.858821928501129150e-01,-1.235185980796813965e+00,-3.424884676933288574e-01,4.668430685997009277e-01,1.576808094978332520e+00,-1.461104631423950195e+00,1.086121201515197754e+00,1.340543389320373535e+00,-5.017752647399902344e-01
2.947726249694824219e-01,-4.234651625156402588e-01,-2.540079355239868164e-01,-7.127264738082885742e-01,6.409561634063720703e-01,-1.395411372184753418e+00,-1.964676499366760254e+00,-9.169687032699584961e-01,1.376315951347351074e-01,1.507277727127075195e+00,-7.934713736176490784e-03,-3.205226957798004150e-01,-7.075532674789428711e-01,-9.707016348838806152e-01,1.345239758491516113e+00,1.328122615814208984e+00,6.525868773460388184e-01,-4.500200226902961731e-02,8.444337844848632812e-01,-4.008266031742095947e-01,-1.706008911132812500e+00,-8.555757403373718262e-01,-7.635843753814697266e-01,3.461700975894927979e-01,1.272040724754333496e+00,3.272078037261962891e-01,1.684478044509887695e+00,9.665226936340332031e-01,4.094988405704498291e-01,8.392834067344665527e-01,-5.574023723602294922e-01,9.111017584800720215e-01,-7.117522954940795898e-01,-6.857774257659912109e-01,1.357448577880859375e+00,-1.164259672164916992e+00,-1.088505864143371582e+00,-9.203135967254638672e-01,-5.759555101394653320e-01,-7.203537821769714355e-01,2.816887199878692627e-01,6.800841540098190308e-02,1.002648591995239258e+00,2.549018263816833496e-01,1.086740255355834961e+00,7.306677103042602539e-01,1.120424550026655197e-02,-4.141707718372344971e-01,4.256550371646881104e-01,-6.219407320022583008e-01,6.279526948928833008e-01,-2.789503335952758789e-01,-1.701762527227401733e-01,-5.787510275840759277e-01,8.045620918273925781e-01,2.162176370620727539e-01,-1.350462794303894043e+00,5.791997909545898438e-01
4.021711051464080811e-01,-7.418656349182128906e-01,-3.630484938621520996e-01,6.791630983352661133e-01,2.750807628035545349e-02,3.046073019504547119e-01,-4.335961043834686279e-01,-1.252957344055175781e+00,2.080075740814208984e+00,-5.145184993743896484e-01,9.937629103660583496e-01,-1.506206750869750977e+00,-1.430228114128112793e+00,2.908434346318244934e-02,1.182605981826782227e+00,1.337511420249938965e+00,1.012712001800537109e+00,1.066860198974609375e+00,1.701115369796752930e+00,-5.000887513160705566e-01,3.714230656623840332e-01,-1.548366904258728027e+00,-9.647446274757385254e-01,5.668008923530578613e-01,2.182470560073852539e+00,5.868536233901977539e-01,-1.187231898307800293e+00,-8.445429205894470215e-01,-2.415206193923950195e+00,1.154240012168884277e+00,2.316037267446517944e-01,-2.153930187225341797e+00,-1.764771491289138794e-01,6.881662011146545410e-01,-6.719451546669006348e-01,1.186739802360534668e+00,-6.286063194274902344e-01,-1.433964371681213379e+00,1.468239188194274902e+00,2.416530370712280273e+00,8.977824449539184570e-01,-1.921233415603637695e+00,4.603990912437438965e-01,3.170790523290634155e-02,-1.384546160697937012e-01,-3.319994211196899414e-01,1.588251948356628418e+00,6.871579289436340332e-01,-6.441805958747863770e-01,5.513575673103332520e-01,5.093317031860351562e-01,1.233038306236267090e+00,-8.575363084673881531e-03,-1.353864789009094238e+00,3.819657722488045692e-03,-1.625616669654846191e+00,3.308077454566955566e-01,-1.400958776473999023e+00
-4.684957861900329590e-01,-2.521665692329406738e-01,-2.045973777770996094e+00,1.400970518589019775e-01,-6.127799749374389648e-01,4.749263525009155273e-01,2.376060932874679565e-01,6.261162161827087402e-01,1.804771900177001953e+00,-7.677259445190429688e-01,-3.485928177833557129e-01,-3.495048880577087402e-01,-5.732228755950927734e-01,-1.281147003173828125e+00,-5.761810019612312317e-02,-1.639178037643432617e+00,6.971300840377807617e-01,1.464438080787658691e+00,-4.653326272964477539e-01,-3.813860714435577393e-01,-6.734828948974609375e-01,1.782622933387756348e+00,-2.426430940628051758e+00,1.823059916496276855e+00,-1.068641304969787598e+00,-9.395675361156463623e-02,6.985218822956085205e-02,7.790325284004211426e-01,-1.303762197494506836e-01,-1.230443827807903290e-02,4.840619117021560669e-02,-7.594448924064636230e-01,2.131227701902389526e-01,-3.915055394172668457e-01,-1.250461339950561523e+00,7.818400263786315918e-01,-1.338305234909057617e+00,-8.910452127456665039e-01,-1.534291028976440430e+00,-2.428012639284133911e-01,3.458524644374847412e-01,4.988892674446105957e-01,1.907016634941101074e+00,-1.647728085517883301e+00,-1.157982945442199707e+00,-3.355613648891448975e-01,-1.151306390762329102e+00,1.752441674470901489e-01,4.234254062175750732e-01,-2.927753627300262451e-01,-2.113034486770629883e+00,-3.456018567085266113e-01,6.686798334121704102e-01,-6.383821964263916016e-01,-7.521837353706359863e-01,1.183900594711303711e+00,1.751617789268493652e-01,-1.946939826011657715e+00
-8.248021006584167480e-01,9.496921300888061523e-01,-2.365228533744812012e-01,3.333401307463645935e-02,1.509710997343063354e-01,-2.747318744659423828e-01,3.199661076068878174e-01,1.260649710893630981e-01,7.968911528587341309e-01,6.967019438743591309e-01,-7.473719716072082520e-01,-3.869961202144622803e-01,-1.797947049140930176e+00,-3.761368691921234131e-01,1.094998791813850403e-01,-4.359117522835731506e-02,1.413470357656478882e-01,2.152484804391860962e-01,-3.388987854123115540e-02,4.141485691070556641e-01,-1.223735332489013672e+00,9.079855680465698242e-02,1.370790600776672363e-01,-2.716919640079140663e-03,-8.908247575163841248e-03,9.898127056658267975e-03,1.231405973434448242e+00,-7.135058641433715820e-01,-1.650200128555297852e+00,3.962035775184631348e-01,3.395449817180633545e-01,3.003946244716644287e-01,-3.864849507808685303e-01,-1.187395334243774414e+00,-9.864387512207031250e-01,-6.624174118041992188e-01,-1.615106940269470215e+00,4.879136681556701660e-01,-7.201399803161621094e-01,-6.246246099472045898e-01,2.000905990600585938e+00,-1.738211750984191895e+00,-1.062438011169433594e+00,-7.433716654777526855e-01,3.253996372222900391e-01,-3.077583946287631989e-02,-9.168875813484191895e-01,1.700726151466369629e-01,-9.122661948204040527e-01,8.951188325881958008e-01,-7.333319187164306641e-01,-1.676723361015319824e+00,3.426652550697326660e-01,6.548341512680053711e-01,-4.337036609649658203e-01,5.726610422134399414e-01,-2.550909817218780518e-01,-3.624705970287322998e-01
-4.070186316967010498e-01,-6.697643399238586426e-01,-5.992788076400756836e-01,2.352402687072753906e+00,4.071939885616302490e-01,5.122354030609130859e-01,2.714447081089019775e-01,-1.207160830497741699e+00,-7.058488130569458008e-01,1.392149478197097778e-01,-1.211046576499938965e+00,1.683999300003051758e+00,-4.606031477451324463e-01,-2.396785616874694824e-01,3.238422796130180359e-02,1.106499210000038147e-01,1.962723582983016968e-01,5.437911152839660645e-01,2.839024662971496582e-01,-9.212918877601623535e-01,-1.346841692924499512e+00,5.257107615470886230e-01,8.091672509908676147e-02,2.437174618244171143e-01,8.866640925407409668e-01,-8.900850266218185425e-02,-1.688188791275024414e+00,1.628947257995605469e+00,-1.111568510532379150e-01,-1.702598482370376587e-01,7.522549629211425781e-01,-4.112299978733062744e-01,5.090400949120521545e-02,-1.063836440443992615e-01,-1.370987948030233383e-02,1.504191040992736816e+00,-1.274989962577819824e+00,2.768536508083343506e-01,-1.750141531229019165e-01,-1.041210293769836426e-01,-6.990403532981872559e-01,-1.321527004241943359e+00,-4.883874654769897461e-01,-9.453649520874023438e-01,1.006016850471496582e+00,1.306453943252563477e+00,1.538061052560806274e-01,7.003648877143859863e-01,2.581364810466766357e-01,-8.613639473915100098e-01,-3.125872611999511719e-01,7.644838094711303711e-01,-6.398572325706481934e-01,-4.472467899322509766e-01,1.091232657432556152e+00,7.417805194854736328e-01,1.503457427024841309e+00,-1.569186091423034668e+00
-9.432442188262939453e-01,-6.589118242263793945e-01,-9.595289230346679688e-01,1.463212966918945312e+00,-1.428504139184951782e-01,-1.045356631278991699e+00,-1.513501644134521484e+00,1.006068706512451172e+00,-1.473478555679321289e+00,6.152368187904357910e-01,-2.368037939071655273e+00,-3.935878723859786987e-02,1.455212116241455078e+00,-3.514660596847534180e-01,2.137616157531738281e+00,1.093316435813903809e+00,7.826095074415206909e-02,6.134085655212402344e-01,1.991047501564025879e+00,1.481918692588806152e+00,9.638325572013854980e-01,-9.730492602102458477e-04,-1.338610887527465820e+00,-6.015410423278808594e-01,4.359431564807891846e-02,-1.317525506019592285e-01,-8.392975330352783203e-01,1.371601670980453491e-01,2.205777168273925781e+00,2.909180819988250732e-01,3.615648448467254639e-01,-8.881600946187973022e-02,-8.086765408515930176e-01,-1.281335949897766113e-01,-1.632507443428039551e+00,-1.254809021949768066e+00,1.537910938262939453e+00,8.113708496093750000e-01,-2.624089419841766357e-01,7.583169639110565186e-02,1.252846240997314453e+00,-9.329379349946975708e-02,-1.152139306068420410e+00,6.840287148952484131e-02,1.069713711738586426e+00,-3.661990910768508911e-02,4.624876677989959717e-01,-2.276991307735443115e-01,1.175728812813758850e-01,-1.516330838203430176e+00,8.167726397514343262e-01,9.579144716262817383e-01,-1.749672174453735352e+00,-7.839734554290771484e-01,-2.321314334869384766e+00,-5.657913163304328918e-02,-1.096635103225708008e+00,-2.867798507213592529e-01
-7.621785402297973633e-01,-5.841282606124877930e-01,-1.543855428695678711e+00,4.096759557723999023e-01,3.919537067413330078e-01,1.027721017599105835e-01,-1.958388328552246094e+00,-2.271095514297485352e+00,9.124640226364135742e-01,7.485307455062866211e-01,6.001943945884704590e-01,4.850652515888214111e-01,1.861105561256408691e+00,5.204688906669616699e-01,4.059022367000579834e-01,-3.345185816287994385e-01,1.330028623342514038e-01,1.418541789054870605e+00,-1.112605214118957520e+00,-1.843065619468688965e-01,-1.079532265663146973e+00,-2.809484004974365234e-01,6.355384588241577148e-01,2.588401734828948975e-01,1.384787678718566895e+00,8.248935639858245850e-02,-4.578453302383422852e-01,-1.668806076049804688e+00,1.958061009645462036e-01,-5.190671086311340332e-01,-3.358776867389678955e-02,-3.281399011611938477e-01,3.738746941089630127e-01,-3.069880604743957520e-01,1.035737633705139160e+00,2.776470780372619629e-01,-2.139209583401679993e-02,-1.354044675827026367e+00,2.408735752105712891e+00,-1.386659860610961914e+00,3.714637085795402527e-02,-7.339934110641479492e-01,-2.210956513881683350e-01,1.686227321624755859e+00,9.212310314178466797e-01,-7.277501225471496582e-01,1.612112820148468018e-01,3.715688586235046387e-01,5.363028645515441895e-01,2.556021809577941895e-01,-1.206673145294189453e+00,-1.053866744041442871e+00,-3.487400710582733154e-02,-1.641932316124439240e-02,-6.757321953773498535e-01,-6.264367103576660156e-01,7.026272416114807129e-01,4.695131182670593262e-01
-2.725667357444763184e-01,1.302410364151000977e+00,-1.246211647987365723e+00,1.347130239009857178e-01,2.949095070362091064e-01,-8.212034106254577637e-01,-2.343227416276931763e-01,-1.019472122192382812e+00,5.118864774703979492e-01,-9.180154800415039062e-01,1.988479733467102051e+00,1.059962153434753418e+00,1.452824950218200684e+00,1.083418130874633789e+00,-2.183118164539337158e-01,-2.482099980115890503e-01,2.253745049238204956e-01,-1.165217757225036621e+00,-1.150816679000854492e+00,-5.523968338966369629e-01,-6.600246429443359375e-01,-1.818351745605468750e-01,8.159644603729248047e-01,-1.351511120796203613e+00,5.129597783088684082e-01,2.101534128189086914e+00,2.377947568893432617e+00,5.892274975776672363e-01,2.378300189971923828e+00,-7.295879721641540527e-01,-9.724088013172149658e-02,-1.887574791908264160e+00,9.350289106369018555e-01,1.060662627220153809e+00,3.996868729591369629e-01,-1.242397911846637726e-02,-3.302908539772033691e-01,1.077381849288940430e+00,7.351919412612915039e-01,-1.450902938842773438e+00,-9.065746068954467773e-01,2.196867763996124268e-02,-8.097346425056457520e-01,-2.031650543212890625e+00,7.272296547889709473e-01,-2.969977259635925293e-01,-1.754324585199356079e-01,5.465431809425354004e-01,-2.330810725688934326e-01,9.778069853782653809e-01,2.621461153030395508e-01,-2.502852678298950195e-01,8.067867159843444824e-01,-1.446662783622741699e+00,-8.893238902091979980e-01,-8.510469794273376465e-01,7.642255425453186035e-01,8.252826333045959473e-01
1.749517917633056641e+00,-5.391433238983154297e-01,1.615966558456420898e-01,-1.165210604667663574e+00,-3.913463354110717773e-01,1.331989169120788574e-01,-1.355214118957519531e-01,8.763461709022521973e-01,1.062358856201171875e+00,-7.582942247390747070e-01,4.497844576835632324e-01,-1.510513424873352051e+00,1.074559763073921204e-01,-5.239511132240295410e-01,-3.547661006450653076e-02,-4.838817417621612549e-01,1.012888550758361816e+00,-3.813905417919158936e-01,1.988562345504760742e+00,9.407980442047119141e-01,-1.241238355636596680e+00,6.585918664932250977e-01,1.291452169418334961e+00,8.159303069114685059e-01,-4.167189076542854309e-02,-4.496322274208068848e-01,7.742720842361450195e-01,-5.083214044570922852e-01,-6.628878116607666016e-01,-4.595377743244171143e-01,-1.138706803321838379e+00,-7.895537465810775757e-02,-1.469216346740722656e-01,-1.373212695121765137e+00,-4.606781303882598877e-01,-6.416242122650146484e-01,3.432417511940002441e-01,2.211569435894489288e-02,4.795942604541778564e-01,-1.209836602210998535e+00,8.989233970642089844e-01,2.782741487026214600e-01,-4.973405897617340088e-01,-9.654009342193603516e-01,4.769098460674285889e-01,-3.427315056324005127e-01,-5.646248459815979004e-01,-3.435840010643005371e-01,1.885261833667755127e-01,-1.145586848258972168e+00,-1.685407280921936035e+00,1.087363123893737793e+00,-3.253498971462249756e-01,-1.842711091041564941e+00,4.969150573015213013e-02,8.933957815170288086e-01,1.047757118940353394e-01,6.561939120292663574e-01
7.495123744010925293e-01,-1.153348445892333984e+00,-2.531228237785398960e-04,-1.779138594865798950e-01,4.697299003601074219e-01,7.209389209747314453e-01,3.445397019386291504e-01,1.669196844100952148e+00,-7.101749181747436523e-01,2.736540138721466064e-01,-1.303008496761322021e-01,1.375954508781433105e+00,1.042459845542907715e+00,4.217575192451477051e-01,-9.976436495780944824e-01,-1.034210801124572754e+00,-4.072940051555633545e-01,-1.456472039222717285e+00,-1.294226408004760742e+00,7.185335755348205566e-01,-8.115601539611816406e-01,-1.791627168655395508e+00,-1.609926581382751465e+00,1.134033799171447754e+00,1.272419691085815430e+00,1.624035477638244629e+00,8.433367609977722168e-01,-8.650824427604675293e-01,-2.408544272184371948e-01,2.389434492215514183e-03,7.951859235763549805e-01,-1.156320646405220032e-01,-2.106792449951171875e+00,-7.017733454704284668e-01,-2.176397085189819336e+00,5.685923695564270020e-01,-2.587538003921508789e+00,-3.022855520248413086e-01,-4.735407829284667969e-01,1.092777013778686523e+00,2.749391496181488037e-01,5.955116748809814453e-01,3.985143303871154785e-01,-7.735167145729064941e-01,-1.240190744400024414e+00,-6.076509356498718262e-01,1.477541923522949219e+00,-6.576536595821380615e-02,3.279484510421752930e-01,4.463645219802856445e-01,-8.894976973533630371e-01,-1.707355856895446777e+00,7.842358946800231934e-01,8.629809617996215820e-01,-6.965761780738830566e-01,-6.300489902496337891e-01,7.109476923942565918e-01,-8.845778554677963257e-02
1.468607902526855469e+00,4.922473132610321045e-01,-8.401783704757690430e-01,-8.643689155578613281e-01,-1.345520496368408203e+00,-1.371045559644699097e-01,7.082265615463256836e-01,-1.402495950460433960e-01,7.870913483202457428e-03,-2.956172227859497070e-01,9.700226187705993652e-01,-1.732679158449172974e-01,-1.049283370375633240e-01,-2.576906979084014893e-01,1.335317641496658325e-01,-1.015302985906600952e-01,8.741371631622314453e-01,-8.547984957695007324e-01,-8.202784657478332520e-01,7.448892593383789062e-01,7.723972797393798828e-01,7.762393355369567871e-01,-6.549993157386779785e-01,8.833537101745605469e-01,3.596414923667907715e-01,-3.170939087867736816e-01,1.167074322700500488e+00,-1.977343261241912842e-01,6.634911894798278809e-01,-7.399690896272659302e-02,2.876658141613006592e-01,7.291831374168395996e-01,1.059360384941101074e+00,-9.059219360351562500e-01,-7.686697840690612793e-01,-1.281440138816833496e+00,-1.018230080604553223e+00,-1.487492203712463379e+00,-9.620517492294311523e-01,-7.971450090408325195e-01,-1.713911771774291992e+00,2.872932851314544678e-01,-9.203145653009414673e-02,5.652860403060913086e-01,1.956408917903900146e-01,6.345719099044799805e-01,4.854356050491333008e-01,5.933972001075744629e-01,3.114641189575195312e+00,6.686296463012695312e-01,1.485056400299072266e+00,1.660644859075546265e-01,6.812546253204345703e-01,5.317700505256652832e-01,-1.798712968826293945e+00,5.018534660339355469e-01,6.047360897064208984e-01,-4.575873017311096191e-01
7.709254622459411621e-01,-5.459920167922973633e-01,-6.543494295328855515e-03,2.665612399578094482e-01,-9.210725426673889160e-01,1.471256136894226074e+00,1.232956051826477051e+00,4.333040118217468262e-01,1.267428249120712280e-01,7.708473503589630127e-02,-5.023074150085449219e-01,-1.775315999984741211e+00,-1.111289739608764648e+00,3.840709626674652100e-01,1.869467943906784058e-01,-1.603489398956298828e+00,1.058210015296936035e+00,-6.720016598701477051e-01,-4.099405407905578613e-01,-1.382056355476379395e+00,8.730451464653015137e-01,3.947780653834342957e-02,1.290476441383361816e+00,-7.743064761161804199e-01,7.400651574134826660e-01,1.419296115636825562e-01,-4.669870436191558838e-01,-2.422190427780151367e+00,-2.019449323415756226e-01,9.346179366111755371e-01,1.158531665802001953e+00,-8.818896412849426270e-01,6.231595762073993683e-03,-7.483971714973449707e-01,1.632979393005371094e+00,-9.168788790702819824e-01,4.483755528926849365e-01,-4.240924119949340820e-01,1.686379313468933105e+00,-1.709863185882568359e+00,8.777779936790466309e-01,-5.606835335493087769e-02,5.090427994728088379e-01,-1.193209290504455566e-01,6.190602183341979980e-01,-4.012631177902221680e-01,3.071769326925277710e-02,1.730461478233337402e+00,1.695893168449401855e+00,-5.900099501013755798e-02,1.630738139152526855e+00,4.570903778076171875e-01,-1.111482262611389160e+00,-8.602939844131469727e-01,-1.425369501113891602e+00,1.154432296752929688e-01,9.909377694129943848e-01,-7.392332553863525391e-01
7.579203248023986816e-01,-6.416167020797729492e-01,-3.026860654354095459e-01,-2.462616115808486938e-01,9.266895055770874023e-01,-9.219520092010498047e-01,2.423632860183715820e+00,4.619777500629425049e-01,-4.300056099891662598e-01,7.559772133827209473e-01,-3.497292697429656982e-01,-1.292741060256958008e+00,-2.250031232833862305e+00,-2.509482622146606445e+00,8.062853813171386719e-01,1.480263590812683105e+00,-4.251837730407714844e-01,2.042121648788452148e+00,2.003137022256851196e-01,2.987751066684722900e-01,1.689830124378204346e-01,2.641642093658447266e+00,-1.076208829879760742e+00,2.665506899356842041e-01,-1.309132874011993408e-01,-4.274510219693183899e-02,-5.799449086189270020e-01,-5.230571627616882324e-01,-5.396161079406738281e-01,-1.151407599449157715e+00,-1.483026027679443359e+00,1.004355549812316895e-01,-6.627701520919799805e-01,4.217896237969398499e-02,8.811817765235900879e-01,-1.045510172843933105e+00,-3.477570712566375732e-01,1.038049697875976562e+00,-9.783031791448593140e-02,2.918253421783447266e+00,-1.364928245544433594e+00,8.436820656061172485e-02,-6.722478270530700684e-01,-1.521417051553726196e-01,-2.949223518371582031e-01,5.210489630699157715e-01,6.538801789283752441e-01,-3.453449308872222900e-01,-5.013934373855590820e-01,-1.307012319564819336e+00,-1.420332789421081543e+00,1.592109799385070801e+00,1.034599542617797852e+00,-1.052086591720581055e+00,-4.970444738864898682e-02,8.891229629516601562e-01,-2.976059354841709137e-02,-4.381647109985351562e-01
-2.365596592426300049e-01,-1.539987564086914062e+00,1.364925503730773926e+00,-3.500830829143524170e-01,4.855261743068695068e-01,8.146998882293701172e-01,4.438891410827636719e-01,3.345293700695037842e-01,-1.733595252037048340e+00,5.303060412406921387e-01,-4.946406185626983643e-01,-2.202173709869384766e+00,-2.028550386428833008e+00,-9.827485084533691406e-01,4.846362397074699402e-02,9.472680687904357910e-01,-1.724366843700408936e-01,7.853320240974426270e-01,-1.978829652070999146e-01,-2.994764149188995361e-01,8.691423535346984863e-01,-1.184301257133483887e+00,1.559770703315734863e+00,-7.940767705440521240e-02,7.708929181098937988e-01,1.448268055915832520e+00,-2.312110662460327148e+00,-1.039620041847229004e+00,-4.809602797031402588e-01,-1.163505986332893372e-01,-7.246152162551879883e-01,3.282011747360229492e-01,3.429639339447021484e-02,-1.801030524075031281e-02,-1.135007977485656738e+00,7.831081151962280273e-01,-4.078363478183746338e-01,-1.305393099784851074e+00,-2.315394878387451172e-01,-1.059728026390075684e+00,1.221246197819709778e-01,-1.230740666389465332e+00,-1.398065328598022461e+00,1.903025507926940918e-01,1.657019376754760742e+00,4.370467737317085266e-02,5.155579447746276855e-01,-1.575687408447265625e+00,-1.161458849906921387e+00,9.527250528335571289e-01,2.933500707149505615e-01,5.730007886886596680e-01,1.673642158508300781e+00,4.546174705028533936e-01,-2.099420726299285889e-01,-2.191020101308822632e-01,3.580844700336456299e-01,1.812714785337448120e-01
4.840603470802307129e-01,6.053217053413391113e-01,-5.548040270805358887e-01,-1.977985352277755737e-01,1.042713403701782227e+00,-1.263608455657958984e+00,-2.669339478015899658e-01,-1.004069805145263672e+00,6.372937560081481934e-02,3.908894956111907959e-01,2.563135623931884766e-01,-1.115697622299194336e+00,-1.297663211822509766e+00,-1.068264245986938477e+00,3.134493529796600342e-01,5.072184205055236816e-01,-2.758686304092407227e+00,1.069405555725097656e+00,-8.106695413589477539e-01,-8.985714986920356750e-03,-1.812763929367065430e+00,-3.790482282638549805e-01,-4.083592891693115234e-01,-1.598389446735382080e-01,-9.797603487968444824e-01,5.314802527427673340e-01,9.415671229362487793e-01,-8.188115954399108887e-01,5.579360723495483398e-01,1.150622010231018066e+00,2.840209007263183594e-01,1.494161367416381836e+00,-6.015403866767883301e-01,-1.071767210960388184e+00,-9.959944486618041992e-01,-1.086599707603454590e+00,4.203501939773559570e-01,-1.895387619733810425e-01,-5.407768487930297852e-01,3.028025627136230469e-01,1.684332251548767090e+00,1.478053033351898193e-01,-3.801674246788024902e-01,-9.927175045013427734e-01,1.345791816711425781e+00,1.839616537094116211e+00,-3.577827513217926025e-01,-1.394069075584411621e+00,1.684434533119201660e+00,-7.757762074470520020e-02,2.693277001380920410e-01,1.233985066413879395e+00,5.140563845634460449e-01,-5.683704614639282227e-01,-1.038186430931091309e+00,4.193904101848602295e-01,1.623891115188598633e+00,-4.032831639051437378e-02
6.528912782669067383e-01,9.878202676773071289e-01,1.173587739467620850e-01,-8.549724221229553223e-01,-4.966241419315338135e-01,-3.506191968917846680e-01,1.014621496200561523e+00,-9.460349678993225098e-01,-8.550117015838623047e-01,-1.371424347162246704e-01,2.454804778099060059e-01,3.387551009654998779e-01,-9.699766039848327637e-01,8.632465600967407227e-01,7.587382197380065918e-01,-1.548014134168624878e-01,-3.564536273479461670e-01,8.218204379081726074e-01,1.754189491271972656e+00,-2.452432364225387573e-01,5.996353030204772949e-01,-4.561153799295425415e-02,2.891030907630920410e-02,7.877556681632995605e-01,-5.887768864631652832e-01,1.278617143630981445e+00,-6.976138949394226074e-01,2.576666474342346191e-01,-7.457283735275268555e-01,2.420136183500289917e-01,-4.383366107940673828e-01,-8.723668456077575684e-01,-1.695322692394256592e-01,-3.552609086036682129e-01,1.363626837730407715e+00,-8.266610503196716309e-01,7.190771698951721191e-01,6.519208550453186035e-01,5.041071772575378418e-01,3.491815924644470215e-01,1.060024928301572800e-02,2.085434943437576294e-01,-1.054659485816955566e+00,-1.174320697784423828e+00,-4.609467089176177979e-01,-1.136397004127502441e+00,2.116435527801513672e+00,-1.766865372657775879e+00,5.162834525108337402e-01,-3.048466145992279053e-01,-8.154043555259704590e-01,3.285932540893554688e-01,3.035419285297393799e-01,1.439308047294616699e+00,-3.029062151908874512e-01,-7.999096512794494629e-01,-1.644468307495117188e-01,-2.860673666000366211e-01
-1.132529258728027344e+00,1.522639155387878418e+00,-1.094830393791198730e+00,-1.329904198646545410e+00,2.626656532287597656e+00,7.754278928041458130e-02,1.163202404975891113e+00,2.829034924507141113e-01,-1.259986996650695801e+00,8.703187704086303711e-01,-3.497435748577117920e-01,4.806999266147613525e-01,-1.554298996925354004e-01,-8.076074123382568359e-01,-1.615023910999298096e-01,-1.207432076334953308e-01,-8.244051337242126465e-01,7.683357596397399902e-01,1.347732148133218288e-03,-1.104323491454124451e-01,1.023228764533996582e-01,1.040415167808532715e+00,6.223532557487487793e-01,1.434796810150146484e+00,-6.339347958564758301e-01,-5.434542894363403320e-01,-2.010239288210868835e-02,-2.009440183639526367e+00,1.484990358352661133e+00,1.433188915252685547e+00,2.504776231944561005e-02,7.333968281745910645e-01,2.423790842294692993e-01,7.442967891693115234e-01,8.045034408569335938e-01,-1.622023940086364746e+00,-8.332580924034118652e-01,-3.955774605274200439e-01,-1.071188211441040039e+00,-1.718474924564361572e-01,3.637553453445434570e-01,-9.364134073257446289e-01,-1.029193252325057983e-01,1.724659442901611328e+00,-2.025565356016159058e-01,9.877433180809020996e-01,1.391766667366027832e-01,4.482374787330627441e-01,6.413914263248443604e-02,7.260625362396240234e-01,-7.642943263053894043e-01,-6.445967555046081543e-01,2.467721700668334961e-02,-3.515205383300781250e-01,7.795895934104919434e-01,-3.774514794349670410e-01,-4.853310585021972656e-01,6.750730872154235840e-01
-1.546880364418029785e+00,1.086403608322143555e+00,5.678295493125915527e-01,-6.860990524291992188e-01,-3.016462326049804688e-01,9.962272644042968750e-01,-2.407771348953247070e+00,3.430480659008026123e-01,-2.162899255752563477e+00,1.685099482536315918e+00,-1.415837287902832031e+00,-7.158501148223876953e-01,8.018172979354858398e-01,6.183567047119140625e-01,-8.056733757257461548e-03,9.123534560203552246e-01,-4.725753068923950195e-01,1.189955711364746094e+00,-5.097738504409790039e-01,-2.889998853206634521e-01,9.200513362884521484e-02,-1.283388853073120117e+00,1.452350378036499023e+00,1.377975821495056152e+00,-7.010144740343093872e-02,2.883838117122650146e-01,-1.162373661994934082e+00,8.900488615036010742e-01,1.186839938163757324e+00,-1.093610286712646484e+00,-1.623086214065551758e+00,-2.179021537303924561e-01,9.014235138893127441e-01,4.447390139102935791e-01,-1.153545826673507690e-01,-2.413980662822723389e-01,-4.130980968475341797e-01,1.689867228269577026e-01,7.280887663364410400e-02,-1.377478718757629395e+00,9.313452988862991333e-02,3.568999469280242920e-01,-5.044447183609008789e-01,1.647088766098022461e+00,1.297348588705062866e-01,3.401418328285217285e-01,2.283601522445678711e+00,-1.232821941375732422e+00,4.603469371795654297e-01,9.735741615295410156e-01,-2.207666635513305664e-01,2.499536573886871338e-01,8.681063652038574219e-01,8.505772948265075684e-01,-1.616726964712142944e-01,-1.417767047882080078e+00,-1.177449703216552734e+00,1.072144150733947754e+00
-5.532009005546569824e-01,-9.531884640455245972e-02,-3.831346035003662109e-01,-6.499038934707641602e-01,1.079225063323974609e+00,-2.126077711582183838e-01,7.306955456733703613e-01,1.245951175689697266e+00,7.232286334037780762e-01,-5.397728681564331055e-01,4.911412596702575684e-01,-8.445441722869873047e-01,9.157199412584304810e-02,-5.882662534713745117e-02,-1.356508970260620117e+00,-4.789932072162628174e-01,-5.818781256675720215e-01,-1.058084011077880859e+00,-1.952581167221069336e+00,-2.559171319007873535e-01,1.315450668334960938e+00,-7.441393136978149414e-01,3.781245350837707520e-01,-1.482963085174560547e+00,1.629442453384399414e+00,-2.984923720359802246e-01,-1.345420956611633301e+00,-1.851191639900207520e+00,4.957007765769958496e-01,6.571249961853027344e-01,5.623457431793212891e-01,1.896960139274597168e+00,4.490965232253074646e-02,5.073016285896301270e-01,1.460119247436523438e+00,1.827414482831954956e-01,-4.343079626560211182e-01,1.274959295988082886e-01,1.597785830497741699e+00,6.874489188194274902e-01,-9.151247739791870117e-01,1.518616914749145508e+00,2.218616195023059845e-02,2.890137396752834320e-02,5.941277742385864258e-01,2.509217023849487305e+00,6.098843812942504883e-01,-5.005539059638977051e-01,6.143915057182312012e-01,3.688245415687561035e-01,9.699012637138366699e-01,1.574040889739990234e+00,-1.979546427726745605e+00,4.947509765625000000e-01,-1.055781126022338867e+00,-1.628675222396850586e+00,-8.016030192375183105e-01,-1.056845068931579590e+00
5.247489809989929199e-01,2.247729301452636719e+00,2.258465290069580078e+00,-2.576849074102938175e-04,-1.208217144012451172e+00,-1.307017564773559570e+00,-4.763250052928924561e-01,1.670691370964050293e-01,5.744205713272094727e-01,4.939651489257812500e-01,2.609423100948333740e-01,-1.697041273117065430e+00,-1.884103894233703613e+00,-1.261356920003890991e-01,1.249713182449340820e+00,7.879981994628906250e-01,1.588268637657165527e+00,1.661861389875411987e-01,-5.377483963966369629e-01,-3.593971133232116699e-01,1.884105205535888672e+00,6.243109107017517090e-01,-5.321414470672607422e-01,7.896516035543754697e-05,1.064351558685302734e+00,-1.974767327308654785e+00,4.862078726291656494e-01,-6.368684172630310059e-01,2.430114150047302246e-01,7.672522068023681641e-01,1.132795691490173340e+00,1.140099048614501953e+00,5.497463941574096680e-01,-2.141559123992919922e-01,-3.029032468795776367e+00,-2.503608167171478271e-01,1.393109083175659180e+00,7.213922142982482910e-01,4.416599869728088379e-01,-4.750591218471527100e-01,-2.282848348841071129e-03,5.241582989692687988e-01,-3.734552562236785889e-01,-5.801560282707214355e-01,-3.510408699512481689e-01,-1.792968034744262695e+00,3.650019466876983643e-01,6.539536118507385254e-01,5.356375575065612793e-01,-1.602914452552795410e+00,-4.482079669833183289e-02,1.242088794708251953e+00,-2.599495351314544678e-01,8.063909597694873810e-03,3.711913228034973145e-01,-3.903011083602905273e-01,-4.979730248451232910e-01,2.079782724380493164e+00
-1.493660211563110352e+00,9.915574193000793457e-01,3.690763115882873535e-01,-1.084140539169311523e-01,-3.729793429374694824e-01,2.559428811073303223e-01,8.702458143234252930e-01,-4.201408922672271729e-01,7.999590784311294556e-02,-5.200815200805664062e-01,-2.803048491477966309e-01,-1.685327887535095215e+00,-1.130686163902282715e+00,-5.155632495880126953e-01,2.517683506011962891e-01,1.457113027572631836e+00,3.076856136322021484e-01,4.824347794055938721e-01,1.541319638490676880e-01,1.616993069648742676e+00,-1.367093563079833984e+00,-1.107431411743164062e+00,-9.480909705162048340e-01,-8.091405630111694336e-01,4.561980068683624268e-02,3.439938724040985107e-01,-9.111249446868896484e-01,1.064119338989257812e+00,1.218788981437683105e+00,-1.420367360115051270e+00,-3.508214354515075684e-01,1.081515625119209290e-01,-1.275373101234436035e+00,1.425861477851867676e+00,5.559598207473754883e-01,8.528522849082946777e-01,1.169969916343688965e+00,-6.012720465660095215e-01,-2.147397756576538086e+00,3.528037667274475098e-02,-1.227419301867485046e-01,-1.133542656898498535e+00,2.957454919815063477e-01,-1.055635690689086914e+00,7.614349722862243652e-01,2.139965891838073730e-01,3.825703635811805725e-02,1.069709062576293945e+00,2.763207554817199707e-01,1.249679699540138245e-01,-6.228414177894592285e-01,-9.477471113204956055e-01,1.311518102884292603e-01,-2.439654618501663208e-01,1.832962036132812500e+00,-1.257743537425994873e-01,-2.987231872975826263e-02,6.779996752738952637e-01
5.049260854721069336e-01,-6.617769598960876465e-01,-6.046271920204162598e-01,1.801428794860839844e+00,-7.797929644584655762e-01,5.235164165496826172e-01,9.659965038299560547e-01,3.921514749526977539e-01,-7.883588224649429321e-02,8.712964057922363281e-01,4.703336656093597412e-01,-2.808369994163513184e-01,1.589290738105773926e+00,5.207881927490234375e-01,-9.613468497991561890e-02,-1.938840746879577637e-01,8.403927683830261230e-01,8.106176555156707764e-02,-7.982497215270996094e-01,-4.794151782989501953e-01,-1.693976163864135742e+00,5.517653226852416992e-01,-5.512407422065734863e-01,-3.752597868442535400e-01,-9.041041731834411621e-01,4.252136051654815674e-01,-4.595661163330078125e-01,-2.079146653413772583e-01,2.027089834213256836e+00,-1.214569091796875000e+00,1.138750195503234863e+00,1.766397617757320404e-02,6.387987136840820312e-01,-1.807892918586730957e-01,8.110032230615615845e-02,8.764680027961730957e-01,-1.412034630775451660e+00,-1.028365492820739746e+00,1.750496029853820801e+00,-1.426506757736206055e+00,3.750239908695220947e-01,4.632273018360137939e-01,9.034426510334014893e-02,-9.008288979530334473e-01,6.483667492866516113e-01,2.938045263290405273e-01,-4.674908220767974854e-01,3.197296857833862305e-01,-1.660627961158752441e+00,2.226706445217132568e-01,1.199480295181274414e+00,-2.321694612503051758e+00,-1.801628947257995605e+00,-6.469800472259521484e-01,1.409375429153442383e+00,-3.726333379745483398e-01,1.711927652359008789e+00,-2.665946185588836670e-01
-9.443233013153076172e-01,5.146629810333251953e-01,1.134880632162094116e-01,1.877879798412322998e-01,2.306124448776245117e+00,-6.641326546669006348e-01,-6.499204039573669434e-01,-1.192255973815917969e+00,-2.186678946018218994e-01,1.194067895412445068e-01,7.960048913955688477e-01,-2.469837903976440430e+00,-4.460241794586181641e-01,2.086992263793945312e+00,-1.818632245063781738e+00,-6.322949528694152832e-01,-1.585214495658874512e+00,-2.771517932415008545e-01,-1.299417018890380859e+00,2.886050701141357422e+00,1.929223418235778809e+00,-7.021124958992004395e-01,7.962650060653686523e-01,1.067714840173721313e-01,-2.216663599014282227e+00,3.964020311832427979e-01,-7.749209403991699219e-01,1.759077906608581543e+00,1.331710100173950195e+00,-1.289589405059814453e+00,-5.181087851524353027e-01,4.046458899974822998e-01,1.443921327590942383e+00,-3.728656470775604248e-01,-8.861032873392105103e-02,1.295426130294799805e+00,5.230560302734375000e-01,1.290769338607788086e+00,-4.536398649215698242e-01,-2.396278619766235352e+00,2.707414925098419189e-01,-2.162667751312255859e+00,-4.786724969744682312e-02,2.334834337234497070e-01,-1.278474092483520508e+00,1.890754461288452148e+00,-7.672945857048034668e-01,1.537613153457641602e+00,-4.757203757762908936e-01,-5.604120492935180664e-01,-7.905180454254150391e-01,9.059425592422485352e-01,6.218795180320739746e-01,2.586681842803955078e+00,-7.266874909400939941e-01,-1.010453104972839355e+00,-3.974130749702453613e-01,1.526340723037719727e+00
-1.527449786663055420e-01,-1.760299086570739746e+00,-1.120907664299011230e+00,4.597346782684326172e-01,-2.286605238914489746e-01,1.000415682792663574e+00,6.856253147125244141e-01,-7.654699087142944336e-01,-4.500439763069152832e-01,-1.824725031852722168e+00,3.494639396667480469e-01,-5.132725834846496582e-01,-1.592506289482116699e+00,-1.271921992301940918e-01,-2.126758813858032227e+00,-1.468417286872863770e+00,-1.033714175224304199e+00,-1.215001106262207031e+00,-1.541599631309509277e+00,-3.009882867336273193e-01,-1.004275798797607422e+00,1.972911834716796875e+00,-9.842951893806457520e-01,1.937742471694946289e+00,2.238424569368362427e-01,6.648960709571838379e-01,-1.372330665588378906e+00,-2.352159261703491211e+00,-2.960078045725822449e-02,-4.569843411445617676e-01,-2.024381637573242188e+00,1.933400869369506836e+00,5.365636944770812988e-02,-9.683579206466674805e-01,6.506058573722839355e-01,-1.238869503140449524e-01,2.942101359367370605e-01,-8.623549938201904297e-01,6.944329142570495605e-01,-1.819850325584411621e+00,3.314070105552673340e-01,-1.170113563537597656e+00,3.700403496623039246e-02,-8.731220662593841553e-02,4.240420758724212646e-01,-2.102413922548294067e-01,1.399819970130920410e+00,-4.260548055171966553e-01,2.631945610046386719e-01,-1.179853975772857666e-01,9.164322614669799805e-01,-3.575924634933471680e-01,1.119967937469482422e+00,1.220486462116241455e-01,4.144535064697265625e-01,-4.824606180191040039e-01,-1.487881183624267578e+00,-1.413835436105728149e-01
-2.315795719623565674e-01,-3.747333884239196777e-01,1.045227050781250000e+00,-7.294734716415405273e-01,3.217313289642333984e-01,4.520050585269927979e-01,-1.674664616584777832e+00,-6.001342535018920898e-01,-4.121087789535522461e-01,-1.274228930473327637e+00,5.948776006698608398e-01,-2.414412200450897217e-01,1.073371052742004395e+00,-5.799715518951416016e-01,-1.008410930633544922e+00,3.644489049911499023e-01,-1.587882936000823975e-01,1.018165111541748047e+00,7.992573976516723633e-01,-1.309266686439514160e+00,-1.038016319274902344e+00,-4.363320767879486084e-01,-9.000908136367797852e-01,5.571351200342178345e-02,-1.012416720390319824e+00,4.518122971057891846e-01,-1.527510523796081543e+00,1.050601720809936523e+00,6.684018969535827637e-01,-8.352145552635192871e-01,8.542272448539733887e-01,-4.763971269130706787e-01,-1.176747918128967285e+00,1.868503808975219727e+00,-5.289461016654968262e-01,-7.609702348709106445e-01,2.086527585983276367e+00,-5.239928364753723145e-01,2.358029365539550781e+00,8.472014069557189941e-01,2.010771989822387695e+00,8.812329769134521484e-01,1.651347517967224121e+00,5.959222912788391113e-01,-4.072280600666999817e-03,-1.062439918518066406e+00,-1.024538397789001465e+00,-1.319178938865661621e-01,8.436889648437500000e-01,1.956268787384033203e+00,-6.789447665214538574e-01,-4.118936657905578613e-01,-7.661331295967102051e-01,2.532700598239898682e-01,8.029791116714477539e-01,1.453693956136703491e-01,7.670105695724487305e-01,-1.718687891960144043e+00
-7.442384958267211914e-01,-3.821322917938232422e-01,1.318726420402526855e+00,-6.582250595092773438e-01,-6.189858317375183105e-01,1.023803930729627609e-02,-3.005495294928550720e-02,-9.783664941787719727e-01,1.067218065261840820e+00,1.782992035150527954e-01,1.312605857849121094e+00,1.760859012603759766e+00,1.171436682343482971e-01,1.028883680701255798e-01,8.191261887550354004e-01,5.012004375457763672e-01,3.703631460666656494e-01,3.951113522052764893e-01,-2.992964982986450195e-01,-3.140826821327209473e-01,-9.177905321121215820e-01,-9.672993421554565430e-01,1.729465603828430176e+00,4.198514223098754883e-01,-1.681308150291442871e+00,-4.705989658832550049e-01,5.717243552207946777e-01,-3.822376206517219543e-02,-9.728504419326782227e-01,-1.100947022438049316e+00,-3.963569700717926025e-01,-9.888842701911926270e-01,-1.086654901504516602e+00,8.928088545799255371e-01,-1.949653744697570801e+00,1.021847248077392578e+00,4.724235236644744873e-01,8.597416877746582031e-01,-8.841078877449035645e-01,-1.508361753076314926e-02,2.023679465055465698e-01,-9.326704591512680054e-02,-1.132068932056427002e-01,-1.720582544803619385e-01,-4.514958560466766357e-01,1.203382909297943115e-01,-8.496350646018981934e-01,-1.035317406058311462e-01,2.604929208755493164e-01,-2.553683757781982422e+00,1.065895199775695801e+00,2.228193730115890503e-01,1.629218339920043945e+00,-3.654442131519317627e-01,-1.971183061599731445e+00,2.290159463882446289e+00,1.836196899414062500e+00,9.283353388309478760e-02
7.411196827888488770e-01,8.120774626731872559e-01,1.400141477584838867e+00,-1.479700446128845215e+00,-2.209450721740722656e+00,5.756791234016418457e-01,-5.439092516899108887e-01,7.215237021446228027e-01,1.781746506690979004e+00,1.235769152641296387e+00,5.682094693183898926e-01,-5.961327552795410156e-01,1.322156906127929688e+00,-1.333521962165832520e+00,-4.833785071969032288e-02,1.011066436767578125e+00,6.704095602035522461e-01,-1.030953764915466309e+00,-4.677036404609680176e-01,-3.060047030448913574e-01,-1.877154469490051270e+00,6.032474637031555176e-01,-3.677100539207458496e-01,-1.818139195442199707e+00,6.965343356132507324e-01,2.333862036466598511e-01,5.229595303535461426e-01,2.031833171844482422e+00,1.018536686897277832e-01,-2.688662052154541016e+00,1.318977236747741699e+00,9.768684506416320801e-01,1.939136862754821777e+00,-1.182253241539001465e+00,1.862265020608901978e-01,3.833940923213958740e-01,2.649483680725097656e-01,1.298453807830810547e+00,-4.375592172145843506e-01,-6.455588936805725098e-01,-2.780962288379669189e-01,-2.400128841400146484e-01,-1.439737200736999512e+00,1.663836002349853516e+00,9.339954853057861328e-01,-7.552378177642822266e-01,2.576478004455566406e+00,4.735673069953918457e-01,3.243458569049835205e-01,-7.297558784484863281e-01,-3.681270405650138855e-02,1.703661441802978516e+00,-3.213868439197540283e-01,-7.500517964363098145e-01,8.221189677715301514e-02,5.090282484889030457e-02,-4.090800881385803223e-01,-6.040806174278259277e-01
-2.140528410673141479e-01,-2.055394172668457031e+00,2.166512250900268555e+00,1.385364890098571777e+00,9.674123674631118774e-02,-2.260183572769165039e+00,-1.546941041946411133e+00,-7.108300328254699707e-01,-1.196165919303894043e+00,5.376213788986206055e-01,3.957938253879547119e-01,1.675735563039779663e-01,-9.209054112434387207e-01,1.901161372661590576e-01,-2.873749017715454102e+00,7.280452847480773926e-01,-9.720561504364013672e-01,8.515893816947937012e-01,-1.351127266883850098e+00,-7.644534111022949219e-01,1.890004277229309082e+00,1.336518168449401855e+00,-6.608088612556457520e-01,1.130098938941955566e+00,1.469182610511779785e+00,1.146903872489929199e+00,-3.127286732196807861e-01,5.613905787467956543e-01,-1.136518836021423340e+00,1.433992236852645874e-01,-1.491994976997375488e+00,4.032053798437118530e-02,-2.724249288439750671e-02,-9.794109463691711426e-01,-1.918747663497924805e+00,1.435154438018798828e+00,1.249475553631782532e-01,-1.112369894981384277e+00,6.249405145645141602e-01,2.237887978553771973e-01,9.869479537010192871e-01,-6.347969174385070801e-01,-1.057698965072631836e+00,-2.092210054397583008e-01,-2.582440339028835297e-02,-3.203182667493820190e-02,6.244253739714622498e-02,-1.946233212947845459e-01,8.523983955383300781e-01,-1.119832918047904968e-01,5.000200271606445312e-01,-7.572601437568664551e-01,-1.938721895217895508e+00,8.769785761833190918e-01,6.426733136177062988e-01,-2.720108628273010254e-01,-2.611293196678161621e-01,-1.065097570419311523e+00
8.136563897132873535e-01,-1.756053805351257324e+00,-3.445500433444976807e-01,-6.260098814964294434e-01,1.470182240009307861e-01,6.372670643031597137e-03,-1.328399777412414551e+00,7.246080040931701660e-01,-1.723008632659912109e+00,6.485555768013000488e-01,5.295329689979553223e-01,-1.146893382072448730e+00,-1.539378404617309570e+00,2.413217164576053619e-02,-1.163430452346801758e+00,-1.057413458824157715e+00,-9.159472584724426270e-01,-1.128875970840454102e+00,3.321769833564758301e-01,-6.417729258537292480e-01,-4.721865952014923096e-01,2.324520498514175415e-01,-4.673877656459808350e-01,7.074339985847473145e-01,2.359437942504882812e-02,5.365887880325317383e-01,2.925284206867218018e-01,1.195973992347717285e+00,3.715905845165252686e-01,-1.301926821470260620e-01,-5.114786624908447266e-01,-1.068933486938476562e+00,1.713865995407104492e-02,-1.740881651639938354e-01,-8.940535783767700195e-01,7.708518505096435547e-01,6.530901193618774414e-01,1.278492093086242676e+00,-1.113876461982727051e+00,-4.701661765575408936e-01,-4.759368300437927246e-01,1.105572208762168884e-01,-1.548315435647964478e-01,2.408361196517944336e+00,1.098124623298645020e+00,8.001951575279235840e-01,-5.039399862289428711e-01,-1.536160111427307129e-01,1.167507097125053406e-01,-1.051159143447875977e+00,-5.412530153989791870e-02,8.174393177032470703e-01,2.730819284915924072e-01,-2.916427254676818848e-01,4.471067190170288086e-01,5.052078962326049805e-01,4.453483521938323975e-01,-7.543966770172119141e-01
1.121311545372009277e+00,3.407007753849029541e-01,-1.206326842308044434e+00,-1.674068212509155273e+00,9.598243236541748047e-01,-2.092517852783203125e+00,-1.295815467834472656e+00,-1.167199134826660156e+00,8.613433241844177246e-01,2.007867813110351562e+00,1.792543381452560425e-01,-8.875300288200378418e-01,-1.769621729850769043e+00,9.746028184890747070e-01,-7.701248526573181152e-01,-8.803027272224426270e-01,-1.666771769523620605e+00,-8.301998972892761230e-01,-4.324239790439605713e-01,5.231784582138061523e-01,9.507522583007812500e-01,1.228026151657104492e+00,-5.431837961077690125e-02,-4.836142957210540771e-01,-3.826073706150054932e-01,-7.431597709655761719e-01,-1.950205862522125244e-01,-1.953151702880859375e+00,8.273503184318542480e-01,2.390779703855514526e-01,-8.332386612892150879e-01,1.881988883018493652e+00,-1.429885029792785645e-01,2.101322650909423828e+00,-1.993170619010925293e+00,-2.250562906265258789e-01,-2.713971436023712158e-01,2.794354557991027832e-01,-9.546768665313720703e-01,-5.787293314933776855e-01,1.441927075386047363e+00,9.479259848594665527e-01,-2.376938164234161377e-01,-8.521265387535095215e-01,5.984656810760498047e-01,-6.762242317199707031e-01,-8.571560978889465332e-01,-1.330748558044433594e+00,-4.673635363578796387e-01,1.729472756385803223e+00,-4.657144844532012939e-01,-1.480233192443847656e+00,-2.419638214632868767e-03,1.577178537845611572e-01,7.620763778686523438e-02,1.721581816673278809e-01,-2.104833602905273438e+00,1.602922081947326660e-01
-2.102253437042236328e-01,1.322656154632568359e+00,-1.404198408126831055e+00,2.090359106659889221e-02,-9.861423168331384659e-04,-5.713149905204772949e-02,1.195115208625793457e+00,-1.964964389801025391e+00,-1.178991436958312988e+00,-2.607032060623168945e+00,5.608959197998046875e-01,3.202277123928070068e-01,-1.676792353391647339e-01,1.443705558776855469e+00,1.624821275472640991e-01,4.989879429340362549e-01,1.047167658805847168e+00,1.170772194862365723e+00,9.149233698844909668e-01,-1.561980992555618286e-01,1.703174829483032227e+00,4.386025369167327881e-01,-6.404991447925567627e-02,-4.012503027915954590e-01,-9.428192377090454102e-01,-2.655636072158813477e-01,-1.151744127273559570e+00,-2.720937490463256836e+00,1.161961078643798828e+00,-1.465137451887130737e-01,-8.539600968360900879e-01,1.005118131637573242e+00,5.538939237594604492e-01,-1.211497426033020020e+00,-5.640046596527099609e-01,5.926858186721801758e-01,-3.118295073509216309e-01,-3.725063502788543701e-01,-7.783926557749509811e-03,2.474060282111167908e-03,4.076527357101440430e-01,-6.895824074745178223e-01,1.878447890281677246e+00,-1.325542807579040527e+00,-1.606298685073852539e+00,8.587469458580017090e-01,-6.727473735809326172e-01,4.462257325649261475e-01,-2.015907526016235352e+00,1.420355439186096191e+00,-3.241741657257080078e-01,9.633907079696655273e-01,-2.481132745742797852e+00,5.382303148508071899e-03,-7.493430376052856445e-01,-1.114747151732444763e-01,-6.490839123725891113e-01,2.092335939407348633e+00
1.728568226099014282e-01,6.349333524703979492e-01,-6.363179683685302734e-01,2.331837266683578491e-01,1.279554843902587891e+00,1.610527753829956055e+00,-4.028016328811645508e-01,2.220426686108112335e-02,-1.307924985885620117e+00,3.041163682937622070e-01,-7.547377049922943115e-02,-5.636163353919982910e-01,-1.111134886741638184e+00,-6.459835171699523926e-01,-1.988929659128189087e-01,-1.706223249435424805e+00,-5.630483031272888184e-01,4.459077715873718262e-01,-9.714511632919311523e-01,-3.612686693668365479e-01,-5.089049339294433594e-01,1.734453141689300537e-01,-1.315021216869354248e-01,-7.844513058662414551e-01,-6.906815171241760254e-01,4.228248894214630127e-01,-1.168132305145263672e+00,-6.557776331901550293e-01,-6.998232007026672363e-01,-9.197286963462829590e-01,3.622245788574218750e-01,7.023410499095916748e-02,3.564491271972656250e-01,6.306793689727783203e-01,1.159343242645263672e+00,-6.885478496551513672e-01,8.048466444015502930e-01,-1.530382990837097168e+00,4.501177370548248291e-01,3.826550841331481934e-01,-5.243535637855529785e-01,1.604204654693603516e+00,-4.307566881179809570e-01,-2.897968888282775879e-01,1.092629075050354004e+00,-4.450570419430732727e-02,9.510723948478698730e-01,1.141357660293579102e+00,-1.162759900093078613e+00,1.264264225959777832e+00,-1.127094626426696777e+00,-4.054826498031616211e-01,-8.163143396377563477e-01,9.265998601913452148e-01,-1.497558116912841797e+00,3.280691504478454590e-01,1.024324536323547363e+00,6.779683828353881836e-01
-1.714125871658325195e+00,1.491659283638000488e+00,-5.247772932052612305e-01,-6.799203157424926758e-01,1.325686424970626831e-01,-1.313846826553344727e+00,-3.761973381042480469e-01,3.069966137409210205e-01,5.616810917854309082e-01,1.935944110155105591e-01,-2.148600667715072632e-01,1.415332555770874023e-01,-4.583005309104919434e-01,-2.915702462196350098e-01,-2.235968858003616333e-01,-1.202095389366149902e+00,-4.924945533275604248e-01,-8.637724518775939941e-01,-1.758121609687805176e+00,1.555626034736633301e+00,-3.438995182514190674e-01,1.036089360713958740e-01,3.059729933738708496e-01,-1.102065294981002808e-01,-7.184212803840637207e-01,3.855811953544616699e-01,-1.026241779327392578e+00,9.674478769302368164e-01,1.061153888702392578e+00,-2.118656158447265625e+00,-1.337899446487426758e+00,-1.118544340133666992e+00,2.155873537063598633e+00,-7.061480879783630371e-01,1.217162847518920898e+00,9.674743413925170898e-01,-2.146979093551635742e+00,2.248980998992919922e+00,1.945574395358562469e-02,-4.330028295516967773e-01,6.999729871749877930e-01,-3.234996795654296875e-01,-1.545356273651123047e+00,-1.592374682426452637e+00,5.524020791053771973e-01,7.478738576173782349e-02,5.409317612648010254e-01,-3.452994227409362793e-01,-5.795881152153015137e-01,1.500597149133682251e-01,1.423006534576416016e+00,7.294869422912597656e-01,5.667222663760185242e-02,1.098640799522399902e+00,-2.409920096397399902e-02,-3.878123462200164795e-01,-1.102918386459350586e+00,7.413540482521057129e-01
5.192837715148925781e-01,-8.505374789237976074e-01,-7.035009264945983887e-01,-2.168586730957031250e+00,1.356145739555358887e+00,-1.167881563305854797e-01,1.114915966987609863e+00,3.461235165596008301e-01,1.432508111000061035e+00,7.410631775856018066e-01,-1.709265232086181641e+00,-1.116649866104125977e+00,7.731388807296752930e-01,1.400971412658691406e+00,-1.213900804519653320e+00,-4.339855313301086426e-01,-1.997804045677185059e-01,5.181641578674316406e-01,1.758122563362121582e+00,-1.042490720748901367e+00,-4.569245278835296631e-01,-1.253658652305603027e+00,3.798025846481323242e-01,9.138660430908203125e-01,5.824857950210571289e-01,-1.450093388557434082e+00,3.758084475994110107e-01,2.518883228302001953e+00,1.269146442413330078e+00,-1.204478263854980469e+00,-3.480808436870574951e-01,-8.500316739082336426e-01,6.125132087618112564e-03,-2.421178966760635376e-01,-2.447298765182495117e+00,1.416132450103759766e+00,6.983369588851928711e-01,-3.946313560009002686e-01,7.742316126823425293e-01,-2.283417463302612305e+00,1.180844545364379883e+00,-3.125680088996887207e-01,1.463934034109115601e-01,3.536929935216903687e-02,1.556046962738037109e+00,6.242809295654296875e-01,4.068872630596160889e-01,2.644919157028198242e-01,7.069199085235595703e-01,5.885696783661842346e-02,1.016111299395561218e-01,1.191008314490318298e-01,2.763747870922088623e-01,2.716586552560329437e-02,3.932690024375915527e-01,-5.697389245033264160e-01,-5.133986473083496094e-02,1.245737433433532715e+00
-1.864654302597045898e+00,-4.261117875576019287e-01,-5.522720813751220703e-01,-2.947417795658111572e-01,-1.070435717701911926e-01,-1.889989852905273438e+00,1.022570013999938965e+00,7.230818271636962891e-01,6.084570884704589844e-01,-2.018601149320602417e-01,-1.434903860092163086e+00,1.001783847808837891e+00,5.163455009460449219e-01,-8.240135908126831055e-01,1.325886130332946777e+00,-1.294393092393875122e-01,-1.092636823654174805e+00,-1.877683281898498535e+00,-3.519510030746459961e-01,1.207530379295349121e+00,-2.069220319390296936e-02,1.117566347122192383e+00,-1.652804851531982422e+00,4.978062212467193604e-02,-1.728007435798645020e+00,9.956838488578796387e-01,1.678779363632202148e+00,2.408198267221450806e-01,-1.497416347265243530e-01,5.544861555099487305e-01,7.242375612258911133e-02,6.162012815475463867e-01,-1.159888148307800293e+00,-4.399083554744720459e-01,7.334158420562744141e-01,-4.354155659675598145e-01,-1.558641046285629272e-01,-6.058134436607360840e-01,1.735827922821044922e+00,-1.453879237174987793e+00,2.365124076604843140e-01,1.734567165374755859e+00,-5.525684356689453125e-01,-8.431279659271240234e-01,-9.322680830955505371e-01,-2.078413248062133789e+00,1.704352498054504395e+00,6.927843689918518066e-01,4.704559743404388428e-01,-7.218013405799865723e-01,-7.333523035049438477e-01,-5.396386384963989258e-01,-1.871904134750366211e+00,8.200244903564453125e-01,3.846943378448486328e-01,-1.798600912094116211e+00,4.739906787872314453e-01,-5.086172819137573242e-01
2.752441763877868652e-01,1.300893306732177734e+00,1.991977542638778687e-01,8.986849784851074219e-01,-8.810295462608337402e-01,-1.907404899597167969e+00,-1.124524474143981934e+00,-6.269749999046325684e-01,-8.146050572395324707e-02,-1.241052389144897461e+00,3.268862962722778320e-01,-3.262877166271209717e-01,-1.048598527908325195e+00,-1.382086515426635742e+00,-5.790215730667114258e-01,4.418759793043136597e-02,8.337473869323730469e-01,-6.010842323303222656e-01,-3.416809439659118652e-01,1.119353055953979492e+00,-9.019806981086730957e-01,3.314712345600128174e-01,-4.289518892765045166e-01,1.781937837600708008e+00,-6.994625329971313477e-01,1.440005302429199219e+00,-6.612389683723449707e-01,6.355518102645874023e-01,3.660620152950286865e-01,-3.652676343917846680e-01,5.880747437477111816e-01,-2.206940889358520508e+00,1.904512763023376465e+00,-5.951753854751586914e-01,2.088423259556293488e-02,-3.632742464542388916e-01,-7.231040000915527344e-01,-1.776587516069412231e-01,1.211037039756774902e+00,1.292633175849914551e+00,3.128399372100830078e+00,1.056760072708129883e+00,1.021689057350158691e+00,-9.229709394276142120e-03,4.917520284652709961e-01,-1.559838652610778809e+00,6.151129007339477539e-01,-1.038157865405082703e-01,-9.276049733161926270e-01,1.777248024940490723e+00,-1.760505437850952148e-01,2.964788377285003662e-01,1.466997385025024414e+00,-1.180963158607482910e+00,9.607139825820922852e-01,1.831679463386535645e+00,3.106600046157836914e-01,1.824732422828674316e-01
5.521871894598007202e-02,-3.741576373577117920e-01,-1.309583038091659546e-01,4.027799069881439209e-01,1.302142262458801270e+00,1.477681398391723633e+00,1.176611304283142090e+00,8.035977482795715332e-01,-1.675858139991760254e+00,6.818329095840454102e-01,1.707275956869125366e-01,-8.829207420349121094e-01,-1.874940514564514160e+00,-9.859919548034667969e-01,1.547555685043334961e+00,-6.083437204360961914e-01,-3.481832146644592285e-02,-2.509994029998779297e+00,-4.993640780448913574e-01,-1.633709073066711426e+00,-2.719503641128540039e+00,8.576458096504211426e-01,-6.861872673034667969e-01,-2.372517809271812439e-02,3.432521596550941467e-02,4.521892666816711426e-01,2.540833652019500732e-01,4.167902469635009766e-01,-1.065160036087036133e+00,6.091875582933425903e-02,-6.557007431983947754e-01,-7.138284444808959961e-01,5.523154735565185547e-01,-4.748598933219909668e-01,-1.484436869621276855e+00,-5.274135470390319824e-01,-3.597413301467895508e-01,-7.862159013748168945e-01,-9.281636029481887817e-02,-8.235249519348144531e-01,-1.789747476577758789e+00,2.983836829662322998e-01,9.450941681861877441e-01,-1.584610939025878906e+00,-4.420530796051025391e-02,1.206774950027465820e+00,-8.144183754920959473e-01,1.431809812784194946e-01,-4.593794583342969418e-04,6.372770667076110840e-01,-1.175220608711242676e+00,-3.142806589603424072e-01,1.078925848007202148e+00,-6.855058073997497559e-01,-1.692505002021789551e+00,2.844123542308807373e-01,-1.830422043800354004e+00,-7.103695720434188843e-02
-3.411442935466766357e-01,-2.699369192123413086e-01,-2.703359723091125488e-01,8.616693615913391113e-01,4.155996441841125488e-01,-6.474143266677856445e-01,-8.967000842094421387e-01,1.833493262529373169e-01,-1.036464333534240723e+00,2.630892442539334297e-03,8.812043666839599609e-01,-6.651936769485473633e-01,8.534674048423767090e-01,2.768853902816772461e-01,7.964965105056762695e-01,-8.484777212142944336e-01,1.139922857284545898e+00,-7.296676635742187500e-01,-6.576253771781921387e-01,-1.957274377346038818e-01,-6.420119851827621460e-02,-1.402795553207397461e+00,-5.270032286643981934e-01,1.092016339302062988e+00,6.326020956039428711e-01,-2.652111463248729706e-02,1.113213777542114258e+00,-1.494242191314697266e+00,-8.667481541633605957e-01,1.169419288635253906e+00,6.610189676284790039e-01,-2.140590101480484009e-01,1.541102528572082520e-01,-5.390913486480712891e-01,5.402256920933723450e-02,2.328742265701293945e+00,1.205793738365173340e+00,1.071708798408508301e+00,8.749549984931945801e-01,-7.443301677703857422e-01,-5.094584822654724121e-01,9.217061996459960938e-01,-1.784304343163967133e-02,-9.217628836631774902e-01,-2.527199268341064453e+00,1.253191232681274414e+00,-7.412218451499938965e-01,-1.346619606018066406e+00,-1.875002831220626831e-01,4.196179509162902832e-01,4.744668304920196533e-01,2.049510031938552856e-01,-1.096655964851379395e+00,-1.714139580726623535e-01,-8.745710253715515137e-01,4.832580983638763428e-01,-1.172160029411315918e+00,1.099650144577026367e+00
6.654158234596252441e-01,-7.840743288397789001e-03,9.424471855163574219e-01,8.986822366714477539e-01,5.811484158039093018e-02,-5.411612987518310547e-02,-7.768455147743225098e-02,2.808411717414855957e-01,-9.175863265991210938e-01,1.192215085029602051e+00,3.023267745971679688e+00,8.674744367599487305e-01,-3.902952373027801514e-01,-5.180672407150268555e-01,1.542369604110717773e+00,-6.612667441368103027e-02,-6.089257597923278809e-01,2.258253991603851318e-01,-2.364421188831329346e-01,-1.056740731000900269e-01,3.101462684571743011e-02,-8.513518422842025757e-02,-3.007350862026214600e-01,-2.009956359863281250e+00,2.562720537185668945e+00,-1.731262207031250000e-01,-9.075888991355895996e-01,-4.876386225223541260e-01,-1.939029932022094727e+00,1.356286168098449707e+00,-7.348822951316833496e-01,1.913643479347229004e-01,-7.053208947181701660e-01,1.114622712135314941e+00,5.080760717391967773e-01,-5.416557192802429199e-01,-1.823429226875305176e+00,1.106936573982238770e+00,-1.175504922866821289e-02,-2.691711783409118652e-01,-1.707312226295471191e+00,-1.742268323898315430e+00,1.216074302792549133e-01,1.884972900152206421e-01,4.257368445396423340e-01,-1.278721213340759277e+00,4.673746526241302490e-01,-9.752720594406127930e-01,-7.422299981117248535e-01,-9.969620704650878906e-01,-4.646634757518768311e-01,1.247511357069015503e-01,1.488474011421203613e-01,4.448384940624237061e-01,-4.537520408630371094e-01,1.360604286193847656e+00,1.637885123491287231e-01,5.448562502861022949e-01
-3.256261944770812988e-01,-1.171788096427917480e+00,5.928786396980285645e-01,7.672801613807678223e-01,-1.185530424118041992e+00,-7.432935386896133423e-02,8.744474053382873535e-01,-1.989955425262451172e+00,4.717890322208404541e-01,1.738380670547485352e+00,1.140986382961273193e-01,-1.173414707183837891e+00,-5.616302490234375000e-01,-1.134265542030334473e+00,1.664009213447570801e+00,3.269986510276794434e-01,-7.987487912178039551e-01,-3.505823373794555664e+00,-3.989846110343933105e-01,2.351095080375671387e-01,7.201056480407714844e-01,-8.235377669334411621e-01,-1.941543817520141602e-01,1.335032820701599121e+00,-9.087713956832885742e-01,-9.480051994323730469e-01,1.068543195724487305e+00,6.346889734268188477e-01,-9.166257083415985107e-02,1.560908436775207520e+00,1.714795708656311035e+00,5.031937956809997559e-01,-4.836621284484863281e-01,-1.063415527343750000e+00,6.034888029098510742e-01,3.708795905113220215e-01,1.044645428657531738e+00,-4.687733054161071777e-01,-5.019589066505432129e-01,-2.533863484859466553e-01,-3.057601153850555420e-01,-1.173466444015502930e+00,6.229380965232849121e-01,8.655453324317932129e-01,6.381618231534957886e-02,-5.264900922775268555e-01,-2.112547159194946289e-01,1.068137679249048233e-02,5.226866528391838074e-02,2.221451848745346069e-01,-4.663671851158142090e-01,6.697474718093872070e-01,-1.775762140750885010e-01,7.189655900001525879e-01,-4.764573574066162109e-01,-2.726462185382843018e-01,-6.238186359405517578e-01,-1.781510829925537109e+00
-1.760222196578979492e+00,1.116166353225708008e+00,-1.809962034225463867e+00,-7.421016693115234375e-01,3.713510185480117798e-02,-6.837585568428039551e-02,1.305631875991821289e+00,-1.093702912330627441e+00,1.439334511756896973e+00,-2.235050052404403687e-01,-1.388124674558639526e-01,2.528483420610427856e-02,-1.087161540985107422e+00,-4.814686775207519531e-01,9.327602982521057129e-01,1.513011097908020020e+00,-1.357950210571289062e+00,1.167379692196846008e-01,1.335368871688842773e+00,-3.526858985424041748e-02,9.485439062118530273e-01,-7.615139484405517578e-01,-4.717120826244354248e-01,-6.774141788482666016e-01,-5.705003142356872559e-01,4.127162098884582520e-01,-1.388975501060485840e+00,6.281403303146362305e-01,-1.341367840766906738e+00,5.203080177307128906e-01,6.713632941246032715e-01,-1.218069791793823242e+00,-3.245205581188201904e-01,5.316832661628723145e-01,-9.981305003166198730e-01,1.021531581878662109e+00,5.400625467300415039e-01,4.054977297782897949e-01,-3.389519406482577324e-03,6.464744210243225098e-01,7.618730664253234863e-01,1.754404067993164062e+00,7.723750472068786621e-01,9.065235257148742676e-01,1.017994165420532227e+00,-3.868803381919860840e-01,9.646045416593551636e-02,2.661525085568428040e-02,-2.409185171127319336e+00,-5.187156796455383301e-01,8.524366617202758789e-01,1.274076581001281738e+00,-6.290192157030105591e-02,-9.334430098533630371e-01,8.030986785888671875e-01,-8.912160396575927734e-01,-4.846638143062591553e-01,7.944906949996948242e-01
1.514054656028747559e+00,1.490457803010940552e-01,-1.420860737562179565e-01,-7.376069575548171997e-02,3.118148148059844971e-01,-2.795970737934112549e-01,-9.278250932693481445e-01,-6.474786251783370972e-02,9.252216219902038574e-01,4.713652431964874268e-01,-1.184695601463317871e+00,-9.464414119720458984e-01,-6.109277009963989258e-01,-7.406306266784667969e-01,-4.796655774116516113e-01,-4.950520694255828857e-01,4.860674496740102768e-03,-1.286116480827331543e+00,6.141596287488937378e-02,1.189053580164909363e-01,-5.622634887695312500e-01,5.753004550933837891e-01,-5.880697965621948242e-01,-5.899500846862792969e-01,-6.662250757217407227e-01,1.477252244949340820e+00,6.663420796394348145e-01,-9.897468239068984985e-02,-2.911557555198669434e-01,7.377266883850097656e-01,-4.700824022293090820e-01,-8.799857497215270996e-01,5.481421351432800293e-01,-3.878163099288940430e-01,-9.479464888572692871e-01,1.506084442138671875e+00,-1.311630249023437500e+00,5.305053591728210449e-01,1.309502601623535156e+00,6.813370585441589355e-01,-1.036815285682678223e+00,-1.247582063078880310e-01,1.707949399948120117e+00,6.328981518745422363e-01,-5.324992537498474121e-01,1.338356852531433105e+00,-7.579835057258605957e-01,1.083554625511169434e+00,2.807476818561553955e-01,-3.202508687973022461e-01,-8.896047621965408325e-02,1.841148853302001953e+00,-1.533370018005371094e-01,-2.424895614385604858e-01,-1.244489550590515137e+00,-9.138792753219604492e-01,-6.847813129425048828e-01,9.576904773712158203e-01
-4.886954426765441895e-01,-1.098072767257690430e+00,1.866342425346374512e+00,5.217647552490234375e-01,-1.476289153099060059e+00,-7.089807093143463135e-02,1.450854897499084473e+00,3.363662362098693848e-01,8.991380333900451660e-01,-8.791073411703109741e-02,-1.975072503089904785e+00,-5.036079287528991699e-01,1.094946622848510742e+00,1.306061297655105591e-01,-1.593843996524810791e-01,-6.707630306482315063e-02,9.525853395462036133e-02,1.419852077960968018e-01,1.392286539077758789e+00,-4.304518997669219971e-01,1.874468207359313965e+00,-1.070725679397583008e+00,-1.237389802932739258e+00,-1.399614810943603516e+00,-5.713902711868286133e-01,-1.343784332275390625e+00,-5.929055437445640564e-02,6.474573612213134766e-01,1.206915974617004395e+00,2.485661655664443970e-01,4.008583724498748779e-01,7.485337257385253906e-01,2.105464339256286621e-01,1.085969567298889160e+00,5.834857821464538574e-01,3.308925032615661621e-01,-1.424773335456848145e+00,3.778341412544250488e-01,9.468955993652343750e-01,2.545228004455566406e+00,-2.493322134017944336e+00,-3.472958207130432129e-01,-1.639174580574035645e+00,-3.157953023910522461e+00,1.720017790794372559e-01,1.138440608978271484e+00,-5.447186827659606934e-01,-6.021187305450439453e-01,2.389041185379028320e+00,5.564655065536499023e-01,-9.666898846626281738e-01,-8.201552629470825195e-01,-1.655572801828384399e-01,6.927273869514465332e-01,1.166727185249328613e+00,1.148772001266479492e+00,5.573118329048156738e-01,2.556222379207611084e-01
1.365555971860885620e-01,7.258380651473999023e-01,-1.884196639060974121e+00,-9.536035060882568359e-01,4.935478866100311279e-01,5.076165199279785156e-01,1.337212562561035156e+00,-7.423332929611206055e-01,-2.408661991357803345e-01,9.991317987442016602e-01,-5.769495368003845215e-01,-2.557307109236717224e-02,6.866266131401062012e-01,1.706850886344909668e+00,1.638820886611938477e+00,8.821380734443664551e-01,-1.155562639236450195e+00,-2.110342979431152344e+00,2.325441390275955200e-01,9.253564476966857910e-01,1.767454624176025391e+00,1.246487498283386230e+00,-1.082472801208496094e-01,-7.899329662322998047e-01,-2.047314643859863281e+00,-1.747650094330310822e-02,1.667055726051330566e+00,7.888240814208984375e-01,-1.900861024856567383e+00,5.015166401863098145e-01,-9.916012287139892578e-01,1.057519912719726562e+00,2.757696807384490967e-01,3.388113975524902344e-01,1.941572427749633789e-01,-7.245234400033950806e-02,3.384884297847747803e-01,5.948976278305053711e-01,-5.814030766487121582e-01,-7.416082024574279785e-01,8.520594835281372070e-01,-1.878420263528823853e-01,7.276670336723327637e-01,-3.071032762527465820e-01,-1.243417382240295410e+00,-5.112599134445190430e-01,6.706872582435607910e-01,-9.768562316894531250e-01,-5.504146814346313477e-01,1.572222113609313965e-01,-8.906794786453247070e-01,-8.950642943382263184e-01,1.944643855094909668e+00,-7.922815084457397461e-01,-1.116282105445861816e+00,-7.234311103820800781e-01,3.493825495243072510e-01,-1.276782274246215820e+00
7.154053449630737305e-01,-6.667365431785583496e-01,4.153619706630706787e-01,-1.656217694282531738e+00,4.476619511842727661e-02,3.308951854705810547e-01,1.186064243316650391e+00,-1.230236887931823730e+00,-5.855740904808044434e-01,-1.369370937347412109e+00,-5.259236097335815430e-01,1.346067070960998535e+00,6.179150342941284180e-01,-6.110033392906188965e-01,-1.082159399986267090e+00,-5.022255778312683105e-01,2.026873588562011719e+00,-2.733286380767822266e+00,1.400301933288574219e+00,-1.326929032802581787e-02,8.149951696395874023e-01,-7.955774664878845215e-01,5.581169128417968750e-01,-3.853381574153900146e-01,7.189676761627197266e-01,2.942304909229278564e-01,-9.560607075691223145e-01,-5.641719698905944824e-01,1.246665567159652710e-01,-2.004815101623535156e+00,1.402209103107452393e-01,-2.271668016910552979e-01,-7.141479849815368652e-01,-1.173642992973327637e+00,-1.472978472709655762e+00,1.240551233291625977e+00,5.235100910067558289e-02,6.023161411285400391e-01,1.313837289810180664e+00,2.278018742799758911e-01,-2.839103043079376221e-01,-1.656457483768463135e-01,1.248274803161621094e+00,-1.707563363015651703e-02,1.454823136329650879e+00,-1.178577899932861328e+00,-9.477074742317199707e-01,-1.833834052085876465e+00,-1.813634872436523438e+00,-1.337466835975646973e-01,1.438757061958312988e+00,-1.333141475915908813e-01,-1.234537243843078613e+00,6.269595623016357422e-01,-9.293472170829772949e-01,3.764702379703521729e-01,3.461002707481384277e-01,1.108319878578186035e+00
-2.220920085906982422e+00,-5.175241231918334961e-01,-1.292928814888000488e+00,-5.369222164154052734e-01,2.324433803558349609e+00,2.179587185382843018e-01,1.368113994598388672e+00,-1.508602857589721680e+00,2.407844781875610352e+00,-5.589421465992927551e-02,9.969514012336730957e-01,1.013899087905883789e+00,3.374372124671936035e-01,4.628165066242218018e-01,3.184835612773895264e-01,9.804937243461608887e-01,4.496274888515472412e-01,2.645280659198760986e-01,-5.539572238922119141e-01,8.843132257461547852e-01,-5.164805650711059570e-01,-2.097376108169555664e+00,-6.555820256471633911e-02,1.819728910923004150e-01,3.310238420963287354e-01,1.485061287879943848e+00,-5.018260702490806580e-02,-2.486934185028076172e+00,-1.243362903594970703e+00,-1.736582517623901367e+00,5.427041053771972656e-01,-1.429829895496368408e-01,4.743933975696563721e-01,-5.430308580398559570e-01,9.998871088027954102e-01,1.374790430068969727e+00,6.734795570373535156e-01,1.045050024986267090e+00,-1.716615438461303711e+00,-1.469771116971969604e-01,1.561219215393066406e+00,-1.091219663619995117e+00,-9.230040311813354492e-01,-2.538420557975769043e-01,-1.718276858329772949e+00,5.034972429275512695e-01,2.286959290504455566e-01,2.653859741985797882e-02,-2.995783090591430664e-01,-3.984285593032836914e-01,1.255167722702026367e+00,3.299368023872375488e-01,-2.019158124923706055e+00,-1.561891078948974609e+00,1.396687865257263184e+00,-7.524630427360534668e-01,-6.737708449363708496e-01,-1.654551506042480469e+00
-1.882415860891342163e-01,-1.138550639152526855e+00,1.196451306343078613e+00,-6.401991844177246094e-02,-1.099049448966979980e-01,-3.541249930858612061e-01,6.899327039718627930e-01,-1.395883202552795410e+00,5.265113115310668945e-01,-2.736249268054962158e-01,1.171439409255981445e+00,-6.987119317054748535e-01,-1.173860430717468262e+00,-4.174534976482391357e-01,9.569556713104248047e-01,8.329883813858032227e-01,5.491249561309814453e-01,-1.780508458614349365e-01,1.066443398594856262e-01,5.266875624656677246e-01,6.638287305831909180e-01,-6.068806052207946777e-01,-5.784574151039123535e-01,-6.698061227798461914e-01,8.262570500373840332e-01,-8.332169800996780396e-02,-1.540908455848693848e+00,2.523069679737091064e-01,6.392934322357177734e-01,1.840539574623107910e+00,1.357799887657165527e+00,4.397884309291839600e-01,9.713613390922546387e-01,5.361925363540649414e-01,6.953153610229492188e-01,2.861968576908111572e-01,7.168378680944442749e-03,-3.132254779338836670e-01,1.751132607460021973e+00,7.127231359481811523e-01,-1.110531091690063477e+00,2.552260160446166992e-01,1.338934618979692459e-02,-9.890242218971252441e-01,-3.279712200164794922e-01,-1.081576466560363770e+00,-1.482814073562622070e+00,7.465943694114685059e-01,-8.773583769798278809e-01,2.147613316774368286e-01,4.867477416992187500e-01,-8.614335209131240845e-02,-3.772125542163848877e-01,-1.124463826417922974e-01,4.719817340373992920e-01,8.615182340145111084e-02,1.787381529808044434e+00,-9.039223194122314453e-02
9.237208366394042969e-01,4.288541674613952637e-01,-2.476033419370651245e-01,-4.504334628582000732e-01,6.799481511116027832e-01,-2.024768352508544922e+00,1.846039891242980957e+00,1.683930158615112305e+00,1.002504229545593262e+00,-3.132148683071136475e-01,3.328932225704193115e-01,-5.158292651176452637e-01,-1.767313957214355469e+00,-1.829420447349548340e+00,1.917236149311065674e-01,-1.976953595876693726e-01,1.047838687896728516e+00,-1.325473904609680176e+00,9.674976468086242676e-01,-6.224366426467895508e-01,1.352705359458923340e+00,9.459277987480163574e-01,7.588921189308166504e-01,4.112901091575622559e-01,1.483808517456054688e+00,-7.612248063087463379e-01,-1.168694138526916504e+00,-7.334415316581726074e-01,-5.866571068763732910e-01,7.575989961624145508e-01,2.808059751987457275e-01,4.958389699459075928e-01,9.350607991218566895e-01,-1.559241265058517456e-01,2.280165404081344604e-01,3.403371572494506836e-01,4.851984232664108276e-02,-3.595795929431915283e-01,-2.766153775155544281e-03,-1.447662830352783203e+00,4.079279601573944092e-01,7.371236383914947510e-02,-1.543888568878173828e+00,1.306246668100357056e-01,1.622712969779968262e+00,-7.566198706626892090e-01,4.392918050289154053e-01,1.636882781982421875e+00,1.875740408897399902e+00,-1.895309805870056152e+00,1.482972502708435059e+00,1.111060976982116699e+00,4.626221656799316406e+00,1.887059658765792847e-01,2.254590034484863281e+00,-2.320924103260040283e-01,-1.306420087814331055e+00,7.358336448669433594e-01
